{"lr": 0.0002999997686484539, "train loss": 1568.8928451538086, "valid loss": 1694.1647813585068, "_timestamp": 1678815447.8052428, "_runtime": 187.36237788200378, "_step": 35, "gradients/graph_1decoder.conv6.bn.weight": {"_type": "histogram", "values": [0.0, 0.0, 0.0, 0.0, 0.0, 0.0, 0.0, 0.0, 0.0, 0.0, 0.0, 0.0, 0.0, 0.0, 0.0, 0.0, 0.0, 0.0, 0.0, 0.0, 0.0, 0.0, 0.0, 0.0, 0.0, 0.0, 0.0, 0.0, 0.0, 0.0, 0.0, 0.0, 1.0, 0.0, 0.0, 0.0, 0.0, 0.0, 0.0, 0.0, 0.0, 0.0, 0.0, 0.0, 0.0, 0.0, 0.0, 0.0, 0.0, 0.0, 0.0, 0.0, 0.0, 0.0, 0.0, 0.0, 0.0, 0.0, 0.0, 0.0, 0.0, 0.0, 0.0, 0.0], "bins": [-74.45185089111328, -74.45185089111328, -74.45185089111328, -74.45185089111328, -74.45185089111328, -74.45185089111328, -74.45185089111328, -74.45185089111328, -74.45185089111328, -74.45185089111328, -74.45185089111328, -74.45185089111328, -74.45185089111328, -74.45185089111328, -74.45185089111328, -74.45185089111328, -74.45185089111328, -74.45185089111328, -74.45185089111328, -74.45185089111328, -74.45185089111328, -74.45185089111328, -74.45185089111328, -74.45185089111328, -74.45185089111328, -74.45185089111328, -74.45185089111328, -74.45185089111328, -74.45185089111328, -74.45185089111328, -74.45185089111328, -74.45185089111328, -74.45185089111328, -74.45185089111328, -74.45185089111328, -74.45185089111328, -74.45185089111328, -74.45185089111328, -74.45185089111328, -74.45185089111328, -74.45185089111328, -74.45185089111328, -74.45185089111328, -74.45185089111328, -74.45185089111328, -74.45185089111328, -74.45185089111328, -74.45185089111328, -74.45185089111328, -74.45185089111328, -74.45185089111328, -74.45185089111328, -74.45185089111328, -74.45185089111328, -74.45185089111328, -74.45185089111328, -74.45185089111328, -74.45185089111328, -74.45185089111328, -74.45185089111328, -74.45185089111328, -74.45185089111328, -74.45185089111328, -74.45185089111328, -74.45185089111328]}, "gradients/graph_1decoder.conv6.bn.bias": {"_type": "histogram", "values": [0.0, 0.0, 0.0, 0.0, 0.0, 0.0, 0.0, 0.0, 0.0, 0.0, 0.0, 0.0, 0.0, 0.0, 0.0, 0.0, 0.0, 0.0, 0.0, 0.0, 0.0, 0.0, 0.0, 0.0, 0.0, 0.0, 0.0, 0.0, 0.0, 0.0, 0.0, 0.0, 1.0, 0.0, 0.0, 0.0, 0.0, 0.0, 0.0, 0.0, 0.0, 0.0, 0.0, 0.0, 0.0, 0.0, 0.0, 0.0, 0.0, 0.0, 0.0, 0.0, 0.0, 0.0, 0.0, 0.0, 0.0, 0.0, 0.0, 0.0, 0.0, 0.0, 0.0, 0.0], "bins": [-17.70941162109375, -17.70941162109375, -17.70941162109375, -17.70941162109375, -17.70941162109375, -17.70941162109375, -17.70941162109375, -17.70941162109375, -17.70941162109375, -17.70941162109375, -17.70941162109375, -17.70941162109375, -17.70941162109375, -17.70941162109375, -17.70941162109375, -17.70941162109375, -17.70941162109375, -17.70941162109375, -17.70941162109375, -17.70941162109375, -17.70941162109375, -17.70941162109375, -17.70941162109375, -17.70941162109375, -17.70941162109375, -17.70941162109375, -17.70941162109375, -17.70941162109375, -17.70941162109375, -17.70941162109375, -17.70941162109375, -17.70941162109375, -17.70941162109375, -17.70941162109375, -17.70941162109375, -17.70941162109375, -17.70941162109375, -17.70941162109375, -17.70941162109375, -17.70941162109375, -17.70941162109375, -17.70941162109375, -17.70941162109375, -17.70941162109375, -17.70941162109375, -17.70941162109375, -17.70941162109375, -17.70941162109375, -17.70941162109375, -17.70941162109375, -17.70941162109375, -17.70941162109375, -17.70941162109375, -17.70941162109375, -17.70941162109375, -17.70941162109375, -17.70941162109375, -17.70941162109375, -17.70941162109375, -17.70941162109375, -17.70941162109375, -17.70941162109375, -17.70941162109375, -17.70941162109375, -17.70941162109375]}, "gradients/graph_1decoder.conv6.conv.weight": {"_type": "histogram", "values": [1.0, 0.0, 0.0, 0.0, 0.0, 1.0, 0.0, 1.0, 0.0, 1.0, 0.0, 1.0, 1.0, 1.0, 2.0, 1.0, 1.0, 1.0, 0.0, 0.0, 2.0, 2.0, 2.0, 5.0, 0.0, 4.0, 0.0, 9.0, 3.0, 2.0, 7.0, 4.0, 4.0, 3.0, 3.0, 6.0, 1.0, 4.0, 6.0, 4.0, 3.0, 0.0, 2.0, 4.0, 3.0, 2.0, 2.0, 3.0, 1.0, 1.0, 2.0, 3.0, 2.0, 0.0, 1.0, 3.0, 2.0, 1.0, 3.0, 1.0, 3.0, 0.0, 1.0, 2.0], "bins": [-0.6421359777450562, -0.6231784820556641, -0.604220986366272, -0.5852634906768799, -0.5663059949874878, -0.5473484992980957, -0.5283910036087036, -0.5094335079193115, -0.49047601222991943, -0.47151851654052734, -0.45256102085113525, -0.43360352516174316, -0.4146460294723511, -0.395688533782959, -0.3767310380935669, -0.3577735424041748, -0.3388160467147827, -0.3198585510253906, -0.30090105533599854, -0.28194355964660645, -0.26298606395721436, -0.24402856826782227, -0.22507107257843018, -0.20611357688903809, -0.187156081199646, -0.1681985855102539, -0.14924108982086182, -0.13028359413146973, -0.11132609844207764, -0.09236860275268555, -0.07341110706329346, -0.05445361137390137, -0.03549617528915405, -0.016538679599761963, 0.002418816089630127, 0.021376311779022217, 0.04033380746841431, 0.059291303157806396, 0.07824879884719849, 0.09720629453659058, 0.11616379022598267, 0.13512128591537476, 0.15407878160476685, 0.17303627729415894, 0.19199377298355103, 0.21095126867294312, 0.2299087643623352, 0.2488662600517273, 0.2678237557411194, 0.2867812514305115, 0.30573874711990356, 0.32469624280929565, 0.34365373849868774, 0.36261123418807983, 0.3815687298774719, 0.400526225566864, 0.4194837212562561, 0.4384412169456482, 0.4573987126350403, 0.4763562083244324, 0.49531370401382446, 0.5142711997032166, 0.5332286953926086, 0.5521861910820007, 0.5711436867713928]}, "gradients/graph_1decoder.conv6.conv.bias": {"_type": "histogram", "values": [0.0, 0.0, 0.0, 0.0, 0.0, 0.0, 0.0, 0.0, 0.0, 0.0, 0.0, 0.0, 0.0, 0.0, 0.0, 0.0, 0.0, 0.0, 0.0, 0.0, 0.0, 0.0, 0.0, 0.0, 0.0, 0.0, 0.0, 0.0, 0.0, 0.0, 0.0, 0.0, 1.0, 0.0, 0.0, 0.0, 0.0, 0.0, 0.0, 0.0, 0.0, 0.0, 0.0, 0.0, 0.0, 0.0, 0.0, 0.0, 0.0, 0.0, 0.0, 0.0, 0.0, 0.0, 0.0, 0.0, 0.0, 0.0, 0.0, 0.0, 0.0, 0.0, 0.0, 0.0], "bins": [2.4437904357910156e-06, 2.4437904357910156e-06, 2.4437904357910156e-06, 2.4437904357910156e-06, 2.4437904357910156e-06, 2.4437904357910156e-06, 2.4437904357910156e-06, 2.4437904357910156e-06, 2.4437904357910156e-06, 2.4437904357910156e-06, 2.4437904357910156e-06, 2.4437904357910156e-06, 2.4437904357910156e-06, 2.4437904357910156e-06, 2.4437904357910156e-06, 2.4437904357910156e-06, 2.4437904357910156e-06, 2.4437904357910156e-06, 2.4437904357910156e-06, 2.4437904357910156e-06, 2.4437904357910156e-06, 2.4437904357910156e-06, 2.4437904357910156e-06, 2.4437904357910156e-06, 2.4437904357910156e-06, 2.4437904357910156e-06, 2.4437904357910156e-06, 2.4437904357910156e-06, 2.4437904357910156e-06, 2.4437904357910156e-06, 2.4437904357910156e-06, 2.4437904357910156e-06, 2.4437904357910156e-06, 2.4437904357910156e-06, 2.4437904357910156e-06, 2.4437904357910156e-06, 2.4437904357910156e-06, 2.4437904357910156e-06, 2.4437904357910156e-06, 2.4437904357910156e-06, 2.4437904357910156e-06, 2.4437904357910156e-06, 2.4437904357910156e-06, 2.4437904357910156e-06, 2.4437904357910156e-06, 2.4437904357910156e-06, 2.4437904357910156e-06, 2.4437904357910156e-06, 2.4437904357910156e-06, 2.4437904357910156e-06, 2.4437904357910156e-06, 2.4437904357910156e-06, 2.4437904357910156e-06, 2.4437904357910156e-06, 2.4437904357910156e-06, 2.4437904357910156e-06, 2.4437904357910156e-06, 2.4437904357910156e-06, 2.4437904357910156e-06, 2.4437904357910156e-06, 2.4437904357910156e-06, 2.4437904357910156e-06, 2.4437904357910156e-06, 2.4437904357910156e-06, 2.4437904357910156e-06]}, "gradients/graph_1decoder.conv5.bn.weight": {"_type": "histogram", "values": [1.0, 0.0, 0.0, 0.0, 0.0, 0.0, 0.0, 0.0, 0.0, 0.0, 0.0, 0.0, 0.0, 0.0, 0.0, 0.0, 0.0, 0.0, 0.0, 0.0, 0.0, 0.0, 0.0, 0.0, 0.0, 0.0, 0.0, 0.0, 0.0, 0.0, 0.0, 0.0, 1.0, 1.0, 0.0, 0.0, 0.0, 0.0, 1.0, 0.0, 0.0, 0.0, 0.0, 0.0, 0.0, 0.0, 0.0, 0.0, 0.0, 1.0, 0.0, 0.0, 0.0, 1.0, 0.0, 0.0, 0.0, 1.0, 0.0, 0.0, 0.0, 0.0, 0.0, 1.0], "bins": [-0.4851509928703308, -0.47300416231155396, -0.4608573317527771, -0.44871050119400024, -0.436563640832901, -0.42441681027412415, -0.4122699797153473, -0.40012314915657043, -0.3879762887954712, -0.37582945823669434, -0.3636826276779175, -0.3515357971191406, -0.33938896656036377, -0.3272421360015869, -0.31509530544281006, -0.3029484450817108, -0.29080161452293396, -0.2786547839641571, -0.26650792360305786, -0.254361093044281, -0.24221426248550415, -0.2300674319267273, -0.21792060136795044, -0.20577377080917358, -0.19362694025039673, -0.18148007988929749, -0.16933324933052063, -0.15718641877174377, -0.14503958821296692, -0.13289275765419006, -0.12074589729309082, -0.10859906673431396, -0.09645220637321472, -0.08430537581443787, -0.07215854525566101, -0.06001168489456177, -0.04786485433578491, -0.03571802377700806, -0.0235711932182312, -0.011424362659454346, 0.0007224977016448975, 0.012869328260421753, 0.02501615881919861, 0.037162989377975464, 0.04930981993675232, 0.06145666539669037, 0.07360349595546722, 0.08575034141540527, 0.09789717197418213, 0.11004400253295898, 0.12219084799289703, 0.1343376785516739, 0.14648452401161194, 0.1586313545703888, 0.17077818512916565, 0.1829250156879425, 0.19507186114788055, 0.2072187066078186, 0.21936553716659546, 0.23151236772537231, 0.24365919828414917, 0.255806028842926, 0.26795288920402527, 0.2800997197628021, 0.292246550321579]}, "gradients/graph_1decoder.conv5.bn.bias": {"_type": "histogram", "values": [1.0, 0.0, 0.0, 0.0, 0.0, 0.0, 0.0, 0.0, 0.0, 0.0, 0.0, 0.0, 0.0, 0.0, 0.0, 0.0, 0.0, 0.0, 0.0, 0.0, 0.0, 0.0, 0.0, 0.0, 0.0, 0.0, 0.0, 0.0, 0.0, 1.0, 0.0, 0.0, 0.0, 0.0, 1.0, 0.0, 1.0, 0.0, 0.0, 0.0, 1.0, 0.0, 0.0, 0.0, 0.0, 0.0, 1.0, 0.0, 0.0, 0.0, 0.0, 0.0, 0.0, 0.0, 0.0, 0.0, 0.0, 0.0, 0.0, 0.0, 0.0, 0.0, 0.0, 2.0], "bins": [-0.13500291109085083, -0.12998512387275696, -0.12496734410524368, -0.11994956433773041, -0.11493178457021713, -0.10991400480270386, -0.10489621758460999, -0.09987843781709671, -0.09486065804958344, -0.08984287083148956, -0.08482509106397629, -0.07980731129646301, -0.07478952407836914, -0.06977174431085587, -0.06475396454334259, -0.05973617732524872, -0.05471839755773544, -0.04970061779022217, -0.044682830572128296, -0.03966505080461502, -0.034647271037101746, -0.029629483819007874, -0.0246117040514946, -0.019593924283981323, -0.014576137065887451, -0.009558364748954773, -0.004540577530860901, 0.0004772096872329712, 0.005494982004165649, 0.010512769222259521, 0.015530556440353394, 0.020548328757286072, 0.025566115975379944, 0.030583903193473816, 0.035601675510406494, 0.040619462728500366, 0.04563724994659424, 0.050655022263526917, 0.05567280948162079, 0.06069059669971466, 0.06570836901664734, 0.07072615623474121, 0.07574393600225449, 0.08076171576976776, 0.08577950298786163, 0.09079728275537491, 0.09581506252288818, 0.10083284974098206, 0.10585062950849533, 0.1108684092760086, 0.11588619649410248, 0.12090397626161575, 0.12592175602912903, 0.1309395432472229, 0.13595733046531677, 0.14097510278224945, 0.14599289000034332, 0.151010662317276, 0.15602844953536987, 0.16104623675346375, 0.16606400907039642, 0.1710817962884903, 0.17609958350658417, 0.18111735582351685, 0.18613514304161072]}, "gradients/graph_1decoder.conv5.conv.weight": {"_type": "histogram", "values": [2.0, 0.0, 2.0, 2.0, 1.0, 4.0, 5.0, 2.0, 2.0, 4.0, 5.0, 5.0, 10.0, 15.0, 15.0, 18.0, 25.0, 28.0, 48.0, 53.0, 49.0, 65.0, 75.0, 79.0, 102.0, 97.0, 81.0, 100.0, 94.0, 118.0, 101.0, 88.0, 98.0, 79.0, 84.0, 77.0, 79.0, 52.0, 56.0, 40.0, 25.0, 32.0, 27.0, 21.0, 15.0, 9.0, 10.0, 4.0, 4.0, 4.0, 6.0, 7.0, 1.0, 6.0, 2.0, 3.0, 3.0, 2.0, 1.0, 2.0, 0.0, 3.0, 0.0, 1.0], "bins": [-0.5812259316444397, -0.5606757998466492, -0.5401256680488586, -0.5195755362510681, -0.4990254044532776, -0.47847527265548706, -0.45792514085769653, -0.437375009059906, -0.4168248772621155, -0.39627474546432495, -0.3757246136665344, -0.3551744818687439, -0.33462437987327576, -0.31407424807548523, -0.2935241162776947, -0.2729739844799042, -0.25242385268211365, -0.23187372088432312, -0.2113235890865326, -0.19077345728874207, -0.17022332549095154, -0.149673193693161, -0.12912306189537048, -0.10857293009757996, -0.08802282810211182, -0.06747269630432129, -0.04692256450653076, -0.026372432708740234, -0.005822300910949707, 0.01472783088684082, 0.03527796268463135, 0.055828094482421875, 0.0763782262802124, 0.09692835807800293, 0.11747848987579346, 0.13802862167358398, 0.1585787534713745, 0.17912888526916504, 0.19967901706695557, 0.2202291488647461, 0.24077928066253662, 0.26132938265800476, 0.2818795144557953, 0.3024296462535858, 0.32297977805137634, 0.34352990984916687, 0.3640800416469574, 0.3846301734447479, 0.40518030524253845, 0.425730437040329, 0.4462805688381195, 0.46683070063591003, 0.48738083243370056, 0.5079309344291687, 0.5284810662269592, 0.5490311980247498, 0.5695813298225403, 0.5901314616203308, 0.6106815934181213, 0.6312317252159119, 0.6517818570137024, 0.6723319888114929, 0.6928821206092834, 0.713432252407074, 0.7339823842048645]}, "gradients/graph_1decoder.conv5.conv.bias": {"_type": "histogram", "values": [1.0, 0.0, 0.0, 0.0, 0.0, 0.0, 0.0, 0.0, 0.0, 0.0, 0.0, 0.0, 0.0, 0.0, 0.0, 0.0, 0.0, 0.0, 0.0, 0.0, 0.0, 0.0, 0.0, 0.0, 0.0, 0.0, 0.0, 0.0, 0.0, 0.0, 0.0, 0.0, 0.0, 0.0, 0.0, 0.0, 0.0, 0.0, 0.0, 0.0, 0.0, 0.0, 0.0, 0.0, 2.0, 0.0, 3.0, 0.0, 0.0, 0.0, 0.0, 0.0, 1.0, 0.0, 0.0, 0.0, 0.0, 0.0, 0.0, 0.0, 0.0, 0.0, 0.0, 1.0], "bins": [-1.7881393432617188e-07, -1.7444835975766182e-07, -1.7008278518915176e-07, -1.657172106206417e-07, -1.6135163605213165e-07, -1.569860614836216e-07, -1.5262048691511154e-07, -1.4825491234660149e-07, -1.4388933777809143e-07, -1.3952376320958138e-07, -1.3515818864107132e-07, -1.3079261407256126e-07, -1.264270395040512e-07, -1.2206146493554115e-07, -1.176958903670311e-07, -1.1333031579852104e-07, -1.0896474123001099e-07, -1.0459916666150093e-07, -1.0023359209299088e-07, -9.586801752448082e-08, -9.150244295597076e-08, -8.713686838746071e-08, -8.277129381895065e-08, -7.84057192504406e-08, -7.404014468193054e-08, -6.967457011342049e-08, -6.530899554491043e-08, -6.094342097640038e-08, -5.657784640789032e-08, -5.2212271839380264e-08, -4.784669727087021e-08, -4.348112270236015e-08, -3.91155481338501e-08, -3.474997356534004e-08, -3.0384398996829987e-08, -2.601882442831993e-08, -2.1653249859809875e-08, -1.728767529129982e-08, -1.2922100722789764e-08, -8.556526154279709e-09, -4.190951585769653e-09, 1.7462298274040222e-10, 4.540197551250458e-09, 8.905772119760513e-09, 1.3271346688270569e-08, 1.7636921256780624e-08, 2.200249582529068e-08, 2.6368070393800735e-08, 3.073364496231079e-08, 3.5099219530820847e-08, 3.94647940993309e-08, 4.383036866784096e-08, 4.819594323635101e-08, 5.256151780486107e-08, 5.6927092373371124e-08, 6.129266694188118e-08, 6.565824151039124e-08, 7.002381607890129e-08, 7.438939064741135e-08, 7.87549652159214e-08, 8.312053978443146e-08, 8.748611435294151e-08, 9.185168892145157e-08, 9.621726348996162e-08, 1.0058283805847168e-07]}, "gradients/graph_1decoder.conv4.bn.weight": {"_type": "histogram", "values": [3.0, 0.0, 0.0, 0.0, 0.0, 0.0, 0.0, 0.0, 1.0, 0.0, 0.0, 1.0, 0.0, 1.0, 0.0, 0.0, 0.0, 0.0, 0.0, 0.0, 0.0, 0.0, 0.0, 1.0, 2.0, 0.0, 0.0, 0.0, 0.0, 1.0, 1.0, 0.0, 0.0, 0.0, 1.0, 0.0, 0.0, 0.0, 1.0, 0.0, 0.0, 0.0, 0.0, 0.0, 0.0, 0.0, 0.0, 1.0, 0.0, 0.0, 0.0, 0.0, 0.0, 0.0, 1.0, 0.0, 0.0, 0.0, 0.0, 0.0, 0.0, 0.0, 0.0, 1.0], "bins": [-0.09916400909423828, -0.09519194066524506, -0.09121987223625183, -0.0872478038072586, -0.08327572792768478, -0.07930365949869156, -0.07533159106969833, -0.07135952264070511, -0.06738744676113129, -0.06341537833213806, -0.059443309903144836, -0.05547124147415161, -0.051499173045158386, -0.04752710089087486, -0.04355503246188164, -0.039582960307598114, -0.03561089187860489, -0.031638823449611664, -0.02766675502061844, -0.023694679141044617, -0.01972261071205139, -0.015750542283058167, -0.011778473854064941, -0.007806405425071716, -0.003834336996078491, 0.0001377388834953308, 0.004109807312488556, 0.008081875741481781, 0.012053944170475006, 0.01602601259946823, 0.019998088479042053, 0.02397015690803528, 0.027942225337028503, 0.03191429376602173, 0.035886362195014954, 0.039858438074588776, 0.043830506503582, 0.047802574932575226, 0.05177464336156845, 0.055746711790561676, 0.0597187876701355, 0.06369085609912872, 0.06766292452812195, 0.07163499295711517, 0.0756070613861084, 0.07957912981510162, 0.08355120569467545, 0.08752327412366867, 0.0914953425526619, 0.09546741098165512, 0.09943948686122894, 0.10341155529022217, 0.1073836237192154, 0.11135569214820862, 0.11532776057720184, 0.11929982900619507, 0.1232718974351883, 0.12724396586418152, 0.13121604919433594, 0.13518810272216797, 0.1391601860523224, 0.1431322544813156, 0.14710432291030884, 0.15107639133930206, 0.1550484597682953]}, "gradients/graph_1decoder.conv4.bn.bias": {"_type": "histogram", "values": [1.0, 1.0, 1.0, 0.0, 0.0, 0.0, 0.0, 1.0, 0.0, 0.0, 0.0, 0.0, 0.0, 2.0, 1.0, 1.0, 0.0, 0.0, 0.0, 0.0, 0.0, 0.0, 0.0, 0.0, 1.0, 0.0, 0.0, 0.0, 1.0, 0.0, 0.0, 0.0, 0.0, 1.0, 0.0, 0.0, 0.0, 0.0, 1.0, 0.0, 0.0, 0.0, 0.0, 0.0, 0.0, 0.0, 0.0, 0.0, 0.0, 0.0, 0.0, 0.0, 0.0, 0.0, 0.0, 0.0, 1.0, 1.0, 0.0, 0.0, 0.0, 0.0, 1.0, 1.0], "bins": [-0.03022177703678608, -0.028935404494404793, -0.027649033814668655, -0.02636266127228737, -0.025076288729906082, -0.023789916187524796, -0.02250354364514351, -0.02121717296540737, -0.019930800423026085, -0.0186444278806448, -0.01735805720090866, -0.016071684658527374, -0.014785312116146088, -0.013498939573764801, -0.012212568894028664, -0.010926196351647377, -0.00963982380926609, -0.008353451266884804, -0.007067078724503517, -0.00578070804476738, -0.004494335502386093, -0.0032079629600048065, -0.0019215922802686691, -0.0006352197378873825, 0.0006511528044939041, 0.0019375253468751907, 0.0032238978892564774, 0.004510270431637764, 0.005796639248728752, 0.007083011791110039, 0.008369384333491325, 0.009655756875872612, 0.01094212755560875, 0.012228500097990036, 0.013514872640371323, 0.01480124518275261, 0.016087617725133896, 0.017373986542224884, 0.01866035908460617, 0.019946731626987457, 0.021233104169368744, 0.02251947671175003, 0.023805849254131317, 0.025092219933867455, 0.02637859247624874, 0.027664965018630028, 0.028951335698366165, 0.030237708240747452, 0.03152408078312874, 0.032810453325510025, 0.03409682586789131, 0.0353831946849823, 0.036669567227363586, 0.03795593976974487, 0.03924231231212616, 0.040528684854507446, 0.04181505739688873, 0.04310142993927002, 0.044387802481651306, 0.04567417502403259, 0.04696054756641388, 0.04824691638350487, 0.049533288925886154, 0.05081966146826744, 0.05210603401064873]}, "gradients/graph_1decoder.conv4.conv.weight": {"_type": "histogram", "values": [1.0, 1.0, 1.0, 1.0, 0.0, 3.0, 2.0, 7.0, 3.0, 7.0, 11.0, 8.0, 20.0, 24.0, 22.0, 35.0, 33.0, 69.0, 77.0, 77.0, 92.0, 108.0, 126.0, 146.0, 197.0, 222.0, 278.0, 329.0, 357.0, 404.0, 425.0, 498.0, 475.0, 502.0, 469.0, 464.0, 418.0, 386.0, 316.0, 302.0, 220.0, 210.0, 159.0, 120.0, 138.0, 82.0, 72.0, 72.0, 39.0, 25.0, 27.0, 27.0, 22.0, 17.0, 10.0, 10.0, 6.0, 7.0, 2.0, 4.0, 3.0, 2.0, 1.0, 1.0], "bins": [-0.4166690707206726, -0.4040418267250061, -0.3914145827293396, -0.3787873387336731, -0.3661600947380066, -0.3535328507423401, -0.34090563654899597, -0.32827839255332947, -0.31565114855766296, -0.30302390456199646, -0.29039666056632996, -0.27776944637298584, -0.26514220237731934, -0.25251495838165283, -0.23988771438598633, -0.22726047039031982, -0.21463322639465332, -0.20200598239898682, -0.1893787384033203, -0.176751509308815, -0.1641242504119873, -0.1514970362186432, -0.13886979222297668, -0.12624254822731018, -0.11361530423164368, -0.10098806023597717, -0.08836081624031067, -0.07573357224464417, -0.06310635805130005, -0.050479114055633545, -0.03785187005996704, -0.025224626064300537, -0.012597352266311646, 2.98917293548584e-05, 0.012657135725021362, 0.025284379720687866, 0.03791162371635437, 0.050538837909698486, 0.06316608190536499, 0.0757933259010315, 0.088420569896698, 0.1010478138923645, 0.113675057888031, 0.1263023018836975, 0.13892951607704163, 0.15155677497386932, 0.16418400406837463, 0.17681124806404114, 0.18943849205970764, 0.20206573605537415, 0.21469298005104065, 0.22732020914554596, 0.23994745314121246, 0.2525746822357178, 0.2652019262313843, 0.2778291702270508, 0.2904564142227173, 0.3030836582183838, 0.3157109022140503, 0.3283381462097168, 0.3409653902053833, 0.3535926043987274, 0.3662198483943939, 0.3788470923900604, 0.39147433638572693]}, "gradients/graph_1decoder.conv4.conv.bias": {"_type": "histogram", "values": [1.0, 0.0, 0.0, 0.0, 0.0, 0.0, 1.0, 0.0, 1.0, 0.0, 0.0, 0.0, 0.0, 0.0, 0.0, 0.0, 0.0, 0.0, 0.0, 2.0, 0.0, 1.0, 0.0, 0.0, 0.0, 0.0, 0.0, 1.0, 0.0, 0.0, 0.0, 0.0, 0.0, 1.0, 0.0, 0.0, 0.0, 0.0, 0.0, 0.0, 0.0, 0.0, 0.0, 1.0, 1.0, 1.0, 2.0, 0.0, 0.0, 1.0, 0.0, 0.0, 0.0, 0.0, 1.0, 0.0, 0.0, 0.0, 0.0, 0.0, 0.0, 0.0, 0.0, 1.0], "bins": [-4.470348358154297e-08, -4.3466570787131786e-08, -4.2229657992720604e-08, -4.099274519830942e-08, -3.975583240389824e-08, -3.851891960948706e-08, -3.7282006815075874e-08, -3.604509402066469e-08, -3.480818122625351e-08, -3.357126843184233e-08, -3.2334355637431145e-08, -3.109744284301996e-08, -2.986053004860878e-08, -2.8623617254197598e-08, -2.7386704459786415e-08, -2.6149791665375233e-08, -2.491287887096405e-08, -2.3675966076552868e-08, -2.2439053282141685e-08, -2.1202140487730503e-08, -1.996522769331932e-08, -1.8728314898908138e-08, -1.7491402104496956e-08, -1.6254489310085773e-08, -1.501757651567459e-08, -1.3780663721263409e-08, -1.2543750926852226e-08, -1.1306838132441044e-08, -1.0069925338029861e-08, -8.833012543618679e-09, -7.596099749207497e-09, -6.359186954796314e-09, -5.122274160385132e-09, -3.8853613659739494e-09, -2.648448571562767e-09, -1.4115357771515846e-09, -1.7462298274040222e-10, 1.0622898116707802e-09, 2.2992026060819626e-09, 3.536115400493145e-09, 4.773028194904327e-09, 6.00994098931551e-09, 7.246853783726692e-09, 8.483766578137875e-09, 9.720679372549057e-09, 1.095759216696024e-08, 1.2194504961371422e-08, 1.3431417755782604e-08, 1.4668330550193787e-08, 1.590524334460497e-08, 1.714215613901615e-08, 1.8379068933427334e-08, 1.9615981727838516e-08, 2.08528945222497e-08, 2.208980731666088e-08, 2.3326720111072063e-08, 2.4563632905483246e-08, 2.5800545699894428e-08, 2.703745849430561e-08, 2.8274371288716793e-08, 2.9511284083127975e-08, 3.074819687753916e-08, 3.198510967195034e-08, 3.322202246636152e-08, 3.4458935260772705e-08]}, "gradients/graph_1decoder.conv3.bn.weight": {"_type": "histogram", "values": [1.0, 0.0, 0.0, 0.0, 0.0, 0.0, 0.0, 0.0, 0.0, 0.0, 0.0, 0.0, 0.0, 0.0, 0.0, 0.0, 0.0, 0.0, 0.0, 0.0, 1.0, 0.0, 0.0, 1.0, 1.0, 2.0, 0.0, 1.0, 2.0, 0.0, 1.0, 0.0, 0.0, 1.0, 0.0, 1.0, 1.0, 1.0, 1.0, 0.0, 1.0, 0.0, 3.0, 0.0, 0.0, 1.0, 1.0, 3.0, 1.0, 1.0, 0.0, 0.0, 2.0, 1.0, 0.0, 2.0, 0.0, 0.0, 0.0, 0.0, 0.0, 0.0, 0.0, 1.0], "bins": [-0.1992029845714569, -0.19412334263324738, -0.18904368579387665, -0.18396404385566711, -0.1788843870162964, -0.17380474507808685, -0.16872510313987732, -0.1636454463005066, -0.15856580436229706, -0.15348616242408752, -0.1484065055847168, -0.14332686364650726, -0.13824722170829773, -0.133167564868927, -0.12808792293071747, -0.12300827354192734, -0.11792862415313721, -0.11284897476434708, -0.10776932537555695, -0.10268968343734741, -0.09761003404855728, -0.09253038465976715, -0.08745074272155762, -0.08237109333276749, -0.07729144394397736, -0.07221180200576782, -0.0671321451663971, -0.06205250322818756, -0.05697286128997803, -0.0518932044506073, -0.046813562512397766, -0.04173390567302704, -0.0366542786359787, -0.031574636697769165, -0.026494979858398438, -0.021415337920188904, -0.016335681080818176, -0.011256039142608643, -0.006176397204399109, -0.0010967403650283813, 0.003982901573181152, 0.009062550961971283, 0.014142200350761414, 0.019221842288970947, 0.024301491677761078, 0.02938114106655121, 0.03446078300476074, 0.03954043239355087, 0.044620081782341, 0.049699731171131134, 0.054779380559921265, 0.0598590224981308, 0.06493867188692093, 0.07001832127571106, 0.0750979632139206, 0.08017761260271072, 0.08525726199150085, 0.09033691138029099, 0.09541656076908112, 0.10049620270729065, 0.10557585209608078, 0.11065550148487091, 0.11573514342308044, 0.12081479281187057, 0.1258944422006607]}, "gradients/graph_1decoder.conv3.bn.bias": {"_type": "histogram", "values": [1.0, 1.0, 0.0, 1.0, 0.0, 0.0, 0.0, 0.0, 0.0, 0.0, 0.0, 1.0, 0.0, 0.0, 2.0, 2.0, 1.0, 0.0, 0.0, 0.0, 0.0, 0.0, 0.0, 1.0, 1.0, 0.0, 0.0, 0.0, 1.0, 0.0, 0.0, 1.0, 1.0, 3.0, 0.0, 0.0, 0.0, 0.0, 0.0, 2.0, 0.0, 0.0, 2.0, 0.0, 1.0, 2.0, 0.0, 0.0, 0.0, 0.0, 0.0, 0.0, 1.0, 0.0, 3.0, 0.0, 0.0, 1.0, 1.0, 1.0, 0.0, 0.0, 0.0, 1.0], "bins": [-0.04210478439927101, -0.04084194451570511, -0.039579104632139206, -0.0383162647485733, -0.0370534211397171, -0.0357905812561512, -0.0345277413725853, -0.033264901489019394, -0.03200206160545349, -0.03073922172188759, -0.029476381838321686, -0.028213540092110634, -0.02695070020854473, -0.02568786032497883, -0.024425018578767776, -0.023162178695201874, -0.02189933881163597, -0.02063649892807007, -0.019373659044504166, -0.018110817298293114, -0.01684797741472721, -0.015585137531161308, -0.014322295784950256, -0.013059455901384354, -0.011796616017818451, -0.010533776134252548, -0.009270936250686646, -0.008008096367120743, -0.006745252758264542, -0.005482412874698639, -0.004219572991132736, -0.0029567331075668335, -0.0016938969492912292, -0.00043105706572532654, 0.0008317828178405762, 0.002094622701406479, 0.0033574625849723816, 0.004620306193828583, 0.0058831460773944855, 0.007145985960960388, 0.008408825844526291, 0.009671665728092194, 0.010934505611658096, 0.012197347357869148, 0.013460187241435051, 0.014723027125000954, 0.015985868871212006, 0.01724870875477791, 0.01851154863834381, 0.019774388521909714, 0.021037228405475616, 0.02230007015168667, 0.02356291003525257, 0.024825749918818474, 0.026088591665029526, 0.02735143154859543, 0.02861427143216133, 0.029877111315727234, 0.031139951199293137, 0.03240279108285904, 0.03366563469171524, 0.03492847457528114, 0.036191314458847046, 0.03745415434241295, 0.03871699422597885]}, "gradients/graph_1decoder.conv3.conv.weight": {"_type": "histogram", "values": [1.0, 0.0, 0.0, 0.0, 1.0, 0.0, 2.0, 2.0, 2.0, 2.0, 6.0, 8.0, 8.0, 16.0, 15.0, 17.0, 25.0, 54.0, 63.0, 100.0, 102.0, 159.0, 214.0, 307.0, 391.0, 574.0, 736.0, 1082.0, 1533.0, 2032.0, 2809.0, 4017.0, 5194.0, 4032.0, 2645.0, 1753.0, 1303.0, 960.0, 689.0, 500.0, 395.0, 264.0, 226.0, 129.0, 114.0, 86.0, 50.0, 38.0, 26.0, 22.0, 17.0, 11.0, 10.0, 7.0, 2.0, 3.0, 3.0, 2.0, 1.0, 2.0, 3.0, 0.0, 2.0, 1.0], "bins": [-0.19355304539203644, -0.18759436905384064, -0.18163570761680603, -0.17567703127861023, -0.16971835494041443, -0.16375967860221863, -0.15780101716518402, -0.15184234082698822, -0.1458836793899536, -0.1399250030517578, -0.133966326713562, -0.1280076503753662, -0.1220489889383316, -0.1160903126001358, -0.1101316437125206, -0.1041729673743248, -0.0982142984867096, -0.09225562959909439, -0.08629695326089859, -0.08033828437328339, -0.07437960803508759, -0.06842094659805298, -0.06246227025985718, -0.05650359392166138, -0.05054493248462677, -0.04458625614643097, -0.03862757980823517, -0.03266890347003937, -0.02671024203300476, -0.02075156569480896, -0.01479288935661316, -0.008834227919578552, -0.0028755366802215576, 0.003083139657974243, 0.00904180109500885, 0.015000477433204651, 0.02095915377140045, 0.02691781520843506, 0.03287649154663086, 0.03883516788482666, 0.04479384422302246, 0.05075250566005707, 0.05671118199825287, 0.06266985833644867, 0.06862851977348328, 0.07458719611167908, 0.08054586499929428, 0.08650454133749008, 0.09246321022510529, 0.09842187911272049, 0.10438055545091629, 0.1103392243385315, 0.1162979006767273, 0.1222565695643425, 0.1282152384519577, 0.1341739147901535, 0.1401325762271881, 0.1460912525653839, 0.1520499289035797, 0.1580086052417755, 0.16396726667881012, 0.16992594301700592, 0.17588461935520172, 0.18184328079223633, 0.18780195713043213]}, "gradients/graph_1decoder.conv3.conv.bias": {"_type": "histogram", "values": [1.0, 0.0, 0.0, 0.0, 0.0, 0.0, 0.0, 0.0, 1.0, 0.0, 1.0, 0.0, 0.0, 0.0, 1.0, 0.0, 1.0, 2.0, 0.0, 0.0, 1.0, 1.0, 0.0, 1.0, 0.0, 0.0, 1.0, 0.0, 0.0, 3.0, 2.0, 0.0, 1.0, 0.0, 0.0, 0.0, 2.0, 0.0, 0.0, 0.0, 0.0, 0.0, 1.0, 1.0, 0.0, 1.0, 0.0, 0.0, 1.0, 3.0, 1.0, 0.0, 1.0, 0.0, 0.0, 0.0, 1.0, 0.0, 2.0, 0.0, 0.0, 0.0, 0.0, 1.0], "bins": [-9.313225746154785e-09, -8.993083611130714e-09, -8.672941476106644e-09, -8.352799341082573e-09, -8.032657206058502e-09, -7.712515071034431e-09, -7.392372936010361e-09, -7.07223080098629e-09, -6.752088665962219e-09, -6.4319465309381485e-09, -6.111804395914078e-09, -5.791662260890007e-09, -5.471520125865936e-09, -5.1513779908418655e-09, -4.831235855817795e-09, -4.511093720793724e-09, -4.190951585769653e-09, -3.8708094507455826e-09, -3.550667315721512e-09, -3.230525180697441e-09, -2.9103830456733704e-09, -2.5902409106492996e-09, -2.270098775625229e-09, -1.949956640601158e-09, -1.6298145055770874e-09, -1.3096723705530167e-09, -9.89530235528946e-10, -6.693881005048752e-10, -3.4924596548080444e-10, -2.9103830456733704e-11, 2.9103830456733704e-10, 6.111804395914078e-10, 9.313225746154785e-10, 1.2514647096395493e-09, 1.57160684466362e-09, 1.8917489796876907e-09, 2.2118911147117615e-09, 2.5320332497358322e-09, 2.852175384759903e-09, 3.1723175197839737e-09, 3.4924596548080444e-09, 3.812601789832115e-09, 4.132743924856186e-09, 4.452886059880257e-09, 4.773028194904327e-09, 5.093170329928398e-09, 5.413312464952469e-09, 5.73345459997654e-09, 6.05359673500061e-09, 6.373738870024681e-09, 6.693881005048752e-09, 7.0140231400728226e-09, 7.334165275096893e-09, 7.654307410120964e-09, 7.974449545145035e-09, 8.294591680169106e-09, 8.614733815193176e-09, 8.934875950217247e-09, 9.255018085241318e-09, 9.575160220265388e-09, 9.89530235528946e-09, 1.021544449031353e-08, 1.05355866253376e-08, 1.0855728760361671e-08, 1.1175870895385742e-08]}, "gradients/graph_1decoder.conv2.bn.weight": {"_type": "histogram", "values": [2.0, 0.0, 0.0, 1.0, 0.0, 0.0, 0.0, 0.0, 0.0, 0.0, 1.0, 2.0, 1.0, 3.0, 0.0, 1.0, 3.0, 0.0, 1.0, 1.0, 0.0, 0.0, 1.0, 1.0, 1.0, 3.0, 1.0, 2.0, 4.0, 3.0, 0.0, 1.0, 2.0, 2.0, 0.0, 2.0, 4.0, 4.0, 3.0, 3.0, 2.0, 3.0, 0.0, 0.0, 0.0, 1.0, 0.0, 0.0, 0.0, 1.0, 1.0, 0.0, 0.0, 0.0, 1.0, 0.0, 0.0, 0.0, 1.0, 0.0, 0.0, 0.0, 0.0, 1.0], "bins": [-0.05272635444998741, -0.05097275972366333, -0.04921916499733925, -0.04746557027101517, -0.045711975544691086, -0.043958380818367004, -0.04220478609204292, -0.04045119136571884, -0.03869759663939476, -0.03694400191307068, -0.0351904071867466, -0.033436812460422516, -0.031683217734098434, -0.029929623007774353, -0.02817602828145027, -0.02642243355512619, -0.02466883882880211, -0.022915244102478027, -0.021161649376153946, -0.019408054649829865, -0.017654459923505783, -0.0159008651971817, -0.01414727047085762, -0.012393675744533539, -0.010640081018209457, -0.008886486291885376, -0.0071328915655612946, -0.005379296839237213, -0.0036257021129131317, -0.0018721073865890503, -0.00011851266026496887, 0.0016350820660591125, 0.0033886730670928955, 0.005142267793416977, 0.006895862519741058, 0.00864945724606514, 0.010403051972389221, 0.012156646698713303, 0.013910241425037384, 0.015663836151361465, 0.017417430877685547, 0.01917102560400963, 0.02092462033033371, 0.02267821505665779, 0.024431809782981873, 0.026185404509305954, 0.027938999235630035, 0.029692593961954117, 0.0314461886882782, 0.03319978341460228, 0.03495337814092636, 0.03670697286725044, 0.038460567593574524, 0.040214162319898605, 0.04196775704622269, 0.04372135177254677, 0.04547494649887085, 0.04722854122519493, 0.04898213595151901, 0.050735730677843094, 0.052489325404167175, 0.05424292013049126, 0.05599651485681534, 0.05775010958313942, 0.0595037043094635]}, "gradients/graph_1decoder.conv2.bn.bias": {"_type": "histogram", "values": [1.0, 0.0, 0.0, 0.0, 0.0, 0.0, 1.0, 0.0, 0.0, 0.0, 1.0, 0.0, 1.0, 2.0, 1.0, 1.0, 1.0, 0.0, 1.0, 2.0, 0.0, 3.0, 0.0, 1.0, 4.0, 0.0, 4.0, 0.0, 1.0, 3.0, 2.0, 4.0, 0.0, 2.0, 5.0, 1.0, 0.0, 2.0, 2.0, 0.0, 2.0, 2.0, 1.0, 3.0, 1.0, 2.0, 0.0, 0.0, 1.0, 0.0, 1.0, 0.0, 0.0, 0.0, 1.0, 2.0, 0.0, 0.0, 1.0, 0.0, 0.0, 0.0, 0.0, 1.0], "bins": [-0.01949264109134674, -0.018934886902570724, -0.018377134576439857, -0.01781938038766384, -0.017261626198887825, -0.016703873872756958, -0.016146119683980942, -0.0155883664265275, -0.015030613169074059, -0.014472858980298042, -0.0139151057228446, -0.013357352465391159, -0.012799598276615143, -0.012241845019161701, -0.01168409176170826, -0.011126337572932243, -0.010568584315478802, -0.01001083105802536, -0.009453076869249344, -0.008895323611795902, -0.00833757035434246, -0.007779816165566444, -0.007222062908113003, -0.006664309650659561, -0.006106555461883545, -0.005548802204430103, -0.004991048946976662, -0.00443329568952322, -0.003875541500747204, -0.003317788243293762, -0.002760034054517746, -0.002202281728386879, -0.0016445275396108627, -0.0010867733508348465, -0.0005290210247039795, 2.8733164072036743e-05, 0.0005864864215254784, 0.0011442406103014946, 0.0017019938677549362, 0.002259747125208378, 0.0028175003826618195, 0.0033752545714378357, 0.003933007828891277, 0.004490761086344719, 0.005048515275120735, 0.005606268532574177, 0.006164021790027618, 0.006721775978803635, 0.007279529236257076, 0.007837282493710518, 0.008395036682486534, 0.008952789939939976, 0.009510543197393417, 0.010068297386169434, 0.010626050643622875, 0.011183803901076317, 0.011741558089852333, 0.012299311347305775, 0.012857064604759216, 0.013414818793535233, 0.013972572050988674, 0.014530325308442116, 0.015088078565895557, 0.015645831823349, 0.016203586012125015]}, "gradients/graph_1decoder.conv2.conv.weight": {"_type": "histogram", "values": [2.0, 1.0, 0.0, 1.0, 1.0, 1.0, 0.0, 0.0, 1.0, 1.0, 5.0, 4.0, 3.0, 5.0, 7.0, 5.0, 7.0, 7.0, 11.0, 31.0, 30.0, 61.0, 73.0, 89.0, 153.0, 195.0, 279.0, 362.0, 532.0, 759.0, 1248.0, 2145.0, 3712.0, 7225.0, 69667.0, 31746.0, 4938.0, 2428.0, 1500.0, 1086.0, 751.0, 543.0, 422.0, 282.0, 184.0, 130.0, 96.0, 77.0, 37.0, 33.0, 32.0, 22.0, 23.0, 26.0, 14.0, 18.0, 16.0, 14.0, 9.0, 6.0, 6.0, 5.0, 1.0, 4.0], "bins": [-0.11224690079689026, -0.10902605950832367, -0.10580521821975708, -0.10258438438177109, -0.0993635430932045, -0.09614270180463791, -0.09292186796665192, -0.08970102667808533, -0.08648018538951874, -0.08325934410095215, -0.08003850281238556, -0.07681766897439957, -0.07359682768583298, -0.07037598639726639, -0.0671551525592804, -0.0639343112707138, -0.06071346998214722, -0.05749262869358063, -0.05427179113030434, -0.051050953567028046, -0.047830112278461456, -0.04460927098989487, -0.041388437151908875, -0.038167595863342285, -0.034946754574775696, -0.031725913286209106, -0.028505071997642517, -0.025284238159656525, -0.022063396871089935, -0.018842555582523346, -0.015621721744537354, -0.012400880455970764, -0.009180031716823578, -0.0059591904282569885, -0.002738349139690399, 0.00048248469829559326, 0.0037033259868621826, 0.006924167275428772, 0.010145001113414764, 0.013365842401981354, 0.016586683690547943, 0.019807524979114532, 0.023028366267681122, 0.026249200105667114, 0.029470041394233704, 0.03269088268280029, 0.035911720246076584, 0.039132557809352875, 0.042353399097919464, 0.04557424038648605, 0.048795077949762344, 0.052015915513038635, 0.055236756801605225, 0.058457598090171814, 0.061678435653448105, 0.0648992732167244, 0.06812011450529099, 0.07134095579385757, 0.07456178963184357, 0.07778263092041016, 0.08100347220897675, 0.08422431349754333, 0.08744515478610992, 0.09066598862409592, 0.0938868299126625]}, "gradients/graph_1decoder.conv2.conv.bias": {"_type": "histogram", "values": [1.0, 0.0, 1.0, 0.0, 0.0, 0.0, 0.0, 0.0, 0.0, 0.0, 0.0, 1.0, 0.0, 0.0, 0.0, 0.0, 0.0, 0.0, 1.0, 0.0, 1.0, 0.0, 1.0, 3.0, 4.0, 1.0, 5.0, 3.0, 2.0, 5.0, 3.0, 1.0, 4.0, 2.0, 5.0, 2.0, 2.0, 7.0, 0.0, 2.0, 2.0, 0.0, 1.0, 0.0, 1.0, 0.0, 0.0, 0.0, 1.0, 1.0, 0.0, 0.0, 0.0, 0.0, 0.0, 0.0, 0.0, 0.0, 0.0, 0.0, 0.0, 0.0, 0.0, 1.0], "bins": [-1.0244548320770264e-08, -9.924406185746193e-09, -9.604264050722122e-09, -9.284121915698051e-09, -8.96397978067398e-09, -8.64383764564991e-09, -8.32369551062584e-09, -8.003553375601768e-09, -7.683411240577698e-09, -7.363269105553627e-09, -7.043126970529556e-09, -6.7229848355054855e-09, -6.402842700481415e-09, -6.082700565457344e-09, -5.762558430433273e-09, -5.4424162954092026e-09, -5.122274160385132e-09, -4.802132025361061e-09, -4.48198989033699e-09, -4.16184775531292e-09, -3.841705620288849e-09, -3.521563485264778e-09, -3.2014213502407074e-09, -2.8812792152166367e-09, -2.561137080192566e-09, -2.240994945168495e-09, -1.9208528101444244e-09, -1.6007106751203537e-09, -1.280568540096283e-09, -9.604264050722122e-10, -6.402842700481415e-10, -3.2014213502407074e-10, 0.0, 3.2014213502407074e-10, 6.402842700481415e-10, 9.604264050722122e-10, 1.280568540096283e-09, 1.6007106751203537e-09, 1.9208528101444244e-09, 2.240994945168495e-09, 2.561137080192566e-09, 2.8812792152166367e-09, 3.2014213502407074e-09, 3.521563485264778e-09, 3.841705620288849e-09, 4.16184775531292e-09, 4.48198989033699e-09, 4.802132025361061e-09, 5.122274160385132e-09, 5.4424162954092026e-09, 5.762558430433273e-09, 6.082700565457344e-09, 6.402842700481415e-09, 6.7229848355054855e-09, 7.043126970529556e-09, 7.363269105553627e-09, 7.683411240577698e-09, 8.003553375601768e-09, 8.32369551062584e-09, 8.64383764564991e-09, 8.96397978067398e-09, 9.284121915698051e-09, 9.604264050722122e-09, 9.924406185746193e-09, 1.0244548320770264e-08]}, "gradients/graph_1decoder.conv1.bn.weight": {"_type": "histogram", "values": [2.0, 2.0, 0.0, 0.0, 0.0, 0.0, 0.0, 0.0, 0.0, 1.0, 3.0, 1.0, 0.0, 2.0, 0.0, 4.0, 3.0, 4.0, 1.0, 3.0, 4.0, 4.0, 5.0, 4.0, 1.0, 2.0, 2.0, 10.0, 11.0, 5.0, 8.0, 9.0, 2.0, 3.0, 1.0, 1.0, 1.0, 2.0, 1.0, 3.0, 2.0, 2.0, 1.0, 1.0, 1.0, 1.0, 0.0, 4.0, 0.0, 0.0, 1.0, 1.0, 0.0, 2.0, 0.0, 0.0, 0.0, 0.0, 0.0, 1.0, 2.0, 0.0, 2.0, 2.0], "bins": [-0.03758740425109863, -0.036314841359853745, -0.03504227474331856, -0.03376971185207367, -0.03249714523553848, -0.031224582344293594, -0.029952019453048706, -0.02867945469915867, -0.02740688994526863, -0.026134325191378593, -0.024861760437488556, -0.023589197546243668, -0.02231663279235363, -0.021044068038463593, -0.019771505147218704, -0.018498940393328667, -0.01722637563943863, -0.01595381088554859, -0.014681246131658554, -0.013408683240413666, -0.012136118486523628, -0.01086355373263359, -0.009590990841388702, -0.008318426087498665, -0.007045861333608627, -0.005773298442363739, -0.004500731825828552, -0.003228168934583664, -0.0019556060433387756, -0.0006830394268035889, 0.0005895234644412994, 0.0018620900809764862, 0.0031346529722213745, 0.004407215863466263, 0.00567978248000145, 0.006952345371246338, 0.008224911987781525, 0.009497474879026413, 0.010770037770271301, 0.012042604386806488, 0.013315167278051376, 0.014587732031941414, 0.01586029678583145, 0.01713285967707634, 0.018405424430966377, 0.019677989184856415, 0.020950552076101303, 0.02222311682999134, 0.023495681583881378, 0.024768246337771416, 0.026040811091661453, 0.02731337398290634, 0.02858593873679638, 0.029858503490686417, 0.031131066381931305, 0.03240363299846649, 0.03367619588971138, 0.03494875878095627, 0.036221325397491455, 0.03749388828873634, 0.03876645117998123, 0.04003901779651642, 0.04131158068776131, 0.042584147304296494, 0.04385671019554138]}, "gradients/graph_1decoder.conv1.bn.bias": {"_type": "histogram", "values": [1.0, 0.0, 0.0, 1.0, 0.0, 0.0, 0.0, 0.0, 1.0, 0.0, 5.0, 0.0, 2.0, 3.0, 4.0, 3.0, 3.0, 3.0, 4.0, 0.0, 5.0, 2.0, 1.0, 1.0, 6.0, 5.0, 4.0, 6.0, 7.0, 7.0, 3.0, 5.0, 1.0, 4.0, 3.0, 2.0, 1.0, 3.0, 0.0, 3.0, 2.0, 3.0, 2.0, 2.0, 1.0, 1.0, 3.0, 1.0, 0.0, 0.0, 1.0, 1.0, 2.0, 3.0, 2.0, 0.0, 0.0, 1.0, 1.0, 1.0, 0.0, 0.0, 0.0, 2.0], "bins": [-0.013204292394220829, -0.012781023047864437, -0.01235775277018547, -0.011934483423829079, -0.011511213146150112, -0.01108794379979372, -0.010664673522114754, -0.010241404175758362, -0.00981813482940197, -0.009394864551723003, -0.008971594274044037, -0.008548324927687645, -0.008125055581331253, -0.007701785769313574, -0.007278515957295895, -0.006855246145278215, -0.006431976333260536, -0.006008706521242857, -0.005585436709225178, -0.005162167362868786, -0.004738897085189819, -0.004315627738833427, -0.003892357461154461, -0.003469088114798069, -0.003045818768441677, -0.0026225484907627106, -0.0021992791444063187, -0.0017760088667273521, -0.0013527395203709602, -0.0009294692426919937, -0.0005061998963356018, -8.292961865663528e-05, 0.00034034065902233124, 0.0007636100053787231, 0.0011868802830576897, 0.0016101496294140816, 0.002033419907093048, 0.00245668925344944, 0.0028799595311284065, 0.0033032288774847984, 0.003726499155163765, 0.004149768501520157, 0.004573037847876549, 0.004996308125555515, 0.005419577471911907, 0.005842847749590874, 0.006266117095947266, 0.006689386907964945, 0.007112656719982624, 0.007535926532000303, 0.007959196344017982, 0.008382465690374374, 0.008805735968053341, 0.009229005314409733, 0.0096522755920887, 0.010075544938445091, 0.010498814284801483, 0.01092208456248045, 0.011345354840159416, 0.011768624186515808, 0.0121918935328722, 0.012615163810551167, 0.013038433156907558, 0.013461703434586525, 0.013884972780942917]}, "gradients/graph_1decoder.conv1.conv.weight": {"_type": "histogram", "values": [1.0, 0.0, 0.0, 0.0, 1.0, 0.0, 1.0, 1.0, 2.0, 1.0, 2.0, 1.0, 3.0, 6.0, 3.0, 5.0, 13.0, 11.0, 19.0, 24.0, 30.0, 59.0, 62.0, 104.0, 169.0, 248.0, 406.0, 721.0, 1276.0, 2552.0, 5612.0, 16021.0, 2014249.0, 291702.0, 14996.0, 5327.0, 2543.0, 1254.0, 701.0, 412.0, 251.0, 165.0, 100.0, 75.0, 46.0, 38.0, 21.0, 10.0, 11.0, 7.0, 14.0, 5.0, 0.0, 3.0, 2.0, 3.0, 2.0, 0.0, 0.0, 2.0, 0.0, 1.0, 0.0, 2.0], "bins": [-0.04170640558004379, -0.04044168442487717, -0.03917696326971054, -0.037912242114543915, -0.03664752095937729, -0.03538279980421066, -0.03411807864904404, -0.03285335749387741, -0.031588636338710785, -0.03032391518354416, -0.029059194028377533, -0.027794472873210907, -0.02652975171804428, -0.025265030562877655, -0.02400030940771103, -0.022735588252544403, -0.021470867097377777, -0.02020614594221115, -0.018941424787044525, -0.0176767036318779, -0.016411982476711273, -0.015147261321544647, -0.013882540166378021, -0.012617819011211395, -0.01135309785604477, -0.010088376700878143, -0.008823655545711517, -0.007558934390544891, -0.006294213235378265, -0.005029492080211639, -0.0037647709250450134, -0.0025000497698783875, -0.001235324889421463, 2.9396265745162964e-05, 0.001294117420911789, 0.002558838576078415, 0.003823559731245041, 0.005088280886411667, 0.006353002041578293, 0.007617723196744919, 0.008882444351911545, 0.01014716550707817, 0.011411886662244797, 0.012676607817411423, 0.013941328972578049, 0.015206050127744675, 0.0164707712829113, 0.017735492438077927, 0.019000213593244553, 0.02026493474841118, 0.021529655903577805, 0.02279437705874443, 0.024059098213911057, 0.025323819369077682, 0.02658854052424431, 0.027853261679410934, 0.02911798283457756, 0.030382703989744186, 0.03164742514491081, 0.03291214630007744, 0.034176867455244064, 0.03544158861041069, 0.036706309765577316, 0.03797103092074394, 0.03923575207591057]}, "gradients/graph_1decoder.conv1.conv.bias": {"_type": "histogram", "values": [1.0, 3.0, 0.0, 0.0, 2.0, 2.0, 0.0, 3.0, 4.0, 4.0, 9.0, 11.0, 10.0, 18.0, 11.0, 12.0, 11.0, 6.0, 2.0, 8.0, 3.0, 1.0, 3.0, 1.0, 0.0, 0.0, 1.0, 0.0, 0.0, 0.0, 0.0, 0.0, 0.0, 0.0, 0.0, 0.0, 0.0, 0.0, 0.0, 0.0, 0.0, 0.0, 0.0, 1.0, 0.0, 0.0, 0.0, 0.0, 0.0, 0.0, 0.0, 0.0, 0.0, 0.0, 0.0, 0.0, 0.0, 0.0, 0.0, 0.0, 0.0, 0.0, 0.0, 1.0], "bins": [-5.296897143125534e-09, -4.922185325995088e-09, -4.547473508864641e-09, -4.172761691734195e-09, -3.798049874603748e-09, -3.423338057473302e-09, -3.0486262403428555e-09, -2.673914423212409e-09, -2.2992026060819626e-09, -1.924490788951516e-09, -1.5497789718210697e-09, -1.1750671546906233e-09, -8.003553375601768e-10, -4.256435204297304e-10, -5.093170329928398e-11, 3.2378011383116245e-10, 6.984919309616089e-10, 1.0732037480920553e-09, 1.4479155652225018e-09, 1.8226273823529482e-09, 2.1973391994833946e-09, 2.572051016613841e-09, 2.9467628337442875e-09, 3.321474650874734e-09, 3.6961864680051804e-09, 4.070898285135627e-09, 4.445610102266073e-09, 4.82032191939652e-09, 5.195033736526966e-09, 5.5697455536574125e-09, 5.944457370787859e-09, 6.319169187918305e-09, 6.693881005048752e-09, 7.068592822179198e-09, 7.443304639309645e-09, 7.818016456440091e-09, 8.192728273570538e-09, 8.567440090700984e-09, 8.94215190783143e-09, 9.316863724961877e-09, 9.691575542092323e-09, 1.006628735922277e-08, 1.0440999176353216e-08, 1.0815710993483663e-08, 1.1190422810614109e-08, 1.1565134627744555e-08, 1.1939846444875002e-08, 1.2314558262005448e-08, 1.2689270079135895e-08, 1.3063981896266341e-08, 1.3438693713396788e-08, 1.3813405530527234e-08, 1.418811734765768e-08, 1.4562829164788127e-08, 1.4937540981918573e-08, 1.531225279904902e-08, 1.5686964616179466e-08, 1.6061676433309913e-08, 1.643638825044036e-08, 1.6811100067570806e-08, 1.7185811884701252e-08, 1.75605237018317e-08, 1.7935235518962145e-08, 1.830994733609259e-08, 1.8684659153223038e-08]}, "gradients/graph_1lstm.bias_hh_l1": {"_type": "histogram", "values": [1.0, 1.0, 1.0, 1.0, 0.0, 0.0, 2.0, 0.0, 2.0, 5.0, 6.0, 5.0, 6.0, 9.0, 9.0, 20.0, 21.0, 32.0, 43.0, 78.0, 336.0, 1193.0, 85.0, 53.0, 29.0, 30.0, 18.0, 15.0, 14.0, 6.0, 7.0, 4.0, 3.0, 3.0, 0.0, 2.0, 1.0, 3.0, 0.0, 0.0, 0.0, 1.0, 0.0, 0.0, 2.0, 0.0, 0.0, 0.0, 0.0, 0.0, 0.0, 0.0, 0.0, 0.0, 0.0, 0.0, 0.0, 0.0, 0.0, 0.0, 0.0, 0.0, 0.0, 1.0], "bins": [-0.004017375875264406, -0.003827085718512535, -0.003636795561760664, -0.003446505405008793, -0.0032562152482569218, -0.0030659250915050507, -0.002875635167583823, -0.002685345010831952, -0.002495054854080081, -0.00230476469732821, -0.0021144745405763388, -0.0019241843838244677, -0.0017338944599032402, -0.001543604303151369, -0.001353314146399498, -0.0011630239896476269, -0.0009727338328957558, -0.0007824436761438847, -0.0005921535193920135, -0.00040186336264014244, -0.00021157320588827133, -2.1283049136400223e-05, 0.00016900710761547089, 0.000359297264367342, 0.0005495869554579258, 0.0007398771122097969, 0.000930167268961668, 0.0011204574257135391, 0.0013107475824654102, 0.0015010377392172813, 0.0016913278959691525, 0.0018816180527210236, 0.002071908675134182, 0.002262198831886053, 0.002452488988637924, 0.0026427791453897953, 0.0028330693021416664, 0.0030233594588935375, 0.0032136496156454086, 0.0034039397723972797, 0.003594229929149151, 0.0037845196202397346, 0.003974809776991606, 0.004165099933743477, 0.004355390090495348, 0.004545680247247219, 0.00473597040399909, 0.004926260560750961, 0.005116550717502832, 0.0053068408742547035, 0.005497131031006575, 0.005687421187758446, 0.005877711344510317, 0.006068001501262188, 0.006258291192352772, 0.00644858181476593, 0.006638871505856514, 0.006829162128269672, 0.007019451819360256, 0.007209741976112127, 0.007400032132863998, 0.0075903222896158695, 0.007780612446367741, 0.007970903068780899, 0.008161192759871483]}, "gradients/graph_1lstm.weight_hh_l1": {"_type": "histogram", "values": [1.0, 0.0, 0.0, 0.0, 0.0, 1.0, 0.0, 0.0, 0.0, 1.0, 0.0, 1.0, 0.0, 3.0, 0.0, 6.0, 3.0, 1.0, 5.0, 6.0, 15.0, 17.0, 19.0, 29.0, 54.0, 83.0, 118.0, 233.0, 445.0, 874.0, 1978.0, 5526.0, 22867.0, 967626.0, 36824.0, 7134.0, 2507.0, 1044.0, 457.0, 279.0, 156.0, 83.0, 62.0, 28.0, 28.0, 16.0, 13.0, 7.0, 8.0, 3.0, 3.0, 4.0, 3.0, 2.0, 0.0, 0.0, 0.0, 0.0, 0.0, 0.0, 1.0, 1.0, 0.0, 1.0], "bins": [-0.0012829325860366225, -0.0012447622139006853, -0.00120659195818007, -0.0011684215860441327, -0.0011302512139081955, -0.0010920809581875801, -0.001053910586051643, -0.0010157402139157057, -0.0009775699581950903, -0.0009393995860591531, -0.0009012292139232159, -0.0008630588999949396, -0.0008248885860666633, -0.000786718213930726, -0.0007485479000024498, -0.0007103775278665125, -0.0006722072139382362, -0.0006340369000099599, -0.0005958665278740227, -0.0005576962139457464, -0.0005195258418098092, -0.0004813555278815329, -0.0004431852139532566, -0.0004050148418173194, -0.0003668445278890431, -0.0003286742139607668, -0.0002905038418248296, -0.00025233346968889236, -0.00021416321396827698, -0.00017599284183233976, -0.00013782246969640255, -9.965221397578716e-05, -6.148184183984995e-05, -2.3311469703912735e-05, 1.4858786016702652e-05, 5.3029158152639866e-05, 9.119953028857708e-05, 0.00012936978600919247, 0.00016754015814512968, 0.0002057105302810669, 0.0002438808442093432, 0.0002820511581376195, 0.0003202215302735567, 0.000358391844201833, 0.0003965621581301093, 0.0004347325302660465, 0.0004729028441943228, 0.00051107321633026, 0.0005492435302585363, 0.0005874138441868126, 0.0006255842163227499, 0.0006637545302510262, 0.0007019249023869634, 0.0007400952163152397, 0.000778265530243516, 0.0008164359023794532, 0.0008546062163077295, 0.0008927765302360058, 0.000930946902371943, 0.0009691172163002193, 0.0010072875302284956, 0.0010454579023644328, 0.00108362827450037, 0.0011217985302209854, 0.0011599689023569226]}, "gradients/graph_1lstm.bias_ih_l1": {"_type": "histogram", "values": [1.0, 1.0, 1.0, 1.0, 0.0, 0.0, 2.0, 0.0, 2.0, 5.0, 6.0, 5.0, 6.0, 9.0, 9.0, 20.0, 21.0, 32.0, 43.0, 78.0, 336.0, 1193.0, 85.0, 53.0, 29.0, 30.0, 18.0, 15.0, 14.0, 6.0, 7.0, 4.0, 3.0, 3.0, 0.0, 2.0, 1.0, 3.0, 0.0, 0.0, 0.0, 1.0, 0.0, 0.0, 2.0, 0.0, 0.0, 0.0, 0.0, 0.0, 0.0, 0.0, 0.0, 0.0, 0.0, 0.0, 0.0, 0.0, 0.0, 0.0, 0.0, 0.0, 0.0, 1.0], "bins": [-0.004017375875264406, -0.003827085718512535, -0.003636795561760664, -0.003446505405008793, -0.0032562152482569218, -0.0030659250915050507, -0.002875635167583823, -0.002685345010831952, -0.002495054854080081, -0.00230476469732821, -0.0021144745405763388, -0.0019241843838244677, -0.0017338944599032402, -0.001543604303151369, -0.001353314146399498, -0.0011630239896476269, -0.0009727338328957558, -0.0007824436761438847, -0.0005921535193920135, -0.00040186336264014244, -0.00021157320588827133, -2.1283049136400223e-05, 0.00016900710761547089, 0.000359297264367342, 0.0005495869554579258, 0.0007398771122097969, 0.000930167268961668, 0.0011204574257135391, 0.0013107475824654102, 0.0015010377392172813, 0.0016913278959691525, 0.0018816180527210236, 0.002071908675134182, 0.002262198831886053, 0.002452488988637924, 0.0026427791453897953, 0.0028330693021416664, 0.0030233594588935375, 0.0032136496156454086, 0.0034039397723972797, 0.003594229929149151, 0.0037845196202397346, 0.003974809776991606, 0.004165099933743477, 0.004355390090495348, 0.004545680247247219, 0.00473597040399909, 0.004926260560750961, 0.005116550717502832, 0.0053068408742547035, 0.005497131031006575, 0.005687421187758446, 0.005877711344510317, 0.006068001501262188, 0.006258291192352772, 0.00644858181476593, 0.006638871505856514, 0.006829162128269672, 0.007019451819360256, 0.007209741976112127, 0.007400032132863998, 0.0075903222896158695, 0.007780612446367741, 0.007970903068780899, 0.008161192759871483]}, "gradients/graph_1lstm.weight_ih_l1": {"_type": "histogram", "values": [1.0, 0.0, 0.0, 0.0, 0.0, 0.0, 3.0, 0.0, 1.0, 0.0, 2.0, 1.0, 0.0, 2.0, 3.0, 0.0, 2.0, 2.0, 10.0, 6.0, 14.0, 14.0, 19.0, 36.0, 49.0, 72.0, 136.0, 225.0, 479.0, 923.0, 2237.0, 6571.0, 57368.0, 965377.0, 9790.0, 2855.0, 1159.0, 515.0, 287.0, 162.0, 89.0, 48.0, 37.0, 30.0, 17.0, 8.0, 5.0, 5.0, 6.0, 2.0, 4.0, 1.0, 1.0, 0.0, 0.0, 0.0, 0.0, 0.0, 0.0, 0.0, 1.0, 0.0, 0.0, 1.0], "bins": [-0.006872209720313549, -0.006664835847914219, -0.0064574615098536015, -0.006250087637454271, -0.006042713765054941, -0.005835339426994324, -0.005627965554594994, -0.0054205916821956635, -0.005213217809796333, -0.005005843471735716, -0.004798469599336386, -0.004591095261275768, -0.004383721388876438, -0.004176347516477108, -0.003968973644077778, -0.003761599538847804, -0.0035542254336178303, -0.0033468513283878565, -0.0031394774559885263, -0.0029321033507585526, -0.0027247294783592224, -0.002517355140298605, -0.002309981267899275, -0.0021026073954999447, -0.0018952330574393272, -0.001687859185039997, -0.001480485312640667, -0.0012731114402413368, -0.0010657371021807194, -0.0008583632297813892, -0.0006509893573820591, -0.00044361501932144165, -0.0002362406812608242, -2.8866808861494064e-05, 0.00017850752919912338, 0.0003858814015984535, 0.0005932552739977837, 0.0008006296120584011, 0.0010080034844577312, 0.0012153773568570614, 0.0014227512292563915, 0.001630125567317009, 0.0018374994397163391, 0.0020448733121156693, 0.0022522476501762867, 0.002459621522575617, 0.0026669956278055906, 0.0028743695002049208, 0.0030817436054348946, 0.0032891177106648684, 0.0034964915830641985, 0.0037038656882941723, 0.003911239560693502, 0.00411861389875412, 0.00432598777115345, 0.00453336164355278, 0.00474073551595211, 0.004948109854012728, 0.005155483726412058, 0.005362858064472675, 0.0055702319368720055, 0.005777605809271336, 0.005984979681670666, 0.006192354019731283, 0.006399727892130613]}, "gradients/graph_1lstm.bias_hh_l0": {"_type": "histogram", "values": [1.0, 0.0, 1.0, 0.0, 0.0, 0.0, 1.0, 0.0, 0.0, 1.0, 0.0, 0.0, 0.0, 0.0, 0.0, 0.0, 0.0, 0.0, 1.0, 2.0, 2.0, 3.0, 3.0, 6.0, 14.0, 17.0, 82.0, 1570.0, 254.0, 52.0, 10.0, 10.0, 5.0, 1.0, 1.0, 2.0, 0.0, 1.0, 1.0, 1.0, 0.0, 0.0, 1.0, 0.0, 0.0, 0.0, 1.0, 0.0, 0.0, 0.0, 0.0, 1.0, 1.0, 1.0, 0.0, 0.0, 0.0, 0.0, 0.0, 0.0, 0.0, 0.0, 0.0, 1.0], "bins": [-0.05378801375627518, -0.051848288625478745, -0.04990856721997261, -0.04796884208917618, -0.046029116958379745, -0.04408939555287361, -0.04214967042207718, -0.040209949016571045, -0.03827022388577461, -0.03633049875497818, -0.034390777349472046, -0.03245105221867561, -0.03051132708787918, -0.028571603819727898, -0.026631880551576614, -0.024692155420780182, -0.0227524321526289, -0.020812708884477615, -0.018872983753681183, -0.01693326234817505, -0.014993537217378616, -0.013053812086582184, -0.01111409068107605, -0.009174365550279617, -0.007234640419483185, -0.005294919013977051, -0.0033551938831806183, -0.0014154687523841858, 0.0005242526531219482, 0.0024639777839183807, 0.004403702914714813, 0.006343424320220947, 0.00828314945101738, 0.010222874581813812, 0.012162595987319946, 0.014102321118116379, 0.01604204624891281, 0.017981767654418945, 0.019921492785215378, 0.02186121791601181, 0.023800939321517944, 0.025740664452314377, 0.02768038958311081, 0.029620110988616943, 0.031559836119413376, 0.03349956125020981, 0.03543928265571594, 0.037379007786512375, 0.03931873291730881, 0.04125845432281494, 0.043198179453611374, 0.045137904584407806, 0.04707762598991394, 0.04901735112071037, 0.050957076251506805, 0.05289679765701294, 0.05483652278780937, 0.056776247918605804, 0.05871596932411194, 0.06065569445490837, 0.0625954195857048, 0.06453514099121094, 0.06647486239671707, 0.0684145912528038, 0.07035431265830994]}, "gradients/graph_1lstm.weight_hh_l0": {"_type": "histogram", "values": [1.0, 0.0, 0.0, 0.0, 1.0, 0.0, 1.0, 0.0, 1.0, 1.0, 1.0, 1.0, 1.0, 4.0, 4.0, 4.0, 5.0, 8.0, 8.0, 11.0, 2.0, 21.0, 19.0, 20.0, 28.0, 41.0, 49.0, 77.0, 117.0, 178.0, 248.0, 557.0, 1393.0, 8749.0, 1026439.0, 7903.0, 1312.0, 531.0, 260.0, 157.0, 121.0, 82.0, 49.0, 39.0, 23.0, 18.0, 18.0, 15.0, 10.0, 12.0, 7.0, 6.0, 7.0, 2.0, 3.0, 2.0, 2.0, 3.0, 0.0, 1.0, 0.0, 1.0, 1.0, 1.0], "bins": [-0.030139854177832603, -0.029265793040394783, -0.028391731902956963, -0.027517670765519142, -0.02664360962808132, -0.0257695484906435, -0.02489548921585083, -0.02402142807841301, -0.02314736694097519, -0.02227330580353737, -0.02139924466609955, -0.020525183528661728, -0.019651122391223907, -0.018777061253786087, -0.017903000116348267, -0.017028938978910446, -0.016154877841472626, -0.015280816704034805, -0.014406755566596985, -0.013532694429159164, -0.012658633291721344, -0.011784572154283524, -0.010910511016845703, -0.010036449879407883, -0.009162390604615211, -0.008288329467177391, -0.007414268329739571, -0.00654020719230175, -0.00566614605486393, -0.004792084917426109, -0.003918023779988289, -0.0030439626425504684, -0.0021698996424674988, -0.0012958385050296783, -0.0004217773675918579, 0.0004522837698459625, 0.001326344907283783, 0.0022004060447216034, 0.003074467182159424, 0.003948528319597244, 0.004822589457035065, 0.005696648731827736, 0.006570709869265556, 0.007444771006703377, 0.008318832144141197, 0.009192893281579018, 0.010066954419016838, 0.010941015556454659, 0.011815076693892479, 0.0126891378313303, 0.01356319896876812, 0.01443726010620594, 0.01531132124364376, 0.016185380518436432, 0.017059441655874252, 0.017933502793312073, 0.018807563930749893, 0.019681625068187714, 0.020555686205625534, 0.021429747343063354, 0.022303808480501175, 0.023177869617938995, 0.024051930755376816, 0.024925991892814636, 0.025800053030252457]}, "gradients/graph_1lstm.bias_ih_l0": {"_type": "histogram", "values": [1.0, 0.0, 1.0, 0.0, 0.0, 0.0, 1.0, 0.0, 0.0, 1.0, 0.0, 0.0, 0.0, 0.0, 0.0, 0.0, 0.0, 0.0, 1.0, 2.0, 2.0, 3.0, 3.0, 6.0, 14.0, 17.0, 82.0, 1570.0, 254.0, 52.0, 10.0, 10.0, 5.0, 1.0, 1.0, 2.0, 0.0, 1.0, 1.0, 1.0, 0.0, 0.0, 1.0, 0.0, 0.0, 0.0, 1.0, 0.0, 0.0, 0.0, 0.0, 1.0, 1.0, 1.0, 0.0, 0.0, 0.0, 0.0, 0.0, 0.0, 0.0, 0.0, 0.0, 1.0], "bins": [-0.05378801375627518, -0.051848288625478745, -0.04990856721997261, -0.04796884208917618, -0.046029116958379745, -0.04408939555287361, -0.04214967042207718, -0.040209949016571045, -0.03827022388577461, -0.03633049875497818, -0.034390777349472046, -0.03245105221867561, -0.03051132708787918, -0.028571603819727898, -0.026631880551576614, -0.024692155420780182, -0.0227524321526289, -0.020812708884477615, -0.018872983753681183, -0.01693326234817505, -0.014993537217378616, -0.013053812086582184, -0.01111409068107605, -0.009174365550279617, -0.007234640419483185, -0.005294919013977051, -0.0033551938831806183, -0.0014154687523841858, 0.0005242526531219482, 0.0024639777839183807, 0.004403702914714813, 0.006343424320220947, 0.00828314945101738, 0.010222874581813812, 0.012162595987319946, 0.014102321118116379, 0.01604204624891281, 0.017981767654418945, 0.019921492785215378, 0.02186121791601181, 0.023800939321517944, 0.025740664452314377, 0.02768038958311081, 0.029620110988616943, 0.031559836119413376, 0.03349956125020981, 0.03543928265571594, 0.037379007786512375, 0.03931873291730881, 0.04125845432281494, 0.043198179453611374, 0.045137904584407806, 0.04707762598991394, 0.04901735112071037, 0.050957076251506805, 0.05289679765701294, 0.05483652278780937, 0.056776247918605804, 0.05871596932411194, 0.06065569445490837, 0.0625954195857048, 0.06453514099121094, 0.06647486239671707, 0.0684145912528038, 0.07035431265830994]}, "gradients/graph_1lstm.weight_ih_l0": {"_type": "histogram", "values": [1.0, 0.0, 0.0, 1.0, 2.0, 0.0, 3.0, 2.0, 4.0, 4.0, 8.0, 5.0, 7.0, 13.0, 24.0, 17.0, 17.0, 28.0, 25.0, 30.0, 31.0, 41.0, 44.0, 56.0, 80.0, 142.0, 231.0, 501.0, 1216.0, 8400.0, 244354.0, 4697.0, 1028.0, 381.0, 199.0, 121.0, 76.0, 56.0, 41.0, 41.0, 20.0, 35.0, 31.0, 23.0, 18.0, 20.0, 13.0, 15.0, 12.0, 9.0, 2.0, 4.0, 5.0, 4.0, 0.0, 1.0, 1.0, 1.0, 2.0, 0.0, 0.0, 0.0, 0.0, 1.0], "bins": [-0.11872098594903946, -0.11481466144323349, -0.11090833693742752, -0.10700201243162155, -0.10309568047523499, -0.09918935596942902, -0.09528303146362305, -0.09137670695781708, -0.08747038245201111, -0.08356405794620514, -0.07965773344039917, -0.0757514089345932, -0.07184508442878723, -0.06793875992298126, -0.0640324279665947, -0.06012610346078873, -0.05621977895498276, -0.05231345444917679, -0.04840712994337082, -0.04450080543756485, -0.04059448093175888, -0.036688148975372314, -0.032781824469566345, -0.028875499963760376, -0.024969175457954407, -0.021062850952148438, -0.017156526446342468, -0.013250201940536499, -0.009343869984149933, -0.005437545478343964, -0.0015312209725379944, 0.002375103533267975, 0.006281435489654541, 0.01018775999546051, 0.01409408450126648, 0.01800040900707245, 0.021906733512878418, 0.025813065469264984, 0.029719389975070953, 0.03362571448087692, 0.03753203898668289, 0.04143836349248886, 0.04534468799829483, 0.0492510125041008, 0.053157344460487366, 0.057063668966293335, 0.060969993472099304, 0.06487631797790527, 0.06878264248371124, 0.07268896698951721, 0.07659529149532318, 0.08050161600112915, 0.08440794050693512, 0.08831426501274109, 0.09222059696912766, 0.09612692147493362, 0.1000332459807396, 0.10393957048654556, 0.10784589499235153, 0.1117522269487381, 0.11565855145454407, 0.11956487596035004, 0.123471200466156, 0.12737752497196198, 0.13128384947776794]}, "gradients/graph_1encoder.fc.bias": {"_type": "histogram", "values": [1.0, 1.0, 1.0, 0.0, 0.0, 2.0, 0.0, 0.0, 1.0, 0.0, 1.0, 2.0, 3.0, 3.0, 1.0, 2.0, 1.0, 2.0, 1.0, 3.0, 2.0, 2.0, 4.0, 5.0, 2.0, 1.0, 4.0, 4.0, 3.0, 7.0, 4.0, 1.0, 5.0, 5.0, 3.0, 4.0, 4.0, 9.0, 1.0, 6.0, 5.0, 2.0, 4.0, 3.0, 2.0, 2.0, 1.0, 0.0, 2.0, 1.0, 0.0, 1.0, 0.0, 0.0, 0.0, 1.0, 1.0, 0.0, 0.0, 0.0, 1.0, 0.0, 0.0, 1.0], "bins": [-0.04758618026971817, -0.045980218797922134, -0.0443742573261261, -0.042768292129039764, -0.04116233065724373, -0.03955636918544769, -0.03795040771365166, -0.03634444624185562, -0.03473848104476929, -0.03313251957297325, -0.031526558101177216, -0.02992059662938118, -0.028314635157585144, -0.02670867182314396, -0.025102710351347923, -0.02349674701690674, -0.021890785545110703, -0.020284824073314667, -0.018678860738873482, -0.017072899267077446, -0.015466935932636261, -0.013860974460840225, -0.01225501298904419, -0.010649051517248154, -0.009043090045452118, -0.007437124848365784, -0.005831163376569748, -0.004225201904773712, -0.0026192404329776764, -0.0010132789611816406, 0.0005926862359046936, 0.0021986477077007294, 0.003804609179496765, 0.005410570651292801, 0.007016532123088837, 0.008622497320175171, 0.010228458791971207, 0.011834420263767242, 0.013440381735563278, 0.015046343207359314, 0.016652308404445648, 0.018258269876241684, 0.01986423134803772, 0.021470192819833755, 0.02307615429162979, 0.024682117626070976, 0.026288079097867012, 0.027894042432308197, 0.029500003904104233, 0.03110596537590027, 0.0327119305729866, 0.03431788831949234, 0.035923853516578674, 0.03752981498837471, 0.039135776460170746, 0.04074173793196678, 0.04234769940376282, 0.04395366460084915, 0.04555962607264519, 0.04716558754444122, 0.04877154901623726, 0.050377510488033295, 0.05198347568511963, 0.053589437156915665, 0.0551953986287117]}, "gradients/graph_1encoder.fc.weight": {"_type": "histogram", "values": [1.0, 1.0, 1.0, 0.0, 0.0, 1.0, 1.0, 0.0, 1.0, 2.0, 5.0, 8.0, 5.0, 9.0, 4.0, 7.0, 6.0, 22.0, 29.0, 26.0, 22.0, 35.0, 71.0, 64.0, 97.0, 162.0, 273.0, 560.0, 1003.0, 22595.0, 1861.0, 787.0, 393.0, 224.0, 138.0, 105.0, 67.0, 49.0, 45.0, 22.0, 26.0, 8.0, 16.0, 12.0, 7.0, 2.0, 6.0, 4.0, 2.0, 3.0, 3.0, 1.0, 4.0, 0.0, 0.0, 1.0, 1.0, 0.0, 0.0, 0.0, 1.0, 0.0, 0.0, 1.0], "bins": [-0.2847900390625, -0.27517303824424744, -0.2655560374259949, -0.2559390366077423, -0.24632203578948975, -0.23670503497123718, -0.22708803415298462, -0.21747103333473206, -0.2078540325164795, -0.19823703169822693, -0.18862003087997437, -0.1790030300617218, -0.16938604414463043, -0.15976904332637787, -0.1501520425081253, -0.14053504168987274, -0.13091804087162018, -0.12130104005336761, -0.11168403923511505, -0.10206703841686249, -0.09245003759860992, -0.08283303678035736, -0.0732160359621048, -0.06359903514385223, -0.053982049226760864, -0.0443650484085083, -0.03474804759025574, -0.025131046772003174, -0.01551404595375061, -0.005897045135498047, 0.0037199556827545166, 0.01333695650100708, 0.022953957319259644, 0.03257095813751221, 0.04218795895576477, 0.051804959774017334, 0.0614219605922699, 0.07103896141052246, 0.08065596222877502, 0.09027296304702759, 0.09988996386528015, 0.10950694978237152, 0.11912395060062408, 0.12874095141887665, 0.1383579522371292, 0.14797495305538177, 0.15759195387363434, 0.1672089546918869, 0.17682595551013947, 0.18644295632839203, 0.1960599571466446, 0.20567695796489716, 0.21529395878314972, 0.2249109447002411, 0.23452794551849365, 0.24414494633674622, 0.2537619471549988, 0.26337894797325134, 0.2729959487915039, 0.28261294960975647, 0.29222995042800903, 0.3018469512462616, 0.31146395206451416, 0.3210809528827667, 0.3306979537010193]}, "gradients/graph_1encoder.conv3.bn.weight": {"_type": "histogram", "values": [0.0, 0.0, 0.0, 0.0, 0.0, 0.0, 0.0, 0.0, 0.0, 0.0, 0.0, 0.0, 0.0, 0.0, 0.0, 0.0, 0.0, 0.0, 0.0, 0.0, 0.0, 0.0, 0.0, 0.0, 0.0, 0.0, 0.0, 0.0, 0.0, 0.0, 0.0, 0.0, 1.0, 0.0, 0.0, 0.0, 0.0, 0.0, 0.0, 0.0, 0.0, 0.0, 0.0, 0.0, 0.0, 0.0, 0.0, 0.0, 0.0, 0.0, 0.0, 0.0, 0.0, 0.0, 0.0, 0.0, 0.0, 0.0, 0.0, 0.0, 0.0, 0.0, 0.0, 0.0], "bins": [-0.14248716831207275, -0.14248716831207275, -0.14248716831207275, -0.14248716831207275, -0.14248716831207275, -0.14248716831207275, -0.14248716831207275, -0.14248716831207275, -0.14248716831207275, -0.14248716831207275, -0.14248716831207275, -0.14248716831207275, -0.14248716831207275, -0.14248716831207275, -0.14248716831207275, -0.14248716831207275, -0.14248716831207275, -0.14248716831207275, -0.14248716831207275, -0.14248716831207275, -0.14248716831207275, -0.14248716831207275, -0.14248716831207275, -0.14248716831207275, -0.14248716831207275, -0.14248716831207275, -0.14248716831207275, -0.14248716831207275, -0.14248716831207275, -0.14248716831207275, -0.14248716831207275, -0.14248716831207275, -0.14248716831207275, -0.14248716831207275, -0.14248716831207275, -0.14248716831207275, -0.14248716831207275, -0.14248716831207275, -0.14248716831207275, -0.14248716831207275, -0.14248716831207275, -0.14248716831207275, -0.14248716831207275, -0.14248716831207275, -0.14248716831207275, -0.14248716831207275, -0.14248716831207275, -0.14248716831207275, -0.14248716831207275, -0.14248716831207275, -0.14248716831207275, -0.14248716831207275, -0.14248716831207275, -0.14248716831207275, -0.14248716831207275, -0.14248716831207275, -0.14248716831207275, -0.14248716831207275, -0.14248716831207275, -0.14248716831207275, -0.14248716831207275, -0.14248716831207275, -0.14248716831207275, -0.14248716831207275, -0.14248716831207275]}, "gradients/graph_1encoder.conv3.bn.bias": {"_type": "histogram", "values": [0.0, 0.0, 0.0, 0.0, 0.0, 0.0, 0.0, 0.0, 0.0, 0.0, 0.0, 0.0, 0.0, 0.0, 0.0, 0.0, 0.0, 0.0, 0.0, 0.0, 0.0, 0.0, 0.0, 0.0, 0.0, 0.0, 0.0, 0.0, 0.0, 0.0, 0.0, 0.0, 1.0, 0.0, 0.0, 0.0, 0.0, 0.0, 0.0, 0.0, 0.0, 0.0, 0.0, 0.0, 0.0, 0.0, 0.0, 0.0, 0.0, 0.0, 0.0, 0.0, 0.0, 0.0, 0.0, 0.0, 0.0, 0.0, 0.0, 0.0, 0.0, 0.0, 0.0, 0.0], "bins": [-0.29371559619903564, -0.29371559619903564, -0.29371559619903564, -0.29371559619903564, -0.29371559619903564, -0.29371559619903564, -0.29371559619903564, -0.29371559619903564, -0.29371559619903564, -0.29371559619903564, -0.29371559619903564, -0.29371559619903564, -0.29371559619903564, -0.29371559619903564, -0.29371559619903564, -0.29371559619903564, -0.29371559619903564, -0.29371559619903564, -0.29371559619903564, -0.29371559619903564, -0.29371559619903564, -0.29371559619903564, -0.29371559619903564, -0.29371559619903564, -0.29371559619903564, -0.29371559619903564, -0.29371559619903564, -0.29371559619903564, -0.29371559619903564, -0.29371559619903564, -0.29371559619903564, -0.29371559619903564, -0.29371559619903564, -0.29371559619903564, -0.29371559619903564, -0.29371559619903564, -0.29371559619903564, -0.29371559619903564, -0.29371559619903564, -0.29371559619903564, -0.29371559619903564, -0.29371559619903564, -0.29371559619903564, -0.29371559619903564, -0.29371559619903564, -0.29371559619903564, -0.29371559619903564, -0.29371559619903564, -0.29371559619903564, -0.29371559619903564, -0.29371559619903564, -0.29371559619903564, -0.29371559619903564, -0.29371559619903564, -0.29371559619903564, -0.29371559619903564, -0.29371559619903564, -0.29371559619903564, -0.29371559619903564, -0.29371559619903564, -0.29371559619903564, -0.29371559619903564, -0.29371559619903564, -0.29371559619903564, -0.29371559619903564]}, "gradients/graph_1encoder.conv3.conv.weight": {"_type": "histogram", "values": [1.0, 0.0, 0.0, 0.0, 0.0, 0.0, 0.0, 0.0, 0.0, 0.0, 0.0, 0.0, 0.0, 0.0, 0.0, 0.0, 0.0, 0.0, 0.0, 1.0, 0.0, 1.0, 1.0, 0.0, 0.0, 0.0, 0.0, 1.0, 4.0, 3.0, 1.0, 4.0, 2.0, 2.0, 2.0, 2.0, 3.0, 2.0, 3.0, 4.0, 2.0, 3.0, 7.0, 0.0, 0.0, 1.0, 1.0, 3.0, 2.0, 1.0, 3.0, 1.0, 1.0, 0.0, 0.0, 0.0, 0.0, 0.0, 1.0, 0.0, 0.0, 0.0, 0.0, 1.0], "bins": [-1.2457022666931152, -1.2097430229187012, -1.1737838983535767, -1.1378246545791626, -1.101865530014038, -1.065906286239624, -1.02994704246521, -0.9939878582954407, -0.9580286741256714, -0.9220694899559021, -0.8861103057861328, -0.8501510620117188, -0.8141918778419495, -0.7782326936721802, -0.7422734498977661, -0.7063142657279968, -0.6703550815582275, -0.6343958973884583, -0.598436713218689, -0.5624774694442749, -0.5265182852745056, -0.49055910110473633, -0.45459985733032227, -0.418640673160553, -0.3826814889907837, -0.3467223048210144, -0.3107631206512451, -0.27480387687683105, -0.238844633102417, -0.20288550853729248, -0.16692626476287842, -0.1309671401977539, -0.09500789642333984, -0.05904865264892578, -0.02308952808380127, 0.012869715690612793, 0.048828840255737305, 0.08478808403015137, 0.12074732780456543, 0.15670651197433472, 0.192665696144104, 0.2286248803138733, 0.2645840644836426, 0.30054330825805664, 0.3365024924278259, 0.3724616765975952, 0.4084209203720093, 0.44438010454177856, 0.48033928871154785, 0.5162984728813171, 0.5522576570510864, 0.5882169008255005, 0.6241760849952698, 0.6601352691650391, 0.6960945129394531, 0.7320536971092224, 0.7680128812789917, 0.803972065448761, 0.8399312496185303, 0.8758904933929443, 0.9118496775627136, 0.9478088617324829, 0.983768105506897, 1.0197272300720215, 1.0556864738464355]}, "gradients/graph_1encoder.conv3.conv.bias": {"_type": "histogram", "values": [0.0, 0.0, 0.0, 0.0, 0.0, 0.0, 0.0, 0.0, 0.0, 0.0, 0.0, 0.0, 0.0, 0.0, 0.0, 0.0, 0.0, 0.0, 0.0, 0.0, 0.0, 0.0, 0.0, 0.0, 0.0, 0.0, 0.0, 0.0, 0.0, 0.0, 0.0, 0.0, 1.0, 0.0, 0.0, 0.0, 0.0, 0.0, 0.0, 0.0, 0.0, 0.0, 0.0, 0.0, 0.0, 0.0, 0.0, 0.0, 0.0, 0.0, 0.0, 0.0, 0.0, 0.0, 0.0, 0.0, 0.0, 0.0, 0.0, 0.0, 0.0, 0.0, 0.0, 0.0], "bins": [-6.472691893577576e-08, -6.472691893577576e-08, -6.472691893577576e-08, -6.472691893577576e-08, -6.472691893577576e-08, -6.472691893577576e-08, -6.472691893577576e-08, -6.472691893577576e-08, -6.472691893577576e-08, -6.472691893577576e-08, -6.472691893577576e-08, -6.472691893577576e-08, -6.472691893577576e-08, -6.472691893577576e-08, -6.472691893577576e-08, -6.472691893577576e-08, -6.472691893577576e-08, -6.472691893577576e-08, -6.472691893577576e-08, -6.472691893577576e-08, -6.472691893577576e-08, -6.472691893577576e-08, -6.472691893577576e-08, -6.472691893577576e-08, -6.472691893577576e-08, -6.472691893577576e-08, -6.472691893577576e-08, -6.472691893577576e-08, -6.472691893577576e-08, -6.472691893577576e-08, -6.472691893577576e-08, -6.472691893577576e-08, -6.472691893577576e-08, -6.472691893577576e-08, -6.472691893577576e-08, -6.472691893577576e-08, -6.472691893577576e-08, -6.472691893577576e-08, -6.472691893577576e-08, -6.472691893577576e-08, -6.472691893577576e-08, -6.472691893577576e-08, -6.472691893577576e-08, -6.472691893577576e-08, -6.472691893577576e-08, -6.472691893577576e-08, -6.472691893577576e-08, -6.472691893577576e-08, -6.472691893577576e-08, -6.472691893577576e-08, -6.472691893577576e-08, -6.472691893577576e-08, -6.472691893577576e-08, -6.472691893577576e-08, -6.472691893577576e-08, -6.472691893577576e-08, -6.472691893577576e-08, -6.472691893577576e-08, -6.472691893577576e-08, -6.472691893577576e-08, -6.472691893577576e-08, -6.472691893577576e-08, -6.472691893577576e-08, -6.472691893577576e-08, -6.472691893577576e-08]}, "gradients/graph_1encoder.conv2.bn.weight": {"_type": "histogram", "values": [1.0, 0.0, 0.0, 0.0, 0.0, 0.0, 0.0, 0.0, 0.0, 0.0, 0.0, 0.0, 0.0, 0.0, 0.0, 0.0, 0.0, 0.0, 0.0, 1.0, 0.0, 0.0, 0.0, 0.0, 0.0, 0.0, 0.0, 1.0, 1.0, 1.0, 0.0, 1.0, 0.0, 1.0, 0.0, 0.0, 0.0, 0.0, 1.0, 2.0, 2.0, 0.0, 0.0, 0.0, 0.0, 0.0, 0.0, 0.0, 0.0, 0.0, 0.0, 0.0, 0.0, 0.0, 0.0, 1.0, 0.0, 1.0, 0.0, 0.0, 1.0, 0.0, 0.0, 1.0], "bins": [-0.06588201224803925, -0.06414745002985, -0.062412895262241364, -0.060678333044052124, -0.05894377455115318, -0.05720921605825424, -0.0554746575653553, -0.05374009907245636, -0.05200553685426712, -0.05027097836136818, -0.04853641986846924, -0.0468018613755703, -0.045067302882671356, -0.04333274066448212, -0.041598185896873474, -0.039863623678684235, -0.038129065185785294, -0.03639450669288635, -0.03465994447469711, -0.03292538598179817, -0.03119082748889923, -0.02945626899600029, -0.02772171050310135, -0.025987152010202408, -0.024252593517303467, -0.022518031299114227, -0.020783472806215286, -0.019048914313316345, -0.017314355820417404, -0.015579797327518463, -0.013845235109329224, -0.012110676616430283, -0.01037612184882164, -0.008641563355922699, -0.006907004863023758, -0.005172442644834518, -0.0034378841519355774, -0.0017033256590366364, 3.123283386230469e-05, 0.0017657913267612457, 0.0035003535449504852, 0.005234912037849426, 0.006969470530748367, 0.008704029023647308, 0.01043858751654625, 0.01217314600944519, 0.01390770636498928, 0.01564226672053337, 0.017376825213432312, 0.019111383706331253, 0.020845944061875343, 0.022580502554774284, 0.024315062910318375, 0.026049621403217316, 0.027784179896116257, 0.029518738389015198, 0.03125330060720444, 0.03298785910010338, 0.03472241759300232, 0.03645697608590126, 0.0381915345788002, 0.03992609679698944, 0.04166065528988838, 0.04339521378278732, 0.045129772275686264]}, "gradients/graph_1encoder.conv2.bn.bias": {"_type": "histogram", "values": [1.0, 1.0, 1.0, 0.0, 0.0, 0.0, 0.0, 0.0, 0.0, 0.0, 0.0, 0.0, 0.0, 0.0, 0.0, 0.0, 0.0, 1.0, 0.0, 1.0, 0.0, 1.0, 0.0, 1.0, 0.0, 0.0, 1.0, 1.0, 0.0, 0.0, 1.0, 1.0, 1.0, 0.0, 0.0, 0.0, 0.0, 0.0, 0.0, 0.0, 0.0, 0.0, 1.0, 1.0, 0.0, 0.0, 1.0, 0.0, 0.0, 0.0, 0.0, 0.0, 0.0, 0.0, 0.0, 0.0, 0.0, 0.0, 0.0, 0.0, 0.0, 0.0, 0.0, 1.0], "bins": [-0.07877294719219208, -0.07615910470485687, -0.07354526221752167, -0.07093141973018646, -0.06831757724285126, -0.06570373475551605, -0.06308989226818085, -0.06047605350613594, -0.057862211018800735, -0.05524836853146553, -0.052634526044130325, -0.05002068728208542, -0.047406844794750214, -0.04479300230741501, -0.0421791598200798, -0.0395653173327446, -0.03695147484540939, -0.03433763235807419, -0.03172378987073898, -0.029109947383403778, -0.026496104896068573, -0.023882266134023666, -0.02126842364668846, -0.018654581159353256, -0.01604074239730835, -0.013426899909973145, -0.01081305742263794, -0.008199214935302734, -0.005585372447967529, -0.0029715299606323242, -0.00035768747329711914, 0.002256155014038086, 0.004869990050792694, 0.007483832538127899, 0.010097675025463104, 0.01271151751279831, 0.015325360000133514, 0.01793920248746872, 0.020553044974803925, 0.02316688746213913, 0.025780729949474335, 0.02839456871151924, 0.031008411198854446, 0.03362225368618965, 0.03623609244823456, 0.03884993493556976, 0.04146377742290497, 0.04407761991024017, 0.04669146239757538, 0.049305304884910583, 0.05191914737224579, 0.054532989859580994, 0.0571468323469162, 0.059760674834251404, 0.06237451359629631, 0.06498835980892181, 0.06760220229625702, 0.07021604478359222, 0.07282988727092743, 0.07544372230768204, 0.07805756479501724, 0.08067140728235245, 0.08328524976968765, 0.08589909225702286, 0.08851293474435806]}, "gradients/graph_1encoder.conv2.conv.weight": {"_type": "histogram", "values": [1.0, 0.0, 0.0, 0.0, 1.0, 2.0, 1.0, 0.0, 0.0, 2.0, 1.0, 2.0, 3.0, 2.0, 4.0, 2.0, 1.0, 6.0, 0.0, 4.0, 3.0, 1.0, 1.0, 3.0, 2.0, 7.0, 2.0, 7.0, 17.0, 8.0, 22.0, 18.0, 24.0, 35.0, 66.0, 56.0, 92.0, 153.0, 287.0, 452.0, 250.0, 147.0, 115.0, 54.0, 30.0, 39.0, 15.0, 21.0, 19.0, 10.0, 13.0, 9.0, 4.0, 7.0, 8.0, 4.0, 3.0, 5.0, 2.0, 0.0, 3.0, 0.0, 0.0, 2.0], "bins": [-0.47417569160461426, -0.46212396025657654, -0.4500722587108612, -0.4380205273628235, -0.42596879601478577, -0.41391709446907043, -0.4018653631210327, -0.3898136615753174, -0.37776193022727966, -0.36571019887924194, -0.3536584973335266, -0.3416067659854889, -0.32955503463745117, -0.31750333309173584, -0.3054516017436981, -0.2933998703956604, -0.28134816884994507, -0.26929643750190735, -0.25724470615386963, -0.2451929897069931, -0.23314127326011658, -0.22108954191207886, -0.20903784036636353, -0.1969861090183258, -0.18493437767028809, -0.17288267612457275, -0.16083094477653503, -0.14877921342849731, -0.13672751188278198, -0.12467578053474426, -0.11262404918670654, -0.10057234764099121, -0.08852061629295349, -0.07646888494491577, -0.06441718339920044, -0.05236545205116272, -0.040313720703125, -0.028262019157409668, -0.016210287809371948, -0.0041585564613342285, 0.007893145084381104, 0.019944876432418823, 0.03199660778045654, 0.044048309326171875, 0.056100040674209595, 0.06815175712108612, 0.08020347356796265, 0.09225520491600037, 0.10430692136287689, 0.11635863780975342, 0.12841036915779114, 0.14046208560466766, 0.1525138020515442, 0.1645655333995819, 0.17661724984645844, 0.18866896629333496, 0.20072069764137268, 0.2127724140882492, 0.22482413053512573, 0.23687586188316345, 0.24892757833003998, 0.2609792947769165, 0.2730310261249542, 0.28508272767066956, 0.2971344590187073]}, "gradients/graph_1encoder.conv2.conv.bias": {"_type": "histogram", "values": [1.0, 0.0, 0.0, 0.0, 0.0, 0.0, 0.0, 0.0, 0.0, 0.0, 0.0, 0.0, 1.0, 0.0, 0.0, 0.0, 0.0, 0.0, 0.0, 0.0, 0.0, 0.0, 0.0, 0.0, 0.0, 0.0, 0.0, 0.0, 0.0, 0.0, 1.0, 0.0, 0.0, 0.0, 1.0, 0.0, 1.0, 0.0, 0.0, 0.0, 0.0, 0.0, 0.0, 0.0, 1.0, 1.0, 1.0, 0.0, 0.0, 1.0, 0.0, 0.0, 0.0, 1.0, 1.0, 0.0, 3.0, 1.0, 0.0, 0.0, 0.0, 0.0, 0.0, 1.0], "bins": [-2.3515895009040833e-08, -2.299930201843381e-08, -2.2482709027826786e-08, -2.1966116037219763e-08, -2.144952304661274e-08, -2.0932930056005716e-08, -2.0416337065398693e-08, -1.989974407479167e-08, -1.9383151084184647e-08, -1.8866558093577623e-08, -1.83499651029706e-08, -1.7833372112363577e-08, -1.7316779121756554e-08, -1.680018613114953e-08, -1.6283593140542507e-08, -1.5767000149935484e-08, -1.525040715932846e-08, -1.4733814168721437e-08, -1.4217221178114414e-08, -1.3700628187507391e-08, -1.3184035196900368e-08, -1.2667442206293344e-08, -1.2150849215686321e-08, -1.1634256225079298e-08, -1.1117663234472275e-08, -1.0601070243865252e-08, -1.0084477253258228e-08, -9.567884262651205e-09, -9.051291272044182e-09, -8.534698281437159e-09, -8.018105290830135e-09, -7.501512300223112e-09, -6.984919309616089e-09, -6.468326319009066e-09, -5.951733328402042e-09, -5.435140337795019e-09, -4.918547347187996e-09, -4.401954356580973e-09, -3.8853613659739494e-09, -3.368768375366926e-09, -2.852175384759903e-09, -2.3355823941528797e-09, -1.8189894035458565e-09, -1.3023964129388332e-09, -7.8580342233181e-10, -2.6921043172478676e-10, 2.473825588822365e-10, 7.639755494892597e-10, 1.280568540096283e-09, 1.7971615307033062e-09, 2.3137545213103294e-09, 2.8303475119173527e-09, 3.346940502524376e-09, 3.863533493131399e-09, 4.380126483738422e-09, 4.896719474345446e-09, 5.413312464952469e-09, 5.929905455559492e-09, 6.446498446166515e-09, 6.963091436773539e-09, 7.479684427380562e-09, 7.996277417987585e-09, 8.512870408594608e-09, 9.029463399201632e-09, 9.546056389808655e-09]}, "gradients/graph_1encoder.conv1.bn.weight": {"_type": "histogram", "values": [1.0, 1.0, 0.0, 0.0, 0.0, 0.0, 0.0, 0.0, 0.0, 0.0, 0.0, 0.0, 1.0, 0.0, 1.0, 0.0, 0.0, 0.0, 0.0, 0.0, 0.0, 0.0, 0.0, 0.0, 0.0, 0.0, 0.0, 0.0, 0.0, 0.0, 0.0, 0.0, 1.0, 0.0, 3.0, 1.0, 1.0, 3.0, 1.0, 4.0, 1.0, 1.0, 1.0, 1.0, 1.0, 3.0, 1.0, 2.0, 0.0, 1.0, 0.0, 0.0, 0.0, 0.0, 0.0, 0.0, 0.0, 0.0, 0.0, 0.0, 0.0, 1.0, 0.0, 1.0], "bins": [-0.12111689150333405, -0.11794425547122955, -0.11477162688970566, -0.11159899085760117, -0.10842635482549667, -0.10525372624397278, -0.10208109021186829, -0.0989084541797638, -0.0957358181476593, -0.09256318211555481, -0.08939055353403091, -0.08621791750192642, -0.08304528892040253, -0.07987265288829803, -0.07670001685619354, -0.07352738082408905, -0.07035474479198456, -0.06718211621046066, -0.06400948017835617, -0.06083684787154198, -0.05766421556472778, -0.05449157953262329, -0.0513189435005188, -0.04814630746841431, -0.04497367888689041, -0.04180104285478592, -0.03862840682268143, -0.03545577824115753, -0.03228314220905304, -0.029110506176948547, -0.025937870144844055, -0.02276524156332016, -0.019592605531215668, -0.016419969499111176, -0.01324734091758728, -0.010074704885482788, -0.006902068853378296, -0.0037294328212738037, -0.0005568042397499084, 0.0026158317923545837, 0.005788467824459076, 0.008961096405982971, 0.012133732438087463, 0.015306368470191956, 0.018479004502296448, 0.02165163680911064, 0.024824269115924835, 0.027996905148029327, 0.03116953745484352, 0.034342169761657715, 0.03751480579376221, 0.0406874381005764, 0.04386007413268089, 0.04703270643949509, 0.05020534247159958, 0.05337797477841377, 0.056550607085227966, 0.05972324311733246, 0.06289587914943695, 0.06606851518154144, 0.06924114376306534, 0.07241377979516983, 0.07558641582727432, 0.07875904440879822, 0.08193168044090271]}, "gradients/graph_1encoder.conv1.bn.bias": {"_type": "histogram", "values": [1.0, 1.0, 0.0, 0.0, 0.0, 1.0, 0.0, 1.0, 0.0, 0.0, 0.0, 0.0, 1.0, 0.0, 0.0, 0.0, 1.0, 1.0, 0.0, 1.0, 2.0, 1.0, 0.0, 0.0, 0.0, 3.0, 2.0, 1.0, 0.0, 1.0, 2.0, 0.0, 0.0, 1.0, 0.0, 0.0, 0.0, 0.0, 0.0, 1.0, 1.0, 0.0, 1.0, 0.0, 0.0, 1.0, 0.0, 0.0, 1.0, 1.0, 0.0, 1.0, 0.0, 0.0, 0.0, 0.0, 1.0, 0.0, 1.0, 0.0, 1.0, 0.0, 0.0, 1.0], "bins": [-0.04642551392316818, -0.04453646391630173, -0.04264741390943527, -0.04075836390256882, -0.03886931389570236, -0.03698026388883591, -0.03509121388196945, -0.033202167600393295, -0.03131311759352684, -0.029424067586660385, -0.02753501757979393, -0.025645967572927475, -0.02375691756606102, -0.021867867559194565, -0.01997881941497326, -0.018089769408106804, -0.01620071940124035, -0.014311671257019043, -0.012422621250152588, -0.010533571243286133, -0.008644521236419678, -0.006755471229553223, -0.004866421222686768, -0.0029773712158203125, -0.0010883212089538574, 0.0008007287979125977, 0.0026897788047790527, 0.004578825086355209, 0.006467875093221664, 0.00835692510008812, 0.010245975106954575, 0.01213502511382103, 0.014024075120687485, 0.01591312512755394, 0.017802175134420395, 0.01969122514128685, 0.021580275148153305, 0.02346932515501976, 0.025358371436595917, 0.027247421443462372, 0.029136471450328827, 0.031025521457195282, 0.03291457146406174, 0.03480362147092819, 0.03669267147779465, 0.0385817214846611, 0.04047077149152756, 0.04235982149839401, 0.04424887150526047, 0.04613792151212692, 0.04802697151899338, 0.049916017800569534, 0.05180506780743599, 0.053694117814302444, 0.0555831678211689, 0.057472217828035355, 0.05936126783490181, 0.061250317841768265, 0.06313936412334442, 0.06502841413021088, 0.06691746413707733, 0.06880651414394379, 0.07069556415081024, 0.0725846141576767, 0.07447366416454315]}, "gradients/graph_1encoder.conv1.conv.weight": {"_type": "histogram", "values": [2.0, 0.0, 0.0, 0.0, 3.0, 1.0, 0.0, 0.0, 3.0, 4.0, 4.0, 3.0, 4.0, 6.0, 4.0, 5.0, 9.0, 9.0, 12.0, 6.0, 19.0, 21.0, 21.0, 26.0, 43.0, 48.0, 70.0, 89.0, 83.0, 114.0, 123.0, 137.0, 314.0, 185.0, 136.0, 111.0, 98.0, 79.0, 46.0, 34.0, 42.0, 22.0, 22.0, 13.0, 18.0, 10.0, 4.0, 10.0, 3.0, 5.0, 7.0, 5.0, 3.0, 0.0, 1.0, 1.0, 1.0, 1.0, 0.0, 2.0, 1.0, 4.0, 0.0, 1.0], "bins": [-0.2402503788471222, -0.23290404677391052, -0.22555769979953766, -0.218211367726326, -0.21086502075195312, -0.20351868867874146, -0.19617235660552979, -0.18882600963115692, -0.18147966265678406, -0.1741333305835724, -0.16678699851036072, -0.15944065153598785, -0.15209431946277618, -0.14474797248840332, -0.13740164041519165, -0.13005530834197998, -0.12270896136760712, -0.11536262184381485, -0.10801628232002258, -0.10066995024681091, -0.09332360327243805, -0.08597727119922638, -0.07863092422485352, -0.07128459215164185, -0.06393826007843018, -0.05659191310405731, -0.04924558103084564, -0.04189923405647278, -0.03455290198326111, -0.027206555008888245, -0.019860222935676575, -0.012513875961303711, -0.005167543888092041, 0.002178788185119629, 0.009525135159492493, 0.016871467232704163, 0.024217814207077026, 0.031564146280288696, 0.03891049325466156, 0.04625682532787323, 0.053603172302246094, 0.060949504375457764, 0.06829583644866943, 0.0756421834230423, 0.08298851549625397, 0.09033486247062683, 0.0976811945438385, 0.10502753406763077, 0.11237387359142303, 0.1197202131152153, 0.12706655263900757, 0.13441288471221924, 0.1417592316865921, 0.14910556375980377, 0.15645191073417664, 0.1637982428073883, 0.17114457488059998, 0.17849092185497284, 0.1858372688293457, 0.19318360090255737, 0.20052993297576904, 0.2078762799501419, 0.21522261202335358, 0.22256895899772644, 0.2299152910709381]}, "gradients/graph_1encoder.conv1.conv.bias": {"_type": "histogram", "values": [1.0, 0.0, 1.0, 1.0, 1.0, 1.0, 0.0, 0.0, 1.0, 0.0, 0.0, 2.0, 0.0, 1.0, 0.0, 0.0, 0.0, 0.0, 1.0, 2.0, 1.0, 2.0, 0.0, 0.0, 1.0, 2.0, 1.0, 1.0, 1.0, 0.0, 0.0, 1.0, 2.0, 2.0, 0.0, 2.0, 0.0, 0.0, 0.0, 0.0, 0.0, 0.0, 0.0, 0.0, 1.0, 0.0, 0.0, 0.0, 0.0, 0.0, 0.0, 0.0, 1.0, 0.0, 0.0, 0.0, 0.0, 0.0, 0.0, 0.0, 0.0, 0.0, 1.0, 1.0], "bins": [-7.039488991722465e-10, -6.778293482057052e-10, -6.517097972391639e-10, -6.255902462726226e-10, -5.994706953060813e-10, -5.7335114433954e-10, -5.472315933729988e-10, -5.211120424064575e-10, -4.949924914399162e-10, -4.688729404733749e-10, -4.4275338950683363e-10, -4.1663383854029234e-10, -3.9051428757375106e-10, -3.643947366072098e-10, -3.382751856406685e-10, -3.121556346741272e-10, -2.8603608370758593e-10, -2.5991653274104465e-10, -2.3379698177450337e-10, -2.0767743080796208e-10, -1.815578798414208e-10, -1.5543832887487952e-10, -1.2931877790833823e-10, -1.0319922694179695e-10, -7.707967597525567e-11, -5.0960125008714385e-11, -2.4840574042173102e-11, 1.2789769243681803e-12, 2.7398527890909463e-11, 5.3518078857450746e-11, 7.963762982399203e-11, 1.0575718079053331e-10, 1.318767317570746e-10, 1.5799628272361588e-10, 1.8411583369015716e-10, 2.1023538465669844e-10, 2.363549356232397e-10, 2.62474486589781e-10, 2.885940375563223e-10, 3.147135885228636e-10, 3.4083313948940486e-10, 3.6695269045594614e-10, 3.930722414224874e-10, 4.191917923890287e-10, 4.4531134335557e-10, 4.714308943221113e-10, 4.975504452886526e-10, 5.236699962551938e-10, 5.497895472217351e-10, 5.759090981882764e-10, 6.020286491548177e-10, 6.28148200121359e-10, 6.542677510879003e-10, 6.803873020544415e-10, 7.065068530209828e-10, 7.326264039875241e-10, 7.587459549540654e-10, 7.848655059206067e-10, 8.109850568871479e-10, 8.371046078536892e-10, 8.632241588202305e-10, 8.893437097867718e-10, 9.154632607533131e-10, 9.415828117198544e-10, 9.677023626863956e-10]}, "_wandb": {"runtime": 189}}