{"running train loss": 0.00019129183033328445, "running learning rate": 0.00029999811141943216, "training ssim": 0.023966265842318535, "training psnr": 4.7981977462768555, "_timestamp": 1678818481.0648372, "_runtime": 547.5976221561432, "_step": 5799, "running valid loss": 0.0005205305351410061, "predictions": {"_type": "image-file", "sha256": "c393094565a88aa78ca1558b84aef20394b0c2ea3c2cd49431960ee0f21a6b81", "size": 125919, "path": "media/images/predictions_5798_c393094565a88aa78ca1.png", "format": "png", "width": 1200, "height": 1200}, "validation ssim": 0.022673867642879486, "validation psnr": 4.816878318786621, "lr": 0.00029999811141943216, "train loss": 0.00019129183033328445, "valid loss": 0.0005205305351410061, "gradients/decoder.conv6.bn.weight": {"_type": "histogram", "values": [0.0, 0.0, 0.0, 0.0, 0.0, 0.0, 0.0, 0.0, 0.0, 0.0, 0.0, 0.0, 0.0, 0.0, 0.0, 0.0, 0.0, 0.0, 0.0, 0.0, 0.0, 0.0, 0.0, 0.0, 0.0, 0.0, 0.0, 0.0, 0.0, 0.0, 0.0, 1.0, 0.0, 0.0, 0.0, 0.0, 0.0, 0.0, 0.0, 0.0, 0.0, 0.0, 0.0, 0.0, 0.0, 0.0, 0.0, 0.0, 0.0, 0.0, 0.0, 0.0, 0.0, 0.0, 0.0, 0.0, 0.0, 0.0, 0.0, 0.0, 0.0, 0.0, 0.0, 0.0], "bins": [-6.84594051563181e-05, -6.84594051563181e-05, -6.84594051563181e-05, -6.84594051563181e-05, -6.84594051563181e-05, -6.84594051563181e-05, -6.84594051563181e-05, -6.84594051563181e-05, -6.84594051563181e-05, -6.84594051563181e-05, -6.84594051563181e-05, -6.84594051563181e-05, -6.84594051563181e-05, -6.84594051563181e-05, -6.84594051563181e-05, -6.84594051563181e-05, -6.84594051563181e-05, -6.84594051563181e-05, -6.84594051563181e-05, -6.84594051563181e-05, -6.84594051563181e-05, -6.84594051563181e-05, -6.84594051563181e-05, -6.84594051563181e-05, -6.84594051563181e-05, -6.84594051563181e-05, -6.84594051563181e-05, -6.84594051563181e-05, -6.84594051563181e-05, -6.84594051563181e-05, -6.84594051563181e-05, -6.84594051563181e-05, -6.84594051563181e-05, -6.84594051563181e-05, -6.84594051563181e-05, -6.84594051563181e-05, -6.84594051563181e-05, -6.84594051563181e-05, -6.84594051563181e-05, -6.84594051563181e-05, -6.84594051563181e-05, -6.84594051563181e-05, -6.84594051563181e-05, -6.84594051563181e-05, -6.84594051563181e-05, -6.84594051563181e-05, -6.84594051563181e-05, -6.84594051563181e-05, -6.84594051563181e-05, -6.84594051563181e-05, -6.84594051563181e-05, -6.84594051563181e-05, -6.84594051563181e-05, -6.84594051563181e-05, -6.84594051563181e-05, -6.84594051563181e-05, -6.84594051563181e-05, -6.84594051563181e-05, -6.84594051563181e-05, -6.84594051563181e-05, -6.84594051563181e-05, -6.84594051563181e-05, -6.84594051563181e-05, -6.84594051563181e-05, -6.84594051563181e-05]}, "gradients/decoder.conv6.bn.bias": {"_type": "histogram", "values": [0.0, 0.0, 0.0, 0.0, 0.0, 0.0, 0.0, 0.0, 0.0, 0.0, 0.0, 0.0, 0.0, 0.0, 0.0, 0.0, 0.0, 0.0, 0.0, 0.0, 0.0, 0.0, 0.0, 0.0, 0.0, 0.0, 0.0, 0.0, 0.0, 0.0, 0.0, 0.0, 1.0, 0.0, 0.0, 0.0, 0.0, 0.0, 0.0, 0.0, 0.0, 0.0, 0.0, 0.0, 0.0, 0.0, 0.0, 0.0, 0.0, 0.0, 0.0, 0.0, 0.0, 0.0, 0.0, 0.0, 0.0, 0.0, 0.0, 0.0, 0.0, 0.0, 0.0, 0.0], "bins": [-5.0252747314516455e-05, -5.0252747314516455e-05, -5.0252747314516455e-05, -5.0252747314516455e-05, -5.0252747314516455e-05, -5.0252747314516455e-05, -5.0252747314516455e-05, -5.0252747314516455e-05, -5.0252747314516455e-05, -5.0252747314516455e-05, -5.0252747314516455e-05, -5.0252747314516455e-05, -5.0252747314516455e-05, -5.0252747314516455e-05, -5.0252747314516455e-05, -5.0252747314516455e-05, -5.0252747314516455e-05, -5.0252747314516455e-05, -5.0252747314516455e-05, -5.0252747314516455e-05, -5.0252747314516455e-05, -5.0252747314516455e-05, -5.0252747314516455e-05, -5.0252747314516455e-05, -5.0252747314516455e-05, -5.0252747314516455e-05, -5.0252747314516455e-05, -5.0252747314516455e-05, -5.0252747314516455e-05, -5.0252747314516455e-05, -5.0252747314516455e-05, -5.0252747314516455e-05, -5.0252747314516455e-05, -5.0252747314516455e-05, -5.0252747314516455e-05, -5.0252747314516455e-05, -5.0252747314516455e-05, -5.0252747314516455e-05, -5.0252747314516455e-05, -5.0252747314516455e-05, -5.0252747314516455e-05, -5.0252747314516455e-05, -5.0252747314516455e-05, -5.0252747314516455e-05, -5.0252747314516455e-05, -5.0252747314516455e-05, -5.0252747314516455e-05, -5.0252747314516455e-05, -5.0252747314516455e-05, -5.0252747314516455e-05, -5.0252747314516455e-05, -5.0252747314516455e-05, -5.0252747314516455e-05, -5.0252747314516455e-05, -5.0252747314516455e-05, -5.0252747314516455e-05, -5.0252747314516455e-05, -5.0252747314516455e-05, -5.0252747314516455e-05, -5.0252747314516455e-05, -5.0252747314516455e-05, -5.0252747314516455e-05, -5.0252747314516455e-05, -5.0252747314516455e-05, -5.0252747314516455e-05]}, "gradients/decoder.conv6.conv.weight": {"_type": "histogram", "values": [1.0, 1.0, 0.0, 0.0, 0.0, 1.0, 0.0, 0.0, 0.0, 0.0, 1.0, 1.0, 1.0, 0.0, 0.0, 0.0, 1.0, 2.0, 0.0, 0.0, 0.0, 2.0, 2.0, 4.0, 0.0, 6.0, 3.0, 2.0, 2.0, 5.0, 5.0, 8.0, 7.0, 3.0, 6.0, 2.0, 4.0, 3.0, 6.0, 4.0, 5.0, 1.0, 3.0, 2.0, 2.0, 3.0, 2.0, 0.0, 2.0, 2.0, 3.0, 2.0, 3.0, 2.0, 1.0, 4.0, 0.0, 1.0, 0.0, 1.0, 1.0, 1.0, 1.0, 3.0], "bins": [-1.3060963283351157e-05, -1.2543550838017836e-05, -1.2026137483189814e-05, -1.1508725037856493e-05, -1.0991312592523172e-05, -1.047389923769515e-05, -9.95648679236183e-06, -9.439074347028509e-06, -8.921660992200486e-06, -8.404248546867166e-06, -7.886836101533845e-06, -7.3694232014531735e-06, -6.852010301372502e-06, -6.334597856039181e-06, -5.81718495595851e-06, -5.299772055877838e-06, -4.782359610544518e-06, -4.264947165211197e-06, -3.7475338103831746e-06, -3.230121365049854e-06, -2.7127089197165333e-06, -2.195295564888511e-06, -1.6778831195551902e-06, -1.1604706742218696e-06, -6.430573193938471e-07, -1.256448740605265e-07, 3.9176757127279416e-07, 9.091800166061148e-07, 1.4265933714341372e-06, 1.944005816767458e-06, 2.4614191715954803e-06, 2.978830707434099e-06, 3.4962449717568234e-06, 4.013658326584846e-06, 4.531069862423465e-06, 5.048483217251487e-06, 5.565895662584808e-06, 6.08330901741283e-06, 6.600721462746151e-06, 7.1181339080794714e-06, 7.635546353412792e-06, 8.152959708240815e-06, 8.670372153574135e-06, 9.187784598907456e-06, 9.705197953735478e-06, 1.0222610399068799e-05, 1.074002284440212e-05, 1.1257436199230142e-05, 1.1774848644563463e-05, 1.2292261089896783e-05, 1.2809674444724806e-05, 1.3327086890058126e-05, 1.3844499335391447e-05, 1.436191269021947e-05, 1.487932513555279e-05, 1.539673758088611e-05, 1.5914150935714133e-05, 1.6431562471552752e-05, 1.6948975826380774e-05, 1.7466389181208797e-05, 1.7983800717047416e-05, 1.8501214071875438e-05, 1.901862742670346e-05, 1.953603896254208e-05, 2.0053452317370102e-05]}, "gradients/decoder.conv6.conv.bias": {"_type": "histogram", "values": [0.0, 0.0, 0.0, 0.0, 0.0, 0.0, 0.0, 0.0, 0.0, 0.0, 0.0, 0.0, 0.0, 0.0, 0.0, 0.0, 0.0, 0.0, 0.0, 0.0, 0.0, 0.0, 0.0, 0.0, 0.0, 0.0, 0.0, 0.0, 0.0, 0.0, 0.0, 0.0, 1.0, 0.0, 0.0, 0.0, 0.0, 0.0, 0.0, 0.0, 0.0, 0.0, 0.0, 0.0, 0.0, 0.0, 0.0, 0.0, 0.0, 0.0, 0.0, 0.0, 0.0, 0.0, 0.0, 0.0, 0.0, 0.0, 0.0, 0.0, 0.0, 0.0, 0.0, 0.0], "bins": [-1.0913936421275139e-11, -1.0913936421275139e-11, -1.0913936421275139e-11, -1.0913936421275139e-11, -1.0913936421275139e-11, -1.0913936421275139e-11, -1.0913936421275139e-11, -1.0913936421275139e-11, -1.0913936421275139e-11, -1.0913936421275139e-11, -1.0913936421275139e-11, -1.0913936421275139e-11, -1.0913936421275139e-11, -1.0913936421275139e-11, -1.0913936421275139e-11, -1.0913936421275139e-11, -1.0913936421275139e-11, -1.0913936421275139e-11, -1.0913936421275139e-11, -1.0913936421275139e-11, -1.0913936421275139e-11, -1.0913936421275139e-11, -1.0913936421275139e-11, -1.0913936421275139e-11, -1.0913936421275139e-11, -1.0913936421275139e-11, -1.0913936421275139e-11, -1.0913936421275139e-11, -1.0913936421275139e-11, -1.0913936421275139e-11, -1.0913936421275139e-11, -1.0913936421275139e-11, -1.0913936421275139e-11, -1.0913936421275139e-11, -1.0913936421275139e-11, -1.0913936421275139e-11, -1.0913936421275139e-11, -1.0913936421275139e-11, -1.0913936421275139e-11, -1.0913936421275139e-11, -1.0913936421275139e-11, -1.0913936421275139e-11, -1.0913936421275139e-11, -1.0913936421275139e-11, -1.0913936421275139e-11, -1.0913936421275139e-11, -1.0913936421275139e-11, -1.0913936421275139e-11, -1.0913936421275139e-11, -1.0913936421275139e-11, -1.0913936421275139e-11, -1.0913936421275139e-11, -1.0913936421275139e-11, -1.0913936421275139e-11, -1.0913936421275139e-11, -1.0913936421275139e-11, -1.0913936421275139e-11, -1.0913936421275139e-11, -1.0913936421275139e-11, -1.0913936421275139e-11, -1.0913936421275139e-11, -1.0913936421275139e-11, -1.0913936421275139e-11, -1.0913936421275139e-11, -1.0913936421275139e-11]}, "gradients/decoder.conv5.bn.weight": {"_type": "histogram", "values": [1.0, 0.0, 0.0, 0.0, 0.0, 0.0, 0.0, 0.0, 0.0, 0.0, 1.0, 0.0, 0.0, 0.0, 0.0, 1.0, 2.0, 0.0, 0.0, 0.0, 0.0, 1.0, 1.0, 0.0, 0.0, 0.0, 0.0, 0.0, 0.0, 0.0, 0.0, 0.0, 0.0, 0.0, 0.0, 0.0, 0.0, 0.0, 0.0, 0.0, 0.0, 0.0, 0.0, 0.0, 0.0, 0.0, 0.0, 0.0, 0.0, 0.0, 0.0, 0.0, 0.0, 0.0, 0.0, 0.0, 0.0, 0.0, 0.0, 0.0, 0.0, 0.0, 0.0, 1.0], "bins": [-1.00453726190608e-05, -9.564408173901029e-06, -9.08344463823596e-06, -8.60248019307619e-06, -8.12151665741112e-06, -7.64055221225135e-06, -7.159588221838931e-06, -6.678624231426511e-06, -6.197660241014091e-06, -5.716696250601672e-06, -5.235732260189252e-06, -4.754768269776832e-06, -4.273803824617062e-06, -3.792839834204642e-06, -3.3118758437922224e-06, -2.8309118533798028e-06, -2.349947862967383e-06, -1.8689834178076126e-06, -1.3880198821425438e-06, -9.070554369827732e-07, -4.2609190131770447e-07, 5.487254384206608e-08, 5.358360795071349e-07, 1.0168005246669054e-06, 1.497764969826676e-06, 1.9787285054917447e-06, 2.4596929506515153e-06, 2.940656486316584e-06, 3.4216209314763546e-06, 3.902584467141423e-06, 4.383548912301194e-06, 4.864512447966263e-06, 5.345476893126033e-06, 5.826441338285804e-06, 6.3074048739508726e-06, 6.788369319110643e-06, 7.269332854775712e-06, 7.750297299935482e-06, 8.231260835600551e-06, 8.712225280760322e-06, 9.19318881642539e-06, 9.674153261585161e-06, 1.0155117706744932e-05, 1.063608124241e-05, 1.1117045687569771e-05, 1.159800922323484e-05, 1.207897366839461e-05, 1.2559937204059679e-05, 1.304090164921945e-05, 1.3521865184884518e-05, 1.4002829630044289e-05, 1.448379407520406e-05, 1.4964757610869128e-05, 1.54457229655236e-05, 1.5926685591693968e-05, 1.6407650036853738e-05, 1.688861448201351e-05, 1.7369577108183876e-05, 1.7850541553343646e-05, 1.8331505998503417e-05, 1.8812470443663187e-05, 1.9293434888822958e-05, 1.9774397514993325e-05, 2.0255361960153095e-05, 2.0736326405312866e-05]}, "gradients/decoder.conv5.bn.bias": {"_type": "histogram", "values": [1.0, 0.0, 0.0, 0.0, 1.0, 0.0, 0.0, 0.0, 0.0, 0.0, 0.0, 1.0, 0.0, 0.0, 0.0, 0.0, 0.0, 0.0, 0.0, 0.0, 0.0, 0.0, 0.0, 0.0, 0.0, 0.0, 0.0, 0.0, 2.0, 0.0, 0.0, 1.0, 0.0, 0.0, 0.0, 0.0, 0.0, 0.0, 0.0, 0.0, 0.0, 0.0, 0.0, 1.0, 0.0, 0.0, 0.0, 0.0, 0.0, 0.0, 0.0, 0.0, 0.0, 0.0, 0.0, 0.0, 0.0, 0.0, 0.0, 0.0, 0.0, 0.0, 0.0, 1.0], "bins": [-9.190905075229239e-06, -8.946736670623068e-06, -8.702568266016897e-06, -8.458398951916024e-06, -8.214230547309853e-06, -7.970062142703682e-06, -7.725893738097511e-06, -7.48172533349134e-06, -7.237556928885169e-06, -6.9933880695316475e-06, -6.7492196649254765e-06, -6.505050805571955e-06, -6.260882400965784e-06, -6.016713996359613e-06, -5.772545591753442e-06, -5.528377187147271e-06, -5.284208327793749e-06, -5.040039923187578e-06, -4.795871063834056e-06, -4.551702659227885e-06, -4.307534254621714e-06, -4.0633653952681925e-06, -3.8191969906620216e-06, -3.5750285860558506e-06, -3.3308597267023288e-06, -3.086691322096158e-06, -2.842522917489987e-06, -2.598354512883816e-06, -2.354185653530294e-06, -2.110017248924123e-06, -1.8658488443179522e-06, -1.6216799849644303e-06, -1.3775120351056103e-06, -1.1333436304994393e-06, -8.891747711459175e-07, -6.450063665397465e-07, -4.0083796193357557e-07, -1.5666910258005373e-07, 8.749930202611722e-08, 3.3166770663228817e-07, 5.758361112384591e-07, 8.20004970591981e-07, 1.064173375198152e-06, 1.3083417798043229e-06, 1.5525106391578447e-06, 1.7966790437640157e-06, 2.0408474483701866e-06, 2.2850163077237085e-06, 2.5291847123298794e-06, 2.773353344309726e-06, 3.0175217489158968e-06, 3.261690380895743e-06, 3.505858785501914e-06, 3.7500274174817605e-06, 3.994196049461607e-06, 4.238364454067778e-06, 4.482532858673949e-06, 4.726701718027471e-06, 4.970870122633642e-06, 5.2150389819871634e-06, 5.459207386593334e-06, 5.703375791199505e-06, 5.947544195805676e-06, 6.191713055159198e-06, 6.435881459765369e-06]}, "gradients/decoder.conv5.conv.weight": {"_type": "histogram", "values": [1.0, 0.0, 0.0, 0.0, 0.0, 0.0, 0.0, 0.0, 0.0, 2.0, 2.0, 0.0, 1.0, 3.0, 6.0, 6.0, 9.0, 18.0, 16.0, 15.0, 28.0, 40.0, 45.0, 64.0, 77.0, 115.0, 134.0, 166.0, 192.0, 208.0, 167.0, 154.0, 140.0, 102.0, 76.0, 60.0, 42.0, 39.0, 26.0, 17.0, 16.0, 17.0, 4.0, 7.0, 5.0, 4.0, 6.0, 5.0, 4.0, 3.0, 1.0, 0.0, 1.0, 1.0, 0.0, 0.0, 0.0, 1.0, 0.0, 1.0, 0.0, 0.0, 0.0, 1.0], "bins": [-2.858229163393844e-05, -2.761376708804164e-05, -2.6645244361134246e-05, -2.5676719815237448e-05, -2.470819526934065e-05, -2.3739672542433254e-05, -2.2771147996536456e-05, -2.180262526962906e-05, -2.0834100723732263e-05, -1.9865576177835464e-05, -1.889705345092807e-05, -1.792852890503127e-05, -1.6960006178123876e-05, -1.5991481632227078e-05, -1.502295708633028e-05, -1.4054433449928183e-05, -1.3085909813526087e-05, -1.2117385267629288e-05, -1.1148862540721893e-05, -1.0180337994825095e-05, -9.2118152679177e-06, -8.243290722020902e-06, -7.274766176124103e-06, -6.3062434492167085e-06, -5.33771890331991e-06, -4.369194357423112e-06, -3.400671630515717e-06, -2.4321470846189186e-06, -1.4636225387221202e-06, -4.950998118147254e-07, 4.7342473408207297e-07, 1.4419474609894678e-06, 2.4104738258756697e-06, 3.378998371772468e-06, 4.347521098679863e-06, 5.316045644576661e-06, 6.284568371484056e-06, 7.2530929173808545e-06, 8.221617463277653e-06, 9.190140190185048e-06, 1.0158664736081846e-05, 1.1127189281978644e-05, 1.209571200888604e-05, 1.3064236554782838e-05, 1.4032761100679636e-05, 1.500128382758703e-05, 1.596980837348383e-05, 1.6938331100391224e-05, 1.7906855646288022e-05, 1.887538019218482e-05, 1.9843902919092216e-05, 2.0812427464989014e-05, 2.178095019189641e-05, 2.2749474737793207e-05, 2.3717999283690006e-05, 2.4686523829586804e-05, 2.56550465564942e-05, 2.6623569283401594e-05, 2.7592093829298392e-05, 2.856061837519519e-05, 2.952914292109199e-05, 3.0497665647999384e-05, 3.146618837490678e-05, 3.243471292080358e-05, 3.3403237466700375e-05]}, "gradients/decoder.conv5.conv.bias": {"_type": "histogram", "values": [1.0, 0.0, 0.0, 0.0, 0.0, 0.0, 0.0, 0.0, 0.0, 0.0, 0.0, 0.0, 0.0, 0.0, 0.0, 0.0, 0.0, 0.0, 0.0, 0.0, 0.0, 0.0, 0.0, 0.0, 0.0, 0.0, 0.0, 0.0, 0.0, 0.0, 0.0, 0.0, 0.0, 0.0, 0.0, 0.0, 0.0, 0.0, 0.0, 0.0, 0.0, 0.0, 0.0, 0.0, 1.0, 0.0, 0.0, 0.0, 0.0, 0.0, 3.0, 0.0, 0.0, 0.0, 0.0, 0.0, 1.0, 0.0, 0.0, 0.0, 1.0, 0.0, 0.0, 1.0], "bins": [-2.637534635141492e-11, -2.5870861009025248e-11, -2.5366375666635577e-11, -2.4861890324245906e-11, -2.4357404981856234e-11, -2.3852919639466563e-11, -2.3348434297076892e-11, -2.284394895468722e-11, -2.233946361229755e-11, -2.183497826990788e-11, -2.1330492927518208e-11, -2.0826007585128536e-11, -2.0321522242738865e-11, -1.9817036900349194e-11, -1.9312551557959523e-11, -1.8808066215569852e-11, -1.830358087318018e-11, -1.779909553079051e-11, -1.729461018840084e-11, -1.6790124846011167e-11, -1.6285639503621496e-11, -1.5781154161231825e-11, -1.5276668818842154e-11, -1.4772183476452483e-11, -1.4267698134062812e-11, -1.376321279167314e-11, -1.325872744928347e-11, -1.2754242106893798e-11, -1.2249756764504127e-11, -1.1745271422114456e-11, -1.1240786079724785e-11, -1.0736300737335114e-11, -1.0231815394945443e-11, -9.727330052555772e-12, -9.2228447101661e-12, -8.71835936777643e-12, -8.213874025386758e-12, -7.709388682997087e-12, -7.204903340607416e-12, -6.700417998217745e-12, -6.195932655828074e-12, -5.6914473134384025e-12, -5.186961971048731e-12, -4.68247662865906e-12, -4.177991286269389e-12, -3.673505943879718e-12, -3.169020601490047e-12, -2.6645352591003757e-12, -2.1600499167107046e-12, -1.6555645743210334e-12, -1.1510792319313623e-12, -6.465938895416912e-13, -1.4210854715202004e-13, 3.623767952376511e-13, 8.668621376273222e-13, 1.3713474800169934e-12, 1.8758328224066645e-12, 2.3803181647963356e-12, 2.8848035071860068e-12, 3.389288849575678e-12, 3.893774191965349e-12, 4.39825953435502e-12, 4.902744876744691e-12, 5.4072302191343624e-12, 5.9117155615240335e-12]}, "gradients/decoder.conv4.bn.weight": {"_type": "histogram", "values": [1.0, 0.0, 0.0, 0.0, 0.0, 0.0, 0.0, 0.0, 0.0, 0.0, 1.0, 0.0, 1.0, 0.0, 0.0, 0.0, 0.0, 0.0, 1.0, 0.0, 1.0, 0.0, 0.0, 0.0, 0.0, 0.0, 0.0, 0.0, 0.0, 0.0, 1.0, 1.0, 0.0, 0.0, 1.0, 0.0, 0.0, 0.0, 1.0, 0.0, 0.0, 0.0, 1.0, 0.0, 0.0, 1.0, 1.0, 0.0, 0.0, 0.0, 1.0, 0.0, 0.0, 1.0, 0.0, 1.0, 0.0, 0.0, 0.0, 0.0, 0.0, 0.0, 0.0, 1.0], "bins": [-7.326537797780475e-06, -7.117655513866339e-06, -6.908773684699554e-06, -6.699891400785418e-06, -6.4910091168712825e-06, -6.2821272877044976e-06, -6.073245003790362e-06, -5.864362719876226e-06, -5.655480890709441e-06, -5.446599061542656e-06, -5.2377167776285205e-06, -5.028834493714385e-06, -4.8199526645476e-06, -4.611070380633464e-06, -4.402188096719328e-06, -4.1933062675525434e-06, -3.984423983638408e-06, -3.7755419270979473e-06, -3.566659870557487e-06, -3.3577775866433512e-06, -3.1488957574765664e-06, -2.9400134735624306e-06, -2.731131189648295e-06, -2.52224936048151e-06, -2.313367076567374e-06, -2.1044847926532384e-06, -1.8956029634864535e-06, -1.6867206795723177e-06, -1.477838395658182e-06, -1.268956566491397e-06, -1.0600742825772613e-06, -8.511924534104764e-07, -6.423097147489898e-07, -4.33427430834854e-07, -2.2454560166806914e-07, -1.566331775393337e-08, 1.932185114128515e-07, 4.021007953269873e-07, 6.10983079241123e-07, 8.198649084079079e-07, 1.0287471923220437e-06, 1.2376294762361795e-06, 1.4465113054029644e-06, 1.6553935893171001e-06, 1.8642758732312359e-06, 2.0731577023980208e-06, 2.2820399863121565e-06, 2.490922042852617e-06, 2.699804099393077e-06, 2.9086861559335375e-06, 3.117568212473998e-06, 3.3264504963881336e-06, 3.535332552928594e-06, 3.7442146094690543e-06, 3.95309689338319e-06, 4.161978722549975e-06, 4.370861006464111e-06, 4.5797432903782465e-06, 4.788625119545031e-06, 4.997507403459167e-06, 5.206389687373303e-06, 5.415271516540088e-06, 5.6241538004542235e-06, 5.833035629621008e-06, 6.041917913535144e-06]}, "gradients/decoder.conv4.bn.bias": {"_type": "histogram", "values": [1.0, 0.0, 0.0, 0.0, 0.0, 0.0, 0.0, 0.0, 0.0, 0.0, 0.0, 0.0, 0.0, 0.0, 0.0, 0.0, 0.0, 0.0, 0.0, 0.0, 0.0, 0.0, 0.0, 0.0, 0.0, 0.0, 0.0, 0.0, 0.0, 0.0, 0.0, 0.0, 1.0, 0.0, 0.0, 1.0, 0.0, 0.0, 2.0, 0.0, 0.0, 0.0, 2.0, 0.0, 1.0, 0.0, 0.0, 1.0, 1.0, 0.0, 0.0, 0.0, 1.0, 0.0, 0.0, 1.0, 0.0, 2.0, 0.0, 1.0, 0.0, 0.0, 0.0, 1.0], "bins": [-6.392186605808092e-06, -6.25694565314916e-06, -6.121704700490227e-06, -5.986463747831294e-06, -5.851222795172362e-06, -5.715981842513429e-06, -5.580740889854496e-06, -5.445499482448213e-06, -5.31025852978928e-06, -5.1750175771303475e-06, -5.039776624471415e-06, -4.904535671812482e-06, -4.7692947191535495e-06, -4.634053766494617e-06, -4.498812813835684e-06, -4.3635718611767516e-06, -4.228330908517819e-06, -4.093089955858886e-06, -3.957849003199954e-06, -3.822608050541021e-06, -3.6873670978820883e-06, -3.55212591784948e-06, -3.4168849651905475e-06, -3.281644012531615e-06, -3.146403059872682e-06, -3.0111621072137496e-06, -2.875921154554817e-06, -2.7406802018958842e-06, -2.605439021863276e-06, -2.4701980692043435e-06, -2.334957116545411e-06, -2.199716163886478e-06, -2.064475438601221e-06, -1.9292344859422883e-06, -1.7939935332833556e-06, -1.658752580624423e-06, -1.5235116279654903e-06, -1.3882704479328822e-06, -1.2530294952739496e-06, -1.117788542615017e-06, -9.825475899560843e-07, -8.473066372971516e-07, -7.12065684638219e-07, -5.768247319792863e-07, -4.415835519466782e-07, -3.0634259928774554e-07, -1.711016466288129e-07, -3.586069396988023e-08, 9.938025868905243e-08, 2.3462121134798508e-07, 3.6986216400691774e-07, 5.051032303526881e-07, 6.403441830116208e-07, 7.755851356705534e-07, 9.108262020163238e-07, 1.0460671546752565e-06, 1.1813081073341891e-06, 1.3165490599931218e-06, 1.4517900126520544e-06, 1.5870310789978248e-06, 1.7222720316567575e-06, 1.8575129843156901e-06, 1.9927540506614605e-06, 2.127995003320393e-06, 2.263235955979326e-06]}, "gradients/decoder.conv4.conv.weight": {"_type": "histogram", "values": [1.0, 0.0, 1.0, 1.0, 0.0, 1.0, 3.0, 1.0, 3.0, 1.0, 7.0, 4.0, 5.0, 12.0, 16.0, 28.0, 29.0, 40.0, 52.0, 61.0, 88.0, 145.0, 177.0, 228.0, 291.0, 418.0, 548.0, 774.0, 949.0, 959.0, 819.0, 652.0, 498.0, 373.0, 287.0, 189.0, 144.0, 100.0, 85.0, 46.0, 32.0, 32.0, 24.0, 21.0, 16.0, 9.0, 7.0, 2.0, 3.0, 4.0, 1.0, 0.0, 2.0, 2.0, 0.0, 0.0, 0.0, 0.0, 0.0, 0.0, 0.0, 0.0, 0.0, 1.0], "bins": [-1.5122440345294308e-05, -1.4601599104935303e-05, -1.4080758774071e-05, -1.3559917533711996e-05, -1.3039076293352991e-05, -1.2518235962488689e-05, -1.1997394722129684e-05, -1.147655348177068e-05, -1.0955713150906377e-05, -1.0434872820042074e-05, -9.914031579683069e-06, -9.393190339324065e-06, -8.872350008459762e-06, -8.351508768100757e-06, -7.830667527741753e-06, -7.30982719687745e-06, -6.788985956518445e-06, -6.268144716159441e-06, -5.747304385295138e-06, -5.226463144936133e-06, -4.70562281407183e-06, -4.184781573712826e-06, -3.663940333353821e-06, -3.1431000024895184e-06, -2.6222587621305138e-06, -2.101417521771509e-06, -1.5805771909072064e-06, -1.0597359505482018e-06, -5.388947101891972e-07, -1.80543793248944e-08, 5.027859515394084e-07, 1.0236281013931148e-06, 1.5444693417521194e-06, 2.065309672616422e-06, 2.5861518224701285e-06, 3.1069921533344314e-06, 3.627832484198734e-06, 4.148673724557739e-06, 4.669514964916743e-06, 5.190355295781046e-06, 5.711196536140051e-06, 6.232037776499055e-06, 6.752878107363358e-06, 7.273719347722363e-06, 7.794560588081367e-06, 8.31540091894567e-06, 8.836242159304675e-06, 9.357082490168978e-06, 9.877923730527982e-06, 1.0398764970886987e-05, 1.091960530175129e-05, 1.1440446542110294e-05, 1.1961286872974597e-05, 1.2482128113333602e-05, 1.3002969353692606e-05, 1.3523809684556909e-05, 1.4044650924915913e-05, 1.4565492165274918e-05, 1.5086332496139221e-05, 1.5607172827003524e-05, 1.612801497685723e-05, 1.6648855307721533e-05, 1.7169695638585836e-05, 1.7690537788439542e-05, 1.8211378119303845e-05]}, "gradients/decoder.conv4.conv.bias": {"_type": "histogram", "values": [1.0, 0.0, 0.0, 0.0, 0.0, 0.0, 0.0, 0.0, 0.0, 0.0, 0.0, 0.0, 0.0, 0.0, 0.0, 1.0, 0.0, 1.0, 0.0, 1.0, 0.0, 0.0, 0.0, 0.0, 0.0, 0.0, 0.0, 0.0, 1.0, 0.0, 1.0, 0.0, 0.0, 2.0, 0.0, 0.0, 0.0, 0.0, 0.0, 1.0, 1.0, 1.0, 1.0, 1.0, 0.0, 0.0, 0.0, 1.0, 0.0, 0.0, 0.0, 0.0, 0.0, 0.0, 0.0, 0.0, 0.0, 0.0, 0.0, 0.0, 0.0, 0.0, 0.0, 2.0], "bins": [-3.993250174971763e-12, -3.859801367411819e-12, -3.7263525598518754e-12, -3.5929037522919316e-12, -3.4594549447319878e-12, -3.326006137172044e-12, -3.1925573296121e-12, -3.0591085220521563e-12, -2.9256597144922125e-12, -2.7922109069322687e-12, -2.658762099372325e-12, -2.525313291812381e-12, -2.3918644842524373e-12, -2.2584156766924934e-12, -2.1249668691325496e-12, -1.991518061572606e-12, -1.858069254012662e-12, -1.7246204464527182e-12, -1.5911716388927744e-12, -1.4577228313328305e-12, -1.3242740237728867e-12, -1.190825216212943e-12, -1.057376408652999e-12, -9.239276010930553e-13, -7.904787935331115e-13, -6.570299859731676e-13, -5.235811784132238e-13, -3.9013237085328e-13, -2.566835632933362e-13, -1.2323475573339238e-13, 1.021405182655144e-14, 1.4366285938649526e-13, 2.7711166694643907e-13, 4.105604745063829e-13, 5.440092820663267e-13, 6.774580896262705e-13, 8.109068971862143e-13, 9.443557047461582e-13, 1.077804512306102e-12, 1.2112533198660458e-12, 1.3447021274259896e-12, 1.4781509349859334e-12, 1.6115997425458772e-12, 1.745048550105821e-12, 1.878497357665765e-12, 2.0119461652257087e-12, 2.1453949727856525e-12, 2.2788437803455963e-12, 2.41229258790554e-12, 2.545741395465484e-12, 2.6791902030254278e-12, 2.8126390105853716e-12, 2.9460878181453154e-12, 3.0795366257052592e-12, 3.212985433265203e-12, 3.346434240825147e-12, 3.4798830483850907e-12, 3.6133318559450345e-12, 3.746780663504978e-12, 3.880229471064922e-12, 4.013678278624866e-12, 4.14712708618481e-12, 4.2805758937447536e-12, 4.414024701304697e-12, 4.547473508864641e-12]}, "gradients/decoder.conv3.bn.weight": {"_type": "histogram", "values": [1.0, 0.0, 0.0, 0.0, 0.0, 0.0, 0.0, 0.0, 0.0, 0.0, 0.0, 0.0, 0.0, 0.0, 0.0, 2.0, 0.0, 0.0, 0.0, 0.0, 0.0, 0.0, 0.0, 0.0, 1.0, 0.0, 1.0, 1.0, 2.0, 1.0, 2.0, 2.0, 2.0, 2.0, 0.0, 1.0, 1.0, 1.0, 0.0, 0.0, 0.0, 1.0, 0.0, 2.0, 1.0, 0.0, 1.0, 1.0, 2.0, 1.0, 0.0, 0.0, 1.0, 0.0, 0.0, 0.0, 1.0, 0.0, 0.0, 0.0, 0.0, 0.0, 0.0, 1.0], "bins": [-5.1319561862328555e-06, -4.989176886738278e-06, -4.8463975872437e-06, -4.703617833001772e-06, -4.560838533507194e-06, -4.418059234012617e-06, -4.275279934518039e-06, -4.132500635023462e-06, -3.989721335528884e-06, -3.846941581286956e-06, -3.704162281792378e-06, -3.5613829822978005e-06, -3.418603682803223e-06, -3.27582415593497e-06, -3.1330448564403923e-06, -2.9902653295721393e-06, -2.8474860300775617e-06, -2.704706730582984e-06, -2.561927203714731e-06, -2.4191479042201536e-06, -2.2763683773519006e-06, -2.133589077857323e-06, -1.9908097783627454e-06, -1.8480302514944924e-06, -1.7052509519999148e-06, -1.5624716525053373e-06, -1.4196921256370842e-06, -1.2769128261425067e-06, -1.134133526647929e-06, -9.913542271533515e-07, -8.485744729114231e-07, -7.057951734168455e-07, -5.630158739222679e-07, -4.2023657442769036e-07, -2.774572749331128e-07, -1.3467752069118433e-07, 8.101778803393245e-09, 1.5088107829797082e-07, 2.936603777925484e-07, 4.364399046608014e-07, 5.79219204155379e-07, 7.219985036499565e-07, 8.647780305182096e-07, 1.0075573300127871e-06, 1.1503366295073647e-06, 1.2931161563756177e-06, 1.4358954558701953e-06, 1.5786749827384483e-06, 1.7214542822330259e-06, 1.8642335817276035e-06, 2.0070131085958565e-06, 2.149792408090434e-06, 2.292571934958687e-06, 2.4353512344532646e-06, 2.578130533947842e-06, 2.7209098334424198e-06, 2.8636893603106728e-06, 3.006468887178926e-06, 3.1492481866735034e-06, 3.292027486168081e-06, 3.4348067856626585e-06, 3.5775863125309115e-06, 3.720365612025489e-06, 3.863145138893742e-06, 4.00592443838832e-06]}, "gradients/decoder.conv3.bn.bias": {"_type": "histogram", "values": [1.0, 0.0, 0.0, 0.0, 0.0, 0.0, 0.0, 0.0, 0.0, 0.0, 0.0, 0.0, 0.0, 1.0, 0.0, 0.0, 0.0, 0.0, 1.0, 0.0, 0.0, 1.0, 0.0, 0.0, 0.0, 0.0, 0.0, 1.0, 1.0, 2.0, 1.0, 0.0, 1.0, 0.0, 0.0, 1.0, 1.0, 0.0, 2.0, 1.0, 2.0, 1.0, 2.0, 1.0, 0.0, 1.0, 1.0, 0.0, 2.0, 0.0, 2.0, 0.0, 0.0, 1.0, 1.0, 0.0, 0.0, 1.0, 0.0, 0.0, 0.0, 0.0, 0.0, 2.0], "bins": [-3.931791979994159e-06, -3.838308202830376e-06, -3.7448241982929176e-06, -3.651340193755459e-06, -3.557856416591676e-06, -3.4643724120542174e-06, -3.370888407516759e-06, -3.277404630352976e-06, -3.1839208531891927e-06, -3.090436848651734e-06, -2.9969528441142756e-06, -2.9034690669504926e-06, -2.809985062413034e-06, -2.7165010578755755e-06, -2.6230172807117924e-06, -2.5295335035480093e-06, -2.436049499010551e-06, -2.3425654944730923e-06, -2.249081717309309e-06, -2.155597940145526e-06, -2.0621139356080675e-06, -1.968629931070609e-06, -1.875146153906826e-06, -1.7816621493693674e-06, -1.6881781448319089e-06, -1.5946943676681258e-06, -1.5012103631306672e-06, -1.4077265859668842e-06, -1.3142425814294256e-06, -1.2207588042656425e-06, -1.127274799728184e-06, -1.033791022564401e-06, -9.403067906532669e-07, -8.468227861158084e-07, -7.533390089520253e-07, -6.598550044145668e-07, -5.663712272507837e-07, -4.7288722271332517e-07, -3.794034455495421e-07, -2.8591944101208355e-07, -1.9243566384830046e-07, -9.895165931084193e-08, -5.467654773383401e-09, 8.801612239039969e-08, 1.8150012692785822e-07, 2.7498401777847903e-07, 3.6846790862909984e-07, 4.6195179947972065e-07, 5.554356903303415e-07, 6.489195811809623e-07, 7.424034720315831e-07, 8.358873628822039e-07, 9.293712537328247e-07, 1.0228552582702832e-06, 1.116339149120904e-06, 1.2098230399715248e-06, 1.3033069308221457e-06, 1.3967908216727665e-06, 1.4902747125233873e-06, 1.583758603374008e-06, 1.6772426079114666e-06, 1.7707263850752497e-06, 1.8642103896127082e-06, 1.9576941667764913e-06, 2.05117817131395e-06]}, "gradients/decoder.conv3.conv.weight": {"_type": "histogram", "values": [1.0, 1.0, 1.0, 1.0, 1.0, 3.0, 0.0, 3.0, 1.0, 1.0, 1.0, 1.0, 3.0, 4.0, 5.0, 6.0, 7.0, 13.0, 7.0, 11.0, 19.0, 13.0, 27.0, 32.0, 39.0, 77.0, 84.0, 104.0, 155.0, 211.0, 287.0, 428.0, 680.0, 1072.0, 1701.0, 2969.0, 5702.0, 7366.0, 4501.0, 2626.0, 1535.0, 1010.0, 689.0, 455.0, 291.0, 207.0, 127.0, 84.0, 71.0, 33.0, 30.0, 19.0, 20.0, 11.0, 9.0, 6.0, 2.0, 2.0, 1.0, 0.0, 0.0, 0.0, 1.0, 1.0], "bins": [-9.12967516342178e-06, -8.883549526217394e-06, -8.637423889013007e-06, -8.391298251808621e-06, -8.145172614604235e-06, -7.899046977399848e-06, -7.652921340195462e-06, -7.406795702991076e-06, -7.1606700657866895e-06, -6.914544428582303e-06, -6.668418791377917e-06, -6.422293154173531e-06, -6.1761670622217935e-06, -5.930041425017407e-06, -5.683915787813021e-06, -5.4377901506086346e-06, -5.191664513404248e-06, -4.945538876199862e-06, -4.699413238995476e-06, -4.453287601791089e-06, -4.207161964586703e-06, -3.961036327382317e-06, -3.7149106901779305e-06, -3.4687850529735442e-06, -3.222658961021807e-06, -2.9765333238174208e-06, -2.7304076866130345e-06, -2.484282049408648e-06, -2.238156412204262e-06, -1.9920307749998756e-06, -1.7459051377954893e-06, -1.499779500591103e-06, -1.2536538633867167e-06, -1.0075282261823304e-06, -7.614025889779441e-07, -5.152769517735578e-07, -2.691513145691715e-07, -2.3025677364785224e-08, 2.2309995983960107e-07, 4.6922559704398736e-07, 7.153512342483737e-07, 9.614773262001108e-07, 1.2076029634044971e-06, 1.4537286006088834e-06, 1.6998542378132697e-06, 1.945979875017656e-06, 2.1921055122220423e-06, 2.4382311494264286e-06, 2.684356786630815e-06, 2.930482423835201e-06, 3.1766080610395875e-06, 3.4227336982439738e-06, 3.66885933544836e-06, 3.914985427400097e-06, 4.1611110646044835e-06, 4.40723670180887e-06, 4.653362339013256e-06, 4.8994879762176424e-06, 5.145613613422029e-06, 5.391739250626415e-06, 5.637864887830801e-06, 5.883990525035188e-06, 6.130116162239574e-06, 6.37624179944396e-06, 6.6223674366483465e-06]}, "gradients/decoder.conv3.conv.bias": {"_type": "histogram", "values": [1.0, 0.0, 0.0, 0.0, 0.0, 0.0, 0.0, 0.0, 0.0, 0.0, 0.0, 0.0, 0.0, 0.0, 0.0, 0.0, 0.0, 0.0, 0.0, 0.0, 0.0, 0.0, 0.0, 1.0, 1.0, 0.0, 1.0, 0.0, 0.0, 1.0, 0.0, 1.0, 0.0, 1.0, 1.0, 0.0, 1.0, 0.0, 0.0, 0.0, 1.0, 0.0, 2.0, 0.0, 0.0, 2.0, 1.0, 0.0, 4.0, 3.0, 1.0, 4.0, 0.0, 1.0, 1.0, 1.0, 0.0, 0.0, 0.0, 0.0, 1.0, 0.0, 0.0, 1.0], "bins": [-1.7621459846850485e-12, -1.7257306694773433e-12, -1.6893153542696382e-12, -1.652900039061933e-12, -1.616484723854228e-12, -1.5800694086465228e-12, -1.5436540934388177e-12, -1.5072387782311125e-12, -1.4708234630234074e-12, -1.4344081478157023e-12, -1.3979928326079971e-12, -1.361577517400292e-12, -1.3251622021925868e-12, -1.2887468869848817e-12, -1.2523315717771766e-12, -1.2159162565694714e-12, -1.1795009413617663e-12, -1.1430856261540612e-12, -1.106670310946356e-12, -1.070254995738651e-12, -1.0338396805309458e-12, -9.974243653232406e-13, -9.610090501155355e-13, -9.245937349078304e-13, -8.881784197001252e-13, -8.517631044924201e-13, -8.15347789284715e-13, -7.789324740770098e-13, -7.425171588693047e-13, -7.061018436615996e-13, -6.696865284538944e-13, -6.332712132461893e-13, -5.968558980384842e-13, -5.60440582830779e-13, -5.240252676230739e-13, -4.876099524153688e-13, -4.511946372076636e-13, -4.147793219999585e-13, -3.7836400679225335e-13, -3.419486915845482e-13, -3.055333763768431e-13, -2.6911806116913795e-13, -2.327027459614328e-13, -1.9628743075372768e-13, -1.5987211554602254e-13, -1.234568003383174e-13, -8.704148513061227e-14, -5.062616992290714e-14, -1.4210854715202004e-14, 2.220446049250313e-14, 5.861977570020827e-14, 9.50350909079134e-14, 1.3145040611561853e-13, 1.6786572132332367e-13, 2.042810365310288e-13, 2.4069635173873394e-13, 2.7711166694643907e-13, 3.135269821541442e-13, 3.4994229736184934e-13, 3.863576125695545e-13, 4.227729277772596e-13, 4.591882429849647e-13, 4.956035581926699e-13, 5.32018873400375e-13, 5.684341886080801e-13]}, "gradients/decoder.conv2.bn.weight": {"_type": "histogram", "values": [1.0, 1.0, 1.0, 0.0, 1.0, 2.0, 0.0, 0.0, 0.0, 1.0, 3.0, 1.0, 1.0, 1.0, 1.0, 1.0, 2.0, 1.0, 0.0, 2.0, 3.0, 0.0, 2.0, 2.0, 3.0, 4.0, 1.0, 6.0, 0.0, 1.0, 1.0, 5.0, 0.0, 1.0, 0.0, 3.0, 2.0, 1.0, 1.0, 1.0, 0.0, 0.0, 0.0, 2.0, 0.0, 2.0, 0.0, 1.0, 0.0, 0.0, 0.0, 0.0, 0.0, 0.0, 0.0, 0.0, 1.0, 0.0, 0.0, 0.0, 0.0, 0.0, 0.0, 1.0], "bins": [-2.006735257964465e-06, -1.9278950276202522e-06, -1.8490549109628773e-06, -1.7702147943055024e-06, -1.6913746776481275e-06, -1.6125345609907527e-06, -1.53369433064654e-06, -1.4548542139891651e-06, -1.3760140973317903e-06, -1.2971738669875776e-06, -1.2183337503302027e-06, -1.1394936336728279e-06, -1.0606534033286152e-06, -9.818132866712403e-07, -9.029731700138655e-07, -8.241329396696528e-07, -7.45292823012278e-07, -6.664527063549031e-07, -5.876124760106904e-07, -5.087723593533156e-07, -4.2993224269594066e-07, -3.5109201235172804e-07, -2.7225189569435315e-07, -1.9341177903697826e-07, -1.1457154869276565e-07, -3.5731545722228475e-08, 4.310868462198414e-08, 1.2194891496619675e-07, 2.0078891793673392e-07, 2.7962914828094654e-07, 3.5846937862515915e-07, 4.373093815956963e-07, 5.161496119399089e-07, 5.949898422841216e-07, 6.738298452546587e-07, 7.526700755988713e-07, 8.31510305943084e-07, 9.103503089136211e-07, 9.891905392578337e-07, 1.0680307696020463e-06, 1.1468707725725835e-06, 1.2257110029167961e-06, 1.304551119574171e-06, 1.383391236231546e-06, 1.4622314665757585e-06, 1.5410715832331334e-06, 1.6199116998905083e-06, 1.698751930234721e-06, 1.7775920468920958e-06, 1.8564321635494707e-06, 1.9352723938936833e-06, 2.0141123968642205e-06, 2.092952627208433e-06, 2.1717928575526457e-06, 2.250632860523183e-06, 2.3294730908673955e-06, 2.408313321211608e-06, 2.4871533241821453e-06, 2.565993554526358e-06, 2.6448337848705705e-06, 2.7236737878411077e-06, 2.8025140181853203e-06, 2.881354248529533e-06, 2.96019425150007e-06, 3.0390344818442827e-06]}, "gradients/decoder.conv2.bn.bias": {"_type": "histogram", "values": [1.0, 2.0, 0.0, 1.0, 1.0, 0.0, 1.0, 0.0, 0.0, 0.0, 1.0, 2.0, 0.0, 0.0, 3.0, 1.0, 0.0, 2.0, 1.0, 0.0, 0.0, 1.0, 1.0, 1.0, 2.0, 0.0, 3.0, 3.0, 1.0, 3.0, 1.0, 1.0, 1.0, 2.0, 3.0, 1.0, 0.0, 3.0, 1.0, 2.0, 2.0, 2.0, 0.0, 1.0, 1.0, 1.0, 0.0, 2.0, 1.0, 1.0, 2.0, 0.0, 0.0, 0.0, 1.0, 2.0, 0.0, 0.0, 0.0, 0.0, 1.0, 0.0, 0.0, 1.0], "bins": [-1.3713882935917354e-06, -1.330652025899326e-06, -1.2899157582069165e-06, -1.249179490514507e-06, -1.2084432228220976e-06, -1.1677069551296881e-06, -1.1269708011241164e-06, -1.086234533431707e-06, -1.0454982657392975e-06, -1.004761998046888e-06, -9.640257303544786e-07, -9.232894626620691e-07, -8.825531949696597e-07, -8.418169272772502e-07, -8.010806595848408e-07, -7.603443918924313e-07, -7.196081242000218e-07, -6.788718565076124e-07, -6.381355888152029e-07, -5.973993211227935e-07, -5.56663053430384e-07, -5.159268425813934e-07, -4.75190574888984e-07, -4.344543071965745e-07, -3.937180963475839e-07, -3.5298182865517447e-07, -3.12245560962765e-07, -2.7150929327035556e-07, -2.307730255779461e-07, -1.9003675788553664e-07, -1.493004901931272e-07, -1.0856422250071773e-07, -6.782795480830828e-08, -2.709168711589882e-08, 1.3644580576510634e-08, 5.438084826892009e-08, 9.511711596132955e-08, 1.35853383653739e-07, 1.7658965134614846e-07, 2.173259190385579e-07, 2.5806218673096737e-07, 2.9879839757995796e-07, 3.395346652723674e-07, 3.802709329647769e-07, 4.2100714381376747e-07, 4.617434115061769e-07, 5.024796791985864e-07, 5.432159468909958e-07, 5.839522145834053e-07, 6.246884822758147e-07, 6.654247499682242e-07, 7.061610176606337e-07, 7.468972853530431e-07, 7.876335530454526e-07, 8.283697638944432e-07, 8.691060315868526e-07, 9.098422992792621e-07, 9.505785669716715e-07, 9.913148915074999e-07, 1.0320510455130716e-06, 1.072787313205481e-06, 1.1135235808978905e-06, 1.1542598485903e-06, 1.1949961162827094e-06, 1.2357323839751189e-06]}, "gradients/decoder.conv2.conv.weight": {"_type": "histogram", "values": [1.0, 0.0, 1.0, 1.0, 0.0, 0.0, 1.0, 0.0, 2.0, 1.0, 2.0, 2.0, 2.0, 2.0, 5.0, 4.0, 7.0, 11.0, 8.0, 5.0, 10.0, 16.0, 22.0, 23.0, 37.0, 39.0, 40.0, 70.0, 83.0, 123.0, 178.0, 238.0, 369.0, 647.0, 1110.0, 2499.0, 6902.0, 80549.0, 28353.0, 5301.0, 2074.0, 959.0, 545.0, 275.0, 176.0, 112.0, 75.0, 51.0, 39.0, 23.0, 18.0, 15.0, 18.0, 7.0, 4.0, 4.0, 3.0, 2.0, 5.0, 1.0, 0.0, 1.0, 0.0, 1.0], "bins": [-8.528154467057902e-06, -8.302680726046674e-06, -8.077207894530147e-06, -7.851734153518919e-06, -7.6262604125076905e-06, -7.400787126243813e-06, -7.1753138399799354e-06, -6.949840098968707e-06, -6.7243668127048295e-06, -6.498893526440952e-06, -6.2734197854297236e-06, -6.047946044418495e-06, -5.822472758154618e-06, -5.59699947189074e-06, -5.371525730879512e-06, -5.146052444615634e-06, -4.920579158351757e-06, -4.695105417340528e-06, -4.469632131076651e-06, -4.244158390065422e-06, -4.018685103801545e-06, -3.7932113627903163e-06, -3.567738076526439e-06, -3.3422647902625613e-06, -3.116791049251333e-06, -2.8913177629874554e-06, -2.665844021976227e-06, -2.4403707357123494e-06, -2.214897449448472e-06, -1.9894237084372435e-06, -1.763950422173366e-06, -1.5384766811621375e-06, -1.31300339489826e-06, -1.0875301086343825e-06, -8.620563676231541e-07, -6.365830813592765e-07, -4.1110934034804814e-07, -1.856360540841706e-07, 3.9837232179706916e-08, 2.6531097319093533e-07, 4.907842594548129e-07, 7.162580004660413e-07, 9.417312867299188e-07, 1.1672045729937963e-06, 1.3926783140050247e-06, 1.6181516002689023e-06, 1.8436253412801307e-06, 2.069098627544008e-06, 2.294572141181561e-06, 2.520045654819114e-06, 2.745519168456667e-06, 2.9709924547205446e-06, 3.1964659683580976e-06, 3.4219394819956506e-06, 3.6474129956332035e-06, 3.872886736644432e-06, 4.0983600229083095e-06, 4.323833309172187e-06, 4.549307050183415e-06, 4.774780336447293e-06, 5.0002536227111705e-06, 5.225727363722399e-06, 5.451200649986276e-06, 5.676674390997505e-06, 5.902147677261382e-06]}, "gradients/decoder.conv2.conv.bias": {"_type": "histogram", "values": [1.0, 0.0, 0.0, 0.0, 0.0, 0.0, 2.0, 1.0, 0.0, 0.0, 0.0, 0.0, 0.0, 0.0, 0.0, 3.0, 0.0, 1.0, 0.0, 0.0, 2.0, 4.0, 1.0, 0.0, 3.0, 0.0, 2.0, 5.0, 2.0, 0.0, 5.0, 2.0, 1.0, 5.0, 0.0, 1.0, 3.0, 2.0, 2.0, 2.0, 2.0, 0.0, 4.0, 0.0, 1.0, 2.0, 0.0, 0.0, 1.0, 0.0, 0.0, 1.0, 1.0, 0.0, 1.0, 0.0, 0.0, 0.0, 0.0, 0.0, 0.0, 0.0, 0.0, 1.0], "bins": [-5.684341886080801e-13, -5.495603971894525e-13, -5.306866057708248e-13, -5.118128143521972e-13, -4.929390229335695e-13, -4.740652315149418e-13, -4.551914400963142e-13, -4.363176486776865e-13, -4.1744385725905886e-13, -3.985700658404312e-13, -3.7969627442180354e-13, -3.608224830031759e-13, -3.419486915845482e-13, -3.2307490016592055e-13, -3.042011087472929e-13, -2.8532731732866523e-13, -2.6645352591003757e-13, -2.475797344914099e-13, -2.2870594307278225e-13, -2.0983215165415459e-13, -1.9095836023552692e-13, -1.7208456881689926e-13, -1.532107773982716e-13, -1.3433698597964394e-13, -1.1546319456101628e-13, -9.658940314238862e-14, -7.771561172376096e-14, -5.88418203051333e-14, -3.9968028886505635e-14, -2.1094237467877974e-14, -2.220446049250313e-15, 1.6653345369377348e-14, 3.552713678800501e-14, 5.440092820663267e-14, 7.327471962526033e-14, 9.214851104388799e-14, 1.1102230246251565e-13, 1.2989609388114332e-13, 1.4876988529977098e-13, 1.6764367671839864e-13, 1.865174681370263e-13, 2.0539125955565396e-13, 2.2426505097428162e-13, 2.431388423929093e-13, 2.6201263381153694e-13, 2.808864252301646e-13, 2.9976021664879227e-13, 3.1863400806741993e-13, 3.375077994860476e-13, 3.5638159090467525e-13, 3.752553823233029e-13, 3.9412917374193057e-13, 4.1300296516055823e-13, 4.318767565791859e-13, 4.5075054799781356e-13, 4.696243394164412e-13, 4.884981308350689e-13, 5.073719222536965e-13, 5.262457136723242e-13, 5.451195050909519e-13, 5.639932965095795e-13, 5.828670879282072e-13, 6.017408793468348e-13, 6.206146707654625e-13, 6.394884621840902e-13]}, "gradients/decoder.conv1.bn.weight": {"_type": "histogram", "values": [1.0, 0.0, 0.0, 0.0, 0.0, 0.0, 0.0, 1.0, 0.0, 0.0, 1.0, 0.0, 0.0, 2.0, 1.0, 2.0, 0.0, 0.0, 1.0, 2.0, 4.0, 3.0, 3.0, 2.0, 8.0, 5.0, 9.0, 12.0, 11.0, 1.0, 12.0, 7.0, 6.0, 6.0, 6.0, 2.0, 1.0, 3.0, 3.0, 3.0, 3.0, 0.0, 1.0, 0.0, 0.0, 1.0, 1.0, 0.0, 1.0, 0.0, 0.0, 2.0, 0.0, 0.0, 0.0, 0.0, 0.0, 0.0, 0.0, 0.0, 0.0, 0.0, 0.0, 1.0], "bins": [-2.106722831740626e-06, -2.0350048544059973e-06, -1.963286649697693e-06, -1.8915686723630643e-06, -1.8198505813415977e-06, -1.7481324903201312e-06, -1.6764145129855024e-06, -1.6046964219640358e-06, -1.5329783309425693e-06, -1.4612603536079405e-06, -1.389542262586474e-06, -1.3178241715650074e-06, -1.2461061942303786e-06, -1.174388103208912e-06, -1.1026700121874455e-06, -1.0309520348528167e-06, -9.592339438313502e-07, -8.875158528098837e-07, -8.157978754752548e-07, -7.440797844537883e-07, -6.723616934323218e-07, -6.00643716097693e-07, -5.289256250762264e-07, -4.572075340547599e-07, -3.854895567201311e-07, -3.1377146569866454e-07, -2.42053374677198e-07, -1.703353973425692e-07, -9.861719263426494e-08, -2.6899215299636126e-08, 4.481876203499269e-08, 1.1653696674329694e-07, 1.8825494407792576e-07, 2.5997292141255457e-07, 3.316911261208588e-07, 4.0340910345548764e-07, 4.7512708079011645e-07, 5.468452854984207e-07, 6.185632628330495e-07, 6.902813538545161e-07, 7.619994448759826e-07, 8.337174222106114e-07, 9.054355132320779e-07, 9.771536042535445e-07, 1.0488715815881733e-06, 1.1205896726096398e-06, 1.1923077636311064e-06, 1.2640257409657352e-06, 1.3357438319872017e-06, 1.4074619230086682e-06, 1.479179900343297e-06, 1.5508979913647636e-06, 1.6226160823862301e-06, 1.694334059720859e-06, 1.7660521507423255e-06, 1.837770241763792e-06, 1.909488219098421e-06, 1.981206423806725e-06, 2.052924401141354e-06, 2.1246423784759827e-06, 2.196360583184287e-06, 2.2680785605189158e-06, 2.3397965378535446e-06, 2.411514742561849e-06, 2.4832327198964776e-06]}, "gradients/decoder.conv1.bn.bias": {"_type": "histogram", "values": [1.0, 1.0, 0.0, 1.0, 1.0, 0.0, 0.0, 0.0, 1.0, 0.0, 1.0, 1.0, 2.0, 4.0, 5.0, 7.0, 5.0, 4.0, 5.0, 4.0, 2.0, 11.0, 11.0, 4.0, 3.0, 8.0, 4.0, 5.0, 5.0, 3.0, 2.0, 3.0, 3.0, 3.0, 0.0, 1.0, 3.0, 1.0, 2.0, 1.0, 0.0, 2.0, 4.0, 0.0, 0.0, 0.0, 0.0, 0.0, 0.0, 0.0, 0.0, 0.0, 1.0, 1.0, 0.0, 0.0, 0.0, 0.0, 0.0, 0.0, 1.0, 0.0, 0.0, 1.0], "bins": [-8.857355169311631e-07, -8.49269554237253e-07, -8.128036483867618e-07, -7.763377425362705e-07, -7.398717798423604e-07, -7.034058171484503e-07, -6.66939911297959e-07, -6.304740054474678e-07, -5.940080427535577e-07, -5.575420800596476e-07, -5.210761742091563e-07, -4.84610268358665e-07, -4.4814430566475494e-07, -4.1167837139255425e-07, -3.7521243712035357e-07, -3.387465312698623e-07, -3.022805685759522e-07, -2.658146058820421e-07, -2.2934870003155083e-07, -1.9288279418105958e-07, -1.5641683148714947e-07, -1.1995086879323935e-07, -8.34849629427481e-08, -4.7019057092256844e-08, -1.055309439834673e-08, 2.5912868295563385e-08, 6.237877414605464e-08, 9.884467999654589e-08, 1.35310642690456e-07, 1.7177660538436612e-07, 2.0824245439143851e-07, 2.4470841708534863e-07, 2.8117437977925874e-07, 3.1764034247316886e-07, 3.5410630516707897e-07, 3.9057215417415136e-07, 4.270381168680615e-07, 4.635040795619716e-07, 4.999699854124628e-07, 5.364358912629541e-07, 5.729018539568642e-07, 6.093678166507743e-07, 6.458337225012656e-07, 6.822996283517568e-07, 7.18765591045667e-07, 7.552315537395771e-07, 7.916974595900683e-07, 8.281633654405596e-07, 8.646293281344697e-07, 9.010952908283798e-07, 9.375611966788711e-07, 9.740271025293623e-07, 1.0104930652232724e-06, 1.0469590279171825e-06, 1.083424876924255e-06, 1.119890839618165e-06, 1.1563568023120752e-06, 1.1928227650059853e-06, 1.2292887276998954e-06, 1.2657545767069678e-06, 1.302220539400878e-06, 1.338686502094788e-06, 1.3751523511018604e-06, 1.4116183137957705e-06, 1.4480842764896806e-06]}, "gradients/decoder.conv1.conv.weight": {"_type": "histogram", "values": [2.0, 0.0, 0.0, 0.0, 1.0, 1.0, 3.0, 0.0, 1.0, 8.0, 4.0, 5.0, 5.0, 12.0, 12.0, 11.0, 24.0, 27.0, 26.0, 46.0, 51.0, 70.0, 88.0, 135.0, 198.0, 276.0, 405.0, 674.0, 1190.0, 2301.0, 5996.0, 24684.0, 2250281.0, 56397.0, 9105.0, 3231.0, 1519.0, 835.0, 516.0, 339.0, 213.0, 158.0, 109.0, 86.0, 52.0, 53.0, 26.0, 35.0, 20.0, 12.0, 18.0, 6.0, 7.0, 7.0, 5.0, 2.0, 2.0, 2.0, 1.0, 1.0, 0.0, 1.0, 0.0, 1.0], "bins": [-2.3099948975868756e-06, -2.239298964923364e-06, -2.1686030322598526e-06, -2.0979068722226657e-06, -2.0272109395591542e-06, -1.9565150068956427e-06, -1.8858190742321312e-06, -1.8151231415686198e-06, -1.7444270952182706e-06, -1.6737310488679213e-06, -1.6030351162044099e-06, -1.5323391835408984e-06, -1.4616432508773869e-06, -1.3909472045270377e-06, -1.3202512718635262e-06, -1.249555225513177e-06, -1.1788592928496655e-06, -1.108163360186154e-06, -1.0374673138358048e-06, -9.667713811722933e-07, -8.960753348219441e-07, -8.253794021584326e-07, -7.546834694949212e-07, -6.83987423144572e-07, -6.132914904810605e-07, -5.42595557817549e-07, -4.7189951146719977e-07, -4.012035788036883e-07, -3.305076461401768e-07, -2.598117134766653e-07, -1.891155534394784e-07, -1.184196207759669e-07, -4.7723915486130863e-08, 2.297201717738062e-08, 9.36679498408921e-08, 1.6436410987807903e-07, 2.3506004254159052e-07, 3.05755975205102e-07, 3.764519078686135e-07, 4.471479542189627e-07, 5.178438868824742e-07, 5.885398195459857e-07, 6.592358658963349e-07, 7.299317985598464e-07, 8.006277312233578e-07, 8.71323777573707e-07, 9.420197102372185e-07, 1.0127157565875677e-06, 1.0834116892510792e-06, 1.1541076219145907e-06, 1.22480366826494e-06, 1.2954996009284514e-06, 1.3661956472788006e-06, 1.436891579942312e-06, 1.5075875126058236e-06, 1.578283445269335e-06, 1.6489794916196843e-06, 1.7196755379700335e-06, 1.790371470633545e-06, 1.8610674032970564e-06, 1.931763335960568e-06, 2.0024592686240794e-06, 2.0731554286612663e-06, 2.143851361324778e-06, 2.2145472939882893e-06]}, "gradients/decoder.conv1.conv.bias": {"_type": "histogram", "values": [1.0, 0.0, 0.0, 0.0, 0.0, 0.0, 0.0, 0.0, 0.0, 0.0, 0.0, 0.0, 0.0, 2.0, 0.0, 0.0, 2.0, 1.0, 1.0, 0.0, 1.0, 0.0, 3.0, 0.0, 3.0, 0.0, 2.0, 5.0, 9.0, 2.0, 12.0, 5.0, 8.0, 14.0, 9.0, 7.0, 3.0, 9.0, 7.0, 6.0, 0.0, 3.0, 0.0, 2.0, 5.0, 0.0, 1.0, 0.0, 1.0, 1.0, 1.0, 0.0, 1.0, 0.0, 0.0, 0.0, 0.0, 0.0, 0.0, 0.0, 0.0, 0.0, 0.0, 1.0], "bins": [-3.410605131648481e-13, -3.3073543903583413e-13, -3.204103649068202e-13, -3.100852907778062e-13, -2.9976021664879227e-13, -2.894351425197783e-13, -2.7911006839076435e-13, -2.687849942617504e-13, -2.5845992013273644e-13, -2.481348460037225e-13, -2.3780977187470853e-13, -2.274846977456946e-13, -2.1715962361668062e-13, -2.0683454948766666e-13, -1.965094753586527e-13, -1.8618440122963875e-13, -1.758593271006248e-13, -1.6553425297161084e-13, -1.5520917884259688e-13, -1.4488410471358293e-13, -1.3455903058456897e-13, -1.2423395645555502e-13, -1.1390888232654106e-13, -1.035838081975271e-13, -9.325873406851315e-14, -8.293365993949919e-14, -7.260858581048524e-14, -6.228351168147128e-14, -5.1958437552457326e-14, -4.163336342344337e-14, -3.1308289294429414e-14, -2.098321516541546e-14, -1.0658141036401503e-14, -3.3306690738754696e-16, 9.992007221626409e-15, 2.0317081350640365e-14, 3.064215547965432e-14, 4.0967229608668276e-14, 5.129230373768223e-14, 6.161737786669619e-14, 7.194245199571014e-14, 8.22675261247241e-14, 9.259260025373806e-14, 1.0291767438275201e-13, 1.1324274851176597e-13, 1.2356782264077992e-13, 1.3389289676979388e-13, 1.4421797089880783e-13, 1.545430450278218e-13, 1.6486811915683575e-13, 1.751931932858497e-13, 1.8551826741486366e-13, 1.9584334154387761e-13, 2.0616841567289157e-13, 2.1649348980190553e-13, 2.2681856393091948e-13, 2.3714363805993344e-13, 2.474687121889474e-13, 2.5779378631796135e-13, 2.681188604469753e-13, 2.7844393457598926e-13, 2.887690087050032e-13, 2.9909408283401717e-13, 3.0941915696303113e-13, 3.197442310920451e-13]}, "gradients/lstm.bias_hh_l1": {"_type": "histogram", "values": [2.0, 0.0, 1.0, 0.0, 0.0, 1.0, 0.0, 1.0, 0.0, 0.0, 1.0, 2.0, 2.0, 3.0, 2.0, 5.0, 7.0, 4.0, 9.0, 5.0, 10.0, 12.0, 9.0, 18.0, 33.0, 21.0, 35.0, 42.0, 68.0, 121.0, 332.0, 862.0, 149.0, 71.0, 39.0, 32.0, 21.0, 29.0, 17.0, 10.0, 9.0, 14.0, 11.0, 4.0, 8.0, 3.0, 8.0, 4.0, 3.0, 2.0, 0.0, 0.0, 1.0, 2.0, 0.0, 1.0, 0.0, 1.0, 0.0, 0.0, 0.0, 0.0, 0.0, 1.0], "bins": [-3.568184467894753e-07, -3.454109105405223e-07, -3.340033458698599e-07, -3.2259580962090695e-07, -3.1118824495024455e-07, -2.997807087012916e-07, -2.883731440306292e-07, -2.769656077816762e-07, -2.6555807153272326e-07, -2.5415050686206087e-07, -2.427429706131079e-07, -2.3133542015330022e-07, -2.1992786969349254e-07, -2.0852031923368486e-07, -1.971127829847319e-07, -1.857052325249242e-07, -1.7429768206511653e-07, -1.6289013160530885e-07, -1.5148258114550117e-07, -1.400750448965482e-07, -1.2866749443674053e-07, -1.1725992976607813e-07, -1.0585239351712517e-07, -9.44448572681722e-08, -8.30372925975098e-08, -7.162975634855684e-08, -6.022219167789444e-08, -4.881465542894148e-08, -3.740711917998851e-08, -2.5999554509326117e-08, -1.4592018260373152e-08, -3.184453589710756e-09, 8.223082659242209e-09, 1.9630618908195174e-08, 3.103818357885757e-08, 4.2445719827810535e-08, 5.385328449847293e-08, 6.52608207474259e-08, 7.666835699637886e-08, 8.807592166704126e-08, 9.948345791599422e-08, 1.1089102258665662e-07, 1.2229855883560958e-07, 1.3370609508456255e-07, 1.4511365975522494e-07, 1.5652121021503262e-07, 1.679287464639856e-07, 1.7933629692379327e-07, 1.9074384738360095e-07, 2.0215139784340863e-07, 2.135589483032163e-07, 2.2496648455216928e-07, 2.3637403501197696e-07, 2.4778159968263935e-07, 2.591891359315923e-07, 2.705966721805453e-07, 2.820042368512077e-07, 2.9341177310016064e-07, 3.048193093491136e-07, 3.16226874019776e-07, 3.2763441026872897e-07, 3.3904197493939137e-07, 3.5044951118834433e-07, 3.6185707585900673e-07, 3.732646121079597e-07]}, "gradients/lstm.weight_hh_l1": {"_type": "histogram", "values": [1.0, 0.0, 0.0, 0.0, 2.0, 0.0, 1.0, 0.0, 0.0, 1.0, 1.0, 0.0, 0.0, 0.0, 3.0, 2.0, 8.0, 2.0, 8.0, 8.0, 17.0, 25.0, 34.0, 56.0, 61.0, 102.0, 165.0, 332.0, 584.0, 1165.0, 2364.0, 5250.0, 14547.0, 82786.0, 895501.0, 30098.0, 8459.0, 3472.0, 1605.0, 833.0, 436.0, 208.0, 151.0, 98.0, 60.0, 34.0, 27.0, 21.0, 19.0, 7.0, 6.0, 6.0, 3.0, 1.0, 0.0, 2.0, 1.0, 1.0, 1.0, 0.0, 0.0, 0.0, 0.0, 1.0], "bins": [-1.3647009211581462e-07, -1.3248738639504154e-07, -1.2850468067426846e-07, -1.2452197495349537e-07, -1.2053925502186758e-07, -1.1655655640652185e-07, -1.1257384358032141e-07, -1.0859113785954833e-07, -1.0460843213877524e-07, -1.0062572641800216e-07, -9.664302069722908e-08, -9.266030787102864e-08, -8.867760215025555e-08, -8.469489642948247e-08, -8.071218360328203e-08, -7.672947788250895e-08, -7.274677216173586e-08, -6.876406644096278e-08, -6.47813607201897e-08, -6.079864789398925e-08, -5.681594217321617e-08, -5.283323645244309e-08, -4.885052362624265e-08, -4.4867817905469565e-08, -4.088511218469648e-08, -3.69024064639234e-08, -3.2919700743150315e-08, -2.8936987916949874e-08, -2.495428219617679e-08, -2.0971576475403708e-08, -1.6988863649203267e-08, -1.3006157928430184e-08, -9.023445102229743e-09, -5.04073938145666e-09, -1.0580336606835772e-09, 2.9246791655168636e-09, 6.907384886289947e-09, 1.089009060706303e-08, 1.487280343326347e-08, 1.8855509154036554e-08, 2.2838214874809637e-08, 2.682092059558272e-08, 3.08036263163558e-08, 3.4786339142556244e-08, 3.876904486332933e-08, 4.275175058410241e-08, 4.673446341030285e-08, 5.0717169131075934e-08, 5.469987485184902e-08, 5.86825805726221e-08, 6.266529339882254e-08, 6.664799911959562e-08, 7.063070484036871e-08, 7.461341056114179e-08, 7.859611628191487e-08, 8.257882910811531e-08, 8.65615348288884e-08, 9.054424054966148e-08, 9.452695337586192e-08, 9.8509659096635e-08, 1.0249236481740809e-07, 1.0647507053818117e-07, 1.1045777625895425e-07, 1.144404890851547e-07, 1.1842319480592778e-07]}, "gradients/lstm.bias_ih_l1": {"_type": "histogram", "values": [2.0, 0.0, 1.0, 0.0, 0.0, 1.0, 0.0, 1.0, 0.0, 0.0, 1.0, 2.0, 2.0, 3.0, 2.0, 5.0, 7.0, 4.0, 9.0, 5.0, 10.0, 12.0, 9.0, 18.0, 33.0, 21.0, 35.0, 42.0, 68.0, 121.0, 332.0, 862.0, 149.0, 71.0, 39.0, 32.0, 21.0, 29.0, 17.0, 10.0, 9.0, 14.0, 11.0, 4.0, 8.0, 3.0, 8.0, 4.0, 3.0, 2.0, 0.0, 0.0, 1.0, 2.0, 0.0, 1.0, 0.0, 1.0, 0.0, 0.0, 0.0, 0.0, 0.0, 1.0], "bins": [-3.568184467894753e-07, -3.454109105405223e-07, -3.340033458698599e-07, -3.2259580962090695e-07, -3.1118824495024455e-07, -2.997807087012916e-07, -2.883731440306292e-07, -2.769656077816762e-07, -2.6555807153272326e-07, -2.5415050686206087e-07, -2.4274294219139847e-07, -2.313354059424455e-07, -2.1992786969349254e-07, -2.0852031923368486e-07, -1.9711276877387718e-07, -1.857052183140695e-07, -1.7429766785426182e-07, -1.6289011739445414e-07, -1.5148256693464646e-07, -1.4007501647483878e-07, -1.286674660150311e-07, -1.1725992976607813e-07, -1.0585236509541573e-07, -9.444482884646277e-08, -8.30372925975098e-08, -7.162972792684741e-08, -6.022219167789444e-08, -4.881462700723205e-08, -3.740709075827908e-08, -2.5999526087616687e-08, -1.4591989838663721e-08, -3.184425168001326e-09, 8.223082659242209e-09, 1.9630618908195174e-08, 3.103818357885757e-08, 4.2445719827810535e-08, 5.385328449847293e-08, 6.52608207474259e-08, 7.666838541808829e-08, 8.807592166704126e-08, 9.948348633770365e-08, 1.1089102258665662e-07, 1.2229855883560958e-07, 1.3370612350627198e-07, 1.4511365975522494e-07, 1.5652121021503262e-07, 1.679287606748403e-07, 1.7933631113464799e-07, 1.9074386159445567e-07, 2.0215141205426335e-07, 2.1355896251407103e-07, 2.249665129738787e-07, 2.363740634336864e-07, 2.4778159968263935e-07, 2.5918916435330175e-07, 2.705967006022547e-07, 2.820042368512077e-07, 2.934118015218701e-07, 3.0481936619253247e-07, 3.1622690244148544e-07, 3.276344386904384e-07, 3.390420033611008e-07, 3.5044953961005376e-07, 3.6185710428071616e-07, 3.732646405296691e-07]}, "gradients/lstm.weight_ih_l1": {"_type": "histogram", "values": [2.0, 2.0, 2.0, 3.0, 1.0, 7.0, 7.0, 10.0, 18.0, 18.0, 8.0, 18.0, 20.0, 36.0, 26.0, 39.0, 71.0, 97.0, 120.0, 187.0, 260.0, 322.0, 417.0, 566.0, 784.0, 1025.0, 1507.0, 2333.0, 3565.0, 6161.0, 12402.0, 39305.0, 883529.0, 60619.0, 15460.0, 7059.0, 3958.0, 2469.0, 1718.0, 1156.0, 843.0, 593.0, 482.0, 339.0, 273.0, 196.0, 145.0, 94.0, 67.0, 46.0, 41.0, 29.0, 21.0, 16.0, 7.0, 20.0, 11.0, 10.0, 8.0, 6.0, 5.0, 7.0, 5.0, 5.0], "bins": [-3.458105481968232e-07, -3.352074600115884e-07, -3.2460440024806303e-07, -3.140013120628282e-07, -3.033982238775934e-07, -2.927951356923586e-07, -2.821920475071238e-07, -2.715889877435984e-07, -2.609858995583636e-07, -2.503828113731288e-07, -2.397797516096034e-07, -2.291766634243686e-07, -2.185735752391338e-07, -2.0797048705389898e-07, -1.9736741307951888e-07, -1.867643391051388e-07, -1.7616125091990398e-07, -1.6555816273466917e-07, -1.5495508876028907e-07, -1.4435201478590898e-07, -1.3374892660067417e-07, -1.2314583841543936e-07, -1.1254276444105926e-07, -1.0193969046667917e-07, -9.133660228144436e-08, -8.073351409620955e-08, -7.013042591097474e-08, -5.9527366147449357e-08, -4.8924277962214546e-08, -3.8321189776979736e-08, -2.7718130013454356e-08, -1.7115041828219546e-08, -6.511925221275305e-09, 4.091162963959505e-09, 1.4694251149194315e-08, 2.5297310912719695e-08, 3.5900399097954505e-08, 4.6503487283189315e-08, 5.7106547046714695e-08, 6.77096352319495e-08, 7.831272341718432e-08, 8.891581160241913e-08, 9.951888557679922e-08, 1.1012195955117932e-07, 1.2072504773641413e-07, 1.3132813592164894e-07, 1.4193120989602903e-07, 1.5253428387040913e-07, 1.6313737205564394e-07, 1.7374046024087875e-07, 1.8434353421525884e-07, 1.9494660818963894e-07, 2.0554969637487375e-07, 2.1615278456010856e-07, 2.2675585853448865e-07, 2.3735893250886875e-07, 2.4796202069410356e-07, 2.5856510887933837e-07, 2.691681970645732e-07, 2.7977125682809856e-07, 2.9037434501333337e-07, 3.009774331985682e-07, 3.1158049296209356e-07, 3.2218358114732837e-07, 3.327866693325632e-07]}, "gradients/lstm.bias_hh_l0": {"_type": "histogram", "values": [2.0, 0.0, 0.0, 0.0, 0.0, 1.0, 0.0, 1.0, 0.0, 2.0, 2.0, 0.0, 1.0, 0.0, 4.0, 5.0, 0.0, 8.0, 22.0, 14.0, 49.0, 136.0, 417.0, 1003.0, 216.0, 86.0, 36.0, 14.0, 9.0, 1.0, 2.0, 5.0, 3.0, 3.0, 2.0, 0.0, 0.0, 1.0, 0.0, 0.0, 0.0, 0.0, 1.0, 1.0, 0.0, 0.0, 0.0, 0.0, 0.0, 0.0, 0.0, 0.0, 0.0, 0.0, 0.0, 0.0, 0.0, 0.0, 0.0, 0.0, 0.0, 0.0, 0.0, 1.0], "bins": [-6.999246124905767e-07, -6.696802188344009e-07, -6.394358251782251e-07, -6.091914315220492e-07, -5.789470378658734e-07, -5.487027010531165e-07, -5.184583073969407e-07, -4.882139137407648e-07, -4.57969520084589e-07, -4.277251264284132e-07, -3.974807327722374e-07, -3.67236367537771e-07, -3.369919738815952e-07, -3.0674758022541937e-07, -2.76503214990953e-07, -2.4625882133477717e-07, -2.1601442767860135e-07, -1.8577003402242553e-07, -1.5552564036624972e-07, -1.252812467100739e-07, -9.503685305389808e-08, -6.479251624114113e-08, -3.454812258496531e-08, -4.3037289287894964e-09, 2.594066472738632e-08, 5.6185058383562136e-08, 8.642945203973795e-08, 1.1667384569591377e-07, 1.4691818250867072e-07, 1.7716257616484654e-07, 2.0740696982102236e-07, 2.3765136347719817e-07, 2.678958708202117e-07, 2.9814026447638753e-07, 3.2838465813256335e-07, 3.5862905178873916e-07, 3.88873445444915e-07, 4.1911778225767193e-07, 4.4936217591384775e-07, 4.796065695700236e-07, 5.098509632261994e-07, 5.400953568823752e-07, 5.70339750538551e-07, 6.005841441947268e-07, 6.308284810074838e-07, 6.610728746636596e-07, 6.913172683198354e-07, 7.215616619760112e-07, 7.518060556321871e-07, 7.820504492883629e-07, 8.122948429445387e-07, 8.425391797572956e-07, 8.727836302568903e-07, 9.030279670696473e-07, 9.332723607258231e-07, 9.63516754381999e-07, 9.937612048815936e-07, 1.0240055416943505e-06, 1.0542498785071075e-06, 1.0844943290067022e-06, 1.1147386658194591e-06, 1.1449831163190538e-06, 1.1752274531318108e-06, 1.2054719036314054e-06, 1.2357162404441624e-06]}, "gradients/lstm.weight_hh_l0": {"_type": "histogram", "values": [1.0, 1.0, 2.0, 4.0, 2.0, 5.0, 2.0, 4.0, 4.0, 4.0, 2.0, 4.0, 8.0, 3.0, 9.0, 5.0, 10.0, 19.0, 31.0, 28.0, 49.0, 57.0, 83.0, 127.0, 156.0, 211.0, 334.0, 628.0, 1368.0, 3446.0, 12516.0, 353617.0, 656561.0, 12716.0, 3416.0, 1325.0, 625.0, 350.0, 228.0, 159.0, 126.0, 90.0, 61.0, 34.0, 24.0, 22.0, 14.0, 16.0, 13.0, 6.0, 6.0, 8.0, 7.0, 2.0, 3.0, 3.0, 4.0, 5.0, 1.0, 4.0, 1.0, 2.0, 2.0, 2.0], "bins": [-7.446014933520928e-07, -7.213393473648466e-07, -6.980771445341816e-07, -6.748149985469354e-07, -6.515528525596892e-07, -6.28290706572443e-07, -6.05028503741778e-07, -5.817663577545318e-07, -5.585042117672856e-07, -5.352420657800394e-07, -5.119798629493744e-07, -4.887177169621282e-07, -4.6545554255317256e-07, -4.421933965659264e-07, -4.1893122215697076e-07, -3.956690761697246e-07, -3.7240690176076896e-07, -3.4914472735181334e-07, -3.2588258136456716e-07, -3.0262040695561154e-07, -2.7935826096836536e-07, -2.5609608655940974e-07, -2.3283394057216356e-07, -2.0957179458491737e-07, -1.8630959175425232e-07, -1.6304744576700614e-07, -1.3978529977975995e-07, -1.165230969490949e-07, -9.326095096184872e-08, -6.999880497460254e-08, -4.673665898735635e-08, -2.3474456156691303e-08, -2.1231016944511794e-10, 2.3049835817801068e-08, 4.6312038648466114e-08, 6.95741846357123e-08, 9.283633062295849e-08, 1.1609847661020467e-07, 1.3936067944086972e-07, 1.626228254281159e-07, 1.858849714153621e-07, 2.0914717424602713e-07, 2.3240932023327332e-07, 2.556714662205195e-07, 2.789336406294751e-07, 3.021957866167213e-07, 3.254579610256769e-07, 3.487201070129231e-07, 3.719822814218787e-07, 3.9524445583083434e-07, 4.185066018180805e-07, 4.4176877622703614e-07, 4.6503092221428233e-07, 4.882930966232379e-07, 5.115552426104841e-07, 5.348174454411492e-07, 5.580795914283954e-07, 5.813417374156415e-07, 6.046038834028877e-07, 6.278660862335528e-07, 6.51128232220799e-07, 6.743903782080451e-07, 6.976525241952913e-07, 7.209147270259564e-07, 7.441768730132026e-07]}, "gradients/lstm.bias_ih_l0": {"_type": "histogram", "values": [2.0, 0.0, 0.0, 0.0, 0.0, 1.0, 0.0, 1.0, 0.0, 2.0, 2.0, 0.0, 1.0, 0.0, 4.0, 5.0, 0.0, 8.0, 22.0, 14.0, 49.0, 136.0, 417.0, 1003.0, 216.0, 86.0, 36.0, 14.0, 9.0, 1.0, 2.0, 5.0, 3.0, 3.0, 2.0, 0.0, 0.0, 1.0, 0.0, 0.0, 0.0, 0.0, 1.0, 1.0, 0.0, 0.0, 0.0, 0.0, 0.0, 0.0, 0.0, 0.0, 0.0, 0.0, 0.0, 0.0, 0.0, 0.0, 0.0, 0.0, 0.0, 0.0, 0.0, 1.0], "bins": [-6.999246124905767e-07, -6.696802188344009e-07, -6.394358251782251e-07, -6.091914315220492e-07, -5.789470378658734e-07, -5.487027010531165e-07, -5.184583073969407e-07, -4.882139137407648e-07, -4.57969520084589e-07, -4.277251264284132e-07, -3.974807327722374e-07, -3.67236367537771e-07, -3.369919738815952e-07, -3.0674758022541937e-07, -2.76503214990953e-07, -2.4625882133477717e-07, -2.1601442767860135e-07, -1.8577003402242553e-07, -1.5552564036624972e-07, -1.252812467100739e-07, -9.503685305389808e-08, -6.479251624114113e-08, -3.454812258496531e-08, -4.3037289287894964e-09, 2.594066472738632e-08, 5.6185058383562136e-08, 8.642945203973795e-08, 1.1667384569591377e-07, 1.4691818250867072e-07, 1.7716257616484654e-07, 2.0740696982102236e-07, 2.3765136347719817e-07, 2.678958708202117e-07, 2.9814026447638753e-07, 3.2838465813256335e-07, 3.5862905178873916e-07, 3.88873445444915e-07, 4.1911778225767193e-07, 4.4936217591384775e-07, 4.796065695700236e-07, 5.098509632261994e-07, 5.400953568823752e-07, 5.70339750538551e-07, 6.005841441947268e-07, 6.308284810074838e-07, 6.610728746636596e-07, 6.913172683198354e-07, 7.215616619760112e-07, 7.518060556321871e-07, 7.820504492883629e-07, 8.122948429445387e-07, 8.425391797572956e-07, 8.727836302568903e-07, 9.030279670696473e-07, 9.332723607258231e-07, 9.63516754381999e-07, 9.937612048815936e-07, 1.0240055416943505e-06, 1.0542498785071075e-06, 1.0844943290067022e-06, 1.1147386658194591e-06, 1.1449831163190538e-06, 1.1752274531318108e-06, 1.2054719036314054e-06, 1.2357162404441624e-06]}, "gradients/lstm.weight_ih_l0": {"_type": "histogram", "values": [1.0, 2.0, 1.0, 1.0, 2.0, 1.0, 3.0, 1.0, 2.0, 0.0, 2.0, 2.0, 0.0, 3.0, 8.0, 10.0, 14.0, 15.0, 20.0, 11.0, 26.0, 40.0, 69.0, 126.0, 188.0, 271.0, 672.0, 1778.0, 9787.0, 217917.0, 25926.0, 3219.0, 1000.0, 389.0, 224.0, 119.0, 83.0, 54.0, 47.0, 29.0, 19.0, 10.0, 14.0, 9.0, 6.0, 9.0, 3.0, 0.0, 3.0, 1.0, 0.0, 1.0, 3.0, 0.0, 0.0, 0.0, 0.0, 1.0, 1.0, 0.0, 0.0, 0.0, 0.0, 1.0], "bins": [-2.085881078528473e-06, -2.0156605842203135e-06, -1.9454400899121538e-06, -1.875219595603994e-06, -1.8049989876089967e-06, -1.734778493300837e-06, -1.6645579989926773e-06, -1.59433739099768e-06, -1.5241168966895202e-06, -1.4538964023813605e-06, -1.3836759080732008e-06, -1.3134554137650412e-06, -1.2432349194568815e-06, -1.1730144251487218e-06, -1.1027938171537244e-06, -1.0325733228455647e-06, -9.62352828537405e-07, -8.921323342292453e-07, -8.219118399210856e-07, -7.516912319260882e-07, -6.814707376179285e-07, -6.112502433097688e-07, -5.410297490016092e-07, -4.708092546934495e-07, -4.005887603852898e-07, -3.303681523902924e-07, -2.601476580821327e-07, -1.89927163773973e-07, -1.197065557789756e-07, -4.948606147081591e-08, 2.0734432837343775e-08, 9.095492714550346e-08, 1.6117542145366315e-07, 2.3139591576182283e-07, 3.016164100699825e-07, 3.718369043781422e-07, 4.420573986863019e-07, 5.122780066812993e-07, 5.82498500989459e-07, 6.527189952976187e-07, 7.229396032926161e-07, 7.931600976007758e-07, 8.633805919089355e-07, 9.336010862170951e-07, 1.0038215805252548e-06, 1.0740420748334145e-06, 1.144262682828412e-06, 1.2144831771365716e-06, 1.2847036714447313e-06, 1.354924165752891e-06, 1.4251446600610507e-06, 1.495365268056048e-06, 1.5655857623642078e-06, 1.6358062566723675e-06, 1.7060267509805271e-06, 1.7762472452886868e-06, 1.8464677395968465e-06, 1.916688233905006e-06, 1.9869089555868413e-06, 2.0571292225213256e-06, 2.1273499442031607e-06, 2.1975704385113204e-06, 2.26779093281948e-06, 2.3380114271276398e-06, 2.4082319214357994e-06]}, "gradients/encoder.fc.bias": {"_type": "histogram", "values": [1.0, 0.0, 0.0, 0.0, 0.0, 0.0, 1.0, 0.0, 2.0, 1.0, 0.0, 3.0, 0.0, 1.0, 2.0, 2.0, 0.0, 7.0, 5.0, 2.0, 5.0, 4.0, 4.0, 2.0, 9.0, 6.0, 11.0, 6.0, 0.0, 4.0, 3.0, 2.0, 6.0, 7.0, 6.0, 0.0, 3.0, 1.0, 2.0, 3.0, 2.0, 2.0, 3.0, 1.0, 3.0, 1.0, 0.0, 0.0, 1.0, 2.0, 0.0, 0.0, 1.0, 0.0, 0.0, 0.0, 0.0, 0.0, 0.0, 0.0, 0.0, 0.0, 0.0, 1.0], "bins": [-1.023140384859289e-06, -9.861810212896671e-07, -9.492216008766263e-07, -9.122622373070044e-07, -8.753028737373825e-07, -8.383434533243417e-07, -8.013840897547198e-07, -7.644247261850978e-07, -7.274653626154759e-07, -6.905059422024351e-07, -6.535465786328132e-07, -6.165871582197724e-07, -5.796277946501505e-07, -5.426684310805285e-07, -5.057090675109066e-07, -4.687496470978658e-07, -4.317902835282439e-07, -3.9483091995862196e-07, -3.5787149954558117e-07, -3.2091213597595925e-07, -2.839527724063373e-07, -2.4699335199329653e-07, -2.100339884236746e-07, -1.7307462485405267e-07, -1.3611520444101188e-07, -9.915584087138996e-08, -6.219647730176803e-08, -2.52371137321461e-08, 1.1722249837475829e-08, 4.868172709393548e-08, 8.56410906635574e-08, 1.2260045423317933e-07, 1.5955981780280126e-07, 1.965191813724232e-07, 2.3347854494204512e-07, 2.7043790851166705e-07, 3.073973857681267e-07, 3.443567493377486e-07, 3.8131611290737055e-07, 4.182754764769925e-07, 4.552348400466144e-07, 4.921942604596552e-07, 5.291536240292771e-07, 5.661129875988991e-07, 6.030724080119398e-07, 6.400317715815618e-07, 6.769911351511837e-07, 7.139505555642245e-07, 7.509099191338464e-07, 7.878692827034683e-07, 8.248287031165091e-07, 8.617880666861311e-07, 8.98747430255753e-07, 9.357067938253749e-07, 9.726661573949968e-07, 1.0096255209646188e-06, 1.0465849982210784e-06, 1.0835443617907003e-06, 1.1205037253603223e-06, 1.1574630889299442e-06, 1.1944224524995661e-06, 1.2313819297560258e-06, 1.2683412933256477e-06, 1.3053006568952696e-06, 1.3422600204648916e-06]}, "gradients/encoder.fc.weight": {"_type": "histogram", "values": [2.0, 0.0, 0.0, 0.0, 0.0, 0.0, 2.0, 0.0, 5.0, 4.0, 3.0, 5.0, 6.0, 9.0, 10.0, 21.0, 17.0, 41.0, 36.0, 42.0, 62.0, 98.0, 114.0, 161.0, 209.0, 273.0, 512.0, 25009.0, 863.0, 287.0, 223.0, 185.0, 130.0, 99.0, 70.0, 54.0, 56.0, 46.0, 27.0, 26.0, 20.0, 20.0, 11.0, 13.0, 5.0, 2.0, 1.0, 3.0, 5.0, 3.0, 1.0, 3.0, 4.0, 0.0, 0.0, 0.0, 0.0, 0.0, 0.0, 0.0, 0.0, 0.0, 0.0, 2.0], "bins": [-5.193092874833383e-06, -5.005955244996585e-06, -4.818818069907138e-06, -4.63168044007034e-06, -4.444543264980894e-06, -4.257405635144096e-06, -4.070268005307298e-06, -3.8831303754705004e-06, -3.6959932003810536e-06, -3.5088557979179313e-06, -3.321718395454809e-06, -3.1345807656180114e-06, -2.947443363154889e-06, -2.760305960691767e-06, -2.573168330854969e-06, -2.386030928391847e-06, -2.1988935259287246e-06, -2.0117561234656023e-06, -1.82461872100248e-06, -1.6374810911656823e-06, -1.45034368870256e-06, -1.2632062862394378e-06, -1.07606865640264e-06, -8.889314813131932e-07, -7.017938514763955e-07, -5.146562216395978e-07, -3.2751904655015096e-07, -1.4038141671335325e-07, 4.675621312344447e-08, 2.338933882128913e-07, 4.21031018049689e-07, 6.081681931391358e-07, 7.953053682285827e-07, 9.824429980653804e-07, 1.1695801731548272e-06, 1.356717802991625e-06, 1.5438549780810717e-06, 1.7309926079178695e-06, 1.918130237754667e-06, 2.105267412844114e-06, 2.2924050426809117e-06, 2.4795426725177094e-06, 2.6666798476071563e-06, 2.853817477443954e-06, 3.0409548799070762e-06, 3.2280922823701985e-06, 3.4152299122069962e-06, 3.6023673146701185e-06, 3.7895047171332408e-06, 3.976641892222688e-06, 4.163779522059485e-06, 4.350917151896283e-06, 4.538054781733081e-06, 4.7251919568225276e-06, 4.912329586659325e-06, 5.099466761748772e-06, 5.28660439158557e-06, 5.4737420214223675e-06, 5.660879196511814e-06, 5.848016826348612e-06, 6.035154001438059e-06, 6.222291631274857e-06, 6.409429261111654e-06, 6.596566436201101e-06, 6.783704066037899e-06]}, "gradients/encoder.conv3.bn.weight": {"_type": "histogram", "values": [0.0, 0.0, 0.0, 0.0, 0.0, 0.0, 0.0, 0.0, 0.0, 0.0, 0.0, 0.0, 0.0, 0.0, 0.0, 0.0, 0.0, 0.0, 0.0, 0.0, 0.0, 0.0, 0.0, 0.0, 0.0, 0.0, 0.0, 0.0, 0.0, 0.0, 0.0, 0.0, 1.0, 0.0, 0.0, 0.0, 0.0, 0.0, 0.0, 0.0, 0.0, 0.0, 0.0, 0.0, 0.0, 0.0, 0.0, 0.0, 0.0, 0.0, 0.0, 0.0, 0.0, 0.0, 0.0, 0.0, 0.0, 0.0, 0.0, 0.0, 0.0, 0.0, 0.0, 0.0], "bins": [-6.886124538141303e-06, -6.886124538141303e-06, -6.886124538141303e-06, -6.886124538141303e-06, -6.886124538141303e-06, -6.886124538141303e-06, -6.886124538141303e-06, -6.886124538141303e-06, -6.886124538141303e-06, -6.886124538141303e-06, -6.886124538141303e-06, -6.886124538141303e-06, -6.886124538141303e-06, -6.886124538141303e-06, -6.886124538141303e-06, -6.886124538141303e-06, -6.886124538141303e-06, -6.886124538141303e-06, -6.886124538141303e-06, -6.886124538141303e-06, -6.886124538141303e-06, -6.886124538141303e-06, -6.886124538141303e-06, -6.886124538141303e-06, -6.886124538141303e-06, -6.886124538141303e-06, -6.886124538141303e-06, -6.886124538141303e-06, -6.886124538141303e-06, -6.886124538141303e-06, -6.886124538141303e-06, -6.886124538141303e-06, -6.886124538141303e-06, -6.886124538141303e-06, -6.886124538141303e-06, -6.886124538141303e-06, -6.886124538141303e-06, -6.886124538141303e-06, -6.886124538141303e-06, -6.886124538141303e-06, -6.886124538141303e-06, -6.886124538141303e-06, -6.886124538141303e-06, -6.886124538141303e-06, -6.886124538141303e-06, -6.886124538141303e-06, -6.886124538141303e-06, -6.886124538141303e-06, -6.886124538141303e-06, -6.886124538141303e-06, -6.886124538141303e-06, -6.886124538141303e-06, -6.886124538141303e-06, -6.886124538141303e-06, -6.886124538141303e-06, -6.886124538141303e-06, -6.886124538141303e-06, -6.886124538141303e-06, -6.886124538141303e-06, -6.886124538141303e-06, -6.886124538141303e-06, -6.886124538141303e-06, -6.886124538141303e-06, -6.886124538141303e-06, -6.886124538141303e-06]}, "gradients/encoder.conv3.bn.bias": {"_type": "histogram", "values": [0.0, 0.0, 0.0, 0.0, 0.0, 0.0, 0.0, 0.0, 0.0, 0.0, 0.0, 0.0, 0.0, 0.0, 0.0, 0.0, 0.0, 0.0, 0.0, 0.0, 0.0, 0.0, 0.0, 0.0, 0.0, 0.0, 0.0, 0.0, 0.0, 0.0, 0.0, 0.0, 1.0, 0.0, 0.0, 0.0, 0.0, 0.0, 0.0, 0.0, 0.0, 0.0, 0.0, 0.0, 0.0, 0.0, 0.0, 0.0, 0.0, 0.0, 0.0, 0.0, 0.0, 0.0, 0.0, 0.0, 0.0, 0.0, 0.0, 0.0, 0.0, 0.0, 0.0, 0.0], "bins": [8.315789273183327e-06, 8.315789273183327e-06, 8.315789273183327e-06, 8.315789273183327e-06, 8.315789273183327e-06, 8.315789273183327e-06, 8.315789273183327e-06, 8.315789273183327e-06, 8.315789273183327e-06, 8.315789273183327e-06, 8.315789273183327e-06, 8.315789273183327e-06, 8.315789273183327e-06, 8.315789273183327e-06, 8.315789273183327e-06, 8.315789273183327e-06, 8.315789273183327e-06, 8.315789273183327e-06, 8.315789273183327e-06, 8.315789273183327e-06, 8.315789273183327e-06, 8.315789273183327e-06, 8.315789273183327e-06, 8.315789273183327e-06, 8.315789273183327e-06, 8.315789273183327e-06, 8.315789273183327e-06, 8.315789273183327e-06, 8.315789273183327e-06, 8.315789273183327e-06, 8.315789273183327e-06, 8.315789273183327e-06, 8.315789273183327e-06, 8.315789273183327e-06, 8.315789273183327e-06, 8.315789273183327e-06, 8.315789273183327e-06, 8.315789273183327e-06, 8.315789273183327e-06, 8.315789273183327e-06, 8.315789273183327e-06, 8.315789273183327e-06, 8.315789273183327e-06, 8.315789273183327e-06, 8.315789273183327e-06, 8.315789273183327e-06, 8.315789273183327e-06, 8.315789273183327e-06, 8.315789273183327e-06, 8.315789273183327e-06, 8.315789273183327e-06, 8.315789273183327e-06, 8.315789273183327e-06, 8.315789273183327e-06, 8.315789273183327e-06, 8.315789273183327e-06, 8.315789273183327e-06, 8.315789273183327e-06, 8.315789273183327e-06, 8.315789273183327e-06, 8.315789273183327e-06, 8.315789273183327e-06, 8.315789273183327e-06, 8.315789273183327e-06, 8.315789273183327e-06]}, "gradients/encoder.conv3.conv.weight": {"_type": "histogram", "values": [1.0, 0.0, 0.0, 0.0, 0.0, 0.0, 0.0, 0.0, 0.0, 0.0, 0.0, 0.0, 0.0, 0.0, 1.0, 4.0, 2.0, 2.0, 1.0, 0.0, 1.0, 1.0, 3.0, 2.0, 6.0, 2.0, 2.0, 0.0, 1.0, 2.0, 2.0, 3.0, 1.0, 1.0, 0.0, 3.0, 0.0, 0.0, 2.0, 2.0, 0.0, 1.0, 0.0, 2.0, 1.0, 2.0, 1.0, 2.0, 1.0, 2.0, 2.0, 0.0, 1.0, 0.0, 3.0, 0.0, 0.0, 0.0, 0.0, 0.0, 0.0, 0.0, 0.0, 1.0], "bins": [-1.5113864719751291e-05, -1.4448595720750745e-05, -1.37833267217502e-05, -1.3118058632244356e-05, -1.2452788723749109e-05, -1.1787520634243265e-05, -1.112225163524272e-05, -1.0456982636242174e-05, -9.791713637241628e-06, -9.126444638241082e-06, -8.461175639240537e-06, -7.795906640239991e-06, -7.1306385507341474e-06, -6.465369551733602e-06, -5.800100552733056e-06, -5.134831553732511e-06, -4.469562554731965e-06, -3.8042935557314195e-06, -3.139024556730874e-06, -2.4737555577303283e-06, -1.8084865587297827e-06, -1.1432184692239389e-06, -4.779494702233933e-07, 1.873195287771523e-07, 8.525876182829961e-07, 1.5178575267782435e-06, 2.1831256162840873e-06, 2.8483955247793347e-06, 3.5136636142851785e-06, 4.178933522780426e-06, 4.84420161228627e-06, 5.509471520781517e-06, 6.174741429276764e-06, 6.840009518782608e-06, 7.5052794272778556e-06, 8.1705475167837e-06, 8.835817425278947e-06, 9.50108551478479e-06, 1.0166355423280038e-05, 1.0831623512785882e-05, 1.1496893421281129e-05, 1.2162161510786973e-05, 1.2827430509787519e-05, 1.3492699508788064e-05, 1.4157967598293908e-05, 1.4823236597294454e-05, 1.5488505596295e-05, 1.6153775504790246e-05, 1.681904359429609e-05, 1.7484311683801934e-05, 1.814958159229718e-05, 1.881485150079243e-05, 1.9480119590298273e-05, 2.0145387679804116e-05, 2.0810657588299364e-05, 2.1475925677805208e-05, 2.214119376731105e-05, 2.28064636758063e-05, 2.3471733584301546e-05, 2.413700167380739e-05, 2.4802269763313234e-05, 2.546753967180848e-05, 2.6132807761314325e-05, 2.6798077669809572e-05, 2.7463345759315416e-05]}, "gradients/encoder.conv3.conv.bias": {"_type": "histogram", "values": [0.0, 0.0, 0.0, 0.0, 0.0, 0.0, 0.0, 0.0, 0.0, 0.0, 0.0, 0.0, 0.0, 0.0, 0.0, 0.0, 0.0, 0.0, 0.0, 0.0, 0.0, 0.0, 0.0, 0.0, 0.0, 0.0, 0.0, 0.0, 0.0, 0.0, 0.0, 0.0, 1.0, 0.0, 0.0, 0.0, 0.0, 0.0, 0.0, 0.0, 0.0, 0.0, 0.0, 0.0, 0.0, 0.0, 0.0, 0.0, 0.0, 0.0, 0.0, 0.0, 0.0, 0.0, 0.0, 0.0, 0.0, 0.0, 0.0, 0.0, 0.0, 0.0, 0.0, 0.0], "bins": [9.237055564881302e-14, 9.237055564881302e-14, 9.237055564881302e-14, 9.237055564881302e-14, 9.237055564881302e-14, 9.237055564881302e-14, 9.237055564881302e-14, 9.237055564881302e-14, 9.237055564881302e-14, 9.237055564881302e-14, 9.237055564881302e-14, 9.237055564881302e-14, 9.237055564881302e-14, 9.237055564881302e-14, 9.237055564881302e-14, 9.237055564881302e-14, 9.237055564881302e-14, 9.237055564881302e-14, 9.237055564881302e-14, 9.237055564881302e-14, 9.237055564881302e-14, 9.237055564881302e-14, 9.237055564881302e-14, 9.237055564881302e-14, 9.237055564881302e-14, 9.237055564881302e-14, 9.237055564881302e-14, 9.237055564881302e-14, 9.237055564881302e-14, 9.237055564881302e-14, 9.237055564881302e-14, 9.237055564881302e-14, 9.237055564881302e-14, 9.237055564881302e-14, 9.237055564881302e-14, 9.237055564881302e-14, 9.237055564881302e-14, 9.237055564881302e-14, 9.237055564881302e-14, 9.237055564881302e-14, 9.237055564881302e-14, 9.237055564881302e-14, 9.237055564881302e-14, 9.237055564881302e-14, 9.237055564881302e-14, 9.237055564881302e-14, 9.237055564881302e-14, 9.237055564881302e-14, 9.237055564881302e-14, 9.237055564881302e-14, 9.237055564881302e-14, 9.237055564881302e-14, 9.237055564881302e-14, 9.237055564881302e-14, 9.237055564881302e-14, 9.237055564881302e-14, 9.237055564881302e-14, 9.237055564881302e-14, 9.237055564881302e-14, 9.237055564881302e-14, 9.237055564881302e-14, 9.237055564881302e-14, 9.237055564881302e-14, 9.237055564881302e-14, 9.237055564881302e-14]}, "gradients/encoder.conv2.bn.weight": {"_type": "histogram", "values": [1.0, 0.0, 0.0, 0.0, 1.0, 0.0, 0.0, 0.0, 0.0, 0.0, 0.0, 0.0, 1.0, 0.0, 0.0, 0.0, 0.0, 0.0, 0.0, 0.0, 0.0, 0.0, 0.0, 0.0, 0.0, 3.0, 1.0, 0.0, 0.0, 1.0, 1.0, 0.0, 1.0, 0.0, 0.0, 2.0, 0.0, 0.0, 0.0, 0.0, 1.0, 0.0, 0.0, 0.0, 0.0, 0.0, 0.0, 0.0, 0.0, 0.0, 0.0, 0.0, 1.0, 0.0, 1.0, 0.0, 0.0, 0.0, 0.0, 0.0, 0.0, 0.0, 0.0, 1.0], "bins": [-3.6158182865619892e-06, -3.4988674997293856e-06, -3.3819169402704574e-06, -3.264966153437854e-06, -3.1480155939789256e-06, -3.031064807146322e-06, -2.914114247687394e-06, -2.79716346085479e-06, -2.6802126740221865e-06, -2.5632621145632584e-06, -2.44631155510433e-06, -2.3293607682717266e-06, -2.212409981439123e-06, -2.0954594219801947e-06, -1.978508635147591e-06, -1.8615579620018252e-06, -1.7446072888560593e-06, -1.6276565020234557e-06, -1.5107059425645275e-06, -1.3937551557319239e-06, -1.2768045962729957e-06, -1.159853809440392e-06, -1.0429032499814639e-06, -9.259524631488603e-07, -8.090016763162566e-07, -6.920511168573285e-07, -5.751003300247248e-07, -4.5814977056579664e-07, -3.41198983733193e-07, -2.2424842427426483e-07, -1.0729763744166121e-07, 9.652922017266974e-09, 1.2660348147619516e-07, 2.435542683087988e-07, 3.6050482776772697e-07, 4.774556146003306e-07, 5.944061740592588e-07, 7.113569608918624e-07, 8.283075203507906e-07, 9.452583071833942e-07, 1.0622088666423224e-06, 1.179159653474926e-06, 1.2961104403075296e-06, 1.4130609997664578e-06, 1.5300117865990615e-06, 1.6469623460579896e-06, 1.7639131328905933e-06, 1.8808636923495214e-06, 1.997814479182125e-06, 2.1147652660147287e-06, 2.231715825473657e-06, 2.348666384932585e-06, 2.4656171717651887e-06, 2.5825679585977923e-06, 2.6995185180567205e-06, 2.816469304889324e-06, 2.9334200917219277e-06, 3.050370651180856e-06, 3.167321210639784e-06, 3.2842719974723877e-06, 3.4012227843049914e-06, 3.5181733437639195e-06, 3.635124130596523e-06, 3.7520746900554514e-06, 3.869025476888055e-06]}, "gradients/encoder.conv2.bn.bias": {"_type": "histogram", "values": [1.0, 0.0, 0.0, 0.0, 0.0, 0.0, 0.0, 0.0, 0.0, 1.0, 0.0, 0.0, 0.0, 0.0, 1.0, 0.0, 0.0, 2.0, 1.0, 0.0, 0.0, 0.0, 1.0, 1.0, 0.0, 0.0, 0.0, 1.0, 0.0, 0.0, 0.0, 0.0, 0.0, 1.0, 0.0, 0.0, 0.0, 1.0, 0.0, 1.0, 0.0, 0.0, 0.0, 0.0, 0.0, 0.0, 2.0, 0.0, 0.0, 0.0, 0.0, 0.0, 0.0, 0.0, 0.0, 1.0, 0.0, 0.0, 0.0, 0.0, 0.0, 0.0, 0.0, 1.0], "bins": [-1.6370302091672784e-06, -1.575794385644258e-06, -1.5145585621212376e-06, -1.4533226249113795e-06, -1.3920868013883592e-06, -1.3308509778653388e-06, -1.2696150406554807e-06, -1.2083792171324603e-06, -1.14714339360944e-06, -1.0859075700864196e-06, -1.0246717465633992e-06, -9.634358093535411e-07, -9.021999858305207e-07, -8.409641623075004e-07, -7.797282819410611e-07, -7.184924015746219e-07, -6.572565780516015e-07, -5.960207545285812e-07, -5.347849310055608e-07, -4.735489937957027e-07, -4.1231317027268233e-07, -3.5107734674966196e-07, -2.8984140953980386e-07, -2.286055860167835e-07, -1.6736976249376312e-07, -1.0613393897074275e-07, -4.4898115447722375e-08, 1.6337821762135718e-08, 7.757364528515609e-08, 1.3880946880817646e-07, 2.0004540601803456e-07, 2.6128122954105493e-07, 3.2251682569039986e-07, 3.8375264921342023e-07, 4.449884727364406e-07, 5.062244099462987e-07, 5.674602334693191e-07, 6.286960569923394e-07, 6.899319942021975e-07, 7.511678177252179e-07, 8.124036412482383e-07, 8.736394647712586e-07, 9.34875288294279e-07, 9.961112255041371e-07, 1.0573470490271575e-06, 1.1185828725501779e-06, 1.179818809760036e-06, 1.2410546332830563e-06, 1.3022904568060767e-06, 1.363526280329097e-06, 1.4247621038521174e-06, 1.4859980410619755e-06, 1.547233864584996e-06, 1.6084696881080163e-06, 1.6697056253178744e-06, 1.7309414488408947e-06, 1.7921772723639151e-06, 1.8534130958869355e-06, 1.914648919409956e-06, 1.9758847429329762e-06, 2.037120793829672e-06, 2.0983566173526924e-06, 2.1595924408757128e-06, 2.220828264398733e-06, 2.2820640879217535e-06]}, "gradients/encoder.conv2.conv.weight": {"_type": "histogram", "values": [1.0, 0.0, 0.0, 0.0, 0.0, 0.0, 0.0, 0.0, 0.0, 1.0, 2.0, 0.0, 1.0, 0.0, 1.0, 2.0, 1.0, 3.0, 2.0, 1.0, 0.0, 4.0, 0.0, 4.0, 1.0, 1.0, 2.0, 5.0, 3.0, 7.0, 6.0, 7.0, 14.0, 12.0, 25.0, 39.0, 40.0, 97.0, 244.0, 607.0, 573.0, 102.0, 62.0, 53.0, 28.0, 16.0, 23.0, 6.0, 7.0, 9.0, 5.0, 4.0, 3.0, 3.0, 7.0, 4.0, 1.0, 3.0, 4.0, 0.0, 0.0, 0.0, 0.0, 2.0], "bins": [-2.400093580945395e-05, -2.3399734345730394e-05, -2.279853288200684e-05, -2.2197331418283284e-05, -2.159612995455973e-05, -2.099492667184677e-05, -2.0393725208123215e-05, -1.979252374439966e-05, -1.9191322280676104e-05, -1.859012081695255e-05, -1.7988919353228994e-05, -1.7387716070516035e-05, -1.678651460679248e-05, -1.6185313143068925e-05, -1.558411167934537e-05, -1.4982910215621814e-05, -1.4381708751898259e-05, -1.3780507288174704e-05, -1.3179305824451149e-05, -1.2578103451232892e-05, -1.1976901987509336e-05, -1.1375700523785781e-05, -1.0774498150567524e-05, -1.0173296686843969e-05, -9.572095223120414e-06, -8.970893759396859e-06, -8.369692295673303e-06, -7.768490831949748e-06, -7.167287549236789e-06, -6.566086085513234e-06, -5.964884621789679e-06, -5.363683158066124e-06, -4.7624816943425685e-06, -4.161280230619013e-06, -3.560078766895458e-06, -2.958877303171903e-06, -2.3576758394483477e-06, -1.756472556735389e-06, -1.1552710930118337e-06, -5.540696292882785e-07, 4.713183443527669e-08, 6.483332981588319e-07, 1.249534761882387e-06, 1.850737135100644e-06, 2.4519385988241993e-06, 3.0531400625477545e-06, 3.6543424357660115e-06, 4.255543899489567e-06, 4.856745363213122e-06, 5.457946826936677e-06, 6.059148290660232e-06, 6.660350663878489e-06, 7.2615521276020445e-06, 7.8627535913256e-06, 8.463955964543857e-06, 9.065157428267412e-06, 9.666358891990967e-06, 1.0267560355714522e-05, 1.0868761819438078e-05, 1.1469964192656334e-05, 1.207116565637989e-05, 1.2672367120103445e-05, 1.3273569493321702e-05, 1.3874770957045257e-05, 1.4475972420768812e-05]}, "gradients/encoder.conv2.conv.bias": {"_type": "histogram", "values": [1.0, 0.0, 0.0, 0.0, 0.0, 0.0, 0.0, 0.0, 0.0, 0.0, 0.0, 0.0, 0.0, 0.0, 0.0, 0.0, 0.0, 0.0, 0.0, 0.0, 0.0, 0.0, 0.0, 0.0, 0.0, 0.0, 0.0, 0.0, 0.0, 1.0, 0.0, 0.0, 0.0, 0.0, 0.0, 0.0, 0.0, 0.0, 0.0, 0.0, 0.0, 1.0, 2.0, 1.0, 0.0, 1.0, 0.0, 1.0, 0.0, 0.0, 0.0, 1.0, 0.0, 0.0, 0.0, 1.0, 0.0, 0.0, 1.0, 3.0, 0.0, 0.0, 1.0, 1.0], "bins": [-1.1262102361797588e-12, -1.1022849299990867e-12, -1.0783596238184145e-12, -1.0544343176377424e-12, -1.0305090114570703e-12, -1.0065837052763982e-12, -9.82658399095726e-13, -9.58733092915054e-13, -9.348077867343818e-13, -9.108824805537097e-13, -8.869571743730376e-13, -8.630318681923654e-13, -8.391065620116933e-13, -8.151812558310212e-13, -7.912559496503491e-13, -7.673306434696769e-13, -7.434053372890048e-13, -7.194800311083327e-13, -6.955547249276606e-13, -6.716294187469884e-13, -6.477041125663163e-13, -6.237788063856442e-13, -5.998535002049721e-13, -5.759281940243e-13, -5.520028878436278e-13, -5.280775816629557e-13, -5.041522754822836e-13, -4.802269693016115e-13, -4.563016631209393e-13, -4.323763569402672e-13, -4.084510507595951e-13, -3.8452574457892297e-13, -3.6060043839825084e-13, -3.366751322175787e-13, -3.127498260369066e-13, -2.8882451985623447e-13, -2.6489921367556235e-13, -2.4097390749489023e-13, -2.170486013142181e-13, -1.9312329513354598e-13, -1.6919798895287386e-13, -1.4527268277220173e-13, -1.213473765915296e-13, -9.742207041085749e-14, -7.349676423018536e-14, -4.957145804951324e-14, -2.5646151868841116e-14, -1.7208456881689926e-15, 2.220446049250313e-14, 4.6129766673175254e-14, 7.005507285384738e-14, 9.39803790345195e-14, 1.1790568521519162e-13, 1.4183099139586375e-13, 1.6575629757653587e-13, 1.89681603757208e-13, 2.1360690993788012e-13, 2.3753221611855224e-13, 2.6145752229922437e-13, 2.853828284798965e-13, 3.093081346605686e-13, 3.3323344084124074e-13, 3.5715874702191286e-13, 3.81084053202585e-13, 4.050093593832571e-13]}, "gradients/encoder.conv1.bn.weight": {"_type": "histogram", "values": [1.0, 0.0, 0.0, 0.0, 0.0, 0.0, 0.0, 0.0, 0.0, 0.0, 0.0, 0.0, 0.0, 0.0, 0.0, 0.0, 0.0, 1.0, 0.0, 0.0, 2.0, 0.0, 0.0, 0.0, 0.0, 2.0, 3.0, 0.0, 2.0, 2.0, 1.0, 2.0, 1.0, 2.0, 0.0, 3.0, 1.0, 1.0, 0.0, 2.0, 1.0, 0.0, 0.0, 1.0, 0.0, 1.0, 0.0, 0.0, 1.0, 0.0, 0.0, 1.0, 0.0, 0.0, 0.0, 0.0, 0.0, 0.0, 0.0, 0.0, 0.0, 0.0, 0.0, 1.0], "bins": [-2.812835646182066e-06, -2.7267535642749863e-06, -2.6406714823679067e-06, -2.5545891730871517e-06, -2.468507091180072e-06, -2.3824250092729926e-06, -2.2963426999922376e-06, -2.210260618085158e-06, -2.1241785361780785e-06, -2.038096454270999e-06, -1.9520143723639194e-06, -1.8659320630831644e-06, -1.7798499811760848e-06, -1.6937678992690053e-06, -1.607685703675088e-06, -1.5216035080811707e-06, -1.4355214261740912e-06, -1.3494393442670116e-06, -1.2633571486730943e-06, -1.177274953079177e-06, -1.0911928711720975e-06, -1.005110789265018e-06, -9.190285936711007e-07, -8.329463980771834e-07, -7.468643161701038e-07, -6.607822342630243e-07, -5.747001523559447e-07, -4.886178430751897e-07, -4.025357611681102e-07, -3.1645367926103063e-07, -2.3037136998027563e-07, -1.4428928807319608e-07, -5.820720616611652e-08, 2.7874875740963034e-08, 1.1395695764804259e-07, 2.000392669287976e-07, 2.8612134883587714e-07, 3.722034307429567e-07, 4.582857400237117e-07, 5.443678219307913e-07, 6.304499038378708e-07, 7.165319857449504e-07, 8.026141813388676e-07, 8.886963769327849e-07, 9.747784588398645e-07, 1.060860540746944e-06, 1.1469427363408613e-06, 1.2330249319347786e-06, 1.3191070138418581e-06, 1.4051890957489377e-06, 1.491271291342855e-06, 1.5773534869367722e-06, 1.6634355688438518e-06, 1.7495176507509314e-06, 1.8355998463448486e-06, 1.921682041938766e-06, 2.0077641238458455e-06, 2.093846205752925e-06, 2.1799282876600046e-06, 2.2660105969407596e-06, 2.352092678847839e-06, 2.4381747607549187e-06, 2.5242570700356737e-06, 2.6103391519427532e-06, 2.6964212338498328e-06]}, "gradients/encoder.conv1.bn.bias": {"_type": "histogram", "values": [2.0, 0.0, 0.0, 0.0, 0.0, 0.0, 1.0, 0.0, 1.0, 1.0, 0.0, 1.0, 0.0, 0.0, 0.0, 0.0, 0.0, 1.0, 0.0, 1.0, 0.0, 1.0, 1.0, 1.0, 2.0, 1.0, 0.0, 0.0, 0.0, 0.0, 1.0, 0.0, 2.0, 3.0, 0.0, 1.0, 3.0, 0.0, 1.0, 0.0, 1.0, 0.0, 0.0, 2.0, 0.0, 0.0, 0.0, 1.0, 0.0, 0.0, 0.0, 0.0, 1.0, 0.0, 1.0, 0.0, 0.0, 0.0, 0.0, 0.0, 0.0, 0.0, 0.0, 1.0], "bins": [-1.336083869318827e-06, -1.2989768265470047e-06, -1.2618697837751824e-06, -1.2247626273165224e-06, -1.1876555845447e-06, -1.1505485417728778e-06, -1.1134414990010555e-06, -1.0763344562292332e-06, -1.0392272997705732e-06, -1.0021202569987508e-06, -9.650132142269285e-07, -9.279061714551062e-07, -8.907991286832839e-07, -8.536920290680428e-07, -8.165849862962204e-07, -7.794778866809793e-07, -7.42370843909157e-07, -7.052638011373347e-07, -6.681567015220935e-07, -6.310496587502712e-07, -5.9394255913503e-07, -5.568355163632077e-07, -5.197284735913854e-07, -4.826213739761442e-07, -4.4551433120432193e-07, -4.0840728843249963e-07, -3.7130018881725846e-07, -3.3419314604543615e-07, -2.9708610327361384e-07, -2.5997906050179154e-07, -2.228719040431315e-07, -1.857648612713092e-07, -1.486578184994869e-07, -1.1155077572766459e-07, -7.444373295584228e-08, -3.733657649718225e-08, -2.2953372535994276e-10, 3.6877509046462364e-08, 7.398455181828467e-08, 1.1109165143352584e-07, 1.4819869420534815e-07, 1.8530573697717045e-07, 2.2241283659241162e-07, 2.5951987936423393e-07, 2.9662692213605624e-07, 3.337340217512974e-07, 3.708410645231197e-07, 4.079481641383609e-07, 4.450552069101832e-07, 4.821622496820055e-07, 5.192693492972467e-07, 5.56376392069069e-07, 5.934834916843101e-07, 6.305905344561324e-07, 6.676975772279548e-07, 7.048046199997771e-07, 7.419117196150182e-07, 7.790188192302594e-07, 8.161258620020817e-07, 8.53232904773904e-07, 8.903399475457263e-07, 9.274470471609675e-07, 9.645541467762087e-07, 1.001661189548031e-06, 1.0387682323198533e-06]}, "gradients/encoder.conv1.conv.weight": {"_type": "histogram", "values": [4.0, 0.0, 1.0, 1.0, 4.0, 2.0, 1.0, 2.0, 5.0, 3.0, 3.0, 1.0, 4.0, 11.0, 4.0, 4.0, 4.0, 7.0, 5.0, 19.0, 16.0, 14.0, 16.0, 19.0, 26.0, 27.0, 44.0, 44.0, 65.0, 77.0, 101.0, 170.0, 197.0, 262.0, 237.0, 98.0, 102.0, 85.0, 56.0, 41.0, 36.0, 28.0, 30.0, 17.0, 19.0, 22.0, 19.0, 15.0, 20.0, 8.0, 17.0, 7.0, 4.0, 7.0, 8.0, 2.0, 1.0, 3.0, 2.0, 0.0, 0.0, 0.0, 0.0, 1.0], "bins": [-6.8094823291176e-06, -6.609564024984138e-06, -6.409645720850676e-06, -6.209727871464565e-06, -6.009809567331104e-06, -5.809891263197642e-06, -5.60997295906418e-06, -5.410054654930718e-06, -5.2101363507972565e-06, -5.010218046663795e-06, -4.810300197277684e-06, -4.610381438396871e-06, -4.41046358901076e-06, -4.210545284877298e-06, -4.010626980743837e-06, -3.8107089039840503e-06, -3.6107905998505885e-06, -3.4108722957171267e-06, -3.2109542189573403e-06, -3.0110359148238786e-06, -2.8111176106904168e-06, -2.611199306556955e-06, -2.411281002423493e-06, -2.2113631530373823e-06, -2.0114448489039205e-06, -1.8115265447704587e-06, -1.611608240636997e-06, -1.4116899365035351e-06, -1.2117716323700733e-06, -1.0118537829839624e-06, -8.119354788505007e-07, -6.120171747170389e-07, -4.120988705835771e-07, -2.121805664501153e-07, -1.2262262316653505e-08, 1.8765604181680828e-07, 3.875738912029192e-07, 5.87492195336381e-07, 7.874104994698428e-07, 9.873288036033046e-07, 1.1872471077367663e-06, 1.3871654118702281e-06, 1.587083261256339e-06, 1.7870015653898008e-06, 1.9869198695232626e-06, 2.1868381736567244e-06, 2.386756477790186e-06, 2.5866745545499725e-06, 2.7865928586834343e-06, 2.986511162816896e-06, 3.1864292395766824e-06, 3.3863475437101442e-06, 3.586265847843606e-06, 3.7861839246033924e-06, 3.98610245611053e-06, 4.1860203054966405e-06, 4.385938609630102e-06, 4.585856913763564e-06, 4.785775217897026e-06, 4.985693522030488e-06, 5.1856118261639494e-06, 5.385530130297411e-06, 5.585447979683522e-06, 5.785366283816984e-06, 5.985284587950446e-06]}, "gradients/encoder.conv1.conv.bias": {"_type": "histogram", "values": [1.0, 0.0, 0.0, 0.0, 2.0, 0.0, 0.0, 0.0, 0.0, 0.0, 1.0, 0.0, 1.0, 2.0, 0.0, 1.0, 1.0, 2.0, 2.0, 0.0, 0.0, 0.0, 0.0, 0.0, 0.0, 0.0, 2.0, 0.0, 2.0, 3.0, 1.0, 2.0, 0.0, 0.0, 2.0, 0.0, 0.0, 0.0, 0.0, 0.0, 0.0, 1.0, 0.0, 1.0, 0.0, 0.0, 1.0, 0.0, 0.0, 0.0, 0.0, 1.0, 1.0, 0.0, 0.0, 0.0, 0.0, 0.0, 0.0, 0.0, 1.0, 0.0, 0.0, 1.0], "bins": [-6.0538241086760536e-12, -5.859424057064189e-12, -5.665024005452324e-12, -5.470623953840459e-12, -5.276223902228594e-12, -5.081823850616729e-12, -4.887423799004864e-12, -4.693023747392999e-12, -4.498623695781134e-12, -4.304223644169269e-12, -4.1098235925574045e-12, -3.9154235409455396e-12, -3.721023489333675e-12, -3.5266234377218098e-12, -3.332223386109945e-12, -3.13782333449808e-12, -2.943423282886215e-12, -2.74902323127435e-12, -2.554623179662485e-12, -2.3602231280506203e-12, -2.1658230764387554e-12, -1.9714230248268905e-12, -1.7770229732150256e-12, -1.5826229216031606e-12, -1.3882228699912957e-12, -1.1938228183794308e-12, -9.99422766767566e-13, -8.05022715155701e-13, -6.106226635438361e-13, -4.162226119319712e-13, -2.2182256032010628e-13, -2.7422508708241367e-14, 1.6697754290362354e-13, 3.6137759451548845e-13, 5.557776461273534e-13, 7.501776977392183e-13, 9.445777493510832e-13, 1.138977800962948e-12, 1.333377852574813e-12, 1.527777904186678e-12, 1.7221779557985428e-12, 1.9165780074104077e-12, 2.1109780590222726e-12, 2.3053781106341376e-12, 2.4997781622460025e-12, 2.6941782138578674e-12, 2.8885782654697323e-12, 3.082978317081597e-12, 3.277378368693462e-12, 3.471778420305327e-12, 3.666178471917192e-12, 3.860578523529057e-12, 4.054978575140922e-12, 4.249378626752787e-12, 4.4437786783646516e-12, 4.6381787299765165e-12, 4.832578781588381e-12, 5.026978833200246e-12, 5.221378884812111e-12, 5.415778936423976e-12, 5.610178988035841e-12, 5.804579039647706e-12, 5.998979091259571e-12, 6.193379142871436e-12, 6.387779194483301e-12]}}