{"lr": 0.0002999981119858674, "train loss": 80594575.33333333, "valid loss": 84454819.55555555, "_timestamp": 1678814794.0443368, "_runtime": 61.718181848526, "_step": 9, "gradients/graph_2decoder.conv6.bn.weight": {"_type": "histogram", "values": [0.0, 0.0, 0.0, 0.0, 0.0, 0.0, 0.0, 0.0, 0.0, 0.0, 0.0, 0.0, 0.0, 0.0, 0.0, 0.0, 0.0, 0.0, 0.0, 0.0, 0.0, 0.0, 0.0, 0.0, 0.0, 0.0, 0.0, 0.0, 0.0, 0.0, 0.0, 0.0, 1.0, 0.0, 0.0, 0.0, 0.0, 0.0, 0.0, 0.0, 0.0, 0.0, 0.0, 0.0, 0.0, 0.0, 0.0, 0.0, 0.0, 0.0, 0.0, 0.0, 0.0, 0.0, 0.0, 0.0, 0.0, 0.0, 0.0, 0.0, 0.0, 0.0, 0.0, 0.0], "bins": [-3616506.0, -3616506.0, -3616506.0, -3616506.0, -3616506.0, -3616506.0, -3616506.0, -3616506.0, -3616506.0, -3616506.0, -3616506.0, -3616506.0, -3616506.0, -3616506.0, -3616506.0, -3616506.0, -3616506.0, -3616506.0, -3616506.0, -3616506.0, -3616506.0, -3616506.0, -3616506.0, -3616506.0, -3616506.0, -3616506.0, -3616506.0, -3616506.0, -3616506.0, -3616506.0, -3616506.0, -3616506.0, -3616506.0, -3616506.0, -3616506.0, -3616506.0, -3616506.0, -3616506.0, -3616506.0, -3616506.0, -3616506.0, -3616506.0, -3616506.0, -3616506.0, -3616506.0, -3616506.0, -3616506.0, -3616506.0, -3616506.0, -3616506.0, -3616506.0, -3616506.0, -3616506.0, -3616506.0, -3616506.0, -3616506.0, -3616506.0, -3616506.0, -3616506.0, -3616506.0, -3616506.0, -3616506.0, -3616506.0, -3616506.0, -3616506.0]}, "gradients/graph_2decoder.conv6.bn.bias": {"_type": "histogram", "values": [0.0, 0.0, 0.0, 0.0, 0.0, 0.0, 0.0, 0.0, 0.0, 0.0, 0.0, 0.0, 0.0, 0.0, 0.0, 0.0, 0.0, 0.0, 0.0, 0.0, 0.0, 0.0, 0.0, 0.0, 0.0, 0.0, 0.0, 0.0, 0.0, 0.0, 0.0, 0.0, 1.0, 0.0, 0.0, 0.0, 0.0, 0.0, 0.0, 0.0, 0.0, 0.0, 0.0, 0.0, 0.0, 0.0, 0.0, 0.0, 0.0, 0.0, 0.0, 0.0, 0.0, 0.0, 0.0, 0.0, 0.0, 0.0, 0.0, 0.0, 0.0, 0.0, 0.0, 0.0], "bins": [-888064.0, -888064.0, -888064.0, -888064.0, -888064.0, -888064.0, -888064.0, -888064.0, -888064.0, -888064.0, -888064.0, -888064.0, -888064.0, -888064.0, -888064.0, -888064.0, -888064.0, -888064.0, -888064.0, -888064.0, -888064.0, -888064.0, -888064.0, -888064.0, -888064.0, -888064.0, -888064.0, -888064.0, -888064.0, -888064.0, -888064.0, -888064.0, -888064.0, -888064.0, -888064.0, -888064.0, -888064.0, -888064.0, -888064.0, -888064.0, -888064.0, -888064.0, -888064.0, -888064.0, -888064.0, -888064.0, -888064.0, -888064.0, -888064.0, -888064.0, -888064.0, -888064.0, -888064.0, -888064.0, -888064.0, -888064.0, -888064.0, -888064.0, -888064.0, -888064.0, -888064.0, -888064.0, -888064.0, -888064.0, -888064.0]}, "gradients/graph_2decoder.conv6.conv.weight": {"_type": "histogram", "values": [1.0, 1.0, 1.0, 1.0, 0.0, 1.0, 0.0, 1.0, 2.0, 1.0, 0.0, 4.0, 2.0, 1.0, 1.0, 3.0, 2.0, 1.0, 2.0, 3.0, 4.0, 2.0, 4.0, 4.0, 5.0, 8.0, 7.0, 8.0, 2.0, 2.0, 3.0, 4.0, 3.0, 2.0, 2.0, 3.0, 3.0, 0.0, 5.0, 4.0, 1.0, 1.0, 3.0, 2.0, 3.0, 3.0, 1.0, 2.0, 1.0, 1.0, 1.0, 2.0, 0.0, 0.0, 0.0, 2.0, 0.0, 0.0, 1.0, 0.0, 0.0, 0.0, 0.0, 1.0], "bins": [-22162.958984375, -21293.818359375, -20424.6796875, -19555.5390625, -18686.3984375, -17817.2578125, -16948.119140625, -16078.978515625, -15209.8388671875, -14340.69921875, -13471.55859375, -12602.4189453125, -11733.279296875, -10864.138671875, -9994.9990234375, -9125.8583984375, -8256.71875, -7387.5791015625, -6518.4384765625, -5649.298828125, -4780.158203125, -3911.01953125, -3041.87890625, -2172.73828125, -1303.599609375, -434.458984375, 434.681640625, 1303.822265625, 2172.9609375, 3042.1015625, 3911.2421875, 4780.380859375, 5649.5234375, 6518.6640625, 7387.802734375, 8256.943359375, 9126.083984375, 9995.22265625, 10864.36328125, 11733.50390625, 12602.64453125, 13471.783203125, 14340.923828125, 15210.064453125, 16079.203125, 16948.34375, 17817.484375, 18686.625, 19555.763671875, 20424.90234375, 21294.04296875, 22163.18359375, 23032.32421875, 23901.46484375, 24770.603515625, 25639.744140625, 26508.8828125, 27378.0234375, 28247.1640625, 29116.3046875, 29985.443359375, 30854.583984375, 31723.724609375, 32592.86328125, 33462.00390625]}, "gradients/graph_2decoder.conv6.conv.bias": {"_type": "histogram", "values": [0.0, 0.0, 0.0, 0.0, 0.0, 0.0, 0.0, 0.0, 0.0, 0.0, 0.0, 0.0, 0.0, 0.0, 0.0, 0.0, 0.0, 0.0, 0.0, 0.0, 0.0, 0.0, 0.0, 0.0, 0.0, 0.0, 0.0, 0.0, 0.0, 0.0, 0.0, 0.0, 1.0, 0.0, 0.0, 0.0, 0.0, 0.0, 0.0, 0.0, 0.0, 0.0, 0.0, 0.0, 0.0, 0.0, 0.0, 0.0, 0.0, 0.0, 0.0, 0.0, 0.0, 0.0, 0.0, 0.0, 0.0, 0.0, 0.0, 0.0, 0.0, 0.0, 0.0, 0.0], "bins": [0.25390625, 0.25390625, 0.25390625, 0.25390625, 0.25390625, 0.25390625, 0.25390625, 0.25390625, 0.25390625, 0.25390625, 0.25390625, 0.25390625, 0.25390625, 0.25390625, 0.25390625, 0.25390625, 0.25390625, 0.25390625, 0.25390625, 0.25390625, 0.25390625, 0.25390625, 0.25390625, 0.25390625, 0.25390625, 0.25390625, 0.25390625, 0.25390625, 0.25390625, 0.25390625, 0.25390625, 0.25390625, 0.25390625, 0.25390625, 0.25390625, 0.25390625, 0.25390625, 0.25390625, 0.25390625, 0.25390625, 0.25390625, 0.25390625, 0.25390625, 0.25390625, 0.25390625, 0.25390625, 0.25390625, 0.25390625, 0.25390625, 0.25390625, 0.25390625, 0.25390625, 0.25390625, 0.25390625, 0.25390625, 0.25390625, 0.25390625, 0.25390625, 0.25390625, 0.25390625, 0.25390625, 0.25390625, 0.25390625, 0.25390625, 0.25390625]}, "gradients/graph_2decoder.conv5.bn.weight": {"_type": "histogram", "values": [1.0, 0.0, 0.0, 0.0, 0.0, 0.0, 1.0, 0.0, 0.0, 0.0, 0.0, 0.0, 0.0, 0.0, 0.0, 0.0, 0.0, 0.0, 0.0, 0.0, 0.0, 0.0, 0.0, 0.0, 0.0, 0.0, 0.0, 0.0, 0.0, 1.0, 0.0, 0.0, 0.0, 0.0, 0.0, 2.0, 1.0, 0.0, 1.0, 0.0, 0.0, 0.0, 0.0, 0.0, 0.0, 0.0, 0.0, 0.0, 0.0, 0.0, 0.0, 0.0, 0.0, 0.0, 0.0, 0.0, 0.0, 0.0, 0.0, 0.0, 0.0, 0.0, 0.0, 1.0], "bins": [-7243.25830078125, -6991.8017578125, -6740.34521484375, -6488.888671875, -6237.4326171875, -5985.97607421875, -5734.51953125, -5483.06298828125, -5231.6064453125, -4980.150390625, -4728.69384765625, -4477.2373046875, -4225.78076171875, -3974.324462890625, -3722.867919921875, -3471.41162109375, -3219.955078125, -2968.49853515625, -2717.0419921875, -2465.5859375, -2214.12939453125, -1962.6728515625, -1711.21630859375, -1459.759765625, -1208.30322265625, -956.84716796875, -705.390625, -453.93408203125, -202.4775390625, 48.97900390625, 300.43505859375, 551.8916015625, 803.3486328125, 1054.80517578125, 1306.26171875, 1557.7177734375, 1809.17431640625, 2060.630859375, 2312.08740234375, 2563.5439453125, 2815.0, 3066.45654296875, 3317.9130859375, 3569.36962890625, 3820.826171875, 4072.28271484375, 4323.73876953125, 4575.1953125, 4826.65185546875, 5078.1083984375, 5329.564453125, 5581.021484375, 5832.4775390625, 6083.93408203125, 6335.390625, 6586.8466796875, 6838.3037109375, 7089.759765625, 7341.21630859375, 7592.6728515625, 7844.12939453125, 8095.5859375, 8347.0419921875, 8598.4990234375, 8849.955078125]}, "gradients/graph_2decoder.conv5.bn.bias": {"_type": "histogram", "values": [3.0, 0.0, 0.0, 0.0, 0.0, 0.0, 0.0, 0.0, 0.0, 1.0, 0.0, 1.0, 0.0, 0.0, 0.0, 0.0, 0.0, 0.0, 0.0, 0.0, 0.0, 0.0, 0.0, 0.0, 0.0, 0.0, 1.0, 0.0, 0.0, 0.0, 0.0, 0.0, 0.0, 0.0, 0.0, 0.0, 0.0, 0.0, 0.0, 0.0, 0.0, 0.0, 1.0, 0.0, 0.0, 0.0, 0.0, 0.0, 0.0, 0.0, 0.0, 0.0, 0.0, 0.0, 0.0, 0.0, 0.0, 0.0, 0.0, 0.0, 0.0, 0.0, 0.0, 1.0], "bins": [3591.14794921875, 3896.971923828125, 4202.7958984375, 4508.6201171875, 4814.4443359375, 5120.26806640625, 5426.09228515625, 5731.916015625, 6037.740234375, 6343.564453125, 6649.38818359375, 6955.21240234375, 7261.0361328125, 7566.8603515625, 7872.6845703125, 8178.50830078125, 8484.33203125, 8790.15625, 9095.98046875, 9401.8046875, 9707.62890625, 10013.453125, 10319.27734375, 10625.1005859375, 10930.9248046875, 11236.7490234375, 11542.572265625, 11848.396484375, 12154.220703125, 12460.044921875, 12765.869140625, 13071.693359375, 13377.517578125, 13683.341796875, 13989.166015625, 14294.9892578125, 14600.8134765625, 14906.6376953125, 15212.4619140625, 15518.28515625, 15824.109375, 16129.93359375, 16435.7578125, 16741.58203125, 17047.40625, 17353.23046875, 17659.0546875, 17964.87890625, 18270.703125, 18576.52734375, 18882.349609375, 19188.173828125, 19493.998046875, 19799.822265625, 20105.646484375, 20411.470703125, 20717.294921875, 21023.119140625, 21328.943359375, 21634.765625, 21940.58984375, 22246.4140625, 22552.23828125, 22858.0625, 23163.88671875]}, "gradients/graph_2decoder.conv5.conv.weight": {"_type": "histogram", "values": [1.0, 2.0, 1.0, 2.0, 0.0, 1.0, 1.0, 1.0, 3.0, 3.0, 5.0, 5.0, 4.0, 8.0, 10.0, 13.0, 8.0, 15.0, 9.0, 25.0, 31.0, 32.0, 42.0, 46.0, 58.0, 65.0, 75.0, 100.0, 95.0, 116.0, 92.0, 130.0, 133.0, 125.0, 107.0, 76.0, 71.0, 77.0, 51.0, 55.0, 53.0, 51.0, 35.0, 37.0, 27.0, 25.0, 16.0, 20.0, 20.0, 12.0, 7.0, 10.0, 9.0, 6.0, 7.0, 4.0, 2.0, 5.0, 1.0, 3.0, 0.0, 2.0, 1.0, 1.0], "bins": [-17788.431640625, -17257.466796875, -16726.5, -16195.53515625, -15664.5703125, -15133.60546875, -14602.6396484375, -14071.673828125, -13540.708984375, -13009.744140625, -12478.7783203125, -11947.8125, -11416.84765625, -10885.8828125, -10354.9169921875, -9823.951171875, -9292.986328125, -8762.021484375, -8231.0556640625, -7700.08984375, -7169.125, -6638.16015625, -6107.1943359375, -5576.228515625, -5045.263671875, -4514.298828125, -3983.3330078125, -3452.3671875, -2921.40234375, -2390.4375, -1859.4716796875, -1328.505859375, -797.541015625, -266.576171875, 264.3896484375, 795.35546875, 1326.3203125, 1857.28515625, 2388.2509765625, 2919.216796875, 3450.181640625, 3981.146484375, 4512.1123046875, 5043.078125, 5574.04296875, 6105.0078125, 6635.9736328125, 7166.939453125, 7697.904296875, 8228.869140625, 8759.8349609375, 9290.80078125, 9821.765625, 10352.73046875, 10883.6962890625, 11414.662109375, 11945.626953125, 12476.591796875, 13007.5576171875, 13538.5234375, 14069.48828125, 14600.453125, 15131.4189453125, 15662.384765625, 16193.349609375]}, "gradients/graph_2decoder.conv5.conv.bias": {"_type": "histogram", "values": [1.0, 0.0, 0.0, 0.0, 0.0, 0.0, 0.0, 0.0, 0.0, 0.0, 0.0, 0.0, 0.0, 0.0, 0.0, 0.0, 0.0, 0.0, 0.0, 0.0, 0.0, 0.0, 1.0, 0.0, 0.0, 0.0, 0.0, 0.0, 0.0, 0.0, 0.0, 0.0, 0.0, 0.0, 1.0, 0.0, 0.0, 0.0, 0.0, 0.0, 0.0, 0.0, 0.0, 2.0, 0.0, 1.0, 0.0, 0.0, 0.0, 0.0, 0.0, 0.0, 1.0, 0.0, 0.0, 0.0, 0.0, 0.0, 0.0, 0.0, 0.0, 0.0, 0.0, 1.0], "bins": [-0.020751953125, -0.020355224609375, -0.01995849609375, -0.019561767578125, -0.0191650390625, -0.018768310546875, -0.01837158203125, -0.017974853515625, -0.017578125, -0.017181396484375, -0.01678466796875, -0.016387939453125, -0.0159912109375, -0.015594482421875, -0.01519775390625, -0.014801025390625, -0.014404296875, -0.014007568359375, -0.01361083984375, -0.013214111328125, -0.0128173828125, -0.012420654296875, -0.01202392578125, -0.011627197265625, -0.01123046875, -0.010833740234375, -0.01043701171875, -0.010040283203125, -0.0096435546875, -0.009246826171875, -0.00885009765625, -0.008453369140625, -0.008056640625, -0.007659912109375, -0.00726318359375, -0.006866455078125, -0.0064697265625, -0.006072998046875, -0.00567626953125, -0.005279541015625, -0.0048828125, -0.004486083984375, -0.00408935546875, -0.003692626953125, -0.0032958984375, -0.002899169921875, -0.00250244140625, -0.002105712890625, -0.001708984375, -0.001312255859375, -0.00091552734375, -0.000518798828125, -0.0001220703125, 0.000274658203125, 0.00067138671875, 0.001068115234375, 0.00146484375, 0.001861572265625, 0.00225830078125, 0.002655029296875, 0.0030517578125, 0.003448486328125, 0.00384521484375, 0.004241943359375, 0.004638671875]}, "gradients/graph_2decoder.conv4.bn.weight": {"_type": "histogram", "values": [1.0, 0.0, 0.0, 0.0, 0.0, 0.0, 0.0, 0.0, 0.0, 0.0, 0.0, 0.0, 0.0, 0.0, 0.0, 0.0, 0.0, 0.0, 0.0, 0.0, 0.0, 0.0, 0.0, 0.0, 0.0, 0.0, 0.0, 0.0, 1.0, 0.0, 0.0, 1.0, 0.0, 0.0, 1.0, 0.0, 0.0, 2.0, 1.0, 0.0, 0.0, 0.0, 0.0, 0.0, 0.0, 1.0, 2.0, 1.0, 0.0, 0.0, 0.0, 0.0, 0.0, 1.0, 1.0, 0.0, 0.0, 0.0, 0.0, 1.0, 0.0, 0.0, 0.0, 2.0], "bins": [-10235.5634765625, -9996.3134765625, -9757.0634765625, -9517.8134765625, -9278.5634765625, -9039.3134765625, -8800.0634765625, -8560.814453125, -8321.564453125, -8082.31396484375, -7843.06396484375, -7603.814453125, -7364.564453125, -7125.314453125, -6886.064453125, -6646.814453125, -6407.564453125, -6168.314453125, -5929.064453125, -5689.814453125, -5450.564453125, -5211.31494140625, -4972.06494140625, -4732.81494140625, -4493.56494140625, -4254.31494140625, -4015.06494140625, -3775.81494140625, -3536.5654296875, -3297.3154296875, -3058.0654296875, -2818.8154296875, -2579.56591796875, -2340.31591796875, -2101.06591796875, -1861.81591796875, -1622.56591796875, -1383.31640625, -1144.06640625, -904.81640625, -665.56640625, -426.31640625, -187.06640625, 52.18359375, 291.43310546875, 530.68310546875, 769.93310546875, 1009.18310546875, 1248.43310546875, 1487.68310546875, 1726.93310546875, 1966.182861328125, 2205.432861328125, 2444.682861328125, 2683.9326171875, 2923.1826171875, 3162.4326171875, 3401.6826171875, 3640.9326171875, 3880.182373046875, 4119.4326171875, 4358.68212890625, 4597.93212890625, 4837.18212890625, 5076.43212890625]}, "gradients/graph_2decoder.conv4.bn.bias": {"_type": "histogram", "values": [1.0, 0.0, 0.0, 0.0, 0.0, 0.0, 0.0, 0.0, 0.0, 0.0, 0.0, 1.0, 0.0, 0.0, 0.0, 0.0, 0.0, 0.0, 0.0, 0.0, 0.0, 0.0, 1.0, 0.0, 0.0, 1.0, 0.0, 0.0, 0.0, 0.0, 2.0, 0.0, 1.0, 0.0, 0.0, 0.0, 0.0, 0.0, 0.0, 0.0, 0.0, 0.0, 1.0, 0.0, 0.0, 0.0, 0.0, 0.0, 0.0, 1.0, 1.0, 2.0, 0.0, 0.0, 1.0, 0.0, 0.0, 0.0, 0.0, 0.0, 1.0, 0.0, 1.0, 1.0], "bins": [-911.6981811523438, -854.0449829101562, -796.3917846679688, -738.7385864257812, -681.0853881835938, -623.4321899414062, -565.7789916992188, -508.12579345703125, -450.47259521484375, -392.81939697265625, -335.16619873046875, -277.51300048828125, -219.85980224609375, -162.20660400390625, -104.55340576171875, -46.90020751953125, 10.75299072265625, 68.40618896484375, 126.05938720703125, 183.71258544921875, 241.36578369140625, 299.01898193359375, 356.67218017578125, 414.32537841796875, 471.97857666015625, 529.6317749023438, 587.2849731445312, 644.9381713867188, 702.5913696289062, 760.2445678710938, 817.8977661132812, 875.5509643554688, 933.2041015625, 990.8572998046875, 1048.510498046875, 1106.1636962890625, 1163.81689453125, 1221.4700927734375, 1279.123291015625, 1336.7764892578125, 1394.4296875, 1452.0828857421875, 1509.736083984375, 1567.3892822265625, 1625.04248046875, 1682.6956787109375, 1740.348876953125, 1798.0020751953125, 1855.6552734375, 1913.3084716796875, 1970.961669921875, 2028.6148681640625, 2086.26806640625, 2143.92138671875, 2201.574462890625, 2259.2275390625, 2316.880859375, 2374.5341796875, 2432.187255859375, 2489.84033203125, 2547.49365234375, 2605.14697265625, 2662.800048828125, 2720.453125, 2778.1064453125]}, "gradients/graph_2decoder.conv4.conv.weight": {"_type": "histogram", "values": [1.0, 0.0, 0.0, 0.0, 0.0, 0.0, 0.0, 0.0, 0.0, 0.0, 1.0, 0.0, 2.0, 0.0, 1.0, 1.0, 5.0, 3.0, 10.0, 5.0, 13.0, 18.0, 18.0, 36.0, 41.0, 36.0, 60.0, 73.0, 116.0, 135.0, 198.0, 227.0, 321.0, 409.0, 483.0, 545.0, 648.0, 751.0, 681.0, 613.0, 560.0, 486.0, 381.0, 312.0, 238.0, 190.0, 153.0, 111.0, 76.0, 65.0, 36.0, 24.0, 32.0, 19.0, 13.0, 11.0, 8.0, 6.0, 2.0, 2.0, 8.0, 4.0, 2.0, 2.0], "bins": [-31450.283203125, -30622.80859375, -29795.3359375, -28967.861328125, -28140.38671875, -27312.9140625, -26485.439453125, -25657.96484375, -24830.4921875, -24003.017578125, -23175.54296875, -22348.0703125, -21520.595703125, -20693.12109375, -19865.6484375, -19038.171875, -18210.69921875, -17383.2265625, -16555.75, -15728.27734375, -14900.802734375, -14073.330078125, -13245.85546875, -12418.380859375, -11590.908203125, -10763.43359375, -9935.958984375, -9108.484375, -8281.01171875, -7453.537109375, -6626.0625, -5798.58984375, -4971.11328125, -4143.638671875, -3316.166015625, -2488.69140625, -1661.216796875, -833.744140625, -6.26953125, 821.205078125, 1648.6796875, 2476.15234375, 3303.626953125, 4131.1015625, 4958.57421875, 5786.048828125, 6613.5224609375, 7440.9970703125, 8268.470703125, 9095.9443359375, 9923.4189453125, 10750.892578125, 11578.3671875, 12405.8408203125, 13233.314453125, 14060.7890625, 14888.2626953125, 15715.736328125, 16543.2109375, 17370.68359375, 18198.158203125, 19025.6328125, 19853.107421875, 20680.580078125, 21508.0546875]}, "gradients/graph_2decoder.conv4.conv.bias": {"_type": "histogram", "values": [1.0, 1.0, 0.0, 0.0, 1.0, 0.0, 0.0, 0.0, 0.0, 1.0, 0.0, 0.0, 0.0, 0.0, 0.0, 0.0, 1.0, 0.0, 0.0, 1.0, 0.0, 0.0, 1.0, 0.0, 0.0, 0.0, 0.0, 0.0, 0.0, 0.0, 2.0, 0.0, 0.0, 0.0, 0.0, 0.0, 0.0, 1.0, 1.0, 0.0, 2.0, 0.0, 0.0, 0.0, 0.0, 0.0, 0.0, 1.0, 0.0, 0.0, 0.0, 0.0, 0.0, 0.0, 1.0, 0.0, 0.0, 0.0, 0.0, 0.0, 0.0, 0.0, 0.0, 1.0], "bins": [-0.0023193359375, -0.002238750457763672, -0.0021581649780273438, -0.0020775794982910156, -0.0019969940185546875, -0.0019164085388183594, -0.0018358230590820312, -0.0017552375793457031, -0.001674652099609375, -0.0015940666198730469, -0.0015134811401367188, -0.0014328956604003906, -0.0013523101806640625, -0.0012717247009277344, -0.0011911392211914062, -0.0011105537414550781, -0.00102996826171875, -0.0009493827819824219, -0.0008687973022460938, -0.0007882118225097656, -0.0007076263427734375, -0.0006270408630371094, -0.0005464553833007812, -0.0004658699035644531, -0.000385284423828125, -0.0003046989440917969, -0.00022411346435546875, -0.00014352798461914062, -6.29425048828125e-05, 1.7642974853515625e-05, 9.822845458984375e-05, 0.00017881393432617188, 0.0002593994140625, 0.0003399848937988281, 0.00042057037353515625, 0.0005011558532714844, 0.0005817413330078125, 0.0006623268127441406, 0.0007429122924804688, 0.0008234977722167969, 0.000904083251953125, 0.0009846687316894531, 0.0010652542114257812, 0.0011458396911621094, 0.0012264251708984375, 0.0013070106506347656, 0.0013875961303710938, 0.0014681816101074219, 0.00154876708984375, 0.0016293525695800781, 0.0017099380493164062, 0.0017905235290527344, 0.0018711090087890625, 0.0019516944885253906, 0.0020322799682617188, 0.002112865447998047, 0.002193450927734375, 0.002274036407470703, 0.0023546218872070312, 0.0024352073669433594, 0.0025157928466796875, 0.0025963783264160156, 0.0026769638061523438, 0.002757549285888672, 0.002838134765625]}, "gradients/graph_2decoder.conv3.bn.weight": {"_type": "histogram", "values": [1.0, 0.0, 0.0, 0.0, 0.0, 0.0, 0.0, 0.0, 0.0, 0.0, 0.0, 1.0, 0.0, 0.0, 0.0, 0.0, 2.0, 0.0, 1.0, 0.0, 3.0, 1.0, 0.0, 0.0, 1.0, 4.0, 1.0, 0.0, 1.0, 2.0, 1.0, 0.0, 0.0, 0.0, 2.0, 0.0, 0.0, 0.0, 1.0, 2.0, 0.0, 1.0, 0.0, 1.0, 0.0, 4.0, 0.0, 0.0, 1.0, 0.0, 0.0, 0.0, 0.0, 0.0, 0.0, 0.0, 0.0, 0.0, 0.0, 0.0, 0.0, 0.0, 0.0, 1.0], "bins": [-10234.9716796875, -9901.6806640625, -9568.388671875, -9235.09765625, -8901.806640625, -8568.515625, -8235.224609375, -7901.9326171875, -7568.6416015625, -7235.3505859375, -6902.05908203125, -6568.767578125, -6235.4765625, -5902.185546875, -5568.89404296875, -5235.6025390625, -4902.3115234375, -4569.0205078125, -4235.72900390625, -3902.4375, -3569.146484375, -3235.85546875, -2902.56396484375, -2569.2724609375, -2235.9814453125, -1902.6904296875, -1569.3994140625, -1236.107421875, -902.81640625, -569.525390625, -236.2333984375, 97.0576171875, 430.3486328125, 763.6396484375, 1096.9306640625, 1430.22265625, 1763.513671875, 2096.8046875, 2430.0966796875, 2763.3876953125, 3096.6787109375, 3429.9697265625, 3763.26123046875, 4096.552734375, 4429.84375, 4763.134765625, 5096.42626953125, 5429.7177734375, 5763.0087890625, 6096.2998046875, 6429.59130859375, 6762.8828125, 7096.173828125, 7429.46484375, 7762.75634765625, 8096.0478515625, 8429.3388671875, 8762.6298828125, 9095.921875, 9429.212890625, 9762.50390625, 10095.794921875, 10429.0859375, 10762.3779296875, 11095.6689453125]}, "gradients/graph_2decoder.conv3.bn.bias": {"_type": "histogram", "values": [2.0, 0.0, 0.0, 0.0, 0.0, 1.0, 0.0, 0.0, 1.0, 0.0, 2.0, 0.0, 0.0, 1.0, 1.0, 0.0, 2.0, 0.0, 3.0, 0.0, 1.0, 2.0, 0.0, 0.0, 0.0, 2.0, 3.0, 0.0, 3.0, 0.0, 0.0, 0.0, 0.0, 1.0, 0.0, 0.0, 1.0, 0.0, 0.0, 0.0, 0.0, 1.0, 0.0, 1.0, 0.0, 0.0, 0.0, 0.0, 0.0, 0.0, 0.0, 0.0, 0.0, 1.0, 0.0, 1.0, 0.0, 0.0, 0.0, 1.0, 0.0, 0.0, 0.0, 1.0], "bins": [-1637.6737060546875, -1561.5509033203125, -1485.4281005859375, -1409.3052978515625, -1333.1824951171875, -1257.0596923828125, -1180.936767578125, -1104.81396484375, -1028.691162109375, -952.5684204101562, -876.4456176757812, -800.3228149414062, -724.199951171875, -648.0771484375, -571.954345703125, -495.83154296875, -419.708740234375, -343.5859375, -267.463134765625, -191.34033203125, -115.217529296875, -39.0947265625, 37.028076171875, 113.15087890625, 189.2738037109375, 265.3966064453125, 341.5194091796875, 417.6422119140625, 493.7650146484375, 569.8878173828125, 646.0106201171875, 722.1334228515625, 798.256103515625, 874.37890625, 950.501708984375, 1026.62451171875, 1102.747314453125, 1178.8701171875, 1254.992919921875, 1331.11572265625, 1407.238525390625, 1483.3614501953125, 1559.4842529296875, 1635.6070556640625, 1711.7298583984375, 1787.8526611328125, 1863.9754638671875, 1940.0982666015625, 2016.2210693359375, 2092.34375, 2168.466796875, 2244.58935546875, 2320.71240234375, 2396.835205078125, 2472.9580078125, 2549.080810546875, 2625.20361328125, 2701.326416015625, 2777.44921875, 2853.572021484375, 2929.69482421875, 3005.817626953125, 3081.9404296875, 3158.063232421875, 3234.18603515625]}, "gradients/graph_2decoder.conv3.conv.weight": {"_type": "histogram", "values": [1.0, 0.0, 0.0, 1.0, 2.0, 3.0, 8.0, 9.0, 4.0, 17.0, 27.0, 26.0, 40.0, 66.0, 81.0, 139.0, 158.0, 261.0, 328.0, 465.0, 677.0, 939.0, 1516.0, 2253.0, 3832.0, 6400.0, 5629.0, 3357.0, 2240.0, 1409.0, 962.0, 634.0, 371.0, 278.0, 194.0, 145.0, 82.0, 63.0, 48.0, 25.0, 18.0, 13.0, 14.0, 13.0, 3.0, 3.0, 7.0, 0.0, 4.0, 1.0, 0.0, 0.0, 0.0, 0.0, 1.0, 0.0, 0.0, 0.0, 0.0, 0.0, 0.0, 0.0, 0.0, 1.0], "bins": [-17948.677734375, -17254.87890625, -16561.080078125, -15867.2822265625, -15173.4833984375, -14479.6845703125, -13785.88671875, -13092.087890625, -12398.2890625, -11704.490234375, -11010.69140625, -10316.8935546875, -9623.0947265625, -8929.2958984375, -8235.498046875, -7541.69921875, -6847.900390625, -6154.1015625, -5460.302734375, -4766.5048828125, -4072.7060546875, -3378.9072265625, -2685.109375, -1991.310546875, -1297.51171875, -603.712890625, 90.0859375, 783.884765625, 1477.681640625, 2171.48046875, 2865.279296875, 3559.078125, 4252.87890625, 4946.677734375, 5640.4765625, 6334.275390625, 7028.07421875, 7721.87109375, 8415.669921875, 9109.46875, 9803.267578125, 10497.06640625, 11190.865234375, 11884.6630859375, 12578.4619140625, 13272.2607421875, 13966.05859375, 14659.857421875, 15353.65625, 16047.455078125, 16741.25390625, 17435.05078125, 18128.8515625, 18822.6484375, 19516.447265625, 20210.24609375, 20904.044921875, 21597.84375, 22291.642578125, 22985.44140625, 23679.23828125, 24373.037109375, 25066.8359375, 25760.634765625, 26454.43359375]}, "gradients/graph_2decoder.conv3.conv.bias": {"_type": "histogram", "values": [1.0, 0.0, 0.0, 0.0, 0.0, 0.0, 0.0, 0.0, 0.0, 0.0, 0.0, 2.0, 0.0, 0.0, 0.0, 0.0, 0.0, 0.0, 0.0, 1.0, 0.0, 0.0, 0.0, 1.0, 0.0, 2.0, 0.0, 3.0, 0.0, 2.0, 1.0, 2.0, 0.0, 0.0, 0.0, 0.0, 0.0, 0.0, 3.0, 0.0, 0.0, 0.0, 3.0, 1.0, 1.0, 0.0, 1.0, 0.0, 0.0, 0.0, 1.0, 0.0, 1.0, 1.0, 0.0, 0.0, 1.0, 1.0, 1.0, 0.0, 1.0, 0.0, 0.0, 1.0], "bins": [-0.001220703125, -0.0011892318725585938, -0.0011577606201171875, -0.0011262893676757812, -0.001094818115234375, -0.0010633468627929688, -0.0010318756103515625, -0.0010004043579101562, -0.00096893310546875, -0.0009374618530273438, -0.0009059906005859375, -0.0008745193481445312, -0.000843048095703125, -0.0008115768432617188, -0.0007801055908203125, -0.0007486343383789062, -0.0007171630859375, -0.0006856918334960938, -0.0006542205810546875, -0.0006227493286132812, -0.000591278076171875, -0.0005598068237304688, -0.0005283355712890625, -0.0004968643188476562, -0.00046539306640625, -0.00043392181396484375, -0.0004024505615234375, -0.00037097930908203125, -0.000339508056640625, -0.00030803680419921875, -0.0002765655517578125, -0.00024509429931640625, -0.000213623046875, -0.00018215179443359375, -0.0001506805419921875, -0.00011920928955078125, -8.7738037109375e-05, -5.626678466796875e-05, -2.47955322265625e-05, 6.67572021484375e-06, 3.814697265625e-05, 6.961822509765625e-05, 0.0001010894775390625, 0.00013256072998046875, 0.000164031982421875, 0.00019550323486328125, 0.0002269744873046875, 0.00025844573974609375, 0.0002899169921875, 0.00032138824462890625, 0.0003528594970703125, 0.00038433074951171875, 0.000415802001953125, 0.00044727325439453125, 0.0004787445068359375, 0.0005102157592773438, 0.00054168701171875, 0.0005731582641601562, 0.0006046295166015625, 0.0006361007690429688, 0.000667572021484375, 0.0006990432739257812, 0.0007305145263671875, 0.0007619857788085938, 0.00079345703125]}, "gradients/graph_2decoder.conv2.bn.weight": {"_type": "histogram", "values": [1.0, 0.0, 0.0, 1.0, 0.0, 1.0, 1.0, 0.0, 2.0, 0.0, 0.0, 0.0, 1.0, 2.0, 1.0, 0.0, 1.0, 1.0, 2.0, 4.0, 1.0, 2.0, 0.0, 1.0, 5.0, 6.0, 5.0, 4.0, 2.0, 1.0, 1.0, 1.0, 4.0, 1.0, 0.0, 1.0, 2.0, 0.0, 0.0, 1.0, 1.0, 0.0, 0.0, 2.0, 1.0, 1.0, 0.0, 0.0, 0.0, 0.0, 1.0, 0.0, 0.0, 1.0, 0.0, 0.0, 0.0, 0.0, 0.0, 0.0, 0.0, 0.0, 0.0, 1.0], "bins": [-4633.509765625, -4457.490234375, -4281.47119140625, -4105.45166015625, -3929.432373046875, -3753.4130859375, -3577.3935546875, -3401.374267578125, -3225.35498046875, -3049.335693359375, -2873.31640625, -2697.296875, -2521.277587890625, -2345.25830078125, -2169.23876953125, -1993.219482421875, -1817.2001953125, -1641.180908203125, -1465.16162109375, -1289.14208984375, -1113.122802734375, -937.103515625, -761.083984375, -585.064697265625, -409.04541015625, -233.02587890625, -57.0068359375, 119.0126953125, 295.0322265625, 471.05126953125, 647.07080078125, 823.08984375, 999.10986328125, 1175.12939453125, 1351.1484375, 1527.16796875, 1703.18701171875, 1879.20654296875, 2055.22607421875, 2231.2451171875, 2407.2646484375, 2583.283935546875, 2759.30322265625, 2935.32275390625, 3111.342041015625, 3287.361328125, 3463.380859375, 3639.400146484375, 3815.41943359375, 3991.438720703125, 4167.4580078125, 4343.4775390625, 4519.4970703125, 4695.51611328125, 4871.53564453125, 5047.5546875, 5223.57421875, 5399.59375, 5575.61279296875, 5751.63232421875, 5927.6513671875, 6103.6708984375, 6279.6904296875, 6455.70947265625, 6631.72900390625]}, "gradients/graph_2decoder.conv2.bn.bias": {"_type": "histogram", "values": [1.0, 0.0, 0.0, 0.0, 0.0, 0.0, 0.0, 0.0, 0.0, 0.0, 0.0, 0.0, 0.0, 0.0, 0.0, 0.0, 1.0, 1.0, 1.0, 3.0, 0.0, 1.0, 1.0, 3.0, 2.0, 1.0, 2.0, 1.0, 0.0, 1.0, 3.0, 3.0, 2.0, 3.0, 6.0, 5.0, 2.0, 0.0, 2.0, 1.0, 1.0, 0.0, 1.0, 2.0, 1.0, 0.0, 4.0, 1.0, 2.0, 0.0, 0.0, 1.0, 0.0, 1.0, 0.0, 0.0, 2.0, 0.0, 0.0, 1.0, 0.0, 0.0, 0.0, 1.0], "bins": [-1799.89794921875, -1747.864013671875, -1695.830078125, -1643.796142578125, -1591.76220703125, -1539.728271484375, -1487.6944580078125, -1435.6605224609375, -1383.6265869140625, -1331.5926513671875, -1279.5587158203125, -1227.52490234375, -1175.490966796875, -1123.45703125, -1071.423095703125, -1019.38916015625, -967.355224609375, -915.3212890625, -863.287353515625, -811.2534790039062, -759.219482421875, -707.1856689453125, -655.1517333984375, -603.1177978515625, -551.0838623046875, -499.0499267578125, -447.0159912109375, -394.9820556640625, -342.9482421875, -290.914306640625, -238.88037109375, -186.846435546875, -134.8126220703125, -82.7786865234375, -30.7447509765625, 21.2891845703125, 73.3231201171875, 125.35693359375, 177.390869140625, 229.4248046875, 281.458740234375, 333.49267578125, 385.526611328125, 437.560546875, 489.5943603515625, 541.6283569335938, 593.6622314453125, 645.6961669921875, 697.7301025390625, 749.7640380859375, 801.7979736328125, 853.8318481445312, 905.8657836914062, 957.8997192382812, 1009.93359375, 1061.967529296875, 1114.00146484375, 1166.035400390625, 1218.0693359375, 1270.103271484375, 1322.13720703125, 1374.1710205078125, 1426.2049560546875, 1478.2388916015625, 1530.2728271484375]}, "gradients/graph_2decoder.conv2.conv.weight": {"_type": "histogram", "values": [2.0, 4.0, 5.0, 9.0, 7.0, 10.0, 6.0, 18.0, 26.0, 25.0, 27.0, 33.0, 38.0, 38.0, 60.0, 63.0, 75.0, 71.0, 105.0, 137.0, 139.0, 179.0, 233.0, 263.0, 309.0, 429.0, 516.0, 687.0, 915.0, 1323.0, 1854.0, 2679.0, 4544.0, 11802.0, 71320.0, 16711.0, 5738.0, 3307.0, 2207.0, 1397.0, 853.0, 696.0, 531.0, 430.0, 325.0, 250.0, 190.0, 113.0, 103.0, 85.0, 58.0, 37.0, 28.0, 18.0, 19.0, 10.0, 2.0, 5.0, 2.0, 1.0, 4.0, 0.0, 0.0, 1.0], "bins": [-9591.3916015625, -9313.943359375, -9036.49609375, -8759.0478515625, -8481.599609375, -8204.15234375, -7926.7041015625, -7649.25634765625, -7371.80859375, -7094.3603515625, -6816.91259765625, -6539.46484375, -6262.0166015625, -5984.56884765625, -5707.12109375, -5429.6728515625, -5152.22509765625, -4874.77734375, -4597.3291015625, -4319.88134765625, -4042.43359375, -3764.9853515625, -3487.53759765625, -3210.08984375, -2932.6416015625, -2655.19384765625, -2377.74609375, -2100.29833984375, -1822.85009765625, -1545.40234375, -1267.9541015625, -990.5068359375, -713.05859375, -435.6103515625, -158.1630859375, 119.28515625, 396.73291015625, 674.18115234375, 951.62890625, 1229.07666015625, 1506.5244140625, 1783.97265625, 2061.42041015625, 2338.8681640625, 2616.31640625, 2893.76416015625, 3171.2119140625, 3448.66015625, 3726.10791015625, 4003.5556640625, 4281.00390625, 4558.45166015625, 4835.8994140625, 5113.34765625, 5390.79541015625, 5668.2431640625, 5945.69140625, 6223.13916015625, 6500.5869140625, 6778.03515625, 7055.48291015625, 7332.9306640625, 7610.37841796875, 7887.82666015625, 8165.2744140625]}, "gradients/graph_2decoder.conv2.conv.bias": {"_type": "histogram", "values": [1.0, 0.0, 0.0, 0.0, 0.0, 2.0, 0.0, 0.0, 0.0, 3.0, 0.0, 0.0, 2.0, 1.0, 0.0, 3.0, 0.0, 1.0, 3.0, 0.0, 5.0, 1.0, 0.0, 4.0, 0.0, 2.0, 3.0, 1.0, 4.0, 2.0, 0.0, 1.0, 2.0, 0.0, 0.0, 3.0, 0.0, 3.0, 6.0, 0.0, 0.0, 3.0, 1.0, 2.0, 0.0, 0.0, 3.0, 0.0, 0.0, 1.0, 0.0, 0.0, 0.0, 0.0, 0.0, 0.0, 0.0, 0.0, 0.0, 0.0, 0.0, 0.0, 0.0, 1.0], "bins": [-0.0005645751953125, -0.0005434155464172363, -0.0005222558975219727, -0.000501096248626709, -0.0004799365997314453, -0.00045877695083618164, -0.00043761730194091797, -0.0004164576530456543, -0.0003952980041503906, -0.00037413835525512695, -0.0003529787063598633, -0.0003318190574645996, -0.00031065940856933594, -0.00028949975967407227, -0.0002683401107788086, -0.0002471804618835449, -0.00022602081298828125, -0.00020486116409301758, -0.0001837015151977539, -0.00016254186630249023, -0.00014138221740722656, -0.00012022256851196289, -9.906291961669922e-05, -7.790327072143555e-05, -5.6743621826171875e-05, -3.55839729309082e-05, -1.4424324035644531e-05, 6.735324859619141e-06, 2.7894973754882812e-05, 4.9054622650146484e-05, 7.021427154541016e-05, 9.137392044067383e-05, 0.0001125335693359375, 0.00013369321823120117, 0.00015485286712646484, 0.00017601251602172852, 0.0001971721649169922, 0.00021833181381225586, 0.00023949146270751953, 0.0002606511116027832, 0.0002818107604980469, 0.00030297040939331055, 0.0003241300582885742, 0.0003452897071838379, 0.00036644935607910156, 0.00038760900497436523, 0.0004087686538696289, 0.0004299283027648926, 0.00045108795166015625, 0.0004722476005554199, 0.0004934072494506836, 0.0005145668983459473, 0.0005357265472412109, 0.0005568861961364746, 0.0005780458450317383, 0.000599205493927002, 0.0006203651428222656, 0.0006415247917175293, 0.000662684440612793, 0.0006838440895080566, 0.0007050037384033203, 0.000726163387298584, 0.0007473230361938477, 0.0007684826850891113, 0.000789642333984375]}, "gradients/graph_2decoder.conv1.bn.weight": {"_type": "histogram", "values": [1.0, 1.0, 1.0, 0.0, 1.0, 0.0, 1.0, 0.0, 0.0, 2.0, 1.0, 2.0, 0.0, 2.0, 3.0, 0.0, 3.0, 1.0, 2.0, 1.0, 2.0, 3.0, 1.0, 1.0, 2.0, 4.0, 7.0, 2.0, 4.0, 1.0, 9.0, 8.0, 5.0, 4.0, 6.0, 3.0, 8.0, 1.0, 2.0, 1.0, 4.0, 2.0, 1.0, 1.0, 3.0, 2.0, 1.0, 2.0, 2.0, 0.0, 2.0, 3.0, 2.0, 1.0, 1.0, 1.0, 1.0, 0.0, 0.0, 1.0, 0.0, 1.0, 0.0, 1.0], "bins": [-2645.504150390625, -2562.70166015625, -2479.89892578125, -2397.096435546875, -2314.2939453125, -2231.4912109375, -2148.688720703125, -2065.88623046875, -1983.0836181640625, -1900.281005859375, -1817.478515625, -1734.6759033203125, -1651.873291015625, -1569.07080078125, -1486.2681884765625, -1403.4656982421875, -1320.6630859375, -1237.8604736328125, -1155.0579833984375, -1072.25537109375, -989.452880859375, -906.6502685546875, -823.84765625, -741.045166015625, -658.2425537109375, -575.43994140625, -492.637451171875, -409.8349609375, -327.0322265625, -244.229736328125, -161.42724609375, -78.62451171875, 4.177978515625, 86.98046875, 169.783203125, 252.585693359375, 335.38818359375, 418.19091796875, 500.993408203125, 583.7958984375, 666.5985107421875, 749.401123046875, 832.20361328125, 915.0062255859375, 997.808837890625, 1080.611328125, 1163.4139404296875, 1246.2164306640625, 1329.01904296875, 1411.8216552734375, 1494.6241455078125, 1577.4267578125, 1660.229248046875, 1743.0318603515625, 1825.83447265625, 1908.636962890625, 1991.4395751953125, 2074.2421875, 2157.044677734375, 2239.84716796875, 2322.64990234375, 2405.452392578125, 2488.2548828125, 2571.0576171875, 2653.860107421875]}, "gradients/graph_2decoder.conv1.bn.bias": {"_type": "histogram", "values": [2.0, 0.0, 1.0, 1.0, 1.0, 1.0, 2.0, 0.0, 1.0, 0.0, 1.0, 1.0, 0.0, 3.0, 1.0, 2.0, 0.0, 0.0, 2.0, 3.0, 0.0, 4.0, 3.0, 3.0, 2.0, 2.0, 2.0, 3.0, 6.0, 4.0, 6.0, 7.0, 4.0, 3.0, 1.0, 3.0, 2.0, 6.0, 1.0, 6.0, 1.0, 3.0, 1.0, 3.0, 3.0, 0.0, 0.0, 3.0, 3.0, 3.0, 1.0, 3.0, 0.0, 1.0, 3.0, 1.0, 1.0, 0.0, 4.0, 2.0, 1.0, 0.0, 0.0, 1.0], "bins": [-975.8241577148438, -946.24462890625, -916.6650390625, -887.0855102539062, -857.5059814453125, -827.9263916015625, -798.3468627929688, -768.767333984375, -739.187744140625, -709.6082153320312, -680.0286865234375, -650.4490966796875, -620.8695678710938, -591.2900390625, -561.71044921875, -532.1309814453125, -502.5513916015625, -472.9718322753906, -443.39227294921875, -413.812744140625, -384.23321533203125, -354.65362548828125, -325.0740966796875, -295.49456787109375, -265.91497802734375, -236.33544921875, -206.75592041015625, -177.1763916015625, -147.5968017578125, -118.01727294921875, -88.437744140625, -58.858154296875, -29.278564453125, 0.30096435546875, 29.88055419921875, 59.4600830078125, 89.03961181640625, 118.61920166015625, 148.19873046875, 177.77825927734375, 207.3577880859375, 236.9373779296875, 266.51690673828125, 296.096435546875, 325.676025390625, 355.25555419921875, 384.8350830078125, 414.4146423339844, 443.99420166015625, 473.5737609863281, 503.1532897949219, 532.7328491210938, 562.3123779296875, 591.8919677734375, 621.4714965820312, 651.051025390625, 680.630615234375, 710.2101440429688, 739.7896728515625, 769.3692626953125, 798.9487915039062, 828.5283203125, 858.1078491210938, 887.6874389648438, 917.2669677734375]}, "gradients/graph_2decoder.conv1.conv.weight": {"_type": "histogram", "values": [3.0, 1.0, 7.0, 2.0, 2.0, 3.0, 8.0, 12.0, 18.0, 23.0, 36.0, 28.0, 46.0, 70.0, 71.0, 102.0, 135.0, 173.0, 237.0, 296.0, 390.0, 534.0, 730.0, 1072.0, 1590.0, 2380.0, 3743.0, 6040.0, 12269.0, 34557.0, 2091959.0, 155168.0, 22635.0, 9423.0, 5301.0, 3195.0, 2034.0, 1385.0, 986.0, 672.0, 495.0, 387.0, 247.0, 205.0, 141.0, 125.0, 82.0, 73.0, 48.0, 40.0, 29.0, 17.0, 15.0, 12.0, 14.0, 10.0, 10.0, 5.0, 2.0, 0.0, 0.0, 0.0, 1.0, 2.0], "bins": [-2383.815673828125, -2306.497802734375, -2229.179931640625, -2151.86181640625, -2074.5439453125, -1997.22607421875, -1919.908203125, -1842.59033203125, -1765.2723388671875, -1687.954345703125, -1610.636474609375, -1533.318603515625, -1456.000732421875, -1378.6827392578125, -1301.3648681640625, -1224.046875, -1146.72900390625, -1069.4111328125, -992.0931396484375, -914.7752685546875, -837.457275390625, -760.139404296875, -682.821533203125, -605.5035400390625, -528.1856689453125, -450.8677978515625, -373.5498046875, -296.23193359375, -218.9140625, -141.59619140625, -64.278076171875, 13.039794921875, 90.357421875, 167.67529296875, 244.9931640625, 322.311279296875, 399.629150390625, 476.947021484375, 554.264892578125, 631.5828857421875, 708.9007568359375, 786.2186279296875, 863.53662109375, 940.8544921875, 1018.17236328125, 1095.4903564453125, 1172.8082275390625, 1250.126220703125, 1327.444091796875, 1404.761962890625, 1482.0799560546875, 1559.3978271484375, 1636.7158203125, 1714.03369140625, 1791.3515625, 1868.66943359375, 1945.9874267578125, 2023.305419921875, 2100.623291015625, 2177.941162109375, 2255.259033203125, 2332.576904296875, 2409.89501953125, 2487.212890625, 2564.53076171875]}, "gradients/graph_2decoder.conv1.conv.bias": {"_type": "histogram", "values": [1.0, 0.0, 1.0, 0.0, 0.0, 1.0, 0.0, 0.0, 0.0, 0.0, 1.0, 1.0, 2.0, 1.0, 1.0, 5.0, 3.0, 3.0, 1.0, 1.0, 4.0, 6.0, 1.0, 6.0, 7.0, 7.0, 7.0, 2.0, 6.0, 9.0, 11.0, 5.0, 1.0, 4.0, 0.0, 6.0, 2.0, 3.0, 1.0, 3.0, 5.0, 1.0, 3.0, 0.0, 1.0, 0.0, 1.0, 1.0, 1.0, 0.0, 0.0, 0.0, 0.0, 0.0, 0.0, 0.0, 1.0, 0.0, 0.0, 0.0, 0.0, 0.0, 0.0, 1.0], "bins": [-0.0013427734375, -0.0012950897216796875, -0.001247406005859375, -0.0011997222900390625, -0.00115203857421875, -0.0011043548583984375, -0.001056671142578125, -0.0010089874267578125, -0.0009613037109375, -0.0009136199951171875, -0.000865936279296875, -0.0008182525634765625, -0.00077056884765625, -0.0007228851318359375, -0.000675201416015625, -0.0006275177001953125, -0.000579833984375, -0.0005321502685546875, -0.000484466552734375, -0.0004367828369140625, -0.00038909912109375, -0.0003414154052734375, -0.000293731689453125, -0.0002460479736328125, -0.0001983642578125, -0.0001506805419921875, -0.000102996826171875, -5.53131103515625e-05, -7.62939453125e-06, 4.00543212890625e-05, 8.7738037109375e-05, 0.0001354217529296875, 0.00018310546875, 0.0002307891845703125, 0.000278472900390625, 0.0003261566162109375, 0.00037384033203125, 0.0004215240478515625, 0.000469207763671875, 0.0005168914794921875, 0.0005645751953125, 0.0006122589111328125, 0.000659942626953125, 0.0007076263427734375, 0.00075531005859375, 0.0008029937744140625, 0.000850677490234375, 0.0008983612060546875, 0.000946044921875, 0.0009937286376953125, 0.001041412353515625, 0.0010890960693359375, 0.00113677978515625, 0.0011844635009765625, 0.001232147216796875, 0.0012798309326171875, 0.0013275146484375, 0.0013751983642578125, 0.001422882080078125, 0.0014705657958984375, 0.00151824951171875, 0.0015659332275390625, 0.001613616943359375, 0.0016613006591796875, 0.001708984375]}, "gradients/graph_2lstm.bias_hh_l1": {"_type": "histogram", "values": [2.0, 0.0, 1.0, 1.0, 0.0, 1.0, 1.0, 1.0, 3.0, 1.0, 4.0, 8.0, 8.0, 4.0, 7.0, 8.0, 8.0, 14.0, 18.0, 17.0, 33.0, 28.0, 23.0, 30.0, 37.0, 1406.0, 164.0, 32.0, 24.0, 18.0, 15.0, 16.0, 19.0, 12.0, 12.0, 13.0, 12.0, 5.0, 7.0, 7.0, 4.0, 2.0, 5.0, 4.0, 0.0, 2.0, 3.0, 2.0, 0.0, 3.0, 0.0, 0.0, 1.0, 0.0, 0.0, 0.0, 0.0, 0.0, 1.0, 0.0, 0.0, 0.0, 0.0, 1.0], "bins": [-507.81170654296875, -488.1466369628906, -468.4815673828125, -448.81646728515625, -429.1513977050781, -409.486328125, -389.82122802734375, -370.1561584472656, -350.4910888671875, -330.8260192871094, -311.16094970703125, -291.495849609375, -271.8307800292969, -252.16571044921875, -232.5006103515625, -212.83554077148438, -193.17047119140625, -173.50540161132812, -153.84033203125, -134.17523193359375, -114.51016235351562, -94.8450927734375, -75.17999267578125, -55.514923095703125, -35.849853515625, -16.184783935546875, 3.48028564453125, 23.1453857421875, 42.81048583984375, 62.47552490234375, 82.140625, 101.8056640625, 121.4708251953125, 141.13592529296875, 160.80096435546875, 180.466064453125, 200.131103515625, 219.79620361328125, 239.4613037109375, 259.1263732910156, 278.79144287109375, 298.4565124511719, 318.12158203125, 337.78668212890625, 357.4517517089844, 377.1168212890625, 396.78192138671875, 416.4469909667969, 436.112060546875, 455.7771301269531, 475.44219970703125, 495.1072998046875, 514.7723388671875, 534.4374389648438, 554.1025390625, 573.767578125, 593.4326782226562, 613.0977783203125, 632.7628173828125, 652.4279174804688, 672.093017578125, 691.758056640625, 711.4231567382812, 731.0881958007812, 750.7532958984375]}, "gradients/graph_2lstm.weight_hh_l1": {"_type": "histogram", "values": [4.0, 3.0, 2.0, 0.0, 2.0, 8.0, 7.0, 8.0, 8.0, 15.0, 23.0, 28.0, 30.0, 59.0, 69.0, 103.0, 157.0, 231.0, 308.0, 449.0, 654.0, 1031.0, 1605.0, 2663.0, 4487.0, 8060.0, 16349.0, 41395.0, 899470.0, 37126.0, 15246.0, 7737.0, 4243.0, 2469.0, 1534.0, 987.0, 652.0, 428.0, 292.0, 176.0, 139.0, 92.0, 58.0, 51.0, 23.0, 26.0, 23.0, 14.0, 4.0, 12.0, 1.0, 3.0, 3.0, 1.0, 2.0, 0.0, 0.0, 2.0, 1.0, 1.0, 0.0, 0.0, 0.0, 2.0], "bins": [-38.25996398925781, -36.915199279785156, -35.5704345703125, -34.225669860839844, -32.88090515136719, -31.53614044189453, -30.191377639770508, -28.84661293029785, -27.501848220825195, -26.15708351135254, -24.812318801879883, -23.46755599975586, -22.122791290283203, -20.778026580810547, -19.43326187133789, -18.088497161865234, -16.743732452392578, -15.398967742919922, -14.054203033447266, -12.70943832397461, -11.364673614501953, -10.01991081237793, -8.675146102905273, -7.330381393432617, -5.985618591308594, -4.6408538818359375, -3.2960891723632812, -1.951324462890625, -0.6065597534179688, 0.7382049560546875, 2.0829696655273438, 3.427734375, 4.772502899169922, 6.117267608642578, 7.462032318115234, 8.80679702758789, 10.151561737060547, 11.496326446533203, 12.84109115600586, 14.185855865478516, 15.530620574951172, 16.875383377075195, 18.22014808654785, 19.564912796020508, 20.90967559814453, 22.254440307617188, 23.599205017089844, 24.9439697265625, 26.288734436035156, 27.633499145507812, 28.97826385498047, 30.323028564453125, 31.66779327392578, 33.01255798339844, 34.357322692871094, 35.70208740234375, 37.046852111816406, 38.39161682128906, 39.73638153076172, 41.08114242553711, 42.425907135009766, 43.77067184448242, 45.11543655395508, 46.460201263427734, 47.80496597290039]}, "gradients/graph_2lstm.bias_ih_l1": {"_type": "histogram", "values": [2.0, 0.0, 1.0, 1.0, 0.0, 1.0, 1.0, 1.0, 3.0, 1.0, 4.0, 8.0, 8.0, 4.0, 7.0, 8.0, 8.0, 14.0, 18.0, 17.0, 33.0, 28.0, 23.0, 30.0, 37.0, 1406.0, 164.0, 32.0, 24.0, 18.0, 15.0, 16.0, 19.0, 12.0, 12.0, 13.0, 12.0, 5.0, 7.0, 7.0, 4.0, 2.0, 5.0, 4.0, 0.0, 2.0, 3.0, 2.0, 0.0, 3.0, 0.0, 0.0, 1.0, 0.0, 0.0, 0.0, 0.0, 0.0, 1.0, 0.0, 0.0, 0.0, 0.0, 1.0], "bins": [-507.81170654296875, -488.1466369628906, -468.4815673828125, -448.81646728515625, -429.1513977050781, -409.486328125, -389.82122802734375, -370.1561584472656, -350.4910888671875, -330.8260192871094, -311.16094970703125, -291.495849609375, -271.8307800292969, -252.16571044921875, -232.5006103515625, -212.83554077148438, -193.17047119140625, -173.50540161132812, -153.84033203125, -134.17523193359375, -114.51016235351562, -94.8450927734375, -75.17999267578125, -55.514923095703125, -35.849853515625, -16.184783935546875, 3.48028564453125, 23.1453857421875, 42.81048583984375, 62.47552490234375, 82.140625, 101.8056640625, 121.4708251953125, 141.13592529296875, 160.80096435546875, 180.466064453125, 200.131103515625, 219.79620361328125, 239.4613037109375, 259.1263732910156, 278.79144287109375, 298.4565124511719, 318.12158203125, 337.78668212890625, 357.4517517089844, 377.1168212890625, 396.78192138671875, 416.4469909667969, 436.112060546875, 455.7771301269531, 475.44219970703125, 495.1072998046875, 514.7723388671875, 534.4374389648438, 554.1025390625, 573.767578125, 593.4326782226562, 613.0977783203125, 632.7628173828125, 652.4279174804688, 672.093017578125, 691.758056640625, 711.4231567382812, 731.0881958007812, 750.7532958984375]}, "gradients/graph_2lstm.weight_ih_l1": {"_type": "histogram", "values": [1.0, 2.0, 1.0, 2.0, 1.0, 6.0, 2.0, 4.0, 5.0, 7.0, 6.0, 10.0, 17.0, 17.0, 32.0, 41.0, 57.0, 85.0, 94.0, 161.0, 204.0, 317.0, 418.0, 661.0, 1005.0, 1599.0, 2592.0, 4574.0, 8512.0, 18802.0, 74800.0, 885762.0, 24657.0, 10599.0, 5435.0, 2989.0, 1797.0, 1066.0, 696.0, 476.0, 326.0, 238.0, 153.0, 101.0, 60.0, 61.0, 28.0, 31.0, 17.0, 18.0, 8.0, 8.0, 4.0, 2.0, 2.0, 1.0, 1.0, 0.0, 3.0, 0.0, 0.0, 1.0, 0.0, 1.0], "bins": [-192.9980010986328, -186.7987823486328, -180.59957885742188, -174.40036010742188, -168.20115661621094, -162.00193786621094, -155.802734375, -149.603515625, -143.404296875, -137.20509338378906, -131.00588989257812, -124.80667114257812, -118.60745239257812, -112.40824127197266, -106.20903015136719, -100.00981903076172, -93.81060791015625, -87.61139678955078, -81.41218566894531, -75.21297454833984, -69.01376342773438, -62.814544677734375, -56.61534118652344, -50.41612243652344, -44.21690368652344, -38.0177001953125, -31.8184814453125, -25.619277954101562, -19.420059204101562, -13.220855712890625, -7.021636962890625, -0.8224334716796875, 5.37677001953125, 11.57598876953125, 17.775192260742188, 23.974411010742188, 30.173614501953125, 36.372833251953125, 42.57203674316406, 48.77125549316406, 54.970458984375, 61.169677734375, 67.368896484375, 73.56809997558594, 79.76731872558594, 85.9665298461914, 92.16574096679688, 98.36495208740234, 104.56416320800781, 110.76337432861328, 116.96258544921875, 123.16179656982422, 129.3610076904297, 135.5602264404297, 141.75942993164062, 147.95864868164062, 154.15786743164062, 160.35707092285156, 166.5562744140625, 172.7554931640625, 178.9547119140625, 185.15391540527344, 191.35313415527344, 197.55233764648438, 203.75155639648438]}, "gradients/graph_2lstm.bias_hh_l0": {"_type": "histogram", "values": [1.0, 0.0, 0.0, 2.0, 1.0, 1.0, 1.0, 4.0, 5.0, 3.0, 2.0, 5.0, 6.0, 10.0, 9.0, 14.0, 12.0, 26.0, 23.0, 26.0, 25.0, 40.0, 107.0, 1287.0, 211.0, 46.0, 17.0, 24.0, 21.0, 16.0, 15.0, 21.0, 12.0, 8.0, 7.0, 2.0, 8.0, 2.0, 8.0, 4.0, 5.0, 0.0, 4.0, 0.0, 2.0, 2.0, 1.0, 0.0, 1.0, 0.0, 0.0, 0.0, 0.0, 0.0, 0.0, 0.0, 0.0, 0.0, 0.0, 0.0, 0.0, 0.0, 0.0, 1.0], "bins": [-559.6761474609375, -535.98388671875, -512.2915649414062, -488.59930419921875, -464.9070129394531, -441.2147216796875, -417.5224609375, -393.8301696777344, -370.13787841796875, -346.4455871582031, -322.7532958984375, -299.06103515625, -275.3687438964844, -251.67645263671875, -227.98419189453125, -204.29190063476562, -180.599609375, -156.90731811523438, -133.21502685546875, -109.52276611328125, -85.83047485351562, -62.13818359375, -38.4459228515625, -14.75360107421875, 8.93865966796875, 32.63092041015625, 56.3232421875, 80.0155029296875, 103.707763671875, 127.40008544921875, 151.09234619140625, 174.78466796875, 198.47686767578125, 222.16912841796875, 245.8614501953125, 269.5537109375, 293.24603271484375, 316.93829345703125, 340.63055419921875, 364.3228759765625, 388.01513671875, 411.7073974609375, 435.39971923828125, 459.09197998046875, 482.7842712402344, 506.4765625, 530.1688232421875, 553.861083984375, 577.5534057617188, 601.2457275390625, 624.93798828125, 648.6302490234375, 672.322509765625, 696.0148315429688, 719.7070922851562, 743.3994140625, 767.0916748046875, 790.783935546875, 814.4762573242188, 838.1685180664062, 861.86083984375, 885.5531005859375, 909.245361328125, 932.9376831054688, 956.6299438476562]}, "gradients/graph_2lstm.weight_hh_l0": {"_type": "histogram", "values": [2.0, 0.0, 0.0, 0.0, 1.0, 2.0, 2.0, 2.0, 2.0, 3.0, 2.0, 1.0, 0.0, 3.0, 5.0, 8.0, 11.0, 11.0, 26.0, 39.0, 60.0, 89.0, 137.0, 216.0, 273.0, 449.0, 742.0, 1165.0, 2261.0, 4280.0, 9111.0, 24794.0, 888185.0, 85119.0, 16984.0, 6967.0, 3263.0, 1797.0, 939.0, 615.0, 361.0, 218.0, 167.0, 102.0, 58.0, 38.0, 23.0, 9.0, 15.0, 3.0, 4.0, 3.0, 0.0, 1.0, 1.0, 1.0, 1.0, 1.0, 2.0, 0.0, 0.0, 0.0, 1.0, 1.0], "bins": [-184.514892578125, -178.89393615722656, -173.27296447753906, -167.65200805664062, -162.0310516357422, -156.41009521484375, -150.78912353515625, -145.1681671142578, -139.54721069335938, -133.92623901367188, -128.30528259277344, -122.684326171875, -117.06336212158203, -111.4424057006836, -105.82144165039062, -100.20048522949219, -94.57952117919922, -88.95855712890625, -83.33760070800781, -77.71663665771484, -72.0956802368164, -66.47471618652344, -60.853759765625, -55.23280334472656, -49.61183166503906, -43.990875244140625, -38.36991882324219, -32.74894714355469, -27.12799072265625, -21.507034301757812, -15.886077880859375, -10.265106201171875, -4.6441497802734375, 0.976806640625, 6.5977783203125, 12.218734741210938, 17.839691162109375, 23.460647583007812, 29.081619262695312, 34.70257568359375, 40.32353210449219, 45.94450378417969, 51.565460205078125, 57.18641662597656, 62.80738067626953, 68.42833709716797, 74.04930114746094, 79.67025756835938, 85.29122161865234, 90.91218566894531, 96.53314208984375, 102.15410614013672, 107.77506256103516, 113.39602661132812, 119.01698303222656, 124.63794708251953, 130.2589111328125, 135.87986755371094, 141.50082397460938, 147.12179565429688, 152.7427520751953, 158.36370849609375, 163.9846649169922, 169.6056365966797, 175.22659301757812]}, "gradients/graph_2lstm.bias_ih_l0": {"_type": "histogram", "values": [1.0, 0.0, 0.0, 2.0, 1.0, 1.0, 1.0, 4.0, 5.0, 3.0, 2.0, 5.0, 6.0, 10.0, 9.0, 14.0, 12.0, 26.0, 23.0, 26.0, 25.0, 40.0, 107.0, 1287.0, 211.0, 46.0, 17.0, 24.0, 21.0, 16.0, 15.0, 21.0, 12.0, 8.0, 7.0, 2.0, 8.0, 2.0, 8.0, 4.0, 5.0, 0.0, 4.0, 0.0, 2.0, 2.0, 1.0, 0.0, 1.0, 0.0, 0.0, 0.0, 0.0, 0.0, 0.0, 0.0, 0.0, 0.0, 0.0, 0.0, 0.0, 0.0, 0.0, 1.0], "bins": [-559.6760864257812, -535.9838256835938, -512.29150390625, -488.5992431640625, -464.9069519042969, -441.21466064453125, -417.52239990234375, -393.8301086425781, -370.1378173828125, -346.445556640625, -322.7532653808594, -299.06097412109375, -275.36871337890625, -251.67642211914062, -227.984130859375, -204.2918701171875, -180.59957885742188, -156.90728759765625, -133.21502685546875, -109.52273559570312, -85.8304443359375, -62.13818359375, -38.44586181640625, -14.75360107421875, 8.93865966796875, 32.6309814453125, 56.3232421875, 80.0155029296875, 103.70782470703125, 127.40008544921875, 151.09234619140625, 174.78466796875, 198.4769287109375, 222.169189453125, 245.86151123046875, 269.55377197265625, 293.24603271484375, 316.9383544921875, 340.630615234375, 364.3228759765625, 388.01519775390625, 411.70745849609375, 435.39971923828125, 459.092041015625, 482.7843017578125, 506.4765930175781, 530.1688842773438, 553.8611450195312, 577.553466796875, 601.2457275390625, 624.93798828125, 648.6302490234375, 672.3225708007812, 696.0148315429688, 719.7071533203125, 743.3994140625, 767.0916748046875, 790.783935546875, 814.4762573242188, 838.1685180664062, 861.86083984375, 885.5531005859375, 909.245361328125, 932.9376831054688, 956.6299438476562]}, "gradients/graph_2lstm.weight_ih_l0": {"_type": "histogram", "values": [2.0, 0.0, 0.0, 1.0, 0.0, 1.0, 0.0, 0.0, 1.0, 1.0, 1.0, 2.0, 2.0, 7.0, 13.0, 11.0, 23.0, 23.0, 40.0, 61.0, 84.0, 117.0, 195.0, 319.0, 518.0, 826.0, 1385.0, 2505.0, 4845.0, 15187.0, 218554.0, 8507.0, 3845.0, 2044.0, 1167.0, 659.0, 427.0, 271.0, 163.0, 106.0, 71.0, 51.0, 39.0, 16.0, 16.0, 8.0, 10.0, 2.0, 8.0, 4.0, 1.0, 1.0, 1.0, 0.0, 0.0, 0.0, 1.0, 0.0, 0.0, 1.0, 0.0, 0.0, 0.0, 1.0], "bins": [-1077.7457275390625, -1042.1966552734375, -1006.6475830078125, -971.0985107421875, -935.5494384765625, -900.0003662109375, -864.4513549804688, -828.9022827148438, -793.3532104492188, -757.8041381835938, -722.2550659179688, -686.7060546875, -651.156982421875, -615.60791015625, -580.058837890625, -544.509765625, -508.960693359375, -473.41162109375, -437.862548828125, -402.3134765625, -366.764404296875, -331.21539306640625, -295.66632080078125, -260.11724853515625, -224.56817626953125, -189.01910400390625, -153.47003173828125, -117.92095947265625, -82.3719482421875, -46.8228759765625, -11.2738037109375, 24.2752685546875, 59.824462890625, 95.37353515625, 130.922607421875, 166.4716796875, 202.020751953125, 237.56976318359375, 273.11883544921875, 308.66790771484375, 344.21697998046875, 379.76605224609375, 415.31512451171875, 450.86419677734375, 486.4132080078125, 521.9622802734375, 557.5113525390625, 593.0604248046875, 628.6094970703125, 664.1585693359375, 699.7076416015625, 735.2567138671875, 770.8057861328125, 806.3548583984375, 841.9038696289062, 877.4529418945312, 913.0020141601562, 948.5510864257812, 984.1001586914062, 1019.649169921875, 1055.1982421875, 1090.747314453125, 1126.29638671875, 1161.845458984375, 1197.39453125]}, "gradients/graph_2encoder.fc.bias": {"_type": "histogram", "values": [1.0, 0.0, 0.0, 0.0, 0.0, 0.0, 0.0, 0.0, 0.0, 0.0, 0.0, 0.0, 1.0, 0.0, 1.0, 1.0, 0.0, 0.0, 1.0, 1.0, 2.0, 2.0, 0.0, 6.0, 2.0, 2.0, 5.0, 1.0, 1.0, 3.0, 6.0, 6.0, 9.0, 3.0, 5.0, 2.0, 6.0, 7.0, 8.0, 4.0, 6.0, 5.0, 2.0, 6.0, 1.0, 4.0, 0.0, 3.0, 0.0, 3.0, 3.0, 0.0, 1.0, 3.0, 0.0, 1.0, 2.0, 0.0, 0.0, 1.0, 0.0, 0.0, 0.0, 1.0], "bins": [-916.2967529296875, -890.848388671875, -865.3999633789062, -839.9515991210938, -814.5032348632812, -789.0548095703125, -763.6064453125, -738.1580810546875, -712.709716796875, -687.2612915039062, -661.8129272460938, -636.364501953125, -610.9161376953125, -585.4677734375, -560.0194091796875, -534.571044921875, -509.12261962890625, -483.6742248535156, -458.2258605957031, -432.7774658203125, -407.3291015625, -381.88067626953125, -356.43231201171875, -330.98394775390625, -305.5355224609375, -280.087158203125, -254.6387939453125, -229.1904296875, -203.74200439453125, -178.29364013671875, -152.84527587890625, -127.3968505859375, -101.948486328125, -76.5001220703125, -51.05169677734375, -25.60333251953125, -0.15496826171875, 25.29345703125, 50.7418212890625, 76.190185546875, 101.6385498046875, 127.08697509765625, 152.53533935546875, 177.98370361328125, 203.43212890625, 228.8804931640625, 254.32888793945312, 279.7772521972656, 305.22564697265625, 330.6740417480469, 356.1224060058594, 381.57080078125, 407.0191650390625, 432.4675598144531, 457.91595458984375, 483.36431884765625, 508.8127136230469, 534.2611083984375, 559.70947265625, 585.1578369140625, 610.6062622070312, 636.0546264648438, 661.5029907226562, 686.951416015625, 712.3997802734375]}, "gradients/graph_2encoder.fc.weight": {"_type": "histogram", "values": [1.0, 0.0, 0.0, 0.0, 0.0, 0.0, 0.0, 0.0, 0.0, 1.0, 0.0, 0.0, 1.0, 1.0, 1.0, 1.0, 0.0, 0.0, 1.0, 4.0, 2.0, 6.0, 1.0, 7.0, 6.0, 10.0, 16.0, 14.0, 19.0, 29.0, 39.0, 77.0, 93.0, 209.0, 593.0, 1590.0, 24727.0, 688.0, 301.0, 127.0, 63.0, 46.0, 28.0, 16.0, 21.0, 15.0, 6.0, 10.0, 4.0, 7.0, 7.0, 0.0, 2.0, 4.0, 0.0, 1.0, 3.0, 0.0, 0.0, 1.0, 0.0, 0.0, 0.0, 1.0], "bins": [-6457.7861328125, -6278.9951171875, -6100.20458984375, -5921.41357421875, -5742.623046875, -5563.83203125, -5385.041015625, -5206.25, -5027.45947265625, -4848.6689453125, -4669.8779296875, -4491.0869140625, -4312.2958984375, -4133.50537109375, -3954.71435546875, -3775.923583984375, -3597.1328125, -3418.342041015625, -3239.55126953125, -3060.76025390625, -2881.969482421875, -2703.1787109375, -2524.3876953125, -2345.59716796875, -2166.80615234375, -1988.01513671875, -1809.224609375, -1630.43359375, -1451.642578125, -1272.85205078125, -1094.06103515625, -915.2705078125, -736.47998046875, -557.68896484375, -378.8984375, -200.107421875, -21.31689453125, 157.47412109375, 336.26513671875, 515.0556640625, 693.8466796875, 872.6376953125, 1051.42822265625, 1230.21923828125, 1409.010009765625, 1587.80078125, 1766.591796875, 1945.382568359375, 2124.17333984375, 2302.964111328125, 2481.7548828125, 2660.5458984375, 2839.336669921875, 3018.12744140625, 3196.91845703125, 3375.709228515625, 3554.5, 3733.290771484375, 3912.08154296875, 4090.87255859375, 4269.6630859375, 4448.4541015625, 4627.2451171875, 4806.03564453125, 4984.82666015625]}, "gradients/graph_2encoder.conv3.bn.weight": {"_type": "histogram", "values": [0.0, 0.0, 0.0, 0.0, 0.0, 0.0, 0.0, 0.0, 0.0, 0.0, 0.0, 0.0, 0.0, 0.0, 0.0, 0.0, 0.0, 0.0, 0.0, 0.0, 0.0, 0.0, 0.0, 0.0, 0.0, 0.0, 0.0, 0.0, 0.0, 0.0, 0.0, 0.0, 1.0, 0.0, 0.0, 0.0, 0.0, 0.0, 0.0, 0.0, 0.0, 0.0, 0.0, 0.0, 0.0, 0.0, 0.0, 0.0, 0.0, 0.0, 0.0, 0.0, 0.0, 0.0, 0.0, 0.0, 0.0, 0.0, 0.0, 0.0, 0.0, 0.0, 0.0, 0.0], "bins": [-269.41082763671875, -269.41082763671875, -269.41082763671875, -269.41082763671875, -269.41082763671875, -269.41082763671875, -269.41082763671875, -269.41082763671875, -269.41082763671875, -269.41082763671875, -269.41082763671875, -269.41082763671875, -269.41082763671875, -269.41082763671875, -269.41082763671875, -269.41082763671875, -269.41082763671875, -269.41082763671875, -269.41082763671875, -269.41082763671875, -269.41082763671875, -269.41082763671875, -269.41082763671875, -269.41082763671875, -269.41082763671875, -269.41082763671875, -269.41082763671875, -269.41082763671875, -269.41082763671875, -269.41082763671875, -269.41082763671875, -269.41082763671875, -269.41082763671875, -269.41082763671875, -269.41082763671875, -269.41082763671875, -269.41082763671875, -269.41082763671875, -269.41082763671875, -269.41082763671875, -269.41082763671875, -269.41082763671875, -269.41082763671875, -269.41082763671875, -269.41082763671875, -269.41082763671875, -269.41082763671875, -269.41082763671875, -269.41082763671875, -269.41082763671875, -269.41082763671875, -269.41082763671875, -269.41082763671875, -269.41082763671875, -269.41082763671875, -269.41082763671875, -269.41082763671875, -269.41082763671875, -269.41082763671875, -269.41082763671875, -269.41082763671875, -269.41082763671875, -269.41082763671875, -269.41082763671875, -269.41082763671875]}, "gradients/graph_2encoder.conv3.bn.bias": {"_type": "histogram", "values": [0.0, 0.0, 0.0, 0.0, 0.0, 0.0, 0.0, 0.0, 0.0, 0.0, 0.0, 0.0, 0.0, 0.0, 0.0, 0.0, 0.0, 0.0, 0.0, 0.0, 0.0, 0.0, 0.0, 0.0, 0.0, 0.0, 0.0, 0.0, 0.0, 0.0, 0.0, 0.0, 1.0, 0.0, 0.0, 0.0, 0.0, 0.0, 0.0, 0.0, 0.0, 0.0, 0.0, 0.0, 0.0, 0.0, 0.0, 0.0, 0.0, 0.0, 0.0, 0.0, 0.0, 0.0, 0.0, 0.0, 0.0, 0.0, 0.0, 0.0, 0.0, 0.0, 0.0, 0.0], "bins": [-1464.2548828125, -1464.2548828125, -1464.2548828125, -1464.2548828125, -1464.2548828125, -1464.2548828125, -1464.2548828125, -1464.2548828125, -1464.2548828125, -1464.2548828125, -1464.2548828125, -1464.2548828125, -1464.2548828125, -1464.2548828125, -1464.2548828125, -1464.2548828125, -1464.2548828125, -1464.2548828125, -1464.2548828125, -1464.2548828125, -1464.2548828125, -1464.2548828125, -1464.2548828125, -1464.2548828125, -1464.2548828125, -1464.2548828125, -1464.2548828125, -1464.2548828125, -1464.2548828125, -1464.2548828125, -1464.2548828125, -1464.2548828125, -1464.2548828125, -1464.2548828125, -1464.2548828125, -1464.2548828125, -1464.2548828125, -1464.2548828125, -1464.2548828125, -1464.2548828125, -1464.2548828125, -1464.2548828125, -1464.2548828125, -1464.2548828125, -1464.2548828125, -1464.2548828125, -1464.2548828125, -1464.2548828125, -1464.2548828125, -1464.2548828125, -1464.2548828125, -1464.2548828125, -1464.2548828125, -1464.2548828125, -1464.2548828125, -1464.2548828125, -1464.2548828125, -1464.2548828125, -1464.2548828125, -1464.2548828125, -1464.2548828125, -1464.2548828125, -1464.2548828125, -1464.2548828125, -1464.2548828125]}, "gradients/graph_2encoder.conv3.conv.weight": {"_type": "histogram", "values": [1.0, 0.0, 0.0, 0.0, 0.0, 0.0, 0.0, 0.0, 0.0, 0.0, 0.0, 0.0, 0.0, 0.0, 1.0, 0.0, 0.0, 0.0, 2.0, 0.0, 1.0, 0.0, 0.0, 0.0, 1.0, 0.0, 2.0, 0.0, 2.0, 1.0, 2.0, 2.0, 0.0, 1.0, 2.0, 0.0, 0.0, 0.0, 1.0, 0.0, 2.0, 2.0, 0.0, 1.0, 2.0, 1.0, 1.0, 4.0, 4.0, 2.0, 3.0, 4.0, 4.0, 5.0, 1.0, 0.0, 2.0, 1.0, 2.0, 2.0, 0.0, 0.0, 1.0, 1.0], "bins": [-10151.626953125, -9944.9423828125, -9738.2568359375, -9531.572265625, -9324.8876953125, -9118.2021484375, -8911.517578125, -8704.8330078125, -8498.1474609375, -8291.462890625, -8084.7783203125, -7878.09326171875, -7671.408203125, -7464.7236328125, -7258.03857421875, -7051.353515625, -6844.6689453125, -6637.98388671875, -6431.298828125, -6224.6142578125, -6017.92919921875, -5811.244140625, -5604.5595703125, -5397.87451171875, -5191.189453125, -4984.5048828125, -4777.81982421875, -4571.134765625, -4364.4501953125, -4157.76513671875, -3951.080078125, -3744.3955078125, -3537.710205078125, -3331.025146484375, -3124.340576171875, -2917.655517578125, -2710.970458984375, -2504.285888671875, -2297.600830078125, -2090.915771484375, -1884.231201171875, -1677.546142578125, -1470.861083984375, -1264.176513671875, -1057.491455078125, -850.806640625, -644.121826171875, -437.436767578125, -230.751953125, -24.067138671875, 182.617919921875, 389.302734375, 595.987548828125, 802.672607421875, 1009.357421875, 1216.042236328125, 1422.7271728515625, 1629.412109375, 1836.096923828125, 2042.7818603515625, 2249.466796875, 2456.151611328125, 2662.83642578125, 2869.521484375, 3076.206298828125]}, "gradients/graph_2encoder.conv3.conv.bias": {"_type": "histogram", "values": [0.0, 0.0, 0.0, 0.0, 0.0, 0.0, 0.0, 0.0, 0.0, 0.0, 0.0, 0.0, 0.0, 0.0, 0.0, 0.0, 0.0, 0.0, 0.0, 0.0, 0.0, 0.0, 0.0, 0.0, 0.0, 0.0, 0.0, 0.0, 0.0, 0.0, 0.0, 0.0, 1.0, 0.0, 0.0, 0.0, 0.0, 0.0, 0.0, 0.0, 0.0, 0.0, 0.0, 0.0, 0.0, 0.0, 0.0, 0.0, 0.0, 0.0, 0.0, 0.0, 0.0, 0.0, 0.0, 0.0, 0.0, 0.0, 0.0, 0.0, 0.0, 0.0, 0.0, 0.0], "bins": [-0.000213623046875, -0.000213623046875, -0.000213623046875, -0.000213623046875, -0.000213623046875, -0.000213623046875, -0.000213623046875, -0.000213623046875, -0.000213623046875, -0.000213623046875, -0.000213623046875, -0.000213623046875, -0.000213623046875, -0.000213623046875, -0.000213623046875, -0.000213623046875, -0.000213623046875, -0.000213623046875, -0.000213623046875, -0.000213623046875, -0.000213623046875, -0.000213623046875, -0.000213623046875, -0.000213623046875, -0.000213623046875, -0.000213623046875, -0.000213623046875, -0.000213623046875, -0.000213623046875, -0.000213623046875, -0.000213623046875, -0.000213623046875, -0.000213623046875, -0.000213623046875, -0.000213623046875, -0.000213623046875, -0.000213623046875, -0.000213623046875, -0.000213623046875, -0.000213623046875, -0.000213623046875, -0.000213623046875, -0.000213623046875, -0.000213623046875, -0.000213623046875, -0.000213623046875, -0.000213623046875, -0.000213623046875, -0.000213623046875, -0.000213623046875, -0.000213623046875, -0.000213623046875, -0.000213623046875, -0.000213623046875, -0.000213623046875, -0.000213623046875, -0.000213623046875, -0.000213623046875, -0.000213623046875, -0.000213623046875, -0.000213623046875, -0.000213623046875, -0.000213623046875, -0.000213623046875, -0.000213623046875]}, "gradients/graph_2encoder.conv2.bn.weight": {"_type": "histogram", "values": [1.0, 0.0, 0.0, 0.0, 0.0, 0.0, 0.0, 0.0, 0.0, 0.0, 0.0, 0.0, 0.0, 1.0, 0.0, 0.0, 0.0, 0.0, 0.0, 0.0, 0.0, 0.0, 0.0, 1.0, 0.0, 0.0, 0.0, 0.0, 0.0, 0.0, 0.0, 0.0, 0.0, 0.0, 0.0, 0.0, 0.0, 1.0, 0.0, 0.0, 0.0, 0.0, 0.0, 2.0, 1.0, 3.0, 0.0, 0.0, 0.0, 0.0, 1.0, 1.0, 0.0, 0.0, 1.0, 1.0, 1.0, 0.0, 0.0, 0.0, 0.0, 0.0, 0.0, 1.0], "bins": [-1540.626708984375, -1504.1527099609375, -1467.6787109375, -1431.2047119140625, -1394.730712890625, -1358.2568359375, -1321.7828369140625, -1285.308837890625, -1248.8348388671875, -1212.36083984375, -1175.8868408203125, -1139.412841796875, -1102.93896484375, -1066.46484375, -1029.990966796875, -993.5169677734375, -957.04296875, -920.5689697265625, -884.094970703125, -847.6210327148438, -811.1470336914062, -774.6730346679688, -738.1990966796875, -701.72509765625, -665.2510986328125, -628.777099609375, -592.3031005859375, -555.8291625976562, -519.3551635742188, -482.8812255859375, -446.4072265625, -409.9332275390625, -373.4593505859375, -336.9853515625, -300.5113525390625, -264.037353515625, -227.56341552734375, -191.08941650390625, -154.615478515625, -118.1414794921875, -81.66748046875, -45.1934814453125, -8.719482421875, 27.75445556640625, 64.22845458984375, 100.70245361328125, 137.1763916015625, 173.650390625, 210.1243896484375, 246.598388671875, 283.0723571777344, 319.54632568359375, 356.02032470703125, 392.49432373046875, 428.9682922363281, 465.4422607421875, 501.916259765625, 538.3902587890625, 574.8642578125, 611.3381958007812, 647.8121948242188, 684.2861938476562, 720.7601318359375, 757.234130859375, 793.7081298828125]}, "gradients/graph_2encoder.conv2.bn.bias": {"_type": "histogram", "values": [2.0, 0.0, 0.0, 0.0, 0.0, 0.0, 0.0, 0.0, 0.0, 0.0, 1.0, 0.0, 0.0, 0.0, 0.0, 1.0, 0.0, 0.0, 0.0, 0.0, 0.0, 1.0, 0.0, 0.0, 0.0, 0.0, 0.0, 0.0, 2.0, 0.0, 0.0, 1.0, 0.0, 0.0, 0.0, 1.0, 0.0, 0.0, 0.0, 0.0, 0.0, 1.0, 0.0, 1.0, 0.0, 0.0, 1.0, 0.0, 1.0, 0.0, 1.0, 1.0, 0.0, 0.0, 0.0, 0.0, 0.0, 0.0, 0.0, 0.0, 0.0, 0.0, 0.0, 1.0], "bins": [-537.5186157226562, -524.5404052734375, -511.5621643066406, -498.58392333984375, -485.605712890625, -472.6274719238281, -459.6492614746094, -446.6710205078125, -433.69281005859375, -420.7145690917969, -407.736328125, -394.75811767578125, -381.7799072265625, -368.8016662597656, -355.82342529296875, -342.84521484375, -329.86700439453125, -316.8887634277344, -303.9105224609375, -290.93231201171875, -277.9540710449219, -264.9758605957031, -251.99761962890625, -239.0194091796875, -226.04116821289062, -213.06295776367188, -200.084716796875, -187.10650634765625, -174.12826538085938, -161.15005493164062, -148.17181396484375, -135.193603515625, -122.21536254882812, -109.23712158203125, -96.2589111328125, -83.28067016601562, -70.30245971679688, -57.32421875, -44.34600830078125, -31.367767333984375, -18.389556884765625, -5.41131591796875, 7.56689453125, 20.545135498046875, 33.523345947265625, 46.5015869140625, 59.47981262207031, 72.45803833007812, 85.43626403808594, 98.41448974609375, 111.39271545410156, 124.37094116210938, 137.3491668701172, 150.327392578125, 163.3056182861328, 176.28384399414062, 189.2620849609375, 202.24029541015625, 215.21853637695312, 228.19674682617188, 241.17498779296875, 254.15321350097656, 267.1314392089844, 280.1096496582031, 293.087890625]}, "gradients/graph_2encoder.conv2.conv.weight": {"_type": "histogram", "values": [1.0, 0.0, 0.0, 1.0, 1.0, 0.0, 0.0, 1.0, 0.0, 2.0, 2.0, 1.0, 4.0, 4.0, 1.0, 6.0, 3.0, 8.0, 6.0, 7.0, 13.0, 13.0, 20.0, 17.0, 19.0, 21.0, 26.0, 28.0, 33.0, 36.0, 58.0, 64.0, 131.0, 191.0, 273.0, 196.0, 122.0, 121.0, 98.0, 98.0, 70.0, 59.0, 49.0, 41.0, 23.0, 27.0, 27.0, 26.0, 15.0, 15.0, 10.0, 16.0, 6.0, 10.0, 8.0, 6.0, 2.0, 2.0, 2.0, 2.0, 1.0, 2.0, 1.0, 2.0], "bins": [-3899.38525390625, -3786.357177734375, -3673.328857421875, -3560.30078125, -3447.2724609375, -3334.244384765625, -3221.21630859375, -3108.18798828125, -2995.159912109375, -2882.1318359375, -2769.103515625, -2656.075439453125, -2543.04736328125, -2430.01904296875, -2316.990966796875, -2203.962890625, -2090.9345703125, -1977.9063720703125, -1864.878173828125, -1751.85009765625, -1638.82177734375, -1525.793701171875, -1412.765625, -1299.7373046875, -1186.709228515625, -1073.68115234375, -960.65283203125, -847.624755859375, -734.5966796875, -621.568359375, -508.540283203125, -395.511962890625, -282.48388671875, -169.455810546875, -56.427490234375, 56.6005859375, 169.62890625, 282.656982421875, 395.68505859375, 508.71337890625, 621.741455078125, 734.76953125, 847.7978515625, 960.825927734375, 1073.85400390625, 1186.88232421875, 1299.910400390625, 1412.9385986328125, 1525.966796875, 1638.9949951171875, 1752.023193359375, 1865.05126953125, 1978.0794677734375, 2091.107666015625, 2204.1357421875, 2317.1640625, 2430.192138671875, 2543.22021484375, 2656.24853515625, 2769.276611328125, 2882.3046875, 2995.3330078125, 3108.361083984375, 3221.389404296875, 3334.41748046875]}, "gradients/graph_2encoder.conv2.conv.bias": {"_type": "histogram", "values": [1.0, 0.0, 0.0, 0.0, 1.0, 0.0, 0.0, 0.0, 0.0, 1.0, 0.0, 0.0, 0.0, 0.0, 0.0, 0.0, 0.0, 0.0, 0.0, 1.0, 1.0, 1.0, 1.0, 1.0, 1.0, 0.0, 0.0, 0.0, 2.0, 0.0, 0.0, 0.0, 1.0, 0.0, 1.0, 0.0, 0.0, 0.0, 0.0, 0.0, 0.0, 0.0, 0.0, 1.0, 0.0, 0.0, 0.0, 1.0, 0.0, 0.0, 0.0, 0.0, 0.0, 0.0, 0.0, 0.0, 0.0, 0.0, 0.0, 0.0, 0.0, 0.0, 0.0, 1.0], "bins": [-0.00012969970703125, -0.00012552738189697266, -0.00012135505676269531, -0.00011718273162841797, -0.00011301040649414062, -0.00010883808135986328, -0.00010466575622558594, -0.0001004934310913086, -9.632110595703125e-05, -9.21487808227539e-05, -8.797645568847656e-05, -8.380413055419922e-05, -7.963180541992188e-05, -7.545948028564453e-05, -7.128715515136719e-05, -6.711483001708984e-05, -6.29425048828125e-05, -5.8770179748535156e-05, -5.459785461425781e-05, -5.042552947998047e-05, -4.6253204345703125e-05, -4.208087921142578e-05, -3.790855407714844e-05, -3.3736228942871094e-05, -2.956390380859375e-05, -2.5391578674316406e-05, -2.1219253540039062e-05, -1.704692840576172e-05, -1.2874603271484375e-05, -8.702278137207031e-06, -4.5299530029296875e-06, -3.5762786865234375e-07, 3.814697265625e-06, 7.987022399902344e-06, 1.2159347534179688e-05, 1.633167266845703e-05, 2.0503997802734375e-05, 2.467632293701172e-05, 2.8848648071289062e-05, 3.3020973205566406e-05, 3.719329833984375e-05, 4.1365623474121094e-05, 4.553794860839844e-05, 4.971027374267578e-05, 5.3882598876953125e-05, 5.805492401123047e-05, 6.222724914550781e-05, 6.639957427978516e-05, 7.05718994140625e-05, 7.474422454833984e-05, 7.891654968261719e-05, 8.308887481689453e-05, 8.726119995117188e-05, 9.143352508544922e-05, 9.560585021972656e-05, 9.97781753540039e-05, 0.00010395050048828125, 0.0001081228256225586, 0.00011229515075683594, 0.00011646747589111328, 0.00012063980102539062, 0.00012481212615966797, 0.0001289844512939453, 0.00013315677642822266, 0.0001373291015625]}, "gradients/graph_2encoder.conv1.bn.weight": {"_type": "histogram", "values": [1.0, 1.0, 0.0, 0.0, 0.0, 0.0, 0.0, 0.0, 0.0, 0.0, 0.0, 0.0, 0.0, 0.0, 1.0, 1.0, 0.0, 1.0, 0.0, 1.0, 0.0, 0.0, 0.0, 0.0, 1.0, 0.0, 0.0, 1.0, 1.0, 0.0, 1.0, 0.0, 3.0, 0.0, 1.0, 1.0, 4.0, 0.0, 1.0, 0.0, 0.0, 1.0, 0.0, 1.0, 1.0, 0.0, 2.0, 0.0, 1.0, 1.0, 0.0, 0.0, 0.0, 0.0, 0.0, 1.0, 1.0, 0.0, 1.0, 0.0, 0.0, 0.0, 1.0, 1.0], "bins": [-543.0852661132812, -527.9386596679688, -512.7921142578125, -497.6455078125, -482.4989013671875, -467.3523254394531, -452.20574951171875, -437.05914306640625, -421.9125671386719, -406.7659912109375, -391.619384765625, -376.4727783203125, -361.3262023925781, -346.17962646484375, -331.03302001953125, -315.8864440917969, -300.7398681640625, -285.59326171875, -270.4466857910156, -255.30007934570312, -240.15350341796875, -225.00689697265625, -209.86032104492188, -194.7137451171875, -179.567138671875, -164.42056274414062, -149.27395629882812, -134.12738037109375, -118.98080444335938, -103.83419799804688, -88.6876220703125, -73.541015625, -58.394439697265625, -43.24786376953125, -28.10125732421875, -12.954681396484375, 2.191925048828125, 17.3385009765625, 32.485076904296875, 47.631683349609375, 62.77825927734375, 77.92486572265625, 93.07144165039062, 108.218017578125, 123.3646240234375, 138.51119995117188, 153.65780639648438, 168.80438232421875, 183.9509735107422, 199.09756469726562, 214.24415588378906, 229.39073181152344, 244.53732299804688, 259.68389892578125, 274.83050537109375, 289.97711181640625, 305.1236877441406, 320.270263671875, 335.4168701171875, 350.5634460449219, 365.71002197265625, 380.85662841796875, 396.0032043457031, 411.1498107910156, 426.29638671875]}, "gradients/graph_2encoder.conv1.bn.bias": {"_type": "histogram", "values": [1.0, 0.0, 0.0, 0.0, 0.0, 0.0, 0.0, 0.0, 0.0, 0.0, 0.0, 1.0, 0.0, 0.0, 1.0, 1.0, 1.0, 0.0, 0.0, 1.0, 0.0, 1.0, 0.0, 0.0, 0.0, 1.0, 0.0, 0.0, 2.0, 0.0, 1.0, 4.0, 1.0, 0.0, 1.0, 1.0, 0.0, 2.0, 0.0, 1.0, 0.0, 0.0, 0.0, 0.0, 1.0, 0.0, 2.0, 1.0, 1.0, 0.0, 0.0, 0.0, 1.0, 2.0, 1.0, 0.0, 1.0, 0.0, 0.0, 0.0, 0.0, 0.0, 0.0, 1.0], "bins": [-343.12738037109375, -333.83026123046875, -324.53314208984375, -315.2360534667969, -305.9389343261719, -296.6418151855469, -287.3447265625, -278.047607421875, -268.75048828125, -259.453369140625, -250.15626525878906, -240.85916137695312, -231.56204223632812, -222.26492309570312, -212.9678192138672, -203.67071533203125, -194.37359619140625, -185.07647705078125, -175.7793731689453, -166.48226928710938, -157.18515014648438, -147.88803100585938, -138.59092712402344, -129.2938232421875, -119.9967041015625, -110.6995849609375, -101.40248107910156, -92.10537719726562, -82.80825805664062, -73.51113891601562, -64.21405029296875, -54.91693115234375, -45.61981201171875, -36.32269287109375, -27.02557373046875, -17.728485107421875, -8.431365966796875, 0.865753173828125, 10.162857055664062, 19.4599609375, 28.757080078125, 38.05419921875, 47.35130310058594, 56.648406982421875, 65.94552612304688, 75.24264526367188, 84.53974914550781, 93.83685302734375, 103.13397216796875, 112.43109130859375, 121.72819519042969, 131.02529907226562, 140.32241821289062, 149.61953735351562, 158.91664123535156, 168.2137451171875, 177.5108642578125, 186.8079833984375, 196.10508728027344, 205.40219116210938, 214.69931030273438, 223.99642944335938, 233.2935333251953, 242.59063720703125, 251.88775634765625]}, "gradients/graph_2encoder.conv1.conv.weight": {"_type": "histogram", "values": [2.0, 0.0, 0.0, 0.0, 1.0, 1.0, 1.0, 1.0, 1.0, 2.0, 0.0, 1.0, 6.0, 7.0, 12.0, 19.0, 15.0, 25.0, 21.0, 21.0, 31.0, 29.0, 36.0, 45.0, 33.0, 68.0, 71.0, 93.0, 99.0, 124.0, 168.0, 186.0, 181.0, 129.0, 118.0, 87.0, 68.0, 71.0, 59.0, 49.0, 30.0, 33.0, 15.0, 13.0, 11.0, 11.0, 12.0, 9.0, 5.0, 5.0, 3.0, 7.0, 3.0, 1.0, 0.0, 2.0, 1.0, 1.0, 0.0, 0.0, 2.0, 1.0, 1.0, 1.0], "bins": [-3041.609130859375, -2946.632568359375, -2851.656005859375, -2756.67919921875, -2661.70263671875, -2566.72607421875, -2471.74951171875, -2376.77294921875, -2281.79638671875, -2186.819580078125, -2091.843017578125, -1996.866455078125, -1901.889892578125, -1806.9132080078125, -1711.9366455078125, -1616.9599609375, -1521.9833984375, -1427.0068359375, -1332.0301513671875, -1237.0535888671875, -1142.076904296875, -1047.100341796875, -952.123779296875, -857.147216796875, -762.170654296875, -667.19384765625, -572.21728515625, -477.24072265625, -382.26416015625, -287.28759765625, -192.310791015625, -97.334228515625, -2.357421875, 92.619140625, 187.595703125, 282.572509765625, 377.549072265625, 472.525634765625, 567.502197265625, 662.478759765625, 757.45556640625, 852.43212890625, 947.40869140625, 1042.38525390625, 1137.36181640625, 1232.3385009765625, 1327.3150634765625, 1422.291748046875, 1517.268310546875, 1612.244873046875, 1707.2215576171875, 1802.1981201171875, 1897.1748046875, 1992.1513671875, 2087.1279296875, 2182.1044921875, 2277.0810546875, 2372.057861328125, 2467.034423828125, 2562.010986328125, 2656.987548828125, 2751.96435546875, 2846.94091796875, 2941.91748046875, 3036.89404296875]}, "gradients/graph_2encoder.conv1.conv.bias": {"_type": "histogram", "values": [1.0, 0.0, 0.0, 0.0, 0.0, 0.0, 0.0, 0.0, 0.0, 0.0, 0.0, 0.0, 1.0, 0.0, 0.0, 0.0, 0.0, 1.0, 0.0, 1.0, 1.0, 0.0, 0.0, 0.0, 2.0, 2.0, 3.0, 2.0, 1.0, 0.0, 2.0, 1.0, 1.0, 1.0, 2.0, 1.0, 2.0, 0.0, 0.0, 1.0, 1.0, 1.0, 1.0, 1.0, 0.0, 0.0, 0.0, 0.0, 0.0, 0.0, 0.0, 0.0, 0.0, 0.0, 0.0, 0.0, 0.0, 0.0, 0.0, 0.0, 1.0, 0.0, 0.0, 1.0], "bins": [-1.7642974853515625e-05, -1.7073005437850952e-05, -1.650303602218628e-05, -1.5933066606521606e-05, -1.5363097190856934e-05, -1.479312777519226e-05, -1.4223158359527588e-05, -1.3653188943862915e-05, -1.3083219528198242e-05, -1.251325011253357e-05, -1.1943280696868896e-05, -1.1373311281204224e-05, -1.080334186553955e-05, -1.0233372449874878e-05, -9.663403034210205e-06, -9.093433618545532e-06, -8.52346420288086e-06, -7.953494787216187e-06, -7.383525371551514e-06, -6.813555955886841e-06, -6.243586540222168e-06, -5.673617124557495e-06, -5.103647708892822e-06, -4.533678293228149e-06, -3.9637088775634766e-06, -3.3937394618988037e-06, -2.823770046234131e-06, -2.253800630569458e-06, -1.6838312149047852e-06, -1.1138617992401123e-06, -5.438923835754395e-07, 2.60770320892334e-08, 5.960464477539062e-07, 1.166015863418579e-06, 1.735985279083252e-06, 2.305954694747925e-06, 2.8759241104125977e-06, 3.4458935260772705e-06, 4.015862941741943e-06, 4.585832357406616e-06, 5.155801773071289e-06, 5.725771188735962e-06, 6.295740604400635e-06, 6.865710020065308e-06, 7.4356794357299805e-06, 8.005648851394653e-06, 8.575618267059326e-06, 9.145587682723999e-06, 9.715557098388672e-06, 1.0285526514053345e-05, 1.0855495929718018e-05, 1.142546534538269e-05, 1.1995434761047363e-05, 1.2565404176712036e-05, 1.3135373592376709e-05, 1.3705343008041382e-05, 1.4275312423706055e-05, 1.4845281839370728e-05, 1.54152512550354e-05, 1.5985220670700073e-05, 1.6555190086364746e-05, 1.712515950202942e-05, 1.7695128917694092e-05, 1.8265098333358765e-05, 1.8835067749023438e-05]}}