{"running train loss": 0.0003274391735127817, "running learning rate": 0.0002999996786456522, "training ssim": 0.02207520417869091, "training psnr": 4.8277812004089355, "_timestamp": 1678817690.347681, "_runtime": 249.49902200698853, "_step": 2389, "running valid loss": 0.0006250563148771309, "predictions": {"_type": "image-file", "sha256": "c393094565a88aa78ca1558b84aef20394b0c2ea3c2cd49431960ee0f21a6b81", "size": 125919, "path": "media/images/predictions_2376_c393094565a88aa78ca1.png", "format": "png", "width": 1200, "height": 1200}, "validation ssim": 0.023082999512553215, "validation psnr": 4.436748504638672, "lr": 0.0002999996825290512, "train loss": 0.0003925599715633628, "valid loss": 0.0006250563148771309, "gradients/decoder.conv6.bn.weight": {"_type": "histogram", "values": [0.0, 0.0, 0.0, 0.0, 0.0, 0.0, 0.0, 0.0, 0.0, 0.0, 0.0, 0.0, 0.0, 0.0, 0.0, 0.0, 0.0, 0.0, 0.0, 0.0, 0.0, 0.0, 0.0, 0.0, 0.0, 0.0, 0.0, 0.0, 0.0, 0.0, 0.0, 0.0, 1.0, 0.0, 0.0, 0.0, 0.0, 0.0, 0.0, 0.0, 0.0, 0.0, 0.0, 0.0, 0.0, 0.0, 0.0, 0.0, 0.0, 0.0, 0.0, 0.0, 0.0, 0.0, 0.0, 0.0, 0.0, 0.0, 0.0, 0.0, 0.0, 0.0, 0.0, 0.0], "bins": [0.00011532511416589841, 0.00011532511416589841, 0.00011532511416589841, 0.00011532511416589841, 0.00011532511416589841, 0.00011532511416589841, 0.00011532511416589841, 0.00011532511416589841, 0.00011532511416589841, 0.00011532511416589841, 0.00011532511416589841, 0.00011532511416589841, 0.00011532511416589841, 0.00011532511416589841, 0.00011532511416589841, 0.00011532511416589841, 0.00011532511416589841, 0.00011532511416589841, 0.00011532511416589841, 0.00011532511416589841, 0.00011532511416589841, 0.00011532511416589841, 0.00011532511416589841, 0.00011532511416589841, 0.00011532511416589841, 0.00011532511416589841, 0.00011532511416589841, 0.00011532511416589841, 0.00011532511416589841, 0.00011532511416589841, 0.00011532511416589841, 0.00011532511416589841, 0.00011532511416589841, 0.00011532511416589841, 0.00011532511416589841, 0.00011532511416589841, 0.00011532511416589841, 0.00011532511416589841, 0.00011532511416589841, 0.00011532511416589841, 0.00011532511416589841, 0.00011532511416589841, 0.00011532511416589841, 0.00011532511416589841, 0.00011532511416589841, 0.00011532511416589841, 0.00011532511416589841, 0.00011532511416589841, 0.00011532511416589841, 0.00011532511416589841, 0.00011532511416589841, 0.00011532511416589841, 0.00011532511416589841, 0.00011532511416589841, 0.00011532511416589841, 0.00011532511416589841, 0.00011532511416589841, 0.00011532511416589841, 0.00011532511416589841, 0.00011532511416589841, 0.00011532511416589841, 0.00011532511416589841, 0.00011532511416589841, 0.00011532511416589841, 0.00011532511416589841]}, "gradients/decoder.conv6.bn.bias": {"_type": "histogram", "values": [0.0, 0.0, 0.0, 0.0, 0.0, 0.0, 0.0, 0.0, 0.0, 0.0, 0.0, 0.0, 0.0, 0.0, 0.0, 0.0, 0.0, 0.0, 0.0, 0.0, 0.0, 0.0, 0.0, 0.0, 0.0, 0.0, 0.0, 0.0, 0.0, 0.0, 0.0, 0.0, 1.0, 0.0, 0.0, 0.0, 0.0, 0.0, 0.0, 0.0, 0.0, 0.0, 0.0, 0.0, 0.0, 0.0, 0.0, 0.0, 0.0, 0.0, 0.0, 0.0, 0.0, 0.0, 0.0, 0.0, 0.0, 0.0, 0.0, 0.0, 0.0, 0.0, 0.0, 0.0], "bins": [0.00022352440282702446, 0.00022352440282702446, 0.00022352440282702446, 0.00022352440282702446, 0.00022352440282702446, 0.00022352440282702446, 0.00022352440282702446, 0.00022352440282702446, 0.00022352440282702446, 0.00022352440282702446, 0.00022352440282702446, 0.00022352440282702446, 0.00022352440282702446, 0.00022352440282702446, 0.00022352440282702446, 0.00022352440282702446, 0.00022352440282702446, 0.00022352440282702446, 0.00022352440282702446, 0.00022352440282702446, 0.00022352440282702446, 0.00022352440282702446, 0.00022352440282702446, 0.00022352440282702446, 0.00022352440282702446, 0.00022352440282702446, 0.00022352440282702446, 0.00022352440282702446, 0.00022352440282702446, 0.00022352440282702446, 0.00022352440282702446, 0.00022352440282702446, 0.00022352440282702446, 0.00022352440282702446, 0.00022352440282702446, 0.00022352440282702446, 0.00022352440282702446, 0.00022352440282702446, 0.00022352440282702446, 0.00022352440282702446, 0.00022352440282702446, 0.00022352440282702446, 0.00022352440282702446, 0.00022352440282702446, 0.00022352440282702446, 0.00022352440282702446, 0.00022352440282702446, 0.00022352440282702446, 0.00022352440282702446, 0.00022352440282702446, 0.00022352440282702446, 0.00022352440282702446, 0.00022352440282702446, 0.00022352440282702446, 0.00022352440282702446, 0.00022352440282702446, 0.00022352440282702446, 0.00022352440282702446, 0.00022352440282702446, 0.00022352440282702446, 0.00022352440282702446, 0.00022352440282702446, 0.00022352440282702446, 0.00022352440282702446, 0.00022352440282702446]}, "gradients/decoder.conv6.conv.weight": {"_type": "histogram", "values": [1.0, 0.0, 0.0, 2.0, 0.0, 1.0, 2.0, 2.0, 0.0, 1.0, 2.0, 2.0, 4.0, 3.0, 2.0, 4.0, 2.0, 2.0, 1.0, 3.0, 7.0, 7.0, 1.0, 4.0, 3.0, 2.0, 4.0, 4.0, 7.0, 6.0, 4.0, 4.0, 7.0, 3.0, 2.0, 3.0, 7.0, 2.0, 1.0, 3.0, 2.0, 0.0, 1.0, 2.0, 0.0, 2.0, 1.0, 2.0, 1.0, 0.0, 0.0, 0.0, 0.0, 0.0, 0.0, 0.0, 0.0, 1.0, 0.0, 0.0, 0.0, 0.0, 0.0, 1.0], "bins": [-4.484698729356751e-05, -4.3852938688360155e-05, -4.2858886445173994e-05, -4.186483783996664e-05, -4.087078559678048e-05, -3.9876736991573125e-05, -3.888268838636577e-05, -3.788863614317961e-05, -3.6894587537972257e-05, -3.5900535294786096e-05, -3.490648668957874e-05, -3.391243808437139e-05, -3.2918389479164034e-05, -3.192433723597787e-05, -3.093028863077052e-05, -2.9936238206573762e-05, -2.8942187782377005e-05, -2.7948137358180247e-05, -2.695408693398349e-05, -2.5960038328776136e-05, -2.496598790457938e-05, -2.397193748038262e-05, -2.2977888875175267e-05, -2.198383845097851e-05, -2.0989788026781753e-05, -1.9995737602584995e-05, -1.9001687178388238e-05, -1.8007638573180884e-05, -1.7013588148984127e-05, -1.601953772478737e-05, -1.5025489119580016e-05, -1.4031436876393855e-05, -1.3037386452197097e-05, -1.2043337846989743e-05, -1.1049285603803582e-05, -1.0055236998596229e-05, -9.061186574399471e-06, -8.067136150202714e-06, -7.07308754499536e-06, -6.079037120798603e-06, -5.084986696601845e-06, -4.090936272405088e-06, -3.0968858482083306e-06, -2.1028372430009767e-06, -1.1087868188042194e-06, -1.1473639460746199e-07, 8.793122105998918e-07, 1.8733626347966492e-06, 2.8674130589934066e-06, 3.861463483190164e-06, 4.8555129978922196e-06, 5.849562512594275e-06, 6.8436129367910326e-06, 7.83766336098779e-06, 8.831712875689846e-06, 9.825762390391901e-06, 1.0819812814588659e-05, 1.1813863238785416e-05, 1.2807912753487471e-05, 1.3801962268189527e-05, 1.4796012692386284e-05, 1.5790063116583042e-05, 1.67841135407798e-05, 1.7778162145987153e-05, 1.877221257018391e-05]}, "gradients/decoder.conv6.conv.bias": {"_type": "histogram", "values": [0.0, 0.0, 0.0, 0.0, 0.0, 0.0, 0.0, 0.0, 0.0, 0.0, 0.0, 0.0, 0.0, 0.0, 0.0, 0.0, 0.0, 0.0, 0.0, 0.0, 0.0, 0.0, 0.0, 0.0, 0.0, 0.0, 0.0, 0.0, 0.0, 0.0, 0.0, 0.0, 1.0, 0.0, 0.0, 0.0, 0.0, 0.0, 0.0, 0.0, 0.0, 0.0, 0.0, 0.0, 0.0, 0.0, 0.0, 0.0, 0.0, 0.0, 0.0, 0.0, 0.0, 0.0, 0.0, 0.0, 0.0, 0.0, 0.0, 0.0, 0.0, 0.0, 0.0, 0.0], "bins": [-2.1827872842550278e-10, -2.1827872842550278e-10, -2.1827872842550278e-10, -2.1827872842550278e-10, -2.1827872842550278e-10, -2.1827872842550278e-10, -2.1827872842550278e-10, -2.1827872842550278e-10, -2.1827872842550278e-10, -2.1827872842550278e-10, -2.1827872842550278e-10, -2.1827872842550278e-10, -2.1827872842550278e-10, -2.1827872842550278e-10, -2.1827872842550278e-10, -2.1827872842550278e-10, -2.1827872842550278e-10, -2.1827872842550278e-10, -2.1827872842550278e-10, -2.1827872842550278e-10, -2.1827872842550278e-10, -2.1827872842550278e-10, -2.1827872842550278e-10, -2.1827872842550278e-10, -2.1827872842550278e-10, -2.1827872842550278e-10, -2.1827872842550278e-10, -2.1827872842550278e-10, -2.1827872842550278e-10, -2.1827872842550278e-10, -2.1827872842550278e-10, -2.1827872842550278e-10, -2.1827872842550278e-10, -2.1827872842550278e-10, -2.1827872842550278e-10, -2.1827872842550278e-10, -2.1827872842550278e-10, -2.1827872842550278e-10, -2.1827872842550278e-10, -2.1827872842550278e-10, -2.1827872842550278e-10, -2.1827872842550278e-10, -2.1827872842550278e-10, -2.1827872842550278e-10, -2.1827872842550278e-10, -2.1827872842550278e-10, -2.1827872842550278e-10, -2.1827872842550278e-10, -2.1827872842550278e-10, -2.1827872842550278e-10, -2.1827872842550278e-10, -2.1827872842550278e-10, -2.1827872842550278e-10, -2.1827872842550278e-10, -2.1827872842550278e-10, -2.1827872842550278e-10, -2.1827872842550278e-10, -2.1827872842550278e-10, -2.1827872842550278e-10, -2.1827872842550278e-10, -2.1827872842550278e-10, -2.1827872842550278e-10, -2.1827872842550278e-10, -2.1827872842550278e-10, -2.1827872842550278e-10]}, "gradients/decoder.conv5.bn.weight": {"_type": "histogram", "values": [1.0, 0.0, 0.0, 0.0, 0.0, 0.0, 0.0, 0.0, 0.0, 0.0, 0.0, 0.0, 0.0, 0.0, 0.0, 0.0, 0.0, 0.0, 0.0, 0.0, 1.0, 0.0, 0.0, 0.0, 0.0, 2.0, 0.0, 0.0, 0.0, 0.0, 1.0, 0.0, 0.0, 0.0, 0.0, 0.0, 0.0, 0.0, 0.0, 0.0, 0.0, 0.0, 0.0, 1.0, 0.0, 0.0, 0.0, 0.0, 0.0, 0.0, 0.0, 0.0, 0.0, 0.0, 1.0, 0.0, 0.0, 0.0, 0.0, 0.0, 0.0, 0.0, 0.0, 1.0], "bins": [-2.559595668572001e-05, -2.48428805207368e-05, -2.4089804355753586e-05, -2.3336728190770373e-05, -2.2583650206797756e-05, -2.1830574041814543e-05, -2.107749787683133e-05, -2.0324421711848117e-05, -1.95713437278755e-05, -1.8818267562892288e-05, -1.8065191397909075e-05, -1.7312115232925862e-05, -1.655903906794265e-05, -1.5805962902959436e-05, -1.5052885828481521e-05, -1.4299808754003607e-05, -1.3546732589020394e-05, -1.279365642403718e-05, -1.2040579349559266e-05, -1.1287503184576053e-05, -1.0534426110098138e-05, -9.781349945114926e-06, -9.028273780131713e-06, -8.2751976151485e-06, -7.522121450165287e-06, -6.76904346619267e-06, -6.015967301209457e-06, -5.262891136226244e-06, -4.509814971243031e-06, -3.7567388062598184e-06, -3.003660822287202e-06, -2.250584657303989e-06, -1.4975103113101795e-06, -7.444341463269666e-07, 8.642018656246364e-09, 7.617200026288629e-07, 1.5147961676120758e-06, 2.2678723325952888e-06, 3.0209484975785017e-06, 3.7740246625617146e-06, 4.527102646534331e-06, 5.280178811517544e-06, 6.033254976500757e-06, 6.78633114148397e-06, 7.539407306467183e-06, 8.292484380945098e-06, 9.04556054592831e-06, 9.798637620406225e-06, 1.0551713785389438e-05, 1.1304789950372651e-05, 1.2057867024850566e-05, 1.2810943189833779e-05, 1.3564020264311694e-05, 1.4317096429294907e-05, 1.507017259427812e-05, 1.5823248759261332e-05, 1.657632674323395e-05, 1.7329402908217162e-05, 1.8082479073200375e-05, 1.8835555238183588e-05, 1.95886314031668e-05, 2.0341707568150014e-05, 2.109478555212263e-05, 2.1847861717105843e-05, 2.2600937882089056e-05]}, "gradients/decoder.conv5.bn.bias": {"_type": "histogram", "values": [1.0, 0.0, 0.0, 0.0, 0.0, 0.0, 0.0, 0.0, 0.0, 0.0, 0.0, 0.0, 0.0, 0.0, 0.0, 0.0, 0.0, 0.0, 0.0, 0.0, 0.0, 0.0, 0.0, 0.0, 0.0, 1.0, 1.0, 1.0, 1.0, 0.0, 0.0, 0.0, 0.0, 0.0, 0.0, 0.0, 0.0, 0.0, 0.0, 0.0, 0.0, 0.0, 0.0, 0.0, 1.0, 0.0, 0.0, 0.0, 0.0, 0.0, 0.0, 0.0, 1.0, 0.0, 0.0, 0.0, 0.0, 0.0, 0.0, 0.0, 0.0, 0.0, 0.0, 1.0], "bins": [-2.3105088985175826e-05, -2.2259922843659297e-05, -2.1414756702142768e-05, -2.056959056062624e-05, -1.9724422600120306e-05, -1.8879256458603777e-05, -1.8034090317087248e-05, -1.718892417557072e-05, -1.634375803405419e-05, -1.5498590073548257e-05, -1.4653423932031728e-05, -1.38082577905152e-05, -1.296309164899867e-05, -1.211792459798744e-05, -1.127275845647091e-05, -1.042759140545968e-05, -9.58242526394315e-06, -8.737259122426622e-06, -7.89209207141539e-06, -7.04692502040416e-06, -6.201758878887631e-06, -5.356592737371102e-06, -4.511426595854573e-06, -3.666260454338044e-06, -2.821094312821515e-06, -1.9759263523155823e-06, -1.1307602107990533e-06, -2.855940692825243e-07, 5.595720722340047e-07, 1.4047382137505338e-06, 2.2499061742564663e-06, 3.0950723157729954e-06, 3.940240276278928e-06, 4.785406417795457e-06, 5.630572559311986e-06, 6.4757405198179185e-06, 7.3209066613344476e-06, 8.166072802850977e-06, 9.011238944367506e-06, 9.856405085884035e-06, 1.0701573046389967e-05, 1.1546739187906496e-05, 1.2391905329423025e-05, 1.3237071470939554e-05, 1.4082237612456083e-05, 1.4927403753972612e-05, 1.577256989548914e-05, 1.6617737855995074e-05, 1.7462903997511603e-05, 1.8308070139028132e-05, 1.9153238099534065e-05, 1.999840242206119e-05, 2.0843570382567123e-05, 2.168873652408365e-05, 2.253390266560018e-05, 2.337906880711671e-05, 2.422423494863324e-05, 2.506940290913917e-05, 2.59145690506557e-05, 2.675973519217223e-05, 2.760490133368876e-05, 2.8450067475205287e-05, 2.929523543571122e-05, 3.014040157722775e-05, 3.098556771874428e-05]}, "gradients/decoder.conv5.conv.weight": {"_type": "histogram", "values": [1.0, 0.0, 1.0, 0.0, 0.0, 0.0, 0.0, 0.0, 0.0, 0.0, 0.0, 0.0, 0.0, 0.0, 1.0, 0.0, 0.0, 1.0, 1.0, 2.0, 4.0, 5.0, 7.0, 16.0, 12.0, 10.0, 16.0, 37.0, 47.0, 78.0, 85.0, 110.0, 137.0, 189.0, 222.0, 211.0, 192.0, 187.0, 149.0, 99.0, 78.0, 45.0, 36.0, 25.0, 14.0, 9.0, 7.0, 4.0, 1.0, 4.0, 1.0, 0.0, 1.0, 0.0, 0.0, 0.0, 0.0, 0.0, 0.0, 1.0, 1.0, 0.0, 0.0, 1.0], "bins": [-5.26927578903269e-05, -5.117808541399427e-05, -4.966341657564044e-05, -4.8148744099307805e-05, -4.663407162297517e-05, -4.511940278462134e-05, -4.360473030828871e-05, -4.209006146993488e-05, -4.0575388993602246e-05, -3.906071651726961e-05, -3.754604404093698e-05, -3.603137520258315e-05, -3.4516702726250514e-05, -3.300203388789669e-05, -3.148736141156405e-05, -2.9972688935231417e-05, -2.8458018277888186e-05, -2.6943347620544955e-05, -2.542867514421232e-05, -2.391400448686909e-05, -2.2399333829525858e-05, -2.0884661353193223e-05, -1.9369992514839396e-05, -1.785532003850676e-05, -1.6340647562174127e-05, -1.4825978723820299e-05, -1.3311306247487664e-05, -1.179663377115503e-05, -1.0281964932801202e-05, -8.767292456468567e-06, -7.2526199801359326e-06, -5.737951141782105e-06, -4.22327866544947e-06, -2.7086061891168356e-06, -1.193937350763008e-06, 3.207351255696267e-07, 1.8354076019022614e-06, 3.350076440256089e-06, 4.864748916588724e-06, 6.379421392921358e-06, 7.894090231275186e-06, 9.40876270760782e-06, 1.0923435183940455e-05, 1.2438104022294283e-05, 1.3952776498626918e-05, 1.546744715597015e-05, 1.698211781331338e-05, 1.8496790289646015e-05, 2.0011460946989246e-05, 2.1526131604332477e-05, 2.304080408066511e-05, 2.4555474738008343e-05, 2.6070145395351574e-05, 2.758481787168421e-05, 2.909948852902744e-05, 3.061415918637067e-05, 3.2128831662703305e-05, 3.364350413903594e-05, 3.515817297738977e-05, 3.66728454537224e-05, 3.818751429207623e-05, 3.9702186768408865e-05, 4.12168592447415e-05, 4.273152808309533e-05, 4.424620055942796e-05]}, "gradients/decoder.conv5.conv.bias": {"_type": "histogram", "values": [1.0, 0.0, 0.0, 0.0, 0.0, 0.0, 0.0, 0.0, 0.0, 0.0, 0.0, 0.0, 0.0, 0.0, 0.0, 0.0, 0.0, 0.0, 0.0, 0.0, 0.0, 0.0, 0.0, 0.0, 0.0, 0.0, 0.0, 0.0, 0.0, 0.0, 0.0, 0.0, 0.0, 1.0, 1.0, 0.0, 0.0, 1.0, 0.0, 0.0, 0.0, 1.0, 0.0, 1.0, 0.0, 0.0, 0.0, 0.0, 0.0, 1.0, 0.0, 0.0, 0.0, 0.0, 0.0, 0.0, 0.0, 0.0, 0.0, 0.0, 0.0, 0.0, 0.0, 1.0], "bins": [-3.410605131648481e-11, -3.318945118735428e-11, -3.227285105822375e-11, -3.135625092909322e-11, -3.043965079996269e-11, -2.952305067083216e-11, -2.8606450541701633e-11, -2.7689850412571104e-11, -2.6773250283440575e-11, -2.5856650154310046e-11, -2.4940050025179517e-11, -2.4023449896048987e-11, -2.3106849766918458e-11, -2.219024963778793e-11, -2.12736495086574e-11, -2.035704937952687e-11, -1.944044925039634e-11, -1.8523849121265812e-11, -1.7607248992135283e-11, -1.6690648863004753e-11, -1.5774048733874224e-11, -1.4857448604743695e-11, -1.3940848475613166e-11, -1.3024248346482636e-11, -1.2107648217352107e-11, -1.1191048088221578e-11, -1.0274447959091049e-11, -9.35784782996052e-12, -8.44124770082999e-12, -7.524647571699461e-12, -6.608047442568932e-12, -5.6914473134384025e-12, -4.774847184307873e-12, -3.858247055177344e-12, -2.9416469260468148e-12, -2.0250467969162855e-12, -1.1084466677857563e-12, -1.9184653865522705e-13, 7.247535904753022e-13, 1.6413537196058314e-12, 2.5579538487363607e-12, 3.47455397786689e-12, 4.391154106997419e-12, 5.307754236127948e-12, 6.224354365258478e-12, 7.140954494389007e-12, 8.057554623519536e-12, 8.974154752650065e-12, 9.890754881780595e-12, 1.0807355010911124e-11, 1.1723955140041653e-11, 1.2640555269172182e-11, 1.3557155398302712e-11, 1.447375552743324e-11, 1.539035565656377e-11, 1.63069557856943e-11, 1.722355591482483e-11, 1.8140156043955358e-11, 1.9056756173085887e-11, 1.9973356302216416e-11, 2.0889956431346945e-11, 2.1806556560477475e-11, 2.2723156689608004e-11, 2.3639756818738533e-11, 2.4556356947869062e-11]}, "gradients/decoder.conv4.bn.weight": {"_type": "histogram", "values": [1.0, 0.0, 0.0, 0.0, 0.0, 0.0, 0.0, 0.0, 0.0, 0.0, 0.0, 0.0, 0.0, 0.0, 0.0, 1.0, 0.0, 0.0, 1.0, 0.0, 0.0, 0.0, 0.0, 0.0, 0.0, 0.0, 0.0, 0.0, 0.0, 0.0, 0.0, 0.0, 1.0, 0.0, 0.0, 0.0, 0.0, 0.0, 0.0, 2.0, 0.0, 1.0, 1.0, 2.0, 1.0, 0.0, 1.0, 1.0, 0.0, 0.0, 0.0, 1.0, 0.0, 0.0, 0.0, 0.0, 0.0, 1.0, 0.0, 0.0, 0.0, 0.0, 0.0, 1.0], "bins": [-1.1305544830975123e-05, -1.1017707038263325e-05, -1.0729869245551527e-05, -1.0442031452839728e-05, -1.015419366012793e-05, -9.866355867416132e-06, -9.578518074704334e-06, -9.290680281992536e-06, -9.002842489280738e-06, -8.71500469656894e-06, -8.427166903857142e-06, -8.139329111145344e-06, -7.851491318433546e-06, -7.5636535257217474e-06, -7.275815733009949e-06, -6.987977940298151e-06, -6.700140147586353e-06, -6.412302354874555e-06, -6.124464562162757e-06, -5.836626769450959e-06, -5.548788976739161e-06, -5.260951184027363e-06, -4.9731133913155645e-06, -4.685275598603766e-06, -4.397437805891968e-06, -4.10960001318017e-06, -3.821762220468372e-06, -3.533924427756574e-06, -3.246086635044776e-06, -2.958248842332978e-06, -2.6704110496211797e-06, -2.3825732569093816e-06, -2.0947350094502326e-06, -1.8068972167384345e-06, -1.5190594240266364e-06, -1.2312216313148383e-06, -9.433838386030402e-07, -6.555460458912421e-07, -3.67708253179444e-07, -7.98704604676459e-08, 2.079673322441522e-07, 4.958051249559503e-07, 7.836429176677484e-07, 1.0714807103795465e-06, 1.3593185030913446e-06, 1.6471562958031427e-06, 1.934994088514941e-06, 2.222831881226739e-06, 2.510669673938537e-06, 2.798507466650335e-06, 3.0863452593621332e-06, 3.3741830520739313e-06, 3.6620208447857294e-06, 3.9498586374975275e-06, 4.237696430209326e-06, 4.525534222921124e-06, 4.813372015632922e-06, 5.10120980834472e-06, 5.389047601056518e-06, 5.676885393768316e-06, 5.964723186480114e-06, 6.252560979191912e-06, 6.5403987719037104e-06, 6.8282365646155085e-06, 7.116074357327307e-06]}, "gradients/decoder.conv4.bn.bias": {"_type": "histogram", "values": [1.0, 0.0, 0.0, 0.0, 0.0, 0.0, 1.0, 0.0, 0.0, 0.0, 0.0, 0.0, 0.0, 0.0, 0.0, 0.0, 0.0, 0.0, 0.0, 0.0, 0.0, 0.0, 0.0, 1.0, 0.0, 0.0, 0.0, 0.0, 0.0, 1.0, 0.0, 1.0, 0.0, 0.0, 1.0, 0.0, 0.0, 0.0, 0.0, 0.0, 1.0, 0.0, 1.0, 0.0, 0.0, 0.0, 1.0, 0.0, 0.0, 0.0, 0.0, 0.0, 1.0, 0.0, 0.0, 0.0, 1.0, 0.0, 1.0, 1.0, 0.0, 1.0, 1.0, 1.0], "bins": [-8.982047802419402e-06, -8.746366802370176e-06, -8.51068580232095e-06, -8.275005711766426e-06, -8.0393247117172e-06, -7.803643711667974e-06, -7.5679631663660984e-06, -7.3322821663168725e-06, -7.096601621014997e-06, -6.860920620965771e-06, -6.625239620916545e-06, -6.38955907561467e-06, -6.153878530312795e-06, -5.918197530263569e-06, -5.682516530214343e-06, -5.446835984912468e-06, -5.211155439610593e-06, -4.975474439561367e-06, -4.739793439512141e-06, -4.504112894210266e-06, -4.26843189416104e-06, -4.032751348859165e-06, -3.797070348809939e-06, -3.5613898035080638e-06, -3.325708803458838e-06, -3.0900282581569627e-06, -2.8543472581077367e-06, -2.6186667128058616e-06, -2.3829857127566356e-06, -2.1473051674547605e-06, -1.9116241674055345e-06, -1.6759436221036594e-06, -1.4402626220544335e-06, -1.2045816220052075e-06, -9.689010767033324e-07, -7.332200766541064e-07, -4.975395313522313e-07, -2.618585313030053e-07, -2.6177986001130193e-08, 2.095030140480958e-07, 4.451835593499709e-07, 6.808645593991969e-07, 9.16545104701072e-07, 1.152226104750298e-06, 1.387906650052173e-06, 1.623587650101399e-06, 1.8592681954032741e-06, 2.0949491954525e-06, 2.3306299681280507e-06, 2.5663107408036012e-06, 2.8019915134791518e-06, 3.0376722861547023e-06, 3.273353058830253e-06, 3.5090338315058034e-06, 3.744714604181354e-06, 3.9803953768569045e-06, 4.2160763769061305e-06, 4.4517569222080056e-06, 4.6874379222572315e-06, 4.923118467559107e-06, 5.158799467608333e-06, 5.394480012910208e-06, 5.630161012959434e-06, 5.865841558261309e-06, 6.101522558310535e-06]}, "gradients/decoder.conv4.conv.weight": {"_type": "histogram", "values": [1.0, 0.0, 0.0, 0.0, 0.0, 0.0, 1.0, 0.0, 0.0, 2.0, 2.0, 1.0, 2.0, 3.0, 2.0, 1.0, 5.0, 3.0, 8.0, 5.0, 9.0, 17.0, 21.0, 27.0, 36.0, 45.0, 64.0, 68.0, 98.0, 112.0, 161.0, 205.0, 292.0, 379.0, 553.0, 768.0, 942.0, 945.0, 796.0, 580.0, 446.0, 340.0, 302.0, 226.0, 182.0, 144.0, 92.0, 73.0, 55.0, 46.0, 37.0, 26.0, 11.0, 17.0, 8.0, 7.0, 4.0, 6.0, 5.0, 5.0, 1.0, 0.0, 3.0, 2.0], "bins": [-2.3808977857697755e-05, -2.3171503926278092e-05, -2.2534028175869025e-05, -2.1896554244449362e-05, -2.1259078494040295e-05, -2.0621604562620632e-05, -1.998413063120097e-05, -1.9346654880791903e-05, -1.870918094937224e-05, -1.8071707017952576e-05, -1.743423126754351e-05, -1.6796757336123846e-05, -1.6159283404704183e-05, -1.5521807654295117e-05, -1.4884333722875454e-05, -1.4246858881961089e-05, -1.3609384041046724e-05, -1.2971909200132359e-05, -1.2334434359217994e-05, -1.169696042779833e-05, -1.1059485586883966e-05, -1.0422010745969601e-05, -9.784536814549938e-06, -9.147061973635573e-06, -8.509587132721208e-06, -7.872113201301545e-06, -7.234637450892478e-06, -6.597163519472815e-06, -5.959689588053152e-06, -5.322213837644085e-06, -4.684739906224422e-06, -4.0472641558153555e-06, -3.4097902243956923e-06, -2.7723162929760292e-06, -2.1348405425669625e-06, -1.4973666111472994e-06, -8.598908607382327e-07, -2.224169293185696e-07, 4.1505700210109353e-07, 1.0525327525101602e-06, 1.6900066839298233e-06, 2.3274815248441882e-06, 2.964956365758553e-06, 3.6024302971782163e-06, 4.239905138092581e-06, 4.877379979006946e-06, 5.514853910426609e-06, 6.152328751340974e-06, 6.789803592255339e-06, 7.427278433169704e-06, 8.064753274084069e-06, 8.702227205503732e-06, 9.339702046418097e-06, 9.977176887332462e-06, 1.0614650818752125e-05, 1.125212565966649e-05, 1.1889600500580855e-05, 1.252707534149522e-05, 1.3164550182409585e-05, 1.3802024113829248e-05, 1.4439498954743613e-05, 1.5076973795657977e-05, 1.571444772707764e-05, 1.6351923477486707e-05, 1.698939740890637e-05]}, "gradients/decoder.conv4.conv.bias": {"_type": "histogram", "values": [1.0, 0.0, 0.0, 0.0, 0.0, 0.0, 0.0, 0.0, 0.0, 0.0, 0.0, 0.0, 1.0, 1.0, 0.0, 0.0, 0.0, 1.0, 0.0, 0.0, 2.0, 0.0, 0.0, 0.0, 2.0, 0.0, 2.0, 1.0, 1.0, 1.0, 0.0, 0.0, 0.0, 0.0, 0.0, 0.0, 0.0, 0.0, 0.0, 0.0, 0.0, 0.0, 0.0, 0.0, 0.0, 0.0, 0.0, 0.0, 0.0, 1.0, 0.0, 0.0, 0.0, 0.0, 0.0, 1.0, 0.0, 0.0, 0.0, 0.0, 0.0, 0.0, 0.0, 1.0], "bins": [-5.9117155615240335e-12, -5.660361068748898e-12, -5.409006575973763e-12, -5.157652083198627e-12, -4.906297590423492e-12, -4.654943097648356e-12, -4.403588604873221e-12, -4.1522341120980855e-12, -3.90087961932295e-12, -3.6495251265478146e-12, -3.398170633772679e-12, -3.1468161409975437e-12, -2.8954616482224083e-12, -2.644107155447273e-12, -2.3927526626721374e-12, -2.141398169897002e-12, -1.8900436771218665e-12, -1.638689184346731e-12, -1.3873346915715956e-12, -1.1359801987964602e-12, -8.846257060213247e-13, -6.332712132461893e-13, -3.8191672047105385e-13, -1.305622276959184e-13, 1.2079226507921703e-13, 3.7214675785435247e-13, 6.235012506294879e-13, 8.748557434046234e-13, 1.1262102361797588e-12, 1.3775647289548942e-12, 1.6289192217300297e-12, 1.880273714505165e-12, 2.1316282072803006e-12, 2.382982700055436e-12, 2.6343371928305714e-12, 2.885691685605707e-12, 3.1370461783808423e-12, 3.3884006711559778e-12, 3.639755163931113e-12, 3.891109656706249e-12, 4.142464149481384e-12, 4.3938186422565195e-12, 4.645173135031655e-12, 4.8965276278067904e-12, 5.147882120581926e-12, 5.399236613357061e-12, 5.650591106132197e-12, 5.901945598907332e-12, 6.153300091682468e-12, 6.404654584457603e-12, 6.6560090772327385e-12, 6.907363570007874e-12, 7.158718062783009e-12, 7.410072555558145e-12, 7.66142704833328e-12, 7.912781541108416e-12, 8.164136033883551e-12, 8.415490526658687e-12, 8.666845019433822e-12, 8.918199512208957e-12, 9.169554004984093e-12, 9.420908497759228e-12, 9.672262990534364e-12, 9.9236174833095e-12, 1.0174971976084635e-11]}, "gradients/decoder.conv3.bn.weight": {"_type": "histogram", "values": [1.0, 0.0, 0.0, 0.0, 0.0, 0.0, 0.0, 2.0, 0.0, 0.0, 0.0, 0.0, 1.0, 1.0, 1.0, 0.0, 1.0, 0.0, 1.0, 0.0, 2.0, 2.0, 1.0, 1.0, 0.0, 0.0, 1.0, 0.0, 0.0, 1.0, 1.0, 0.0, 4.0, 1.0, 0.0, 0.0, 1.0, 0.0, 0.0, 0.0, 2.0, 2.0, 1.0, 0.0, 1.0, 1.0, 0.0, 0.0, 0.0, 0.0, 0.0, 1.0, 0.0, 0.0, 0.0, 0.0, 0.0, 0.0, 0.0, 0.0, 0.0, 0.0, 0.0, 1.0], "bins": [-4.042657565150876e-06, -3.902791831933428e-06, -3.762925871342304e-06, -3.6230599107511807e-06, -3.4831941775337327e-06, -3.3433282169426093e-06, -3.203462256351486e-06, -3.063596523134038e-06, -2.9237305625429144e-06, -2.783864601951791e-06, -2.643998868734343e-06, -2.5041329081432195e-06, -2.364266947552096e-06, -2.224401214334648e-06, -2.0845352537435247e-06, -1.9446695205260767e-06, -1.8048035599349532e-06, -1.6649375993438298e-06, -1.5250718661263818e-06, -1.3852059055352584e-06, -1.2453401723178104e-06, -1.105474211726687e-06, -9.656082511355635e-07, -8.257425179181155e-07, -6.85876557326992e-07, -5.460105967358686e-07, -4.061448635184206e-07, -2.6627890292729717e-07, -1.2641294233617373e-07, 1.3452790881274268e-08, 1.5331852409872226e-07, 2.9318471206352115e-07, 4.3305044528096914e-07, 5.729161784984171e-07, 7.12782366463216e-07, 8.52648099680664e-07, 9.92513832898112e-07, 1.1323797934892355e-06, 1.2722457540803589e-06, 1.4121114872978069e-06, 1.5519774478889303e-06, 1.6918434084800538e-06, 1.8317091416975018e-06, 1.971575102288625e-06, 2.1114410628797486e-06, 2.2513067960971966e-06, 2.39117275668832e-06, 2.531038489905768e-06, 2.6709044504968915e-06, 2.810770411088015e-06, 2.950636144305463e-06, 3.0905021048965864e-06, 3.2303678381140344e-06, 3.370233798705158e-06, 3.5100997592962813e-06, 3.6499654925137293e-06, 3.7898314531048527e-06, 3.929697413695976e-06, 4.069563146913424e-06, 4.209428880130872e-06, 4.349295068095671e-06, 4.489160801313119e-06, 4.629026534530567e-06, 4.768892722495366e-06, 4.908758455712814e-06]}, "gradients/decoder.conv3.bn.bias": {"_type": "histogram", "values": [1.0, 0.0, 0.0, 0.0, 0.0, 0.0, 1.0, 0.0, 0.0, 0.0, 0.0, 0.0, 0.0, 0.0, 0.0, 1.0, 0.0, 0.0, 0.0, 0.0, 0.0, 0.0, 0.0, 0.0, 1.0, 1.0, 0.0, 1.0, 0.0, 0.0, 1.0, 1.0, 1.0, 2.0, 1.0, 0.0, 2.0, 2.0, 0.0, 0.0, 1.0, 0.0, 0.0, 0.0, 2.0, 1.0, 1.0, 0.0, 3.0, 0.0, 0.0, 2.0, 1.0, 0.0, 1.0, 0.0, 0.0, 0.0, 0.0, 1.0, 1.0, 0.0, 1.0, 1.0], "bins": [-7.71379654906923e-06, -7.4994118222093675e-06, -7.2850270953495055e-06, -7.0706423684896436e-06, -6.8562576416297816e-06, -6.6418733695172705e-06, -6.4274886426574085e-06, -6.2131039157975465e-06, -5.9987191889376845e-06, -5.7843344620778225e-06, -5.5699497352179606e-06, -5.3555650083580986e-06, -5.1411807362455875e-06, -4.926795554638375e-06, -4.7124112825258635e-06, -4.4980265556660015e-06, -4.2836418288061395e-06, -4.0692571019462775e-06, -3.8548723750864156e-06, -3.6404876482265536e-06, -3.4261029213666916e-06, -3.2117186492541805e-06, -2.9973339223943185e-06, -2.7829491955344565e-06, -2.5685644686745945e-06, -2.3541797418147326e-06, -2.1397950149548706e-06, -1.9254102880950086e-06, -1.7110260159824975e-06, -1.4966412891226355e-06, -1.2822565622627735e-06, -1.0678718354029115e-06, -8.534871085430495e-07, -6.391023816831876e-07, -4.247176548233256e-07, -2.103329279634636e-07, 4.051798896398395e-09, 2.184360710089095e-07, 4.328207978687715e-07, 6.472055247286335e-07, 8.615902515884954e-07, 1.0759749784483574e-06, 1.2903597053082194e-06, 1.5047444321680814e-06, 1.7191287042805925e-06, 1.9335134311404545e-06, 2.1478981580003165e-06, 2.3622828848601785e-06, 2.5766676117200404e-06, 2.7910523385799024e-06, 3.0054370654397644e-06, 3.219821564925951e-06, 3.434206291785813e-06, 3.648591018645675e-06, 3.8629755181318615e-06, 4.0773602449917234e-06, 4.2917449718515854e-06, 4.506129698711447e-06, 4.720514425571309e-06, 4.934899152431171e-06, 5.1492834245436825e-06, 5.3636681514035445e-06, 5.5780528782634065e-06, 5.7924376051232684e-06, 6.0068223319831304e-06]}, "gradients/decoder.conv3.conv.weight": {"_type": "histogram", "values": [1.0, 0.0, 0.0, 0.0, 0.0, 0.0, 2.0, 0.0, 1.0, 0.0, 3.0, 3.0, 2.0, 3.0, 3.0, 9.0, 7.0, 9.0, 7.0, 18.0, 16.0, 20.0, 39.0, 54.0, 70.0, 111.0, 144.0, 187.0, 327.0, 406.0, 602.0, 896.0, 1353.0, 2315.0, 4108.0, 7022.0, 5194.0, 3304.0, 2312.0, 1489.0, 1001.0, 609.0, 369.0, 249.0, 145.0, 87.0, 70.0, 53.0, 43.0, 24.0, 24.0, 7.0, 15.0, 8.0, 2.0, 7.0, 2.0, 8.0, 2.0, 1.0, 2.0, 2.0, 0.0, 1.0], "bins": [-9.858491466729902e-06, -9.584325198375154e-06, -9.310159839515109e-06, -9.035993571160361e-06, -8.761827302805614e-06, -8.487661034450866e-06, -8.21349567559082e-06, -7.939329407236073e-06, -7.665163138881326e-06, -7.39099778002128e-06, -7.116831511666533e-06, -6.842665698059136e-06, -6.5684998844517395e-06, -6.294333616096992e-06, -6.0201678024895955e-06, -5.746001534134848e-06, -5.4718357205274515e-06, -5.197669906920055e-06, -4.9235036385653075e-06, -4.649337824957911e-06, -4.3751715566031635e-06, -4.101005742995767e-06, -3.82683992938837e-06, -3.552673661033623e-06, -3.2785078474262264e-06, -3.00434203381883e-06, -2.7301757654640824e-06, -2.456009951856686e-06, -2.1818441382492892e-06, -1.907677869894542e-06, -1.6335116015397944e-06, -1.3593462426797487e-06, -1.0851790648302995e-06, -8.11012796475552e-07, -5.368474376155064e-07, -2.626811692607589e-07, 1.1485099093988538e-08, 2.856509127013851e-07, 5.598167263087817e-07, 8.339829946635291e-07, 1.1081488082709257e-06, 1.3823146218783222e-06, 1.6564808902330697e-06, 1.9306467038404662e-06, 2.2048125174478628e-06, 2.4789787858026102e-06, 2.7531445994100068e-06, 3.0273108677647542e-06, 3.3014766813721508e-06, 3.5756424949795473e-06, 3.849808763334295e-06, 4.123974576941691e-06, 4.398140845296439e-06, 4.672306658903835e-06, 4.946472472511232e-06, 5.220638740865979e-06, 5.494804554473376e-06, 5.7689703680807725e-06, 6.04313663643552e-06, 6.3173024500429165e-06, 6.591468263650313e-06, 6.8656345320050605e-06, 7.139800345612457e-06, 7.4139666139672045e-06, 7.688132427574601e-06]}, "gradients/decoder.conv3.conv.bias": {"_type": "histogram", "values": [1.0, 0.0, 0.0, 0.0, 0.0, 0.0, 0.0, 1.0, 0.0, 0.0, 0.0, 0.0, 0.0, 0.0, 0.0, 1.0, 3.0, 0.0, 0.0, 1.0, 1.0, 0.0, 0.0, 0.0, 0.0, 1.0, 4.0, 2.0, 0.0, 2.0, 0.0, 0.0, 0.0, 0.0, 3.0, 0.0, 0.0, 3.0, 0.0, 1.0, 0.0, 0.0, 1.0, 2.0, 0.0, 0.0, 0.0, 0.0, 0.0, 0.0, 0.0, 0.0, 1.0, 0.0, 0.0, 0.0, 1.0, 0.0, 1.0, 0.0, 0.0, 1.0, 0.0, 1.0], "bins": [-9.094947017729282e-13, -8.704148513061227e-13, -8.313350008393172e-13, -7.922551503725117e-13, -7.531752999057062e-13, -7.140954494389007e-13, -6.750155989720952e-13, -6.359357485052897e-13, -5.968558980384842e-13, -5.577760475716786e-13, -5.186961971048731e-13, -4.796163466380676e-13, -4.405364961712621e-13, -4.014566457044566e-13, -3.623767952376511e-13, -3.232969447708456e-13, -2.8421709430404007e-13, -2.4513724383723456e-13, -2.0605739337042905e-13, -1.6697754290362354e-13, -1.2789769243681803e-13, -8.881784197001252e-14, -4.973799150320701e-14, -1.0658141036401503e-14, 2.842170943040401e-14, 6.750155989720952e-14, 1.0658141036401503e-13, 1.4566126083082054e-13, 1.8474111129762605e-13, 2.2382096176443156e-13, 2.6290081223123707e-13, 3.019806626980426e-13, 3.410605131648481e-13, 3.801403636316536e-13, 4.192202140984591e-13, 4.583000645652646e-13, 4.973799150320701e-13, 5.364597654988756e-13, 5.755396159656812e-13, 6.146194664324867e-13, 6.536993168992922e-13, 6.927791673660977e-13, 7.318590178329032e-13, 7.709388682997087e-13, 8.100187187665142e-13, 8.490985692333197e-13, 8.881784197001252e-13, 9.272582701669307e-13, 9.663381206337363e-13, 1.0054179711005418e-12, 1.0444978215673473e-12, 1.0835776720341528e-12, 1.1226575225009583e-12, 1.1617373729677638e-12, 1.2008172234345693e-12, 1.2398970739013748e-12, 1.2789769243681803e-12, 1.3180567748349858e-12, 1.3571366253017914e-12, 1.3962164757685969e-12, 1.4352963262354024e-12, 1.4743761767022079e-12, 1.5134560271690134e-12, 1.552535877635819e-12, 1.5916157281026244e-12]}, "gradients/decoder.conv2.bn.weight": {"_type": "histogram", "values": [2.0, 1.0, 0.0, 0.0, 0.0, 1.0, 1.0, 0.0, 2.0, 0.0, 2.0, 3.0, 1.0, 0.0, 1.0, 0.0, 2.0, 0.0, 1.0, 1.0, 4.0, 1.0, 2.0, 1.0, 3.0, 3.0, 1.0, 2.0, 1.0, 1.0, 0.0, 2.0, 2.0, 2.0, 1.0, 0.0, 1.0, 0.0, 1.0, 2.0, 3.0, 1.0, 4.0, 1.0, 0.0, 1.0, 1.0, 1.0, 1.0, 0.0, 1.0, 1.0, 0.0, 0.0, 0.0, 0.0, 0.0, 0.0, 0.0, 0.0, 0.0, 0.0, 0.0, 1.0], "bins": [-1.4685425639981986e-06, -1.4150572269500117e-06, -1.3615718899018248e-06, -1.3080865528536378e-06, -1.2546013294922886e-06, -1.2011159924441017e-06, -1.1476306553959148e-06, -1.0941453183477279e-06, -1.040659981299541e-06, -9.87174644251354e-07, -9.336893072031671e-07, -8.802040269983991e-07, -8.267186899502121e-07, -7.732333529020252e-07, -7.197480726972572e-07, -6.662627356490702e-07, -6.127773986008833e-07, -5.592920615526964e-07, -5.058067245045095e-07, -4.5232138745632255e-07, -3.9883605040813563e-07, -3.4535082704678643e-07, -2.918654899985995e-07, -2.383801529504126e-07, -1.8489481590222567e-07, -1.3140947885403875e-07, -7.792414180585183e-08, -2.443880475766491e-08, 2.9046418603684288e-08, 8.253175565187121e-08, 1.3601709270005813e-07, 1.8950242974824505e-07, 2.4298765310959425e-07, 2.9647299015778117e-07, 3.499583272059681e-07, 4.03443664254155e-07, 4.5692900130234193e-07, 5.104142246636911e-07, 5.63899561711878e-07, 6.17384898760065e-07, 6.708702358082519e-07, 7.243555728564388e-07, 7.778409099046257e-07, 8.313262469528127e-07, 8.848114703141619e-07, 9.382968073623488e-07, 9.917821444105357e-07, 1.0452674814587226e-06, 1.0987528185069095e-06, 1.1522381555550965e-06, 1.2057234926032834e-06, 1.2592088296514703e-06, 1.3126941666996572e-06, 1.3661795037478441e-06, 1.4196647271091933e-06, 1.4731500641573803e-06, 1.5266354012055672e-06, 1.580120738253754e-06, 1.633606075301941e-06, 1.6870912986632902e-06, 1.7405766357114771e-06, 1.794061972759664e-06, 1.847547309807851e-06, 1.901032646856038e-06, 1.954517983904225e-06]}, "gradients/decoder.conv2.bn.bias": {"_type": "histogram", "values": [1.0, 0.0, 1.0, 1.0, 2.0, 0.0, 2.0, 1.0, 1.0, 1.0, 0.0, 0.0, 1.0, 1.0, 1.0, 1.0, 0.0, 3.0, 2.0, 2.0, 1.0, 1.0, 1.0, 3.0, 2.0, 2.0, 0.0, 2.0, 3.0, 3.0, 2.0, 2.0, 0.0, 2.0, 1.0, 2.0, 1.0, 3.0, 1.0, 1.0, 2.0, 1.0, 2.0, 0.0, 1.0, 1.0, 0.0, 1.0, 0.0, 1.0, 0.0, 0.0, 0.0, 0.0, 0.0, 0.0, 0.0, 0.0, 0.0, 0.0, 0.0, 0.0, 0.0, 1.0], "bins": [-1.1294138175799162e-06, -1.0785098538690363e-06, -1.0276058901581564e-06, -9.767019264472765e-07, -9.257979627363966e-07, -8.748939990255167e-07, -8.239900353146368e-07, -7.730860716037569e-07, -7.22182107892877e-07, -6.71278144181997e-07, -6.203741804711171e-07, -5.694702167602372e-07, -5.185662530493573e-07, -4.676622893384774e-07, -4.167583256275975e-07, -3.658543619167176e-07, -3.149503982058377e-07, -2.640464344949578e-07, -2.1314247078407789e-07, -1.6223850707319798e-07, -1.1133454336231807e-07, -6.043057965143817e-08, -9.526615940558258e-09, 4.137734777032165e-08, 9.228131148120156e-08, 1.4318527519208146e-07, 1.9408923890296137e-07, 2.449932026138413e-07, 2.958971663247212e-07, 3.468011300356011e-07, 3.97705093746481e-07, 4.486090574573609e-07, 4.995129074814031e-07, 5.50416871192283e-07, 6.013208349031629e-07, 6.522247986140428e-07, 7.031287623249227e-07, 7.540327260358026e-07, 8.049366897466825e-07, 8.558406534575624e-07, 9.067446171684423e-07, 9.576485808793223e-07, 1.0085525445902022e-06, 1.059456508301082e-06, 1.110360472011962e-06, 1.1612644357228419e-06, 1.2121683994337218e-06, 1.2630723631446017e-06, 1.3139763268554816e-06, 1.3648802905663615e-06, 1.4157842542772414e-06, 1.4666882179881213e-06, 1.5175921816990012e-06, 1.5684961454098811e-06, 1.619400109120761e-06, 1.670304072831641e-06, 1.7212080365425209e-06, 1.7721120002534008e-06, 1.8230159639642807e-06, 1.8739199276751606e-06, 1.9248238913860405e-06, 1.9757278550969204e-06, 2.0266318188078003e-06, 2.07753578251868e-06, 2.12843974622956e-06]}, "gradients/decoder.conv2.conv.weight": {"_type": "histogram", "values": [1.0, 0.0, 0.0, 0.0, 0.0, 1.0, 0.0, 0.0, 0.0, 0.0, 0.0, 0.0, 0.0, 0.0, 1.0, 0.0, 1.0, 1.0, 2.0, 4.0, 5.0, 1.0, 4.0, 9.0, 2.0, 16.0, 11.0, 11.0, 20.0, 22.0, 34.0, 37.0, 76.0, 129.0, 182.0, 307.0, 519.0, 844.0, 1627.0, 3302.0, 9430.0, 86927.0, 18039.0, 5591.0, 2070.0, 840.0, 407.0, 215.0, 131.0, 125.0, 55.0, 21.0, 16.0, 9.0, 11.0, 8.0, 2.0, 0.0, 1.0, 1.0, 1.0, 2.0, 0.0, 1.0], "bins": [-7.601009201607667e-06, -7.418362656608224e-06, -7.23571565686143e-06, -7.053069111861987e-06, -6.870422112115193e-06, -6.68777556711575e-06, -6.505129022116307e-06, -6.322482477116864e-06, -6.13983547737007e-06, -5.957188477623276e-06, -5.774541932623833e-06, -5.59189538762439e-06, -5.4092488426249474e-06, -5.2266018428781535e-06, -5.0439552978787106e-06, -4.861308298131917e-06, -4.678661753132474e-06, -4.496015208133031e-06, -4.313368208386237e-06, -4.130721663386794e-06, -3.94807466364e-06, -3.765428118640557e-06, -3.582781573641114e-06, -3.40013457389432e-06, -3.217488028894877e-06, -3.034841483895434e-06, -2.85219448414864e-06, -2.669547939149197e-06, -2.486901394149754e-06, -2.3042543944029603e-06, -2.1216078494035173e-06, -1.9389608496567234e-06, -1.7563138499099296e-06, -1.5736673049104866e-06, -1.3910203051636927e-06, -1.2083737601642497e-06, -1.0257267604174558e-06, -8.430802154180128e-07, -6.604336704185698e-07, -4.777866706717759e-07, -2.9514012567233294e-07, -1.1249358067288995e-07, 7.015341907390393e-08, 2.5279996407334693e-07, 4.3544673644646537e-07, 6.180935088195838e-07, 8.007400538190268e-07, 9.833868261921452e-07, 1.1660335985652637e-06, 1.3486803709383821e-06, 1.5313271433115005e-06, 1.7139736883109435e-06, 1.896620460684062e-06, 2.0792672330571804e-06, 2.2619137780566234e-06, 2.444560550429742e-06, 2.6272073228028603e-06, 2.8098540951759787e-06, 2.992500867549097e-06, 3.17514741254854e-06, 3.3577941849216586e-06, 3.540440957294777e-06, 3.72308750229422e-06, 3.905734502041014e-06, 4.088381047040457e-06]}, "gradients/decoder.conv2.conv.bias": {"_type": "histogram", "values": [1.0, 0.0, 0.0, 0.0, 0.0, 0.0, 0.0, 0.0, 1.0, 0.0, 0.0, 0.0, 0.0, 1.0, 0.0, 1.0, 0.0, 0.0, 1.0, 0.0, 1.0, 2.0, 2.0, 0.0, 0.0, 2.0, 4.0, 0.0, 3.0, 0.0, 2.0, 1.0, 2.0, 5.0, 1.0, 3.0, 1.0, 3.0, 1.0, 1.0, 3.0, 4.0, 1.0, 3.0, 0.0, 2.0, 0.0, 2.0, 1.0, 1.0, 0.0, 1.0, 2.0, 0.0, 0.0, 0.0, 2.0, 0.0, 0.0, 0.0, 1.0, 0.0, 0.0, 2.0], "bins": [-5.115907697472721e-13, -4.9649173661237e-13, -4.813927034774679e-13, -4.662936703425657e-13, -4.511946372076636e-13, -4.360956040727615e-13, -4.2099657093785936e-13, -4.0589753780295723e-13, -3.907985046680551e-13, -3.7569947153315297e-13, -3.6060043839825084e-13, -3.455014052633487e-13, -3.304023721284466e-13, -3.1530333899354446e-13, -3.0020430585864233e-13, -2.851052727237402e-13, -2.7000623958883807e-13, -2.5490720645393594e-13, -2.398081733190338e-13, -2.2470914018413168e-13, -2.0961010704922955e-13, -1.9451107391432743e-13, -1.794120407794253e-13, -1.6431300764452317e-13, -1.4921397450962104e-13, -1.341149413747189e-13, -1.1901590823981678e-13, -1.0391687510491465e-13, -8.881784197001252e-14, -7.37188088351104e-14, -5.861977570020827e-14, -4.3520742565306136e-14, -2.842170943040401e-14, -1.3322676295501878e-14, 1.7763568394002505e-15, 1.687538997430238e-14, 3.197442310920451e-14, 4.707345624410664e-14, 6.217248937900877e-14, 7.72715225139109e-14, 9.237055564881302e-14, 1.0746958878371515e-13, 1.2256862191861728e-13, 1.376676550535194e-13, 1.5276668818842154e-13, 1.6786572132332367e-13, 1.829647544582258e-13, 1.9806378759312793e-13, 2.1316282072803006e-13, 2.282618538629322e-13, 2.433608869978343e-13, 2.5845992013273644e-13, 2.7355895326763857e-13, 2.886579864025407e-13, 3.0375701953744283e-13, 3.1885605267234496e-13, 3.339550858072471e-13, 3.490541189421492e-13, 3.6415315207705135e-13, 3.7925218521195347e-13, 3.943512183468556e-13, 4.0945025148175773e-13, 4.2454928461665986e-13, 4.39648317751562e-13, 4.547473508864641e-13]}, "gradients/decoder.conv1.bn.weight": {"_type": "histogram", "values": [1.0, 0.0, 0.0, 0.0, 0.0, 0.0, 0.0, 0.0, 0.0, 0.0, 0.0, 0.0, 0.0, 0.0, 0.0, 0.0, 0.0, 1.0, 0.0, 0.0, 0.0, 0.0, 0.0, 1.0, 0.0, 0.0, 2.0, 0.0, 1.0, 0.0, 1.0, 2.0, 8.0, 1.0, 5.0, 4.0, 2.0, 4.0, 2.0, 6.0, 5.0, 6.0, 7.0, 9.0, 11.0, 8.0, 13.0, 9.0, 4.0, 4.0, 0.0, 3.0, 0.0, 1.0, 1.0, 1.0, 0.0, 0.0, 2.0, 2.0, 0.0, 0.0, 0.0, 1.0], "bins": [-2.0044819848408224e-06, -1.9569181404222036e-06, -1.9093540686299093e-06, -1.8617902242112905e-06, -1.8142263797926717e-06, -1.766662421687215e-06, -1.7190985772685963e-06, -1.6715346191631397e-06, -1.623970774744521e-06, -1.5764068166390643e-06, -1.5288429722204455e-06, -1.481279014114989e-06, -1.4337151696963701e-06, -1.3861512115909136e-06, -1.338587253485457e-06, -1.2910234090668382e-06, -1.2434595646482194e-06, -1.1958956065427628e-06, -1.1483316484373063e-06, -1.1007678040186875e-06, -1.0532039596000686e-06, -1.005640001494612e-06, -9.580760433891555e-07, -9.105121989705367e-07, -8.629482408650802e-07, -8.153843964464613e-07, -7.678204383410048e-07, -7.202565939223859e-07, -6.726926358169294e-07, -6.251287913983106e-07, -5.77564833292854e-07, -5.300009888742352e-07, -4.824370307687786e-07, -4.348730726633221e-07, -3.8730922824470326e-07, -3.397452701392467e-07, -2.921814257206279e-07, -2.4461746761517134e-07, -1.970536231965525e-07, -1.4948966509109596e-07, -1.0192582067247713e-07, -5.436186256702058e-08, -6.798018148401752e-09, 4.07659399570548e-08, 8.832984121909249e-08, 1.3589374248113018e-07, 1.8345764374316786e-07, 2.3102154500520555e-07, 2.7858544626724324e-07, 3.2614934752928093e-07, 3.737132487913186e-07, 4.212771500533563e-07, 4.68841051315394e-07, 5.164049525774317e-07, 5.639689106828882e-07, 6.115327551015071e-07, 6.590967132069636e-07, 7.066605576255824e-07, 7.54224515731039e-07, 8.017884169930767e-07, 8.493523182551144e-07, 8.969162195171521e-07, 9.444801207791897e-07, 9.920439651978086e-07, 1.0396079233032651e-06]}, "gradients/decoder.conv1.bn.bias": {"_type": "histogram", "values": [1.0, 0.0, 0.0, 0.0, 0.0, 0.0, 0.0, 0.0, 0.0, 0.0, 0.0, 1.0, 0.0, 0.0, 1.0, 2.0, 1.0, 1.0, 2.0, 0.0, 3.0, 1.0, 4.0, 3.0, 1.0, 3.0, 5.0, 1.0, 2.0, 5.0, 7.0, 4.0, 4.0, 9.0, 4.0, 0.0, 2.0, 3.0, 6.0, 5.0, 5.0, 4.0, 3.0, 2.0, 2.0, 6.0, 4.0, 2.0, 2.0, 3.0, 2.0, 3.0, 0.0, 2.0, 0.0, 2.0, 0.0, 2.0, 0.0, 0.0, 1.0, 0.0, 0.0, 2.0], "bins": [-5.027256406719971e-07, -4.87263150716899e-07, -4.718007176052197e-07, -4.56338256071831e-07, -4.408757945384423e-07, -4.2541330458334414e-07, -4.0995084304995544e-07, -3.9448838151656673e-07, -3.7902591998317803e-07, -3.635634584497893e-07, -3.481009969164006e-07, -3.326385353830119e-07, -3.171760454279138e-07, -3.017136123162345e-07, -2.8625112236113637e-07, -2.7078866082774766e-07, -2.5532619929435896e-07, -2.3986373776097025e-07, -2.2440127622758155e-07, -2.0893881469419284e-07, -1.9347635316080414e-07, -1.78013863205706e-07, -1.625514016723173e-07, -1.470889401389286e-07, -1.316264786055399e-07, -1.1616401707215118e-07, -1.0070155553876248e-07, -8.523909400537377e-08, -6.977660405027564e-08, -5.431414251688693e-08, -3.885168098349823e-08, -2.3389247871818952e-08, -7.926701073301956e-09, 7.53578888179618e-09, 2.2998221993475454e-08, 3.846068352686416e-08, 5.3923145060252864e-08, 6.9385635015351e-08, 8.48480965487397e-08, 1.0031055808212841e-07, 1.1577301961551711e-07, 1.3123548114890582e-07, 1.4669794268229452e-07, 1.6216040421568323e-07, 1.7762289417078136e-07, 1.9308535570417007e-07, 2.0854781723755877e-07, 2.2401027877094748e-07, 2.394727403043362e-07, 2.549352018377249e-07, 2.703976633711136e-07, 2.8586015332621173e-07, 3.01322586437891e-07, 3.1678507639298914e-07, 3.3224753792637784e-07, 3.4770999945976655e-07, 3.6317246099315525e-07, 3.7863492252654396e-07, 3.9409738405993266e-07, 4.0955984559332137e-07, 4.250223355484195e-07, 4.404847970818082e-07, 4.559472586151969e-07, 4.714097201485856e-07, 4.868721816819743e-07]}, "gradients/decoder.conv1.conv.weight": {"_type": "histogram", "values": [2.0, 2.0, 1.0, 2.0, 2.0, 4.0, 8.0, 7.0, 5.0, 11.0, 12.0, 19.0, 28.0, 41.0, 66.0, 103.0, 120.0, 173.0, 290.0, 372.0, 590.0, 818.0, 1279.0, 2094.0, 3647.0, 6710.0, 14023.0, 44146.0, 2140013.0, 104045.0, 20282.0, 8587.0, 4452.0, 2615.0, 1625.0, 1010.0, 646.0, 424.0, 301.0, 199.0, 154.0, 111.0, 75.0, 54.0, 38.0, 25.0, 20.0, 13.0, 7.0, 8.0, 6.0, 6.0, 1.0, 1.0, 0.0, 1.0, 0.0, 0.0, 0.0, 0.0, 0.0, 0.0, 1.0, 1.0], "bins": [-6.464615580625832e-07, -6.239379217731766e-07, -6.014142286403512e-07, -5.788905923509446e-07, -5.563669560615381e-07, -5.338432629287126e-07, -5.113196266393061e-07, -4.887959903498995e-07, -4.662723256387835e-07, -4.437486609276675e-07, -4.2122502463826095e-07, -3.9870135992714495e-07, -3.7617769521602895e-07, -3.536540589266224e-07, -3.311303942155064e-07, -3.086067579260998e-07, -2.860830932149838e-07, -2.635594285038678e-07, -2.4103579221446125e-07, -2.1851212750334525e-07, -1.959884912139387e-07, -1.734648265028227e-07, -1.509411617917067e-07, -1.2841752550230012e-07, -1.058938323694747e-07, -8.337019608006813e-08, -6.084655979066156e-08, -3.832292350125499e-08, -1.5799230368429562e-08, 6.724405920977006e-09, 2.9248042210383574e-08, 5.1771735343209e-08, 7.429542847603443e-08, 9.6819064765441e-08, 1.1934275789826643e-07, 1.41866394187673e-07, 1.6439003047707956e-07, 1.86913723609905e-07, 2.0943735989931156e-07, 2.3196099618871813e-07, 2.544846324781247e-07, 2.770083256109501e-07, 2.995319619003567e-07, 3.220556266114727e-07, 3.445792913225887e-07, 3.6710292761199526e-07, 3.8962659232311125e-07, 4.121502286125178e-07, 4.346738933236338e-07, 4.571975580347498e-07, 4.79721165902447e-07, 5.022448590352724e-07, 5.24768495324679e-07, 5.472921884575044e-07, 5.69815824746911e-07, 5.923394610363175e-07, 6.148630973257241e-07, 6.373867904585495e-07, 6.599104267479561e-07, 6.824341198807815e-07, 7.049577561701881e-07, 7.274813924595946e-07, 7.500050287490012e-07, 7.725287218818266e-07, 7.950523581712332e-07]}, "gradients/decoder.conv1.conv.bias": {"_type": "histogram", "values": [1.0, 0.0, 0.0, 2.0, 0.0, 1.0, 1.0, 0.0, 0.0, 0.0, 1.0, 0.0, 4.0, 1.0, 1.0, 1.0, 3.0, 2.0, 1.0, 5.0, 2.0, 4.0, 0.0, 1.0, 5.0, 4.0, 5.0, 9.0, 3.0, 18.0, 1.0, 7.0, 7.0, 7.0, 11.0, 0.0, 4.0, 1.0, 1.0, 1.0, 2.0, 0.0, 2.0, 1.0, 0.0, 3.0, 1.0, 0.0, 0.0, 0.0, 0.0, 0.0, 0.0, 1.0, 0.0, 0.0, 2.0, 0.0, 0.0, 0.0, 0.0, 0.0, 0.0, 1.0], "bins": [-1.5987211554602254e-13, -1.5448753387659053e-13, -1.4910295220715852e-13, -1.4371837053772651e-13, -1.383337888682945e-13, -1.329492071988625e-13, -1.2756462552943049e-13, -1.2218004385999848e-13, -1.1679546219056647e-13, -1.1141088052113446e-13, -1.0602629885170245e-13, -1.0064171718227044e-13, -9.525713551283843e-14, -8.987255384340642e-14, -8.448797217397441e-14, -7.91033905045424e-14, -7.37188088351104e-14, -6.833422716567839e-14, -6.294964549624638e-14, -5.756506382681437e-14, -5.218048215738236e-14, -4.679590048795035e-14, -4.141131881851834e-14, -3.602673714908633e-14, -3.064215547965432e-14, -2.525757381022231e-14, -1.9872992140790302e-14, -1.4488410471358293e-14, -9.103828801926284e-15, -3.7192471324942744e-15, 1.6653345369377348e-15, 7.049916206369744e-15, 1.2434497875801753e-14, 1.7819079545233762e-14, 2.3203661214665772e-14, 2.858824288409778e-14, 3.397282455352979e-14, 3.93574062229618e-14, 4.474198789239381e-14, 5.012656956182582e-14, 5.551115123125783e-14, 6.089573290068984e-14, 6.628031457012185e-14, 7.166489623955385e-14, 7.704947790898586e-14, 8.243405957841787e-14, 8.781864124784988e-14, 9.320322291728189e-14, 9.85878045867139e-14, 1.0397238625614591e-13, 1.0935696792557792e-13, 1.1474154959500993e-13, 1.2012613126444194e-13, 1.2551071293387395e-13, 1.3089529460330596e-13, 1.3627987627273797e-13, 1.4166445794216997e-13, 1.4704903961160198e-13, 1.52433621281034e-13, 1.57818202950466e-13, 1.63202784619898e-13, 1.6858736628933002e-13, 1.7397194795876203e-13, 1.7935652962819404e-13, 1.8474111129762605e-13]}, "gradients/lstm.bias_hh_l1": {"_type": "histogram", "values": [1.0, 0.0, 0.0, 3.0, 3.0, 3.0, 7.0, 7.0, 8.0, 9.0, 7.0, 11.0, 13.0, 15.0, 15.0, 14.0, 10.0, 11.0, 17.0, 14.0, 9.0, 13.0, 12.0, 15.0, 6.0, 5.0, 7.0, 11.0, 19.0, 46.0, 138.0, 594.0, 322.0, 194.0, 107.0, 60.0, 42.0, 31.0, 23.0, 21.0, 11.0, 11.0, 13.0, 7.0, 13.0, 9.0, 15.0, 15.0, 14.0, 13.0, 14.0, 12.0, 11.0, 12.0, 7.0, 6.0, 5.0, 2.0, 5.0, 3.0, 2.0, 3.0, 1.0, 1.0], "bins": [-1.5634425665211893e-07, -1.5139126219310128e-07, -1.4643826773408364e-07, -1.41485273275066e-07, -1.3653227881604835e-07, -1.315792843570307e-07, -1.2662628989801306e-07, -1.216732812281407e-07, -1.1672029387455041e-07, -1.1176729941553276e-07, -1.0681430495651512e-07, -1.0186130339207011e-07, -9.690830893305247e-08, -9.195531447403482e-08, -8.700232001501718e-08, -8.204932555599953e-08, -7.709633109698188e-08, -7.214333663796424e-08, -6.71903421789466e-08, -6.223734771992895e-08, -5.72843532609113e-08, -5.23313516964663e-08, -4.7378357237448654e-08, -4.242536277843101e-08, -3.747236831941336e-08, -3.251936675496836e-08, -2.7566372295950714e-08, -2.261337783693307e-08, -1.7660383377915423e-08, -1.2707388918897777e-08, -7.754394459880132e-09, -2.801400000862486e-09, 2.151580247300444e-09, 7.10457470631809e-09, 1.2057569165335735e-08, 1.701056362435338e-08, 2.1963558083371026e-08, 2.6916552542388672e-08, 3.186954700140632e-08, 3.682254146042396e-08, 4.1775543024868966e-08, 4.672853748388661e-08, 5.168153194290426e-08, 5.66345264019219e-08, 6.15875279663669e-08, 6.654052242538455e-08, 7.14935168844022e-08, 7.644651134341984e-08, 8.139950580243749e-08, 8.635250026145513e-08, 9.130549472047278e-08, 9.625848917949043e-08, 1.0121148363850807e-07, 1.0616447809752572e-07, 1.1111747966197072e-07, 1.1607047412098837e-07, 1.2102347568543337e-07, 1.2597647014445101e-07, 1.3092946460346866e-07, 1.358824590624863e-07, 1.4083545352150395e-07, 1.457884479805216e-07, 1.5074144243953924e-07, 1.556944368985569e-07, 1.6064743135757453e-07]}, "gradients/lstm.weight_hh_l1": {"_type": "histogram", "values": [2.0, 0.0, 0.0, 1.0, 2.0, 4.0, 3.0, 5.0, 9.0, 9.0, 15.0, 21.0, 39.0, 50.0, 65.0, 86.0, 138.0, 189.0, 235.0, 363.0, 475.0, 600.0, 834.0, 1136.0, 1665.0, 2545.0, 3491.0, 5271.0, 7923.0, 12066.0, 18046.0, 29968.0, 83495.0, 713563.0, 82583.0, 29314.0, 17660.0, 11744.0, 7891.0, 5204.0, 3556.0, 2334.0, 1697.0, 1197.0, 817.0, 658.0, 415.0, 344.0, 243.0, 181.0, 147.0, 94.0, 59.0, 45.0, 32.0, 13.0, 12.0, 9.0, 6.0, 2.0, 1.0, 1.0, 2.0, 1.0], "bins": [-3.2620263823446294e-08, -3.164633710639464e-08, -3.0672410389342986e-08, -2.9698481895934492e-08, -2.8724555178882838e-08, -2.7750628461831184e-08, -2.677669996842269e-08, -2.5802773251371036e-08, -2.4828846534319382e-08, -2.3854919817267728e-08, -2.2880993100216074e-08, -2.190706460680758e-08, -2.0933137889755926e-08, -1.9959211172704272e-08, -1.898528267929578e-08, -1.8011355962244124e-08, -1.703742924519247e-08, -1.6063502528140816e-08, -1.5089575811089162e-08, -1.4115647317680668e-08, -1.3141720600629014e-08, -1.216779388357736e-08, -1.1193865390168867e-08, -1.0219938673117213e-08, -9.246011956065558e-09, -8.272085239013904e-09, -7.29815852196225e-09, -6.324230028553757e-09, -5.350303311502103e-09, -4.3763765944504485e-09, -3.402448101041955e-09, -2.428521383990301e-09, -1.4545928905818073e-09, -4.806661735301532e-10, 4.93260543521501e-10, 1.4671890369299945e-09, 2.4411157539816486e-09, 3.4150424710333027e-09, 4.388970964441796e-09, 5.36289768149345e-09, 6.3368243985451045e-09, 7.310751115596759e-09, 8.284677832648413e-09, 9.258606326056906e-09, 1.023253304310856e-08, 1.1206459760160215e-08, 1.2180388253568708e-08, 1.3154314970620362e-08, 1.4128241687672016e-08, 1.510216840472367e-08, 1.6076096898132164e-08, 1.7050023615183818e-08, 1.8023950332235472e-08, 1.8997877049287126e-08, 1.997180376633878e-08, 2.0945732259747274e-08, 2.1919658976798928e-08, 2.2893585693850582e-08, 2.3867514187259076e-08, 2.484144090431073e-08, 2.5815367621362384e-08, 2.6789294338414038e-08, 2.7763221055465692e-08, 2.8737149548874186e-08, 2.971107626592584e-08]}, "gradients/lstm.bias_ih_l1": {"_type": "histogram", "values": [1.0, 0.0, 0.0, 3.0, 3.0, 3.0, 7.0, 7.0, 8.0, 9.0, 7.0, 11.0, 13.0, 15.0, 15.0, 14.0, 10.0, 11.0, 17.0, 14.0, 9.0, 13.0, 12.0, 15.0, 6.0, 5.0, 7.0, 11.0, 19.0, 46.0, 138.0, 594.0, 322.0, 194.0, 107.0, 60.0, 42.0, 31.0, 23.0, 21.0, 11.0, 11.0, 13.0, 7.0, 13.0, 9.0, 15.0, 15.0, 14.0, 13.0, 14.0, 12.0, 11.0, 12.0, 7.0, 6.0, 5.0, 2.0, 5.0, 3.0, 2.0, 3.0, 1.0, 1.0], "bins": [-1.5634425665211893e-07, -1.5139126219310128e-07, -1.4643826773408364e-07, -1.41485273275066e-07, -1.3653227881604835e-07, -1.315792843570307e-07, -1.2662628989801306e-07, -1.216732812281407e-07, -1.1672029387455041e-07, -1.1176729941553276e-07, -1.0681430495651512e-07, -1.0186130339207011e-07, -9.690830893305247e-08, -9.195531447403482e-08, -8.700232001501718e-08, -8.204932555599953e-08, -7.709633109698188e-08, -7.214333663796424e-08, -6.71903421789466e-08, -6.223734771992895e-08, -5.72843532609113e-08, -5.23313516964663e-08, -4.7378357237448654e-08, -4.242536277843101e-08, -3.747236831941336e-08, -3.251936675496836e-08, -2.7566372295950714e-08, -2.261337783693307e-08, -1.7660383377915423e-08, -1.2707388918897777e-08, -7.754394459880132e-09, -2.801400000862486e-09, 2.151580247300444e-09, 7.10457470631809e-09, 1.2057569165335735e-08, 1.701056362435338e-08, 2.1963558083371026e-08, 2.6916552542388672e-08, 3.186954700140632e-08, 3.682254146042396e-08, 4.1775543024868966e-08, 4.672853748388661e-08, 5.168153194290426e-08, 5.66345264019219e-08, 6.15875279663669e-08, 6.654052242538455e-08, 7.14935168844022e-08, 7.644651134341984e-08, 8.139950580243749e-08, 8.635250026145513e-08, 9.130549472047278e-08, 9.625848917949043e-08, 1.0121148363850807e-07, 1.0616447809752572e-07, 1.1111747966197072e-07, 1.1607047412098837e-07, 1.2102347568543337e-07, 1.2597647014445101e-07, 1.3092946460346866e-07, 1.358824590624863e-07, 1.4083545352150395e-07, 1.457884479805216e-07, 1.5074144243953924e-07, 1.556944368985569e-07, 1.6064743135757453e-07]}, "gradients/lstm.weight_ih_l1": {"_type": "histogram", "values": [1.0, 0.0, 3.0, 3.0, 4.0, 4.0, 5.0, 4.0, 15.0, 21.0, 23.0, 29.0, 42.0, 62.0, 78.0, 115.0, 153.0, 188.0, 272.0, 364.0, 550.0, 701.0, 972.0, 1313.0, 1695.0, 2273.0, 3103.0, 4125.0, 6085.0, 9680.0, 17655.0, 44420.0, 720362.0, 161397.0, 30638.0, 14038.0, 8152.0, 5443.0, 3715.0, 2714.0, 2126.0, 1568.0, 1222.0, 878.0, 630.0, 456.0, 341.0, 261.0, 198.0, 129.0, 97.0, 74.0, 48.0, 41.0, 30.0, 15.0, 14.0, 12.0, 6.0, 7.0, 3.0, 2.0, 0.0, 1.0], "bins": [-1.2326509590820933e-07, -1.1951347289596015e-07, -1.1576184988371097e-07, -1.1201022687146178e-07, -1.082586038592126e-07, -1.0450698084696342e-07, -1.0075535783471423e-07, -9.700373482246505e-08, -9.325211181021587e-08, -8.950048879796668e-08, -8.57488657857175e-08, -8.199724277346832e-08, -7.824561265579177e-08, -7.449398964354259e-08, -7.074236663129341e-08, -6.699074361904422e-08, -6.323912060679504e-08, -5.948749759454586e-08, -5.5735874582296674e-08, -5.198425157004749e-08, -4.823262855779831e-08, -4.4481005545549124e-08, -4.072938253329994e-08, -3.697775952105076e-08, -3.3226129403374216e-08, -2.9474506391125033e-08, -2.572288337887585e-08, -2.1971260366626666e-08, -1.8219637354377483e-08, -1.44680143421283e-08, -1.0716391329879116e-08, -6.9647683176299324e-09, -3.2131524108081067e-09, 5.384706014410767e-10, 4.29009361369026e-09, 8.041716625939443e-09, 1.1793339638188627e-08, 1.554496265043781e-08, 1.9296585662686994e-08, 2.3048208674936177e-08, 2.679983168718536e-08, 3.05514618048619e-08, 3.4303084817111085e-08, 3.805470782936027e-08, 4.180633084160945e-08, 4.5557953853858635e-08, 4.930957686610782e-08, 5.3061199878357e-08, 5.6812822890606185e-08, 6.056444590285537e-08, 6.431606891510455e-08, 6.806769192735374e-08, 7.181931493960292e-08, 7.55709379518521e-08, 7.932256096410129e-08, 8.307418397635047e-08, 8.682580698859965e-08, 9.057743000084884e-08, 9.432905301309802e-08, 9.808068313077456e-08, 1.0183230614302374e-07, 1.0558392915527293e-07, 1.0933555216752211e-07, 1.1308717517977129e-07, 1.1683879819202048e-07]}, "gradients/lstm.bias_hh_l0": {"_type": "histogram", "values": [1.0, 0.0, 0.0, 0.0, 1.0, 0.0, 1.0, 0.0, 0.0, 1.0, 1.0, 1.0, 4.0, 2.0, 1.0, 1.0, 1.0, 1.0, 6.0, 3.0, 5.0, 4.0, 6.0, 17.0, 17.0, 25.0, 44.0, 70.0, 143.0, 246.0, 682.0, 361.0, 177.0, 80.0, 42.0, 22.0, 25.0, 8.0, 12.0, 5.0, 10.0, 2.0, 4.0, 2.0, 2.0, 1.0, 2.0, 2.0, 1.0, 1.0, 1.0, 1.0, 0.0, 0.0, 0.0, 0.0, 1.0, 1.0, 0.0, 0.0, 0.0, 0.0, 0.0, 1.0], "bins": [-3.6929259294993244e-07, -3.5717684454539267e-07, -3.450610961408529e-07, -3.329453193146037e-07, -3.208295709100639e-07, -3.0871382250552415e-07, -2.965980741009844e-07, -2.844823256964446e-07, -2.723665488701954e-07, -2.6025080046565563e-07, -2.4813505206111586e-07, -2.3601930365657608e-07, -2.239035552520363e-07, -2.1178779263664183e-07, -1.9967204423210205e-07, -1.8755628161670757e-07, -1.754405332121678e-07, -1.6332478480762802e-07, -1.5120902219223353e-07, -1.3909327378769376e-07, -1.2697751117229927e-07, -1.148617627677595e-07, -1.0274601436321973e-07, -9.063026595867996e-08, -7.851451755414018e-08, -6.639874072789098e-08, -5.428299232335121e-08, -4.216724391881144e-08, -3.0051495514271664e-08, -1.7935747109731892e-08, -5.819970283482689e-09, 6.295778121057083e-09, 1.8411498103887425e-08, 3.05272465084272e-08, 4.264299491296697e-08, 5.475877173921617e-08, 6.687452014375594e-08, 7.899026854829572e-08, 9.110601695283549e-08, 1.0322176535737526e-07, 1.1533754218362446e-07, 1.2745329058816424e-07, 1.39569038992704e-07, 1.5168478739724378e-07, 1.6380053580178355e-07, 1.7591629841717804e-07, 1.880320468217178e-07, 2.001478094371123e-07, 2.1226355784165207e-07, 2.2437930624619185e-07, 2.3649506886158633e-07, 2.486108314769808e-07, 2.607265798815206e-07, 2.7284232828606036e-07, 2.8495807669060014e-07, 2.970738250951399e-07, 3.091896019213891e-07, 3.213053503259289e-07, 3.3342109873046866e-07, 3.4553684713500843e-07, 3.576525955395482e-07, 3.697683723657974e-07, 3.818841207703372e-07, 3.9399986917487695e-07, 4.061156175794167e-07]}, "gradients/lstm.weight_hh_l0": {"_type": "histogram", "values": [1.0, 0.0, 0.0, 1.0, 0.0, 0.0, 2.0, 0.0, 2.0, 3.0, 3.0, 4.0, 2.0, 6.0, 12.0, 12.0, 13.0, 19.0, 28.0, 37.0, 40.0, 71.0, 93.0, 123.0, 149.0, 250.0, 295.0, 459.0, 673.0, 1059.0, 1799.0, 3558.0, 8774.0, 31322.0, 843043.0, 126202.0, 17535.0, 5948.0, 2741.0, 1420.0, 922.0, 567.0, 387.0, 273.0, 192.0, 133.0, 107.0, 82.0, 53.0, 46.0, 34.0, 20.0, 14.0, 12.0, 13.0, 6.0, 6.0, 2.0, 3.0, 0.0, 3.0, 1.0, 0.0, 1.0], "bins": [-2.5677448434180405e-07, -2.493968906946975e-07, -2.4201929704759095e-07, -2.346417034004844e-07, -2.2726410975337785e-07, -2.198865161062713e-07, -2.1250892245916475e-07, -2.051313288120582e-07, -1.9775373516495165e-07, -1.903761415178451e-07, -1.8299854787073855e-07, -1.75620954223632e-07, -1.6824336057652545e-07, -1.608657669294189e-07, -1.5348817328231235e-07, -1.461105796352058e-07, -1.3873298598809924e-07, -1.313553923409927e-07, -1.2397779869388614e-07, -1.1660020504677959e-07, -1.0922261139967304e-07, -1.0184501775256649e-07, -9.446742410545994e-08, -8.708983045835339e-08, -7.971223681124684e-08, -7.233464316414029e-08, -6.495704951703374e-08, -5.757945586992719e-08, -5.020186222282064e-08, -4.2824268575714086e-08, -3.5446674928607536e-08, -2.8069081281500985e-08, -2.069147342353972e-08, -1.3313879776433168e-08, -5.936286129326618e-09, 1.4413075177799328e-09, 8.818901164886483e-09, 1.6196494811993034e-08, 2.3574088459099585e-08, 3.0951682106206135e-08, 3.8329275753312686e-08, 4.5706869400419237e-08, 5.308446304752579e-08, 6.046205669463234e-08, 6.783965034173889e-08, 7.521724398884544e-08, 8.259483763595199e-08, 8.997243128305854e-08, 9.735002493016509e-08, 1.0472761857727164e-07, 1.1210521222437819e-07, 1.1948280587148474e-07, 1.268603995185913e-07, 1.3423799316569784e-07, 1.416155868128044e-07, 1.4899318045991095e-07, 1.563707741070175e-07, 1.6374836775412405e-07, 1.711259614012306e-07, 1.7850355504833715e-07, 1.858811486954437e-07, 1.9325874234255025e-07, 2.006363359896568e-07, 2.0801392963676335e-07, 2.153915232838699e-07]}, "gradients/lstm.bias_ih_l0": {"_type": "histogram", "values": [1.0, 0.0, 0.0, 0.0, 1.0, 0.0, 1.0, 0.0, 0.0, 1.0, 1.0, 1.0, 4.0, 2.0, 1.0, 1.0, 1.0, 1.0, 6.0, 3.0, 5.0, 4.0, 6.0, 17.0, 17.0, 25.0, 44.0, 70.0, 143.0, 246.0, 682.0, 361.0, 177.0, 80.0, 42.0, 22.0, 25.0, 8.0, 12.0, 5.0, 10.0, 2.0, 4.0, 2.0, 2.0, 1.0, 2.0, 2.0, 1.0, 1.0, 1.0, 1.0, 0.0, 0.0, 0.0, 0.0, 1.0, 1.0, 0.0, 0.0, 0.0, 0.0, 0.0, 1.0], "bins": [-3.69292564528223e-07, -3.5717681612368324e-07, -3.4506106771914347e-07, -3.329453193146037e-07, -3.208295424883545e-07, -3.087137940838147e-07, -2.9659804567927495e-07, -2.844822972747352e-07, -2.723665488701954e-07, -2.602507720439462e-07, -2.4813505206111586e-07, -2.3601928944572137e-07, -2.2390352683032688e-07, -2.117877784257871e-07, -1.9967203002124734e-07, -1.8755626740585285e-07, -1.7544051900131308e-07, -1.633247705967733e-07, -1.5120900798137882e-07, -1.3909325957683905e-07, -1.2697751117229927e-07, -1.148617627677595e-07, -1.0274601436321973e-07, -9.063023753697053e-08, -7.851448913243075e-08, -6.639874072789098e-08, -5.428299232335121e-08, -4.216724391881144e-08, -3.0051495514271664e-08, -1.7935718688022462e-08, -5.819970283482689e-09, 6.295778121057083e-09, 1.8411526525596855e-08, 3.052727493013663e-08, 4.26430233346764e-08, 5.475877173921617e-08, 6.687454856546537e-08, 7.899029697000515e-08, 9.110604537454492e-08, 1.0322179377908469e-07, 1.1533754218362446e-07, 1.2745329058816424e-07, 1.3956906741441344e-07, 1.516848158189532e-07, 1.6380056422349298e-07, 1.7591631262803276e-07, 1.8803206103257253e-07, 2.0014782364796702e-07, 2.122635720525068e-07, 2.2437932045704656e-07, 2.3649508307244105e-07, 2.486108314769808e-07, 2.607265798815206e-07, 2.7284232828606036e-07, 2.8495810511230957e-07, 2.970738250951399e-07, 3.091896019213891e-07, 3.213053503259289e-07, 3.3342109873046866e-07, 3.4553684713500843e-07, 3.576525955395482e-07, 3.697683723657974e-07, 3.818841207703372e-07, 3.9399986917487695e-07, 4.061156175794167e-07]}, "gradients/lstm.weight_ih_l0": {"_type": "histogram", "values": [1.0, 0.0, 1.0, 1.0, 0.0, 1.0, 2.0, 1.0, 3.0, 6.0, 3.0, 1.0, 7.0, 14.0, 14.0, 24.0, 18.0, 28.0, 40.0, 53.0, 77.0, 114.0, 132.0, 199.0, 286.0, 442.0, 725.0, 1301.0, 2701.0, 7212.0, 31199.0, 181262.0, 24476.0, 6043.0, 2480.0, 1200.0, 701.0, 419.0, 246.0, 189.0, 143.0, 95.0, 74.0, 44.0, 34.0, 35.0, 29.0, 18.0, 12.0, 7.0, 12.0, 4.0, 5.0, 2.0, 2.0, 3.0, 1.0, 1.0, 0.0, 0.0, 0.0, 0.0, 0.0, 1.0], "bins": [-7.67644337429374e-07, -7.43221903576341e-07, -7.187994128798891e-07, -6.943769790268561e-07, -6.699544883304043e-07, -6.455320544773713e-07, -6.211095637809194e-07, -5.966871299278864e-07, -5.722646392314346e-07, -5.478422053784016e-07, -5.234197715253686e-07, -4.989972808289167e-07, -4.7457481855417427e-07, -4.5015235627943184e-07, -4.257298940046894e-07, -4.01307431729947e-07, -3.7688496945520455e-07, -3.524625071804621e-07, -3.280400449057197e-07, -3.0361758263097727e-07, -2.7919514877794427e-07, -2.547726580814924e-07, -2.303502242284594e-07, -2.0592773353200755e-07, -1.8150529967897455e-07, -1.570828089825227e-07, -1.326603751294897e-07, -1.0823788443303783e-07, -8.381545058000484e-08, -5.9392959883552976e-08, -3.497052603051998e-08, -1.0548035334068118e-08, 1.3874398518964881e-08, 3.829683237199788e-08, 6.271932306844974e-08, 8.714175692148274e-08, 1.115642476179346e-07, 1.359866814709676e-07, 1.6040917216741946e-07, 1.8483160602045245e-07, 2.0925409671690431e-07, 2.336765305699373e-07, 2.5809902126638917e-07, 2.8252145511942217e-07, 3.0694394581587403e-07, 3.3136637966890703e-07, 3.5578884194364946e-07, 3.802113042183919e-07, 4.046337664931343e-07, 4.2905622876787675e-07, 4.534786910426192e-07, 4.779011533173616e-07, 5.023235871703946e-07, 5.267460778668465e-07, 5.511685685632983e-07, 5.755910024163313e-07, 6.000134362693643e-07, 6.244359269658162e-07, 6.488583608188492e-07, 6.73280851515301e-07, 6.97703285368334e-07, 7.221257760647859e-07, 7.465482099178189e-07, 7.709707006142708e-07, 7.953931344673038e-07]}, "gradients/encoder.fc.bias": {"_type": "histogram", "values": [3.0, 0.0, 0.0, 2.0, 1.0, 1.0, 0.0, 0.0, 0.0, 2.0, 1.0, 0.0, 6.0, 3.0, 2.0, 1.0, 3.0, 2.0, 1.0, 2.0, 2.0, 2.0, 5.0, 2.0, 4.0, 4.0, 1.0, 3.0, 1.0, 2.0, 4.0, 6.0, 5.0, 4.0, 3.0, 4.0, 1.0, 4.0, 2.0, 0.0, 4.0, 1.0, 6.0, 2.0, 5.0, 0.0, 2.0, 2.0, 1.0, 1.0, 1.0, 1.0, 1.0, 1.0, 1.0, 1.0, 0.0, 2.0, 1.0, 3.0, 0.0, 1.0, 1.0, 1.0], "bins": [-8.180626309695072e-07, -7.923549674160313e-07, -7.666473607059743e-07, -7.409396971524984e-07, -7.152320904424414e-07, -6.895244268889655e-07, -6.638168201789085e-07, -6.381091566254327e-07, -6.124015499153757e-07, -5.866938863618998e-07, -5.609862228084239e-07, -5.352786160983669e-07, -5.095710093883099e-07, -4.83863345834834e-07, -4.581557107030676e-07, -4.3244807557130116e-07, -4.067404404395347e-07, -3.810328053077683e-07, -3.5532517017600185e-07, -3.296175350442354e-07, -3.0390987149075954e-07, -2.7820226478070254e-07, -2.5249460122722667e-07, -2.2678699451716966e-07, -2.010793309636938e-07, -1.7537172425363678e-07, -1.4966406070016092e-07, -1.239564539901039e-07, -9.824879043662804e-08, -7.254118372657103e-08, -4.6833520173095167e-08, -2.112591346303816e-08, 4.5817500904377084e-09, 3.0289413643913576e-08, 5.5997020353970584e-08, 8.170468390744645e-08, 1.0741229061750346e-07, 1.3311995417097933e-07, 1.5882756088103633e-07, 1.845352244345122e-07, 2.102428311445692e-07, 2.3595049469804508e-07, 2.616581014081021e-07, 2.8736576496157795e-07, 3.1307337167163496e-07, 3.3878103522511083e-07, 3.6448867035687726e-07, 3.901963054886437e-07, 4.1590394062041014e-07, 4.416115757521766e-07, 4.67319210883943e-07, 4.930268460157095e-07, 5.187345095691853e-07, 5.444421162792423e-07, 5.701497229892993e-07, 5.958573865427752e-07, 6.215650500962511e-07, 6.472726568063081e-07, 6.729803203597839e-07, 6.98687927069841e-07, 7.243955906233168e-07, 7.501031973333738e-07, 7.758108608868497e-07, 8.015184675969067e-07, 8.272261311503826e-07]}, "gradients/encoder.fc.weight": {"_type": "histogram", "values": [3.0, 0.0, 0.0, 2.0, 1.0, 1.0, 0.0, 0.0, 0.0, 3.0, 3.0, 3.0, 8.0, 7.0, 9.0, 2.0, 12.0, 11.0, 14.0, 21.0, 14.0, 44.0, 43.0, 83.0, 107.0, 113.0, 215.0, 286.0, 309.0, 534.0, 912.0, 22493.0, 1380.0, 672.0, 422.0, 265.0, 186.0, 159.0, 139.0, 95.0, 61.0, 31.0, 27.0, 15.0, 18.0, 13.0, 13.0, 10.0, 6.0, 10.0, 3.0, 5.0, 3.0, 2.0, 2.0, 1.0, 0.0, 2.0, 1.0, 3.0, 0.0, 1.0, 1.0, 1.0], "bins": [-4.46320927949273e-06, -4.3229260882071685e-06, -4.182642442174256e-06, -4.042359250888694e-06, -3.902076059603132e-06, -3.761792640943895e-06, -3.621509222284658e-06, -3.481226030999096e-06, -3.340942612339859e-06, -3.2006591936806217e-06, -3.06037600239506e-06, -2.9200925837358227e-06, -2.7798091650765855e-06, -2.6395259737910237e-06, -2.4992425551317865e-06, -2.3589593638462247e-06, -2.2186759451869875e-06, -2.0783925265277503e-06, -1.9381093352421885e-06, -1.7978259165829513e-06, -1.6575427252973896e-06, -1.5172593066381523e-06, -1.3769758879789151e-06, -1.2366926966933534e-06, -1.0964092780341161e-06, -9.56125859374879e-07, -8.158426680893172e-07, -6.755592494300799e-07, -5.352758307708427e-07, -3.9499263948528096e-07, -2.547094481997192e-07, -1.1442580216680653e-07, 2.5857843866106123e-08, 1.661410351516679e-07, 3.0642468118458055e-07, 4.467078724701423e-07, 5.869910637557041e-07, 7.272744824149413e-07, 8.675579010741785e-07, 1.0078410923597403e-06, 1.1481245110189775e-06, 1.2884079296782147e-06, 1.4286911209637765e-06, 1.5689745396230137e-06, 1.709257958282251e-06, 1.8495411495678127e-06, 1.98982456822705e-06, 2.1301077595126117e-06, 2.270391178171849e-06, 2.410674596831086e-06, 2.550957788116648e-06, 2.691241206775885e-06, 2.831524398061447e-06, 2.971807816720684e-06, 3.1120912353799213e-06, 3.252374426665483e-06, 3.3926578453247203e-06, 3.5329412639839575e-06, 3.6732244552695192e-06, 3.8135078739287565e-06, 3.953791292587994e-06, 4.0940744838735554e-06, 4.234357675159117e-06, 4.37464132119203e-06, 4.514924512477592e-06]}, "gradients/encoder.conv3.bn.weight": {"_type": "histogram", "values": [0.0, 0.0, 0.0, 0.0, 0.0, 0.0, 0.0, 0.0, 0.0, 0.0, 0.0, 0.0, 0.0, 0.0, 0.0, 0.0, 0.0, 0.0, 0.0, 0.0, 0.0, 0.0, 0.0, 0.0, 0.0, 0.0, 0.0, 0.0, 0.0, 0.0, 0.0, 0.0, 1.0, 0.0, 0.0, 0.0, 0.0, 0.0, 0.0, 0.0, 0.0, 0.0, 0.0, 0.0, 0.0, 0.0, 0.0, 0.0, 0.0, 0.0, 0.0, 0.0, 0.0, 0.0, 0.0, 0.0, 0.0, 0.0, 0.0, 0.0, 0.0, 0.0, 0.0, 0.0], "bins": [-1.3924294762546197e-05, -1.3924294762546197e-05, -1.3924294762546197e-05, -1.3924294762546197e-05, -1.3924294762546197e-05, -1.3924294762546197e-05, -1.3924294762546197e-05, -1.3924294762546197e-05, -1.3924294762546197e-05, -1.3924294762546197e-05, -1.3924294762546197e-05, -1.3924294762546197e-05, -1.3924294762546197e-05, -1.3924294762546197e-05, -1.3924294762546197e-05, -1.3924294762546197e-05, -1.3924294762546197e-05, -1.3924294762546197e-05, -1.3924294762546197e-05, -1.3924294762546197e-05, -1.3924294762546197e-05, -1.3924294762546197e-05, -1.3924294762546197e-05, -1.3924294762546197e-05, -1.3924294762546197e-05, -1.3924294762546197e-05, -1.3924294762546197e-05, -1.3924294762546197e-05, -1.3924294762546197e-05, -1.3924294762546197e-05, -1.3924294762546197e-05, -1.3924294762546197e-05, -1.3924294762546197e-05, -1.3924294762546197e-05, -1.3924294762546197e-05, -1.3924294762546197e-05, -1.3924294762546197e-05, -1.3924294762546197e-05, -1.3924294762546197e-05, -1.3924294762546197e-05, -1.3924294762546197e-05, -1.3924294762546197e-05, -1.3924294762546197e-05, -1.3924294762546197e-05, -1.3924294762546197e-05, -1.3924294762546197e-05, -1.3924294762546197e-05, -1.3924294762546197e-05, -1.3924294762546197e-05, -1.3924294762546197e-05, -1.3924294762546197e-05, -1.3924294762546197e-05, -1.3924294762546197e-05, -1.3924294762546197e-05, -1.3924294762546197e-05, -1.3924294762546197e-05, -1.3924294762546197e-05, -1.3924294762546197e-05, -1.3924294762546197e-05, -1.3924294762546197e-05, -1.3924294762546197e-05, -1.3924294762546197e-05, -1.3924294762546197e-05, -1.3924294762546197e-05, -1.3924294762546197e-05]}, "gradients/encoder.conv3.bn.bias": {"_type": "histogram", "values": [0.0, 0.0, 0.0, 0.0, 0.0, 0.0, 0.0, 0.0, 0.0, 0.0, 0.0, 0.0, 0.0, 0.0, 0.0, 0.0, 0.0, 0.0, 0.0, 0.0, 0.0, 0.0, 0.0, 0.0, 0.0, 0.0, 0.0, 0.0, 0.0, 0.0, 0.0, 0.0, 1.0, 0.0, 0.0, 0.0, 0.0, 0.0, 0.0, 0.0, 0.0, 0.0, 0.0, 0.0, 0.0, 0.0, 0.0, 0.0, 0.0, 0.0, 0.0, 0.0, 0.0, 0.0, 0.0, 0.0, 0.0, 0.0, 0.0, 0.0, 0.0, 0.0, 0.0, 0.0], "bins": [1.0873783139686566e-05, 1.0873783139686566e-05, 1.0873783139686566e-05, 1.0873783139686566e-05, 1.0873783139686566e-05, 1.0873783139686566e-05, 1.0873783139686566e-05, 1.0873783139686566e-05, 1.0873783139686566e-05, 1.0873783139686566e-05, 1.0873783139686566e-05, 1.0873783139686566e-05, 1.0873783139686566e-05, 1.0873783139686566e-05, 1.0873783139686566e-05, 1.0873783139686566e-05, 1.0873783139686566e-05, 1.0873783139686566e-05, 1.0873783139686566e-05, 1.0873783139686566e-05, 1.0873783139686566e-05, 1.0873783139686566e-05, 1.0873783139686566e-05, 1.0873783139686566e-05, 1.0873783139686566e-05, 1.0873783139686566e-05, 1.0873783139686566e-05, 1.0873783139686566e-05, 1.0873783139686566e-05, 1.0873783139686566e-05, 1.0873783139686566e-05, 1.0873783139686566e-05, 1.0873783139686566e-05, 1.0873783139686566e-05, 1.0873783139686566e-05, 1.0873783139686566e-05, 1.0873783139686566e-05, 1.0873783139686566e-05, 1.0873783139686566e-05, 1.0873783139686566e-05, 1.0873783139686566e-05, 1.0873783139686566e-05, 1.0873783139686566e-05, 1.0873783139686566e-05, 1.0873783139686566e-05, 1.0873783139686566e-05, 1.0873783139686566e-05, 1.0873783139686566e-05, 1.0873783139686566e-05, 1.0873783139686566e-05, 1.0873783139686566e-05, 1.0873783139686566e-05, 1.0873783139686566e-05, 1.0873783139686566e-05, 1.0873783139686566e-05, 1.0873783139686566e-05, 1.0873783139686566e-05, 1.0873783139686566e-05, 1.0873783139686566e-05, 1.0873783139686566e-05, 1.0873783139686566e-05, 1.0873783139686566e-05, 1.0873783139686566e-05, 1.0873783139686566e-05, 1.0873783139686566e-05]}, "gradients/encoder.conv3.conv.weight": {"_type": "histogram", "values": [1.0, 1.0, 0.0, 2.0, 1.0, 1.0, 2.0, 1.0, 2.0, 3.0, 0.0, 3.0, 1.0, 4.0, 4.0, 1.0, 4.0, 3.0, 2.0, 4.0, 2.0, 3.0, 0.0, 1.0, 0.0, 1.0, 1.0, 1.0, 1.0, 0.0, 0.0, 2.0, 2.0, 0.0, 1.0, 1.0, 0.0, 0.0, 1.0, 1.0, 0.0, 0.0, 0.0, 0.0, 0.0, 1.0, 0.0, 0.0, 0.0, 0.0, 2.0, 0.0, 0.0, 0.0, 0.0, 0.0, 0.0, 2.0, 0.0, 0.0, 0.0, 0.0, 0.0, 1.0], "bins": [-3.320964242448099e-05, -3.143179492326453e-05, -2.9653951060026884e-05, -2.7876103558810428e-05, -2.6098257876583375e-05, -2.4320412194356322e-05, -2.2542564693139866e-05, -2.0764719010912813e-05, -1.898687332868576e-05, -1.7209027646458708e-05, -1.5431181964231655e-05, -1.3653334463015199e-05, -1.1875488780788146e-05, -1.0097643098561093e-05, -8.319795597344637e-06, -6.541949915117584e-06, -4.764104232890531e-06, -2.9862585506634787e-06, -1.208412868436426e-06, 5.694346327800304e-07, 2.3472784960176796e-06, 4.125125997234136e-06, 5.902973498450592e-06, 7.680817361688241e-06, 9.458664862904698e-06, 1.1236512364121154e-05, 1.3014356227358803e-05, 1.479220372857526e-05, 1.6570051229791716e-05, 1.8347895093029365e-05, 2.012574259424582e-05, 2.190358645748347e-05, 2.3681437596678734e-05, 2.545928509789519e-05, 2.723712896113284e-05, 2.9014976462349296e-05, 3.0792820325586945e-05, 3.25706678268034e-05, 3.434851532801986e-05, 3.6126359191257507e-05, 3.790420669247396e-05, 3.968205419369042e-05, 4.145989805692807e-05, 4.3237745558144525e-05, 4.501559305936098e-05, 4.679343692259863e-05, 4.8571284423815086e-05, 5.034913192503154e-05, 5.212697578826919e-05, 5.390481965150684e-05, 5.56826671527233e-05, 5.7460514653939754e-05, 5.92383585171774e-05, 6.101620601839386e-05, 6.279405351961032e-05, 6.457189738284796e-05, 6.634974852204323e-05, 6.812759238528088e-05, 6.990543624851853e-05, 7.168328738771379e-05, 7.346113125095144e-05, 7.523897511418909e-05, 7.701681897742674e-05, 7.8794670116622e-05, 8.057251397985965e-05]}, "gradients/encoder.conv3.conv.bias": {"_type": "histogram", "values": [0.0, 0.0, 0.0, 0.0, 0.0, 0.0, 0.0, 0.0, 0.0, 0.0, 0.0, 0.0, 0.0, 0.0, 0.0, 0.0, 0.0, 0.0, 0.0, 0.0, 0.0, 0.0, 0.0, 0.0, 0.0, 0.0, 0.0, 0.0, 0.0, 0.0, 0.0, 0.0, 1.0, 0.0, 0.0, 0.0, 0.0, 0.0, 0.0, 0.0, 0.0, 0.0, 0.0, 0.0, 0.0, 0.0, 0.0, 0.0, 0.0, 0.0, 0.0, 0.0, 0.0, 0.0, 0.0, 0.0, 0.0, 0.0, 0.0, 0.0, 0.0, 0.0, 0.0, 0.0], "bins": [-2.1387336346379016e-12, -2.1387336346379016e-12, -2.1387336346379016e-12, -2.1387336346379016e-12, -2.1387336346379016e-12, -2.1387336346379016e-12, -2.1387336346379016e-12, -2.1387336346379016e-12, -2.1387336346379016e-12, -2.1387336346379016e-12, -2.1387336346379016e-12, -2.1387336346379016e-12, -2.1387336346379016e-12, -2.1387336346379016e-12, -2.1387336346379016e-12, -2.1387336346379016e-12, -2.1387336346379016e-12, -2.1387336346379016e-12, -2.1387336346379016e-12, -2.1387336346379016e-12, -2.1387336346379016e-12, -2.1387336346379016e-12, -2.1387336346379016e-12, -2.1387336346379016e-12, -2.1387336346379016e-12, -2.1387336346379016e-12, -2.1387336346379016e-12, -2.1387336346379016e-12, -2.1387336346379016e-12, -2.1387336346379016e-12, -2.1387336346379016e-12, -2.1387336346379016e-12, -2.1387336346379016e-12, -2.1387336346379016e-12, -2.1387336346379016e-12, -2.1387336346379016e-12, -2.1387336346379016e-12, -2.1387336346379016e-12, -2.1387336346379016e-12, -2.1387336346379016e-12, -2.1387336346379016e-12, -2.1387336346379016e-12, -2.1387336346379016e-12, -2.1387336346379016e-12, -2.1387336346379016e-12, -2.1387336346379016e-12, -2.1387336346379016e-12, -2.1387336346379016e-12, -2.1387336346379016e-12, -2.1387336346379016e-12, -2.1387336346379016e-12, -2.1387336346379016e-12, -2.1387336346379016e-12, -2.1387336346379016e-12, -2.1387336346379016e-12, -2.1387336346379016e-12, -2.1387336346379016e-12, -2.1387336346379016e-12, -2.1387336346379016e-12, -2.1387336346379016e-12, -2.1387336346379016e-12, -2.1387336346379016e-12, -2.1387336346379016e-12, -2.1387336346379016e-12, -2.1387336346379016e-12]}, "gradients/encoder.conv2.bn.weight": {"_type": "histogram", "values": [1.0, 0.0, 0.0, 0.0, 0.0, 0.0, 0.0, 0.0, 0.0, 0.0, 0.0, 0.0, 0.0, 0.0, 0.0, 0.0, 0.0, 0.0, 0.0, 0.0, 0.0, 0.0, 0.0, 0.0, 0.0, 0.0, 1.0, 1.0, 1.0, 1.0, 0.0, 1.0, 0.0, 1.0, 0.0, 0.0, 0.0, 0.0, 1.0, 0.0, 1.0, 2.0, 1.0, 0.0, 0.0, 0.0, 0.0, 0.0, 1.0, 0.0, 0.0, 0.0, 2.0, 0.0, 0.0, 0.0, 0.0, 0.0, 0.0, 0.0, 0.0, 0.0, 0.0, 1.0], "bins": [-1.0897652828134596e-05, -1.0604576345940586e-05, -1.0311498954251874e-05, -1.0018422472057864e-05, -9.725345989863854e-06, -9.432269507669844e-06, -9.139192115981132e-06, -8.846115633787122e-06, -8.553039151593111e-06, -8.2599617599044e-06, -7.96688527771039e-06, -7.67380879551638e-06, -7.380731403827667e-06, -7.087654921633657e-06, -6.794577984692296e-06, -6.501501502498286e-06, -6.208424565556925e-06, -5.915347628615564e-06, -5.6222711464215536e-06, -5.3291942094801925e-06, -5.036117727286182e-06, -4.743040790344821e-06, -4.44996385340346e-06, -4.15688737120945e-06, -3.863810434268089e-06, -3.570733497326728e-06, -3.2776570151327178e-06, -2.9845805329387076e-06, -2.6915031412499957e-06, -2.3984266590559855e-06, -2.1053501768619753e-06, -1.8122727851732634e-06, -1.519197212473955e-06, -1.2261207302799448e-06, -9.330433385912329e-07, -6.399668563972227e-07, -3.4689037420321256e-07, -5.381298251450062e-08, 2.3926349967950955e-07, 5.323399818735197e-07, 8.254169188148808e-07, 1.1184938557562418e-06, 1.411570337950252e-06, 1.704647274891613e-06, 1.997724211832974e-06, 2.2908006940269843e-06, 2.5838776309683453e-06, 2.8769541131623555e-06, 3.1700310501037166e-06, 3.4631079870450776e-06, 3.7561844692390878e-06, 4.049261406180449e-06, 4.342337888374459e-06, 4.63541482531582e-06, 4.928491762257181e-06, 5.221568244451191e-06, 5.514645181392552e-06, 5.807722118333913e-06, 6.1007986005279236e-06, 6.393875537469285e-06, 6.686952474410646e-06, 6.980028956604656e-06, 7.273105893546017e-06, 7.566182375740027e-06, 7.859259312681388e-06]}, "gradients/encoder.conv2.bn.bias": {"_type": "histogram", "values": [1.0, 0.0, 0.0, 0.0, 0.0, 0.0, 0.0, 1.0, 1.0, 0.0, 0.0, 0.0, 0.0, 0.0, 1.0, 0.0, 1.0, 0.0, 0.0, 0.0, 0.0, 1.0, 0.0, 0.0, 0.0, 1.0, 0.0, 0.0, 0.0, 0.0, 0.0, 0.0, 1.0, 0.0, 2.0, 0.0, 0.0, 0.0, 1.0, 0.0, 1.0, 1.0, 0.0, 0.0, 0.0, 1.0, 0.0, 0.0, 0.0, 0.0, 0.0, 0.0, 0.0, 0.0, 0.0, 0.0, 1.0, 0.0, 0.0, 0.0, 0.0, 0.0, 0.0, 1.0], "bins": [-3.890642801707145e-06, -3.734307711056317e-06, -3.5779726204054896e-06, -3.4216377571283374e-06, -3.2653026664775098e-06, -3.108967575826682e-06, -2.95263271254953e-06, -2.7962976218987023e-06, -2.6399625312478747e-06, -2.483627440597047e-06, -2.3272923499462195e-06, -2.1709574866690673e-06, -2.0146223960182397e-06, -1.858287305367412e-06, -1.7019524420902599e-06, -1.5456173514394322e-06, -1.3892822607886046e-06, -1.232947170137777e-06, -1.0766120794869494e-06, -9.202772162097972e-07, -7.639421255589696e-07, -6.076070349081419e-07, -4.5127217163098976e-07, -2.9493708098016214e-07, -1.386019903293345e-07, 1.7732872947817668e-08, 1.7406819097232074e-07, 3.304030542494729e-07, 4.867379175266251e-07, 6.430732355511282e-07, 7.994080988282803e-07, 9.557434168527834e-07, 1.1120787348772865e-06, 1.2684135981544387e-06, 1.4247489161789417e-06, 1.581083779456094e-06, 1.737419097480597e-06, 1.8937539607577492e-06, 2.0500888240349013e-06, 2.2064241420594044e-06, 2.3627590053365566e-06, 2.519094095987384e-06, 2.675429186638212e-06, 2.831764049915364e-06, 2.9880991405661916e-06, 3.1444342312170193e-06, 3.3007690944941714e-06, 3.457104185144999e-06, 3.6134392757958267e-06, 3.7697743664466543e-06, 3.926109457097482e-06, 4.082444320374634e-06, 4.238779183651786e-06, 4.395114501676289e-06, 4.5514493649534415e-06, 4.707784682977945e-06, 4.864119546255097e-06, 5.020454409532249e-06, 5.176789727556752e-06, 5.333124590833904e-06, 5.489459908858407e-06, 5.6457947721355595e-06, 5.802129635412712e-06, 5.958464953437215e-06, 6.114799816714367e-06]}, "gradients/encoder.conv2.conv.weight": {"_type": "histogram", "values": [1.0, 0.0, 0.0, 0.0, 0.0, 1.0, 0.0, 0.0, 0.0, 0.0, 3.0, 4.0, 4.0, 8.0, 15.0, 20.0, 22.0, 49.0, 66.0, 110.0, 146.0, 352.0, 659.0, 254.0, 83.0, 53.0, 47.0, 33.0, 24.0, 13.0, 6.0, 17.0, 6.0, 3.0, 7.0, 6.0, 6.0, 4.0, 1.0, 2.0, 3.0, 2.0, 0.0, 3.0, 1.0, 1.0, 1.0, 1.0, 2.0, 1.0, 1.0, 0.0, 1.0, 0.0, 1.0, 0.0, 0.0, 0.0, 2.0, 0.0, 1.0, 1.0, 0.0, 1.0], "bins": [-2.2120464564068243e-05, -2.113397204084322e-05, -2.014747769862879e-05, -1.9160985175403766e-05, -1.8174492652178742e-05, -1.7187998309964314e-05, -1.620150578673929e-05, -1.5215013263514265e-05, -1.422851983079454e-05, -1.3242026398074813e-05, -1.2255533874849789e-05, -1.1269040442130063e-05, -1.0282547009410337e-05, -9.296054486185312e-06, -8.309561053465586e-06, -7.323068530240562e-06, -6.336575097520836e-06, -5.350082574295811e-06, -4.3635882320813835e-06, -3.377095708856359e-06, -2.3906031856313348e-06, -1.4041088434169069e-06, -4.1761632019188255e-07, 5.688762030331418e-07, 1.5553705452475697e-06, 2.541863068472594e-06, 3.5283555916976184e-06, 4.514848114922643e-06, 5.501342457137071e-06, 6.487834980362095e-06, 7.474327503587119e-06, 8.460821845801547e-06, 9.447314369026572e-06, 1.0433806892251596e-05, 1.1420301234466024e-05, 1.2406793757691048e-05, 1.3393286280916072e-05, 1.43797806231305e-05, 1.5366273146355525e-05, 1.635276566958055e-05, 1.7339258192805573e-05, 1.832575253502e-05, 1.9312245058245026e-05, 2.029873758147005e-05, 2.1285231923684478e-05, 2.2271724446909502e-05, 2.3258216970134526e-05, 2.4244711312348954e-05, 2.523120383557398e-05, 2.6217698177788407e-05, 2.720419070101343e-05, 2.8190683224238455e-05, 2.917717574746348e-05, 3.0163668270688504e-05, 3.1150164431892335e-05, 3.213665331713855e-05, 3.3123149478342384e-05, 3.410964200156741e-05, 3.509613452479243e-05, 3.608262704801746e-05, 3.706911957124248e-05, 3.805561573244631e-05, 3.904210825567134e-05, 4.002860077889636e-05, 4.1015093302121386e-05]}, "gradients/encoder.conv2.conv.bias": {"_type": "histogram", "values": [1.0, 0.0, 0.0, 0.0, 0.0, 0.0, 0.0, 0.0, 0.0, 0.0, 0.0, 0.0, 0.0, 0.0, 0.0, 0.0, 0.0, 0.0, 0.0, 0.0, 0.0, 1.0, 0.0, 0.0, 0.0, 1.0, 0.0, 0.0, 0.0, 1.0, 1.0, 0.0, 0.0, 0.0, 0.0, 0.0, 0.0, 2.0, 0.0, 1.0, 2.0, 0.0, 1.0, 0.0, 0.0, 0.0, 1.0, 0.0, 0.0, 0.0, 0.0, 1.0, 0.0, 0.0, 0.0, 0.0, 0.0, 1.0, 0.0, 0.0, 0.0, 1.0, 0.0, 1.0], "bins": [-1.1617373729677638e-12, -1.133371174688591e-12, -1.1050049764094183e-12, -1.0766387781302456e-12, -1.0482725798510728e-12, -1.0199063815719e-12, -9.915401832927273e-13, -9.631739850135546e-13, -9.348077867343818e-13, -9.064415884552091e-13, -8.780753901760363e-13, -8.497091918968636e-13, -8.213429936176908e-13, -7.929767953385181e-13, -7.646105970593453e-13, -7.362443987801726e-13, -7.078782005009998e-13, -6.795120022218271e-13, -6.511458039426543e-13, -6.227796056634816e-13, -5.944134073843088e-13, -5.660472091051361e-13, -5.376810108259633e-13, -5.093148125467906e-13, -4.809486142676178e-13, -4.5258241598844506e-13, -4.242162177092723e-13, -3.9585001943009956e-13, -3.674838211509268e-13, -3.3911762287175407e-13, -3.107514245925813e-13, -2.8238522631340857e-13, -2.540190280342358e-13, -2.2565282975506307e-13, -1.9728663147589032e-13, -1.6892043319671757e-13, -1.4055423491754482e-13, -1.1218803663837207e-13, -8.382183835919932e-14, -5.545564008002657e-14, -2.708944180085382e-14, 1.27675647831893e-15, 2.964295475749168e-14, 5.800915303666443e-14, 8.637535131583718e-14, 1.1474154959500993e-13, 1.4310774787418268e-13, 1.7147394615335543e-13, 1.9984014443252818e-13, 2.2820634271170093e-13, 2.565725409908737e-13, 2.8493873927004643e-13, 3.133049375492192e-13, 3.4167113582839193e-13, 3.700373341075647e-13, 3.984035323867374e-13, 4.2676973066591017e-13, 4.551359289450829e-13, 4.835021272242557e-13, 5.118683255034284e-13, 5.402345237826012e-13, 5.686007220617739e-13, 5.969669203409467e-13, 6.253331186201194e-13, 6.536993168992922e-13]}, "gradients/encoder.conv1.bn.weight": {"_type": "histogram", "values": [1.0, 0.0, 2.0, 1.0, 0.0, 1.0, 2.0, 3.0, 0.0, 2.0, 0.0, 1.0, 1.0, 0.0, 1.0, 2.0, 1.0, 0.0, 2.0, 0.0, 0.0, 1.0, 0.0, 0.0, 0.0, 0.0, 1.0, 0.0, 1.0, 1.0, 1.0, 1.0, 2.0, 0.0, 0.0, 0.0, 0.0, 0.0, 1.0, 0.0, 0.0, 0.0, 0.0, 0.0, 0.0, 0.0, 0.0, 0.0, 1.0, 0.0, 0.0, 1.0, 0.0, 0.0, 0.0, 0.0, 0.0, 0.0, 0.0, 0.0, 0.0, 0.0, 0.0, 1.0], "bins": [-2.340069613637752e-06, -2.217331712017767e-06, -2.094593583024107e-06, -1.971855681404122e-06, -1.8491177797841374e-06, -1.7263798781641526e-06, -1.6036418628573301e-06, -1.4809038475505076e-06, -1.3581659459305229e-06, -1.235428044310538e-06, -1.1126900290037156e-06, -9.899520136968931e-07, -8.672141120769083e-07, -7.444762104569236e-07, -6.217381951501011e-07, -4.990001798432786e-07, -3.7626227822329383e-07, -2.5352437660330907e-07, -1.307864749833243e-07, -8.048345989664085e-09, 1.1468955563032068e-07, 2.3742745725030545e-07, 3.6016558624396566e-07, 4.829034878639504e-07, 6.056413894839352e-07, 7.2837929110392e-07, 8.511171927239047e-07, 9.73855321717565e-07, 1.0965932233375497e-06, 1.2193311249575345e-06, 1.3420692539511947e-06, 1.4648071555711795e-06, 1.5875448298174888e-06, 1.7102827314374736e-06, 1.8330206330574583e-06, 1.9557587620511185e-06, 2.0784966636711033e-06, 2.201234565291088e-06, 2.3239726942847483e-06, 2.446710595904733e-06, 2.569448497524718e-06, 2.6921863991447026e-06, 2.8149243007646874e-06, 2.9376624297583476e-06, 3.0604003313783323e-06, 3.183138232998317e-06, 3.3058763619919773e-06, 3.428614263611962e-06, 3.551352165231947e-06, 3.6740900668519316e-06, 3.7968279684719164e-06, 3.919566097465577e-06, 4.042303771711886e-06, 4.165041900705546e-06, 4.287780029699206e-06, 4.4105181586928666e-06, 4.533255832939176e-06, 4.655993961932836e-06, 4.7787316361791454e-06, 4.901469765172806e-06, 5.024207894166466e-06, 5.146945568412775e-06, 5.269683697406435e-06, 5.392421371652745e-06, 5.515159500646405e-06]}, "gradients/encoder.conv1.bn.bias": {"_type": "histogram", "values": [2.0, 0.0, 0.0, 0.0, 0.0, 0.0, 0.0, 0.0, 1.0, 0.0, 1.0, 1.0, 0.0, 0.0, 0.0, 1.0, 1.0, 1.0, 0.0, 0.0, 0.0, 0.0, 0.0, 1.0, 0.0, 0.0, 0.0, 0.0, 0.0, 1.0, 0.0, 1.0, 0.0, 0.0, 1.0, 0.0, 2.0, 0.0, 1.0, 0.0, 0.0, 1.0, 2.0, 0.0, 0.0, 1.0, 1.0, 2.0, 1.0, 2.0, 1.0, 0.0, 3.0, 0.0, 0.0, 0.0, 0.0, 0.0, 0.0, 1.0, 0.0, 0.0, 0.0, 2.0], "bins": [-4.974127932655392e-06, -4.863694357482018e-06, -4.753260782308644e-06, -4.6428267523879185e-06, -4.532393177214544e-06, -4.42195960204117e-06, -4.311526026867796e-06, -4.2010924516944215e-06, -4.090658421773696e-06, -3.980224846600322e-06, -3.869791271426948e-06, -3.7593576962535735e-06, -3.648923893706524e-06, -3.538490091159474e-06, -3.4280565159861e-06, -3.3176229408127256e-06, -3.2071893656393513e-06, -3.0967555630923016e-06, -2.9863219879189273e-06, -2.8758881853718776e-06, -2.7654546101985034e-06, -2.6550208076514537e-06, -2.5445872324780794e-06, -2.434153657304705e-06, -2.3237198547576554e-06, -2.213286279584281e-06, -2.1028524770372314e-06, -1.992418901863857e-06, -1.881985326690483e-06, -1.7715515241434332e-06, -1.661117948970059e-06, -1.5506841464230092e-06, -1.440250571249635e-06, -1.3298169960762607e-06, -1.219383193529211e-06, -1.1089496183558367e-06, -9.98515815808787e-07, -8.880822406354127e-07, -7.776486654620385e-07, -6.672148629149888e-07, -5.567812877416145e-07, -4.463474851945648e-07, -3.3591391002119053e-07, -2.2548033484781627e-07, -1.1504653230076656e-07, -4.612957127392292e-09, 1.0582084541965742e-07, 2.1625442059303168e-07, 3.2668810945324367e-07, 4.3712179831345566e-07, 5.475554871736676e-07, 6.579890623470419e-07, 7.684227512072539e-07, 8.788564400674659e-07, 9.892901289276779e-07, 1.0997238177878899e-06, 1.2101575066481018e-06, 1.3205910818214761e-06, 1.431024770681688e-06, 1.5414584595419e-06, 1.651892148402112e-06, 1.762325837262324e-06, 1.8727594124356983e-06, 1.983193214982748e-06, 2.0936267901561223e-06]}, "gradients/encoder.conv1.conv.weight": {"_type": "histogram", "values": [1.0, 0.0, 0.0, 0.0, 0.0, 2.0, 7.0, 1.0, 0.0, 0.0, 0.0, 0.0, 1.0, 3.0, 0.0, 3.0, 1.0, 8.0, 2.0, 1.0, 6.0, 4.0, 0.0, 1.0, 2.0, 5.0, 4.0, 6.0, 11.0, 13.0, 10.0, 5.0, 2.0, 4.0, 3.0, 4.0, 7.0, 8.0, 16.0, 9.0, 29.0, 49.0, 63.0, 82.0, 223.0, 229.0, 362.0, 218.0, 157.0, 119.0, 110.0, 70.0, 50.0, 35.0, 36.0, 32.0, 10.0, 6.0, 7.0, 5.0, 3.0, 0.0, 2.0, 1.0], "bins": [-2.4282135200337507e-05, -2.3762793716741726e-05, -2.324345405213535e-05, -2.272411438752897e-05, -2.220477290393319e-05, -2.168543142033741e-05, -2.116609175573103e-05, -2.0646752091124654e-05, -2.0127410607528873e-05, -1.9608069123933092e-05, -1.9088729459326714e-05, -1.8569389794720337e-05, -1.8050048311124556e-05, -1.7530706827528775e-05, -1.7011367162922397e-05, -1.649202749831602e-05, -1.597268601472024e-05, -1.5453344531124458e-05, -1.493400486651808e-05, -1.4414664292417001e-05, -1.3895323718315922e-05, -1.3375983144214842e-05, -1.2856642570113763e-05, -1.2337301996012684e-05, -1.1817961421911605e-05, -1.1298620847810525e-05, -1.0779280273709446e-05, -1.0259939699608367e-05, -9.740599125507288e-06, -9.221258551406208e-06, -8.70191797730513e-06, -8.182576493709348e-06, -7.663235919608269e-06, -7.143896255001891e-06, -6.62455477140611e-06, -6.105214197305031e-06, -5.585873623203952e-06, -5.066533049102873e-06, -4.547192475001793e-06, -4.027851900900714e-06, -3.508511326799635e-06, -2.9891707526985556e-06, -2.4698301785974763e-06, -1.950489604496397e-06, -1.4311490303953178e-06, -9.118084562942386e-07, -3.924678821931593e-07, 1.2687269190791994e-07, 6.462132660089992e-07, 1.1655538401100785e-06, 1.6848944142111577e-06, 2.204234988312237e-06, 2.7235755624133162e-06, 3.2429161365143955e-06, 3.7622567106154747e-06, 4.281597284716554e-06, 4.800937858817633e-06, 5.3202784329187125e-06, 5.839619007019792e-06, 6.358959581120871e-06, 6.87830015522195e-06, 7.3976407293230295e-06, 7.916981303424109e-06, 8.436321877525188e-06, 8.955662451626267e-06]}, "gradients/encoder.conv1.conv.bias": {"_type": "histogram", "values": [1.0, 0.0, 0.0, 0.0, 0.0, 0.0, 0.0, 1.0, 0.0, 0.0, 1.0, 0.0, 1.0, 0.0, 0.0, 0.0, 0.0, 1.0, 0.0, 0.0, 2.0, 0.0, 1.0, 0.0, 1.0, 0.0, 1.0, 1.0, 0.0, 1.0, 0.0, 0.0, 1.0, 2.0, 3.0, 0.0, 0.0, 1.0, 2.0, 2.0, 0.0, 2.0, 1.0, 2.0, 0.0, 0.0, 0.0, 1.0, 0.0, 0.0, 0.0, 0.0, 0.0, 0.0, 0.0, 0.0, 0.0, 0.0, 1.0, 0.0, 0.0, 0.0, 0.0, 2.0], "bins": [-2.0321522242738865e-11, -1.9716506205469386e-11, -1.9111490168199907e-11, -1.8506474130930428e-11, -1.790145809366095e-11, -1.729644205639147e-11, -1.669142601912199e-11, -1.6086409981852512e-11, -1.5481393944583033e-11, -1.4876377907313554e-11, -1.4271361870044075e-11, -1.3666345832774596e-11, -1.3061329795505117e-11, -1.2456313758235638e-11, -1.1851297720966159e-11, -1.124628168369668e-11, -1.06412656464272e-11, -1.0036249609157721e-11, -9.431233571888242e-12, -8.826217534618763e-12, -8.221201497349284e-12, -7.616185460079805e-12, -7.011169422810326e-12, -6.406153385540847e-12, -5.801137348271368e-12, -5.196121311001889e-12, -4.59110527373241e-12, -3.986089236462931e-12, -3.3810731991934517e-12, -2.7760571619239727e-12, -2.1710411246544936e-12, -1.5660250873850146e-12, -9.610090501155355e-13, -3.5599301284605644e-13, 2.490230244234226e-13, 8.540390616929017e-13, 1.4590550989623807e-12, 2.0640711362318598e-12, 2.669087173501339e-12, 3.274103210770818e-12, 3.879119248040297e-12, 4.484135285309776e-12, 5.089151322579255e-12, 5.694167359848734e-12, 6.299183397118213e-12, 6.904199434387692e-12, 7.509215471657171e-12, 8.11423150892665e-12, 8.71924754619613e-12, 9.324263583465608e-12, 9.929279620735088e-12, 1.0534295658004567e-11, 1.1139311695274046e-11, 1.1744327732543525e-11, 1.2349343769813004e-11, 1.2954359807082483e-11, 1.3559375844351962e-11, 1.4164391881621441e-11, 1.476940791889092e-11, 1.53744239561604e-11, 1.5979439993429878e-11, 1.6584456030699357e-11, 1.7189472067968836e-11, 1.7794488105238315e-11, 1.8399504142507794e-11]}}