{"lr": 0.0002999981119858674, "train loss": 80608989.5, "valid loss": 86494728.0, "_timestamp": 1678814508.05601, "_runtime": 60.789783000946045, "_step": 9, "gradients/decoder.conv6.bn.weight": {"_type": "histogram", "values": [0.0, 0.0, 0.0, 0.0, 0.0, 0.0, 0.0, 0.0, 0.0, 0.0, 0.0, 0.0, 0.0, 0.0, 0.0, 0.0, 0.0, 0.0, 0.0, 0.0, 0.0, 0.0, 0.0, 0.0, 0.0, 0.0, 0.0, 0.0, 0.0, 0.0, 0.0, 0.0, 1.0, 0.0, 0.0, 0.0, 0.0, 0.0, 0.0, 0.0, 0.0, 0.0, 0.0, 0.0, 0.0, 0.0, 0.0, 0.0, 0.0, 0.0, 0.0, 0.0, 0.0, 0.0, 0.0, 0.0, 0.0, 0.0, 0.0, 0.0, 0.0, 0.0, 0.0, 0.0], "bins": [-3588023.75, -3588023.75, -3588023.75, -3588023.75, -3588023.75, -3588023.75, -3588023.75, -3588023.75, -3588023.75, -3588023.75, -3588023.75, -3588023.75, -3588023.75, -3588023.75, -3588023.75, -3588023.75, -3588023.75, -3588023.75, -3588023.75, -3588023.75, -3588023.75, -3588023.75, -3588023.75, -3588023.75, -3588023.75, -3588023.75, -3588023.75, -3588023.75, -3588023.75, -3588023.75, -3588023.75, -3588023.75, -3588023.75, -3588023.75, -3588023.75, -3588023.75, -3588023.75, -3588023.75, -3588023.75, -3588023.75, -3588023.75, -3588023.75, -3588023.75, -3588023.75, -3588023.75, -3588023.75, -3588023.75, -3588023.75, -3588023.75, -3588023.75, -3588023.75, -3588023.75, -3588023.75, -3588023.75, -3588023.75, -3588023.75, -3588023.75, -3588023.75, -3588023.75, -3588023.75, -3588023.75, -3588023.75, -3588023.75, -3588023.75, -3588023.75]}, "gradients/decoder.conv6.bn.bias": {"_type": "histogram", "values": [0.0, 0.0, 0.0, 0.0, 0.0, 0.0, 0.0, 0.0, 0.0, 0.0, 0.0, 0.0, 0.0, 0.0, 0.0, 0.0, 0.0, 0.0, 0.0, 0.0, 0.0, 0.0, 0.0, 0.0, 0.0, 0.0, 0.0, 0.0, 0.0, 0.0, 0.0, 0.0, 1.0, 0.0, 0.0, 0.0, 0.0, 0.0, 0.0, 0.0, 0.0, 0.0, 0.0, 0.0, 0.0, 0.0, 0.0, 0.0, 0.0, 0.0, 0.0, 0.0, 0.0, 0.0, 0.0, 0.0, 0.0, 0.0, 0.0, 0.0, 0.0, 0.0, 0.0, 0.0], "bins": [-889818.25, -889818.25, -889818.25, -889818.25, -889818.25, -889818.25, -889818.25, -889818.25, -889818.25, -889818.25, -889818.25, -889818.25, -889818.25, -889818.25, -889818.25, -889818.25, -889818.25, -889818.25, -889818.25, -889818.25, -889818.25, -889818.25, -889818.25, -889818.25, -889818.25, -889818.25, -889818.25, -889818.25, -889818.25, -889818.25, -889818.25, -889818.25, -889818.25, -889818.25, -889818.25, -889818.25, -889818.25, -889818.25, -889818.25, -889818.25, -889818.25, -889818.25, -889818.25, -889818.25, -889818.25, -889818.25, -889818.25, -889818.25, -889818.25, -889818.25, -889818.25, -889818.25, -889818.25, -889818.25, -889818.25, -889818.25, -889818.25, -889818.25, -889818.25, -889818.25, -889818.25, -889818.25, -889818.25, -889818.25, -889818.25]}, "gradients/decoder.conv6.conv.weight": {"_type": "histogram", "values": [1.0, 0.0, 0.0, 0.0, 0.0, 0.0, 0.0, 0.0, 0.0, 0.0, 0.0, 1.0, 3.0, 0.0, 1.0, 1.0, 1.0, 0.0, 2.0, 0.0, 3.0, 4.0, 5.0, 4.0, 6.0, 9.0, 5.0, 11.0, 10.0, 15.0, 6.0, 7.0, 7.0, 4.0, 6.0, 2.0, 4.0, 4.0, 0.0, 1.0, 0.0, 0.0, 0.0, 0.0, 2.0, 1.0, 0.0, 0.0, 0.0, 0.0, 0.0, 1.0, 0.0, 0.0, 0.0, 0.0, 0.0, 0.0, 0.0, 0.0, 0.0, 0.0, 0.0, 1.0], "bins": [-48049.01953125, -46386.0703125, -44723.1171875, -43060.16796875, -41397.21875, -39734.265625, -38071.31640625, -36408.3671875, -34745.4140625, -33082.46484375, -31419.515625, -29756.564453125, -28093.61328125, -26430.6640625, -24767.712890625, -23104.763671875, -21441.8125, -19778.861328125, -18115.912109375, -16452.9609375, -14790.01171875, -13127.05859375, -11464.109375, -9801.16015625, -8138.20703125, -6475.2578125, -4812.30859375, -3149.359375, -1486.40625, 176.54296875, 1839.4921875, 3502.4453125, 5165.3984375, 6828.34765625, 8491.30078125, 10154.25, 11817.19921875, 13480.15234375, 15143.1015625, 16806.05078125, 18469.0, 20131.953125, 21794.90234375, 23457.8515625, 25120.8046875, 26783.75390625, 28446.705078125, 30109.654296875, 31772.60546875, 33435.5546875, 35098.5078125, 36761.45703125, 38424.40625, 40087.359375, 41750.30859375, 43413.2578125, 45076.2109375, 46739.16015625, 48402.109375, 50065.0625, 51728.01171875, 53390.9609375, 55053.91015625, 56716.86328125, 58379.8125]}, "gradients/decoder.conv6.conv.bias": {"_type": "histogram", "values": [0.0, 0.0, 0.0, 0.0, 0.0, 0.0, 0.0, 0.0, 0.0, 0.0, 0.0, 0.0, 0.0, 0.0, 0.0, 0.0, 0.0, 0.0, 0.0, 0.0, 0.0, 0.0, 0.0, 0.0, 0.0, 0.0, 0.0, 0.0, 0.0, 0.0, 0.0, 0.0, 1.0, 0.0, 0.0, 0.0, 0.0, 0.0, 0.0, 0.0, 0.0, 0.0, 0.0, 0.0, 0.0, 0.0, 0.0, 0.0, 0.0, 0.0, 0.0, 0.0, 0.0, 0.0, 0.0, 0.0, 0.0, 0.0, 0.0, 0.0, 0.0, 0.0, 0.0, 0.0], "bins": [0.06640625, 0.06640625, 0.06640625, 0.06640625, 0.06640625, 0.06640625, 0.06640625, 0.06640625, 0.06640625, 0.06640625, 0.06640625, 0.06640625, 0.06640625, 0.06640625, 0.06640625, 0.06640625, 0.06640625, 0.06640625, 0.06640625, 0.06640625, 0.06640625, 0.06640625, 0.06640625, 0.06640625, 0.06640625, 0.06640625, 0.06640625, 0.06640625, 0.06640625, 0.06640625, 0.06640625, 0.06640625, 0.06640625, 0.06640625, 0.06640625, 0.06640625, 0.06640625, 0.06640625, 0.06640625, 0.06640625, 0.06640625, 0.06640625, 0.06640625, 0.06640625, 0.06640625, 0.06640625, 0.06640625, 0.06640625, 0.06640625, 0.06640625, 0.06640625, 0.06640625, 0.06640625, 0.06640625, 0.06640625, 0.06640625, 0.06640625, 0.06640625, 0.06640625, 0.06640625, 0.06640625, 0.06640625, 0.06640625, 0.06640625, 0.06640625]}, "gradients/decoder.conv5.bn.weight": {"_type": "histogram", "values": [1.0, 0.0, 0.0, 0.0, 0.0, 0.0, 0.0, 0.0, 0.0, 0.0, 0.0, 0.0, 0.0, 0.0, 0.0, 1.0, 0.0, 0.0, 0.0, 0.0, 0.0, 0.0, 0.0, 0.0, 0.0, 0.0, 0.0, 0.0, 0.0, 0.0, 0.0, 0.0, 0.0, 0.0, 0.0, 0.0, 0.0, 1.0, 0.0, 0.0, 0.0, 0.0, 0.0, 0.0, 0.0, 0.0, 1.0, 1.0, 0.0, 0.0, 1.0, 0.0, 0.0, 0.0, 0.0, 1.0, 0.0, 0.0, 0.0, 0.0, 0.0, 0.0, 0.0, 1.0], "bins": [-12043.7802734375, -11723.8642578125, -11403.947265625, -11084.03125, -10764.115234375, -10444.19921875, -10124.283203125, -9804.3662109375, -9484.4501953125, -9164.5341796875, -8844.6171875, -8524.701171875, -8204.78515625, -7884.869140625, -7564.95263671875, -7245.0361328125, -6925.1201171875, -6605.2041015625, -6285.28759765625, -5965.37109375, -5645.455078125, -5325.5390625, -5005.62255859375, -4685.7060546875, -4365.7900390625, -4045.8740234375, -3725.9580078125, -3406.041015625, -3086.125, -2766.208984375, -2446.2919921875, -2126.3759765625, -1806.458984375, -1486.54296875, -1166.626953125, -846.7099609375, -526.7939453125, -206.8779296875, 113.0390625, 432.955078125, 752.87109375, 1072.787109375, 1392.70361328125, 1712.6201171875, 2032.5361328125, 2352.4521484375, 2672.36865234375, 2992.28515625, 3312.201171875, 3632.1171875, 3952.03369140625, 4271.9501953125, 4591.8662109375, 4911.7822265625, 5231.69873046875, 5551.615234375, 5871.53125, 6191.447265625, 6511.36376953125, 6831.2802734375, 7151.1962890625, 7471.1123046875, 7791.02880859375, 8110.9453125, 8430.861328125]}, "gradients/decoder.conv5.bn.bias": {"_type": "histogram", "values": [1.0, 0.0, 0.0, 0.0, 0.0, 0.0, 0.0, 0.0, 0.0, 1.0, 0.0, 0.0, 0.0, 0.0, 0.0, 0.0, 1.0, 0.0, 0.0, 0.0, 0.0, 0.0, 1.0, 0.0, 0.0, 0.0, 0.0, 0.0, 0.0, 1.0, 0.0, 0.0, 0.0, 0.0, 1.0, 0.0, 0.0, 0.0, 0.0, 0.0, 0.0, 0.0, 0.0, 0.0, 0.0, 0.0, 0.0, 0.0, 1.0, 0.0, 0.0, 0.0, 0.0, 0.0, 0.0, 0.0, 0.0, 0.0, 0.0, 0.0, 0.0, 0.0, 0.0, 1.0], "bins": [-559.607421875, -176.62179565429688, 206.36383056640625, 589.3494873046875, 972.3350830078125, 1355.3206787109375, 1738.306396484375, 2121.2919921875, 2504.277587890625, 2887.26318359375, 3270.248779296875, 3653.234375, 4036.22021484375, 4419.20556640625, 4802.19140625, 5185.1767578125, 5568.16259765625, 5951.1484375, 6334.1337890625, 6717.11962890625, 7100.10498046875, 7483.0908203125, 7866.076171875, 8249.0615234375, 8632.0478515625, 9015.033203125, 9398.0185546875, 9781.0048828125, 10163.990234375, 10546.9755859375, 10929.9609375, 11312.947265625, 11695.9326171875, 12078.91796875, 12461.904296875, 12844.8896484375, 13227.875, 13610.8603515625, 13993.8466796875, 14376.83203125, 14759.8173828125, 15142.8037109375, 15525.7890625, 15908.7744140625, 16291.759765625, 16674.74609375, 17057.73046875, 17440.716796875, 17823.703125, 18206.6875, 18589.673828125, 18972.66015625, 19355.64453125, 19738.630859375, 20121.6171875, 20504.6015625, 20887.587890625, 21270.57421875, 21653.55859375, 22036.544921875, 22419.529296875, 22802.515625, 23185.501953125, 23568.486328125, 23951.47265625]}, "gradients/decoder.conv5.conv.weight": {"_type": "histogram", "values": [1.0, 1.0, 0.0, 1.0, 0.0, 0.0, 0.0, 2.0, 0.0, 4.0, 1.0, 4.0, 1.0, 6.0, 4.0, 5.0, 4.0, 4.0, 7.0, 7.0, 6.0, 8.0, 15.0, 19.0, 26.0, 34.0, 36.0, 46.0, 70.0, 107.0, 136.0, 215.0, 244.0, 229.0, 151.0, 126.0, 101.0, 74.0, 68.0, 54.0, 42.0, 36.0, 37.0, 25.0, 15.0, 16.0, 16.0, 11.0, 5.0, 7.0, 4.0, 1.0, 0.0, 3.0, 2.0, 3.0, 1.0, 2.0, 1.0, 2.0, 1.0, 0.0, 0.0, 1.0], "bins": [-25606.978515625, -24812.25390625, -24017.53125, -23222.806640625, -22428.08203125, -21633.359375, -20838.634765625, -20043.91015625, -19249.1875, -18454.46484375, -17659.740234375, -16865.015625, -16070.2919921875, -15275.568359375, -14480.84375, -13686.1201171875, -12891.396484375, -12096.6728515625, -11301.94921875, -10507.224609375, -9712.5009765625, -8917.77734375, -8123.052734375, -7328.330078125, -6533.60546875, -5738.880859375, -4944.158203125, -4149.43359375, -3354.708984375, -2559.986328125, -1765.26171875, -970.5390625, -175.814453125, 618.91015625, 1413.6328125, 2208.357421875, 3003.080078125, 3797.8046875, 4592.529296875, 5387.251953125, 6181.9765625, 6976.701171875, 7771.423828125, 8566.1484375, 9360.8720703125, 10155.595703125, 10950.3203125, 11745.0439453125, 12539.767578125, 13334.4912109375, 14129.21484375, 14923.939453125, 15718.6630859375, 16513.38671875, 17308.111328125, 18102.8359375, 18897.55859375, 19692.28125, 20487.005859375, 21281.73046875, 22076.453125, 22871.177734375, 23665.90234375, 24460.625, 25255.349609375]}, "gradients/decoder.conv5.conv.bias": {"_type": "histogram", "values": [1.0, 0.0, 0.0, 0.0, 0.0, 0.0, 0.0, 0.0, 0.0, 0.0, 0.0, 0.0, 0.0, 0.0, 0.0, 0.0, 0.0, 0.0, 1.0, 1.0, 1.0, 0.0, 0.0, 0.0, 0.0, 0.0, 0.0, 0.0, 0.0, 0.0, 0.0, 2.0, 0.0, 0.0, 0.0, 0.0, 0.0, 0.0, 0.0, 0.0, 0.0, 0.0, 0.0, 0.0, 1.0, 0.0, 0.0, 0.0, 0.0, 0.0, 0.0, 0.0, 0.0, 0.0, 0.0, 0.0, 0.0, 0.0, 0.0, 0.0, 0.0, 0.0, 0.0, 1.0], "bins": [-0.01416015625, -0.0135955810546875, -0.013031005859375, -0.0124664306640625, -0.01190185546875, -0.0113372802734375, -0.010772705078125, -0.0102081298828125, -0.0096435546875, -0.0090789794921875, -0.008514404296875, -0.0079498291015625, -0.00738525390625, -0.0068206787109375, -0.006256103515625, -0.0056915283203125, -0.005126953125, -0.0045623779296875, -0.003997802734375, -0.0034332275390625, -0.00286865234375, -0.0023040771484375, -0.001739501953125, -0.0011749267578125, -0.0006103515625, -4.57763671875e-05, 0.000518798828125, 0.0010833740234375, 0.00164794921875, 0.0022125244140625, 0.002777099609375, 0.0033416748046875, 0.00390625, 0.0044708251953125, 0.005035400390625, 0.0055999755859375, 0.00616455078125, 0.0067291259765625, 0.007293701171875, 0.0078582763671875, 0.0084228515625, 0.0089874267578125, 0.009552001953125, 0.0101165771484375, 0.01068115234375, 0.0112457275390625, 0.011810302734375, 0.0123748779296875, 0.012939453125, 0.0135040283203125, 0.014068603515625, 0.0146331787109375, 0.01519775390625, 0.0157623291015625, 0.016326904296875, 0.0168914794921875, 0.0174560546875, 0.0180206298828125, 0.018585205078125, 0.0191497802734375, 0.01971435546875, 0.0202789306640625, 0.020843505859375, 0.0214080810546875, 0.02197265625]}, "gradients/decoder.conv4.bn.weight": {"_type": "histogram", "values": [1.0, 0.0, 0.0, 0.0, 0.0, 0.0, 0.0, 0.0, 0.0, 1.0, 0.0, 0.0, 1.0, 1.0, 0.0, 0.0, 1.0, 0.0, 1.0, 0.0, 0.0, 3.0, 0.0, 0.0, 0.0, 0.0, 0.0, 1.0, 0.0, 0.0, 0.0, 0.0, 0.0, 0.0, 0.0, 3.0, 0.0, 0.0, 0.0, 0.0, 0.0, 0.0, 0.0, 0.0, 0.0, 0.0, 0.0, 0.0, 0.0, 0.0, 0.0, 1.0, 0.0, 0.0, 0.0, 1.0, 0.0, 0.0, 0.0, 0.0, 0.0, 0.0, 0.0, 1.0], "bins": [-4724.35009765625, -4549.40185546875, -4374.45361328125, -4199.50537109375, -4024.556884765625, -3849.608642578125, -3674.660400390625, -3499.7119140625, -3324.763671875, -3149.8154296875, -2974.8671875, -2799.9189453125, -2624.970703125, -2450.0224609375, -2275.073974609375, -2100.125732421875, -1925.177490234375, -1750.229248046875, -1575.281005859375, -1400.33251953125, -1225.38427734375, -1050.43603515625, -875.48779296875, -700.53955078125, -525.59130859375, -350.64306640625, -175.69482421875, -0.74609375, 174.2021484375, 349.150390625, 524.0986328125, 699.046875, 873.9951171875, 1048.943359375, 1223.8916015625, 1398.83984375, 1573.7880859375, 1748.736328125, 1923.68505859375, 2098.63330078125, 2273.58154296875, 2448.52978515625, 2623.47802734375, 2798.42626953125, 2973.37451171875, 3148.32275390625, 3323.271240234375, 3498.219482421875, 3673.167724609375, 3848.115966796875, 4023.064208984375, 4198.0126953125, 4372.9609375, 4547.9091796875, 4722.857421875, 4897.8056640625, 5072.75390625, 5247.7021484375, 5422.650390625, 5597.5986328125, 5772.54736328125, 5947.49560546875, 6122.44384765625, 6297.39208984375, 6472.34033203125]}, "gradients/decoder.conv4.bn.bias": {"_type": "histogram", "values": [1.0, 0.0, 0.0, 0.0, 0.0, 0.0, 0.0, 0.0, 0.0, 0.0, 0.0, 0.0, 0.0, 0.0, 0.0, 0.0, 0.0, 2.0, 0.0, 2.0, 1.0, 1.0, 2.0, 1.0, 0.0, 1.0, 0.0, 2.0, 1.0, 1.0, 0.0, 0.0, 0.0, 0.0, 0.0, 0.0, 0.0, 0.0, 0.0, 0.0, 0.0, 0.0, 0.0, 0.0, 0.0, 0.0, 0.0, 0.0, 0.0, 0.0, 0.0, 0.0, 0.0, 0.0, 0.0, 0.0, 0.0, 0.0, 0.0, 0.0, 0.0, 0.0, 0.0, 1.0], "bins": [-1872.3189697265625, -1730.8231201171875, -1589.3271484375, -1447.831298828125, -1306.33544921875, -1164.839599609375, -1023.3436889648438, -881.8477783203125, -740.3519287109375, -598.8560791015625, -457.3602294921875, -315.8642578125, -174.368408203125, -32.87255859375, 108.6234130859375, 250.1192626953125, 391.6151123046875, 533.1109619140625, 674.6068115234375, 816.1026611328125, 957.5985107421875, 1099.0946044921875, 1240.5904541015625, 1382.0863037109375, 1523.5821533203125, 1665.0780029296875, 1806.5738525390625, 1948.0697021484375, 2089.56591796875, 2231.0615234375, 2372.5576171875, 2514.05322265625, 2655.54931640625, 2797.04541015625, 2938.541015625, 3080.037109375, 3221.53271484375, 3363.02880859375, 3504.524658203125, 3646.0205078125, 3787.516357421875, 3929.01220703125, 4070.508056640625, 4212.00390625, 4353.5, 4494.99609375, 4636.49169921875, 4777.9873046875, 4919.4833984375, 5060.9794921875, 5202.47509765625, 5343.97119140625, 5485.466796875, 5626.962890625, 5768.458984375, 5909.95458984375, 6051.4501953125, 6192.9462890625, 6334.4423828125, 6475.93798828125, 6617.43408203125, 6758.9296875, 6900.42578125, 7041.92138671875, 7183.41748046875]}, "gradients/decoder.conv4.conv.weight": {"_type": "histogram", "values": [1.0, 1.0, 0.0, 0.0, 0.0, 0.0, 0.0, 0.0, 1.0, 2.0, 3.0, 1.0, 4.0, 5.0, 14.0, 11.0, 8.0, 22.0, 16.0, 37.0, 42.0, 52.0, 63.0, 89.0, 119.0, 155.0, 166.0, 250.0, 281.0, 304.0, 359.0, 439.0, 537.0, 710.0, 803.0, 731.0, 599.0, 524.0, 389.0, 312.0, 234.0, 187.0, 158.0, 112.0, 104.0, 82.0, 54.0, 52.0, 43.0, 31.0, 20.0, 18.0, 6.0, 11.0, 13.0, 8.0, 5.0, 1.0, 1.0, 0.0, 0.0, 0.0, 0.0, 2.0], "bins": [-28815.318359375, -27966.9296875, -27118.54296875, -26270.154296875, -25421.765625, -24573.376953125, -23724.98828125, -22876.6015625, -22028.212890625, -21179.82421875, -20331.4375, -19483.048828125, -18634.66015625, -17786.271484375, -16937.8828125, -16089.49609375, -15241.107421875, -14392.71875, -13544.3310546875, -12695.943359375, -11847.5546875, -10999.166015625, -10150.779296875, -9302.390625, -8454.001953125, -7605.61328125, -6757.224609375, -5908.837890625, -5060.44921875, -4212.060546875, -3363.673828125, -2515.28515625, -1666.896484375, -818.5078125, 29.880859375, 878.267578125, 1726.65625, 2575.044921875, 3423.431640625, 4271.8203125, 5120.208984375, 5968.59765625, 6816.986328125, 7665.373046875, 8513.76171875, 9362.150390625, 10210.5380859375, 11058.92578125, 11907.314453125, 12755.703125, 13604.0908203125, 14452.478515625, 15300.8671875, 16149.255859375, 16997.64453125, 17846.03125, 18694.419921875, 19542.80859375, 20391.1953125, 21239.583984375, 22087.97265625, 22936.361328125, 23784.75, 24633.13671875, 25481.525390625]}, "gradients/decoder.conv4.conv.bias": {"_type": "histogram", "values": [1.0, 0.0, 0.0, 0.0, 0.0, 0.0, 0.0, 0.0, 0.0, 0.0, 0.0, 0.0, 0.0, 0.0, 0.0, 0.0, 0.0, 0.0, 1.0, 0.0, 1.0, 0.0, 0.0, 0.0, 0.0, 0.0, 0.0, 1.0, 0.0, 0.0, 0.0, 0.0, 0.0, 1.0, 0.0, 0.0, 0.0, 1.0, 0.0, 1.0, 3.0, 1.0, 0.0, 0.0, 2.0, 0.0, 0.0, 1.0, 0.0, 0.0, 0.0, 0.0, 0.0, 0.0, 0.0, 1.0, 0.0, 0.0, 0.0, 0.0, 0.0, 0.0, 0.0, 1.0], "bins": [-0.0029296875, -0.0028362274169921875, -0.002742767333984375, -0.0026493072509765625, -0.00255584716796875, -0.0024623870849609375, -0.002368927001953125, -0.0022754669189453125, -0.0021820068359375, -0.0020885467529296875, -0.001995086669921875, -0.0019016265869140625, -0.00180816650390625, -0.0017147064208984375, -0.001621246337890625, -0.0015277862548828125, -0.001434326171875, -0.0013408660888671875, -0.001247406005859375, -0.0011539459228515625, -0.00106048583984375, -0.0009670257568359375, -0.000873565673828125, -0.0007801055908203125, -0.0006866455078125, -0.0005931854248046875, -0.000499725341796875, -0.0004062652587890625, -0.00031280517578125, -0.0002193450927734375, -0.000125885009765625, -3.24249267578125e-05, 6.103515625e-05, 0.0001544952392578125, 0.000247955322265625, 0.0003414154052734375, 0.00043487548828125, 0.0005283355712890625, 0.000621795654296875, 0.0007152557373046875, 0.0008087158203125, 0.0009021759033203125, 0.000995635986328125, 0.0010890960693359375, 0.00118255615234375, 0.0012760162353515625, 0.001369476318359375, 0.0014629364013671875, 0.001556396484375, 0.0016498565673828125, 0.001743316650390625, 0.0018367767333984375, 0.00193023681640625, 0.0020236968994140625, 0.002117156982421875, 0.0022106170654296875, 0.0023040771484375, 0.0023975372314453125, 0.002490997314453125, 0.0025844573974609375, 0.00267791748046875, 0.0027713775634765625, 0.002864837646484375, 0.0029582977294921875, 0.0030517578125]}, "gradients/decoder.conv3.bn.weight": {"_type": "histogram", "values": [1.0, 1.0, 0.0, 0.0, 0.0, 0.0, 1.0, 0.0, 0.0, 0.0, 0.0, 0.0, 0.0, 0.0, 0.0, 0.0, 0.0, 2.0, 0.0, 0.0, 0.0, 2.0, 0.0, 0.0, 0.0, 0.0, 2.0, 2.0, 2.0, 1.0, 0.0, 1.0, 2.0, 0.0, 2.0, 1.0, 1.0, 0.0, 0.0, 1.0, 0.0, 1.0, 0.0, 1.0, 0.0, 0.0, 1.0, 1.0, 0.0, 0.0, 0.0, 0.0, 0.0, 1.0, 1.0, 0.0, 2.0, 0.0, 1.0, 0.0, 0.0, 0.0, 0.0, 1.0], "bins": [-7507.94140625, -7284.8046875, -7061.66748046875, -6838.5302734375, -6615.3935546875, -6392.2568359375, -6169.11962890625, -5945.982421875, -5722.845703125, -5499.708984375, -5276.57177734375, -5053.4345703125, -4830.2978515625, -4607.1611328125, -4384.02392578125, -4160.88671875, -3937.75, -3714.613037109375, -3491.47607421875, -3268.3388671875, -3045.2021484375, -2822.0654296875, -2598.92822265625, -2375.791015625, -2152.654296875, -1929.517578125, -1706.38037109375, -1483.2431640625, -1260.1064453125, -1036.9697265625, -813.83251953125, -590.6953125, -367.55908203125, -144.42236328125, 78.71484375, 301.85205078125, 524.98876953125, 748.12548828125, 971.2626953125, 1194.39990234375, 1417.53662109375, 1640.67333984375, 1863.810546875, 2086.94775390625, 2310.08447265625, 2533.22119140625, 2756.3583984375, 2979.495361328125, 3202.63232421875, 3425.769287109375, 3648.90625, 3872.043212890625, 4095.18017578125, 4318.3173828125, 4541.4541015625, 4764.5908203125, 4987.72802734375, 5210.865234375, 5434.001953125, 5657.138671875, 5880.27587890625, 6103.4130859375, 6326.5498046875, 6549.6865234375, 6772.82373046875]}, "gradients/decoder.conv3.bn.bias": {"_type": "histogram", "values": [1.0, 0.0, 0.0, 0.0, 0.0, 1.0, 0.0, 0.0, 0.0, 0.0, 0.0, 0.0, 1.0, 0.0, 1.0, 0.0, 0.0, 0.0, 0.0, 0.0, 0.0, 1.0, 1.0, 1.0, 0.0, 0.0, 0.0, 1.0, 2.0, 0.0, 0.0, 1.0, 1.0, 1.0, 0.0, 2.0, 2.0, 1.0, 0.0, 1.0, 1.0, 0.0, 2.0, 0.0, 1.0, 1.0, 0.0, 0.0, 1.0, 0.0, 0.0, 0.0, 0.0, 0.0, 0.0, 1.0, 0.0, 0.0, 0.0, 0.0, 1.0, 0.0, 1.0, 4.0], "bins": [-1854.162109375, -1801.353759765625, -1748.54541015625, -1695.737060546875, -1642.9287109375, -1590.120361328125, -1537.31201171875, -1484.503662109375, -1431.6953125, -1378.886962890625, -1326.07861328125, -1273.270263671875, -1220.4617919921875, -1167.6534423828125, -1114.8450927734375, -1062.0367431640625, -1009.2283935546875, -956.4200439453125, -903.6116943359375, -850.8033447265625, -797.9949951171875, -745.1866455078125, -692.3782958984375, -639.5699462890625, -586.761474609375, -533.953125, -481.144775390625, -428.33642578125, -375.528076171875, -322.7197265625, -269.911376953125, -217.10302734375, -164.2947998046875, -111.4864501953125, -58.6781005859375, -5.8697509765625, 46.9385986328125, 99.7469482421875, 152.5552978515625, 205.3636474609375, 258.1719970703125, 310.98046875, 363.788818359375, 416.59716796875, 469.405517578125, 522.2138671875, 575.022216796875, 627.83056640625, 680.638916015625, 733.447265625, 786.255615234375, 839.06396484375, 891.872314453125, 944.6807250976562, 997.4890747070312, 1050.29736328125, 1103.105712890625, 1155.9140625, 1208.722412109375, 1261.5308837890625, 1314.3392333984375, 1367.1475830078125, 1419.9559326171875, 1472.7642822265625, 1525.5726318359375]}, "gradients/decoder.conv3.conv.weight": {"_type": "histogram", "values": [2.0, 0.0, 0.0, 0.0, 1.0, 0.0, 0.0, 2.0, 1.0, 4.0, 7.0, 8.0, 9.0, 11.0, 15.0, 15.0, 23.0, 42.0, 41.0, 67.0, 93.0, 137.0, 162.0, 250.0, 310.0, 467.0, 540.0, 821.0, 1107.0, 1607.0, 2178.0, 3416.0, 5187.0, 5151.0, 3547.0, 2336.0, 1549.0, 1074.0, 721.0, 530.0, 373.0, 250.0, 199.0, 119.0, 89.0, 76.0, 48.0, 54.0, 34.0, 25.0, 11.0, 17.0, 13.0, 4.0, 7.0, 4.0, 5.0, 0.0, 0.0, 1.0, 4.0, 1.0, 0.0, 3.0], "bins": [-18885.88671875, -18313.513671875, -17741.140625, -17168.767578125, -16596.39453125, -16024.021484375, -15451.6484375, -14879.275390625, -14306.90234375, -13734.529296875, -13162.15625, -12589.783203125, -12017.41015625, -11445.037109375, -10872.6640625, -10300.291015625, -9727.91796875, -9155.544921875, -8583.171875, -8010.798828125, -7438.42578125, -6866.052734375, -6293.6796875, -5721.306640625, -5148.93359375, -4576.560546875, -4004.1875, -3431.814453125, -2859.44140625, -2287.068359375, -1714.6953125, -1142.322265625, -569.947265625, 2.42578125, 574.798828125, 1147.171875, 1719.544921875, 2291.91796875, 2864.291015625, 3436.6640625, 4009.037109375, 4581.41015625, 5153.783203125, 5726.15625, 6298.529296875, 6870.90234375, 7443.275390625, 8015.6484375, 8588.021484375, 9160.39453125, 9732.767578125, 10305.140625, 10877.513671875, 11449.88671875, 12022.259765625, 12594.6328125, 13167.005859375, 13739.37890625, 14311.751953125, 14884.125, 15456.498046875, 16028.87109375, 16601.244140625, 17173.6171875, 17745.990234375]}, "gradients/decoder.conv3.conv.bias": {"_type": "histogram", "values": [1.0, 1.0, 1.0, 1.0, 0.0, 0.0, 1.0, 0.0, 0.0, 0.0, 0.0, 0.0, 0.0, 1.0, 0.0, 0.0, 3.0, 0.0, 0.0, 0.0, 2.0, 0.0, 3.0, 0.0, 2.0, 0.0, 0.0, 0.0, 1.0, 0.0, 1.0, 0.0, 0.0, 0.0, 0.0, 0.0, 2.0, 4.0, 0.0, 1.0, 0.0, 0.0, 0.0, 2.0, 0.0, 1.0, 0.0, 0.0, 1.0, 0.0, 0.0, 0.0, 0.0, 2.0, 0.0, 0.0, 0.0, 0.0, 0.0, 0.0, 0.0, 0.0, 0.0, 1.0], "bins": [-0.000885009765625, -0.0008616447448730469, -0.0008382797241210938, -0.0008149147033691406, -0.0007915496826171875, -0.0007681846618652344, -0.0007448196411132812, -0.0007214546203613281, -0.000698089599609375, -0.0006747245788574219, -0.0006513595581054688, -0.0006279945373535156, -0.0006046295166015625, -0.0005812644958496094, -0.0005578994750976562, -0.0005345344543457031, -0.00051116943359375, -0.0004878044128417969, -0.00046443939208984375, -0.0004410743713378906, -0.0004177093505859375, -0.0003943443298339844, -0.00037097930908203125, -0.0003476142883300781, -0.000324249267578125, -0.0003008842468261719, -0.00027751922607421875, -0.0002541542053222656, -0.0002307891845703125, -0.00020742416381835938, -0.00018405914306640625, -0.00016069412231445312, -0.0001373291015625, -0.00011396408081054688, -9.059906005859375e-05, -6.723403930664062e-05, -4.38690185546875e-05, -2.0503997802734375e-05, 2.86102294921875e-06, 2.6226043701171875e-05, 4.9591064453125e-05, 7.295608520507812e-05, 9.632110595703125e-05, 0.00011968612670898438, 0.0001430511474609375, 0.00016641616821289062, 0.00018978118896484375, 0.00021314620971679688, 0.00023651123046875, 0.0002598762512207031, 0.00028324127197265625, 0.0003066062927246094, 0.0003299713134765625, 0.0003533363342285156, 0.00037670135498046875, 0.0004000663757324219, 0.000423431396484375, 0.0004467964172363281, 0.00047016143798828125, 0.0004935264587402344, 0.0005168914794921875, 0.0005402565002441406, 0.0005636215209960938, 0.0005869865417480469, 0.0006103515625]}, "gradients/decoder.conv2.bn.weight": {"_type": "histogram", "values": [1.0, 0.0, 0.0, 0.0, 0.0, 0.0, 0.0, 0.0, 0.0, 0.0, 0.0, 0.0, 0.0, 0.0, 0.0, 0.0, 0.0, 1.0, 1.0, 0.0, 2.0, 0.0, 0.0, 2.0, 0.0, 2.0, 1.0, 2.0, 2.0, 2.0, 2.0, 4.0, 1.0, 1.0, 1.0, 4.0, 2.0, 1.0, 1.0, 5.0, 1.0, 1.0, 3.0, 2.0, 2.0, 2.0, 0.0, 1.0, 0.0, 1.0, 1.0, 0.0, 0.0, 1.0, 2.0, 0.0, 3.0, 2.0, 2.0, 0.0, 0.0, 0.0, 1.0, 1.0], "bins": [-6835.447265625, -6657.39501953125, -6479.34326171875, -6301.291015625, -6123.2392578125, -5945.18701171875, -5767.134765625, -5589.0830078125, -5411.03125, -5232.97900390625, -5054.9267578125, -4876.875, -4698.82275390625, -4520.7705078125, -4342.71875, -4164.6669921875, -3986.61474609375, -3808.562744140625, -3630.5107421875, -3452.458740234375, -3274.40673828125, -3096.3544921875, -2918.302490234375, -2740.25048828125, -2562.1982421875, -2384.146484375, -2206.09423828125, -2028.04248046875, -1849.990234375, -1671.9384765625, -1493.88623046875, -1315.83447265625, -1137.78271484375, -959.73046875, -781.6787109375, -603.62646484375, -425.57470703125, -247.5224609375, -69.470703125, 108.58154296875, 286.63330078125, 464.685546875, 642.737548828125, 820.78955078125, 998.841796875, 1176.893798828125, 1354.94580078125, 1532.997802734375, 1711.0498046875, 1889.101806640625, 2067.15380859375, 2245.205810546875, 2423.2578125, 2601.31005859375, 2779.362060546875, 2957.4140625, 3135.466064453125, 3313.51806640625, 3491.570068359375, 3669.6220703125, 3847.67431640625, 4025.72607421875, 4203.7783203125, 4381.830078125, 4559.88232421875]}, "gradients/decoder.conv2.bn.bias": {"_type": "histogram", "values": [1.0, 0.0, 0.0, 0.0, 0.0, 0.0, 0.0, 0.0, 1.0, 0.0, 0.0, 0.0, 0.0, 1.0, 0.0, 1.0, 0.0, 0.0, 1.0, 0.0, 1.0, 0.0, 2.0, 1.0, 2.0, 2.0, 1.0, 1.0, 1.0, 1.0, 3.0, 1.0, 3.0, 0.0, 1.0, 1.0, 4.0, 1.0, 5.0, 1.0, 1.0, 1.0, 2.0, 1.0, 2.0, 0.0, 6.0, 3.0, 0.0, 0.0, 0.0, 0.0, 1.0, 0.0, 1.0, 3.0, 1.0, 1.0, 1.0, 0.0, 0.0, 0.0, 2.0, 1.0], "bins": [-1698.554443359375, -1654.0396728515625, -1609.52490234375, -1565.0101318359375, -1520.495361328125, -1475.9805908203125, -1431.4658203125, -1386.951171875, -1342.436279296875, -1297.921630859375, -1253.40673828125, -1208.89208984375, -1164.3773193359375, -1119.862548828125, -1075.3477783203125, -1030.8330078125, -986.3182373046875, -941.803466796875, -897.2886962890625, -852.77392578125, -808.2591552734375, -763.7444458007812, -719.2296752929688, -674.7149047851562, -630.2001953125, -585.6854248046875, -541.170654296875, -496.6558837890625, -452.14111328125, -407.6263427734375, -363.111572265625, -318.5968017578125, -274.0821533203125, -229.5673828125, -185.0526123046875, -140.537841796875, -96.0230712890625, -51.50830078125, -6.9935302734375, 37.521240234375, 82.0360107421875, 126.55072021484375, 171.06549072265625, 215.58026123046875, 260.094970703125, 304.6097412109375, 349.12451171875, 393.6392822265625, 438.154052734375, 482.6688232421875, 527.18359375, 571.6983642578125, 616.213134765625, 660.7279052734375, 705.2426147460938, 749.7573852539062, 794.2721557617188, 838.7869262695312, 883.3016967773438, 927.81640625, 972.3311767578125, 1016.845947265625, 1061.3607177734375, 1105.87548828125, 1150.3902587890625]}, "gradients/decoder.conv2.conv.weight": {"_type": "histogram", "values": [2.0, 3.0, 1.0, 8.0, 5.0, 8.0, 17.0, 23.0, 22.0, 28.0, 35.0, 43.0, 27.0, 47.0, 51.0, 68.0, 84.0, 120.0, 166.0, 208.0, 280.0, 309.0, 360.0, 566.0, 762.0, 969.0, 1407.0, 2176.0, 4009.0, 10504.0, 81639.0, 14837.0, 4559.0, 2397.0, 1583.0, 976.0, 739.0, 515.0, 385.0, 246.0, 228.0, 158.0, 104.0, 65.0, 57.0, 64.0, 59.0, 30.0, 22.0, 21.0, 21.0, 7.0, 11.0, 12.0, 9.0, 6.0, 0.0, 1.0, 3.0, 1.0, 2.0, 2.0, 3.0, 2.0], "bins": [-10386.62890625, -10046.5595703125, -9706.490234375, -9366.419921875, -9026.3505859375, -8686.28125, -8346.2119140625, -8006.142578125, -7666.07275390625, -7326.0029296875, -6985.93359375, -6645.8642578125, -6305.794921875, -5965.72509765625, -5625.65576171875, -5285.5859375, -4945.5166015625, -4605.447265625, -4265.37744140625, -3925.30810546875, -3585.23828125, -3245.1689453125, -2905.099609375, -2565.02978515625, -2224.96044921875, -1884.890625, -1544.8212890625, -1204.751953125, -864.6826171875, -524.61328125, -184.54296875, 155.5263671875, 495.5966796875, 835.666015625, 1175.7353515625, 1515.8056640625, 1855.875, 2195.9443359375, 2536.013671875, 2876.0830078125, 3216.15283203125, 3556.22216796875, 3896.2919921875, 4236.361328125, 4576.4306640625, 4916.50048828125, 5256.56982421875, 5596.6396484375, 5936.708984375, 6276.7783203125, 6616.84814453125, 6956.91748046875, 7296.9873046875, 7637.056640625, 7977.1259765625, 8317.1953125, 8657.265625, 8997.3349609375, 9337.404296875, 9677.4736328125, 10017.54296875, 10357.6123046875, 10697.6826171875, 11037.751953125, 11377.8212890625]}, "gradients/decoder.conv2.conv.bias": {"_type": "histogram", "values": [1.0, 0.0, 1.0, 0.0, 1.0, 0.0, 0.0, 0.0, 2.0, 0.0, 0.0, 0.0, 1.0, 0.0, 2.0, 0.0, 0.0, 2.0, 3.0, 0.0, 4.0, 0.0, 1.0, 1.0, 1.0, 0.0, 6.0, 2.0, 2.0, 1.0, 3.0, 0.0, 3.0, 2.0, 2.0, 0.0, 0.0, 6.0, 1.0, 1.0, 1.0, 1.0, 0.0, 1.0, 0.0, 3.0, 0.0, 0.0, 0.0, 4.0, 1.0, 0.0, 0.0, 1.0, 0.0, 2.0, 0.0, 0.0, 0.0, 0.0, 0.0, 0.0, 0.0, 1.0], "bins": [-0.00067138671875, -0.0006504058837890625, -0.000629425048828125, -0.0006084442138671875, -0.00058746337890625, -0.0005664825439453125, -0.000545501708984375, -0.0005245208740234375, -0.0005035400390625, -0.0004825592041015625, -0.000461578369140625, -0.0004405975341796875, -0.00041961669921875, -0.0003986358642578125, -0.000377655029296875, -0.0003566741943359375, -0.000335693359375, -0.0003147125244140625, -0.000293731689453125, -0.0002727508544921875, -0.00025177001953125, -0.0002307891845703125, -0.000209808349609375, -0.0001888275146484375, -0.0001678466796875, -0.0001468658447265625, -0.000125885009765625, -0.0001049041748046875, -8.392333984375e-05, -6.29425048828125e-05, -4.1961669921875e-05, -2.09808349609375e-05, 0.0, 2.09808349609375e-05, 4.1961669921875e-05, 6.29425048828125e-05, 8.392333984375e-05, 0.0001049041748046875, 0.000125885009765625, 0.0001468658447265625, 0.0001678466796875, 0.0001888275146484375, 0.000209808349609375, 0.0002307891845703125, 0.00025177001953125, 0.0002727508544921875, 0.000293731689453125, 0.0003147125244140625, 0.000335693359375, 0.0003566741943359375, 0.000377655029296875, 0.0003986358642578125, 0.00041961669921875, 0.0004405975341796875, 0.000461578369140625, 0.0004825592041015625, 0.0005035400390625, 0.0005245208740234375, 0.000545501708984375, 0.0005664825439453125, 0.00058746337890625, 0.0006084442138671875, 0.000629425048828125, 0.0006504058837890625, 0.00067138671875]}, "gradients/decoder.conv1.bn.weight": {"_type": "histogram", "values": [1.0, 1.0, 0.0, 0.0, 0.0, 0.0, 0.0, 0.0, 0.0, 2.0, 0.0, 1.0, 0.0, 1.0, 0.0, 0.0, 3.0, 0.0, 0.0, 0.0, 1.0, 2.0, 1.0, 1.0, 0.0, 4.0, 0.0, 2.0, 3.0, 2.0, 6.0, 5.0, 6.0, 6.0, 2.0, 2.0, 8.0, 2.0, 4.0, 1.0, 5.0, 6.0, 3.0, 4.0, 5.0, 2.0, 4.0, 6.0, 2.0, 3.0, 3.0, 1.0, 3.0, 2.0, 2.0, 4.0, 1.0, 0.0, 1.0, 1.0, 0.0, 1.0, 1.0, 1.0], "bins": [-3290.001953125, -3203.8173828125, -3117.6328125, -3031.4482421875, -2945.263916015625, -2859.079345703125, -2772.894775390625, -2686.710205078125, -2600.52587890625, -2514.34130859375, -2428.15673828125, -2341.97216796875, -2255.78759765625, -2169.60302734375, -2083.41845703125, -1997.234130859375, -1911.049560546875, -1824.864990234375, -1738.6805419921875, -1652.4959716796875, -1566.3115234375, -1480.126953125, -1393.9423828125, -1307.7579345703125, -1221.5732421875, -1135.388916015625, -1049.204345703125, -963.019775390625, -876.835205078125, -790.650634765625, -704.46630859375, -618.28173828125, -532.09716796875, -445.91259765625, -359.72802734375, -273.543701171875, -187.359130859375, -101.174560546875, -14.989990234375, 71.194580078125, 157.37890625, 243.5635986328125, 329.748046875, 415.9326171875, 502.1171875, 588.3016357421875, 674.4862060546875, 760.670654296875, 846.855224609375, 933.039794921875, 1019.2242431640625, 1105.4088134765625, 1191.59326171875, 1277.77783203125, 1363.96240234375, 1450.14697265625, 1536.3314208984375, 1622.515869140625, 1708.700439453125, 1794.885009765625, 1881.069580078125, 1967.2540283203125, 2053.4384765625, 2139.623046875, 2225.8076171875]}, "gradients/decoder.conv1.bn.bias": {"_type": "histogram", "values": [1.0, 0.0, 0.0, 0.0, 0.0, 0.0, 0.0, 0.0, 0.0, 1.0, 1.0, 0.0, 0.0, 4.0, 0.0, 0.0, 0.0, 2.0, 1.0, 1.0, 2.0, 1.0, 3.0, 1.0, 2.0, 3.0, 4.0, 5.0, 7.0, 4.0, 3.0, 3.0, 3.0, 3.0, 4.0, 4.0, 5.0, 7.0, 8.0, 3.0, 6.0, 4.0, 1.0, 3.0, 2.0, 3.0, 4.0, 1.0, 4.0, 1.0, 2.0, 1.0, 1.0, 1.0, 3.0, 0.0, 2.0, 1.0, 0.0, 1.0, 0.0, 0.0, 0.0, 1.0], "bins": [-1294.1103515625, -1258.2508544921875, -1222.391357421875, -1186.5318603515625, -1150.67236328125, -1114.81298828125, -1078.9534912109375, -1043.093994140625, -1007.2344970703125, -971.375, -935.5155029296875, -899.6560668945312, -863.7965698242188, -827.9370727539062, -792.07763671875, -756.2181396484375, -720.358642578125, -684.4991455078125, -648.6396484375, -612.7802124023438, -576.9207153320312, -541.0612182617188, -505.2017822265625, -469.34228515625, -433.4827880859375, -397.623291015625, -361.7637939453125, -325.90435791015625, -290.04486083984375, -254.1854248046875, -218.325927734375, -182.4664306640625, -146.60699462890625, -110.74749755859375, -74.88800048828125, -39.02850341796875, -3.1690673828125, 32.6904296875, 68.54986572265625, 104.40936279296875, 140.26885986328125, 176.12835693359375, 211.98785400390625, 247.8472900390625, 283.706787109375, 319.5662841796875, 355.42572021484375, 391.28521728515625, 427.14471435546875, 463.00421142578125, 498.8636779785156, 534.72314453125, 570.5826416015625, 606.442138671875, 642.3016357421875, 678.1610717773438, 714.0205688476562, 749.8800659179688, 785.739501953125, 821.5989990234375, 857.45849609375, 893.3179931640625, 929.177490234375, 965.0369262695312, 1000.8964233398438]}, "gradients/decoder.conv1.conv.weight": {"_type": "histogram", "values": [4.0, 2.0, 0.0, 2.0, 4.0, 4.0, 11.0, 12.0, 8.0, 21.0, 23.0, 30.0, 44.0, 65.0, 60.0, 104.0, 147.0, 225.0, 287.0, 446.0, 663.0, 988.0, 1536.0, 2392.0, 3739.0, 6292.0, 11843.0, 32881.0, 2099774.0, 153365.0, 20704.0, 9264.0, 5251.0, 3190.0, 1965.0, 1297.0, 861.0, 547.0, 370.0, 250.0, 174.0, 115.0, 87.0, 65.0, 48.0, 28.0, 19.0, 20.0, 19.0, 12.0, 8.0, 2.0, 9.0, 3.0, 4.0, 5.0, 2.0, 3.0, 0.0, 0.0, 0.0, 0.0, 0.0, 2.0], "bins": [-2071.48291015625, -1999.5911865234375, -1927.699462890625, -1855.8076171875, -1783.9158935546875, -1712.024169921875, -1640.13232421875, -1568.2406005859375, -1496.348876953125, -1424.4571533203125, -1352.5654296875, -1280.673583984375, -1208.7818603515625, -1136.89013671875, -1064.998291015625, -993.1065673828125, -921.21484375, -849.3231201171875, -777.431396484375, -705.53955078125, -633.6478271484375, -561.756103515625, -489.8642578125, -417.9725341796875, -346.080810546875, -274.1890869140625, -202.29736328125, -130.405517578125, -58.5137939453125, 13.3779296875, 85.269775390625, 157.161376953125, 229.052978515625, 300.94482421875, 372.83642578125, 444.728271484375, 516.6199951171875, 588.51171875, 660.403564453125, 732.2952880859375, 804.18701171875, 876.0787353515625, 947.970458984375, 1019.8623046875, 1091.7540283203125, 1163.645751953125, 1235.53759765625, 1307.4293212890625, 1379.321044921875, 1451.2127685546875, 1523.1044921875, 1594.996337890625, 1666.8880615234375, 1738.77978515625, 1810.671630859375, 1882.5633544921875, 1954.455078125, 2026.3468017578125, 2098.238525390625, 2170.13037109375, 2242.02197265625, 2313.913818359375, 2385.8056640625, 2457.697265625, 2529.589111328125]}, "gradients/decoder.conv1.conv.bias": {"_type": "histogram", "values": [1.0, 0.0, 0.0, 0.0, 0.0, 0.0, 0.0, 0.0, 0.0, 0.0, 0.0, 0.0, 0.0, 0.0, 0.0, 0.0, 0.0, 0.0, 0.0, 0.0, 0.0, 1.0, 0.0, 1.0, 1.0, 0.0, 0.0, 0.0, 0.0, 0.0, 1.0, 3.0, 0.0, 1.0, 1.0, 3.0, 1.0, 1.0, 9.0, 2.0, 3.0, 3.0, 6.0, 4.0, 7.0, 11.0, 14.0, 5.0, 2.0, 5.0, 6.0, 3.0, 1.0, 7.0, 10.0, 5.0, 1.0, 2.0, 1.0, 0.0, 3.0, 0.0, 0.0, 3.0], "bins": [-0.0015869140625, -0.0015524625778198242, -0.0015180110931396484, -0.0014835596084594727, -0.0014491081237792969, -0.001414656639099121, -0.0013802051544189453, -0.0013457536697387695, -0.0013113021850585938, -0.001276850700378418, -0.0012423992156982422, -0.0012079477310180664, -0.0011734962463378906, -0.0011390447616577148, -0.001104593276977539, -0.0010701417922973633, -0.0010356903076171875, -0.0010012388229370117, -0.0009667873382568359, -0.0009323358535766602, -0.0008978843688964844, -0.0008634328842163086, -0.0008289813995361328, -0.000794529914855957, -0.0007600784301757812, -0.0007256269454956055, -0.0006911754608154297, -0.0006567239761352539, -0.0006222724914550781, -0.0005878210067749023, -0.0005533695220947266, -0.0005189180374145508, -0.000484466552734375, -0.0004500150680541992, -0.00041556358337402344, -0.00038111209869384766, -0.0003466606140136719, -0.0003122091293334961, -0.0002777576446533203, -0.00024330615997314453, -0.00020885467529296875, -0.00017440319061279297, -0.0001399517059326172, -0.0001055002212524414, -7.104873657226562e-05, -3.6597251892089844e-05, -2.1457672119140625e-06, 3.230571746826172e-05, 6.67572021484375e-05, 0.00010120868682861328, 0.00013566017150878906, 0.00017011165618896484, 0.00020456314086914062, 0.0002390146255493164, 0.0002734661102294922, 0.00030791759490966797, 0.00034236907958984375, 0.00037682056427001953, 0.0004112720489501953, 0.0004457235336303711, 0.0004801750183105469, 0.0005146265029907227, 0.0005490779876708984, 0.0005835294723510742, 0.00061798095703125]}, "gradients/lstm.bias_hh_l1": {"_type": "histogram", "values": [1.0, 0.0, 0.0, 0.0, 0.0, 0.0, 0.0, 1.0, 1.0, 1.0, 0.0, 1.0, 0.0, 1.0, 3.0, 2.0, 0.0, 4.0, 4.0, 3.0, 5.0, 4.0, 6.0, 6.0, 9.0, 9.0, 12.0, 17.0, 13.0, 13.0, 17.0, 24.0, 28.0, 32.0, 36.0, 125.0, 1427.0, 42.0, 24.0, 30.0, 16.0, 20.0, 15.0, 15.0, 12.0, 8.0, 15.0, 8.0, 5.0, 6.0, 7.0, 3.0, 5.0, 0.0, 2.0, 0.0, 2.0, 2.0, 2.0, 0.0, 1.0, 2.0, 0.0, 1.0], "bins": [-408.5729675292969, -397.32049560546875, -386.0679931640625, -374.8155212402344, -363.56304931640625, -352.310546875, -341.0580749511719, -329.80560302734375, -318.5531005859375, -307.30059814453125, -296.0481262207031, -284.795654296875, -273.54315185546875, -262.2906799316406, -251.0382080078125, -239.7857208251953, -228.53323364257812, -217.28074645996094, -206.02825927734375, -194.77578735351562, -183.52330017089844, -172.27081298828125, -161.01834106445312, -149.76583862304688, -138.51336669921875, -127.26089477539062, -116.00839233398438, -104.75592041015625, -93.50344848632812, -82.25094604492188, -70.99847412109375, -59.7459716796875, -48.49346923828125, -37.240997314453125, -25.988494873046875, -14.73602294921875, -3.4835205078125, 7.768951416015625, 19.02142333984375, 30.27392578125, 41.526397705078125, 52.77886962890625, 64.0313720703125, 75.28384399414062, 86.53633117675781, 97.788818359375, 109.04129028320312, 120.29377746582031, 131.5462646484375, 142.7987518310547, 154.05123901367188, 165.3037109375, 176.5561981201172, 187.80868530273438, 199.0611572265625, 210.3136444091797, 221.56613159179688, 232.81861877441406, 244.07110595703125, 255.32357788085938, 266.5760498046875, 277.82855224609375, 289.0810241699219, 300.3335266113281, 311.58599853515625]}, "gradients/lstm.weight_hh_l1": {"_type": "histogram", "values": [1.0, 0.0, 0.0, 0.0, 0.0, 0.0, 1.0, 2.0, 3.0, 1.0, 0.0, 5.0, 4.0, 4.0, 11.0, 10.0, 22.0, 22.0, 33.0, 52.0, 83.0, 90.0, 126.0, 192.0, 257.0, 455.0, 653.0, 994.0, 1538.0, 2512.0, 4222.0, 7272.0, 13878.0, 33138.0, 895432.0, 48721.0, 17185.0, 8746.0, 4939.0, 2872.0, 1788.0, 1087.0, 732.0, 472.0, 319.0, 212.0, 131.0, 105.0, 79.0, 52.0, 33.0, 30.0, 17.0, 13.0, 7.0, 6.0, 4.0, 6.0, 3.0, 1.0, 1.0, 1.0, 0.0, 1.0], "bins": [-31.082765579223633, -30.185665130615234, -29.288564682006836, -28.391464233398438, -27.49436378479004, -26.59726333618164, -25.700164794921875, -24.803062438964844, -23.905963897705078, -23.008861541748047, -22.11176300048828, -21.21466064453125, -20.317562103271484, -19.420461654663086, -18.523361206054688, -17.62626075744629, -16.72916030883789, -15.832059860229492, -14.934959411621094, -14.037858963012695, -13.140758514404297, -12.243658065795898, -11.3465576171875, -10.449457168579102, -9.552358627319336, -8.655258178710938, -7.758157730102539, -6.861057281494141, -5.963956832885742, -5.066856384277344, -4.169755935668945, -3.272655487060547, -2.3755569458007812, -1.4784564971923828, -0.5813560485839844, 0.31574440002441406, 1.2128448486328125, 2.109945297241211, 3.0070457458496094, 3.904146194458008, 4.801246643066406, 5.698345184326172, 6.59544563293457, 7.492546081542969, 8.389646530151367, 9.286746978759766, 10.183847427368164, 11.080947875976562, 11.978048324584961, 12.87514877319336, 13.772249221801758, 14.669349670410156, 15.566450119018555, 16.463550567626953, 17.36064910888672, 18.25775146484375, 19.154850006103516, 20.051952362060547, 20.949050903320312, 21.84615135192871, 22.74325180053711, 23.640352249145508, 24.537452697753906, 25.434553146362305, 26.331653594970703]}, "gradients/lstm.bias_ih_l1": {"_type": "histogram", "values": [1.0, 0.0, 0.0, 0.0, 0.0, 0.0, 0.0, 1.0, 1.0, 1.0, 0.0, 1.0, 0.0, 1.0, 3.0, 2.0, 0.0, 4.0, 4.0, 3.0, 5.0, 4.0, 6.0, 6.0, 9.0, 9.0, 12.0, 17.0, 13.0, 13.0, 17.0, 24.0, 28.0, 32.0, 36.0, 125.0, 1427.0, 42.0, 24.0, 30.0, 16.0, 20.0, 15.0, 15.0, 12.0, 8.0, 15.0, 8.0, 5.0, 6.0, 7.0, 3.0, 5.0, 0.0, 2.0, 0.0, 2.0, 2.0, 2.0, 0.0, 1.0, 2.0, 0.0, 1.0], "bins": [-408.572998046875, -397.3205261230469, -386.0680236816406, -374.8155517578125, -363.56304931640625, -352.3105773925781, -341.05810546875, -329.80560302734375, -318.5531311035156, -307.3006286621094, -296.04815673828125, -284.795654296875, -273.5431823730469, -262.29071044921875, -251.03822326660156, -239.78573608398438, -228.5332489013672, -217.28076171875, -206.0282745361328, -194.7758026123047, -183.5233154296875, -172.2708282470703, -161.01834106445312, -149.765869140625, -138.51336669921875, -127.26089477539062, -116.00839233398438, -104.75592041015625, -93.50344848632812, -82.25094604492188, -70.99847412109375, -59.7459716796875, -48.493499755859375, -37.24102783203125, -25.988525390625, -14.736053466796875, -3.483551025390625, 7.7689208984375, 19.021392822265625, 30.273895263671875, 41.5263671875, 52.77886962890625, 64.03134155273438, 75.28382873535156, 86.53631591796875, 97.78880310058594, 109.04127502441406, 120.29376220703125, 131.54624938964844, 142.79873657226562, 154.0512237548828, 165.30369567871094, 176.55618286132812, 187.8086700439453, 199.0611572265625, 210.31362915039062, 221.56613159179688, 232.818603515625, 244.0710906982422, 255.32357788085938, 266.5760498046875, 277.82855224609375, 289.0810241699219, 300.3335266113281, 311.58599853515625]}, "gradients/lstm.weight_ih_l1": {"_type": "histogram", "values": [1.0, 0.0, 1.0, 1.0, 1.0, 0.0, 1.0, 5.0, 2.0, 8.0, 7.0, 8.0, 11.0, 18.0, 28.0, 31.0, 42.0, 62.0, 92.0, 117.0, 164.0, 240.0, 313.0, 474.0, 731.0, 1013.0, 1632.0, 2404.0, 3966.0, 6560.0, 11730.0, 24082.0, 634294.0, 307424.0, 23692.0, 11630.0, 6541.0, 3902.0, 2459.0, 1565.0, 1035.0, 710.0, 476.0, 333.0, 219.0, 147.0, 102.0, 82.0, 67.0, 43.0, 38.0, 18.0, 16.0, 9.0, 10.0, 10.0, 4.0, 1.0, 1.0, 0.0, 0.0, 0.0, 1.0, 2.0], "bins": [-109.65200805664062, -106.32862091064453, -103.00524139404297, -99.68185424804688, -96.35847473144531, -93.03508758544922, -89.71170043945312, -86.38832092285156, -83.06494140625, -79.7415542602539, -76.41816711425781, -73.09478759765625, -69.77140045166016, -66.44801330566406, -63.1246337890625, -59.80125045776367, -56.477867126464844, -53.154483795166016, -49.83110046386719, -46.50771713256836, -43.18433380126953, -39.86094665527344, -36.537567138671875, -33.21417999267578, -29.890792846679688, -26.567413330078125, -23.24402618408203, -19.92064666748047, -16.597259521484375, -13.273880004882812, -9.950492858886719, -6.627113342285156, -3.3037261962890625, 0.01966094970703125, 3.3430404663085938, 6.6664276123046875, 9.98980712890625, 13.313194274902344, 16.636573791503906, 19.9599609375, 23.283340454101562, 26.606727600097656, 29.93011474609375, 33.25349426269531, 36.576881408691406, 39.900264739990234, 43.22364807128906, 46.54703140258789, 49.87041473388672, 53.19379806518555, 56.517181396484375, 59.8405647277832, 63.16394805908203, 66.48733520507812, 69.81071472167969, 73.13410186767578, 76.45748901367188, 79.78086853027344, 83.104248046875, 86.4276351928711, 89.75102233886719, 93.07440185546875, 96.39778900146484, 99.7211685180664, 103.0445556640625]}, "gradients/lstm.bias_hh_l0": {"_type": "histogram", "values": [1.0, 0.0, 0.0, 1.0, 0.0, 0.0, 0.0, 0.0, 0.0, 2.0, 0.0, 2.0, 0.0, 2.0, 0.0, 1.0, 2.0, 4.0, 1.0, 9.0, 6.0, 5.0, 4.0, 10.0, 12.0, 14.0, 18.0, 16.0, 23.0, 22.0, 36.0, 48.0, 158.0, 1264.0, 165.0, 42.0, 31.0, 34.0, 19.0, 16.0, 16.0, 11.0, 13.0, 8.0, 7.0, 7.0, 3.0, 5.0, 4.0, 1.0, 2.0, 1.0, 0.0, 0.0, 0.0, 0.0, 0.0, 1.0, 0.0, 0.0, 0.0, 0.0, 0.0, 1.0], "bins": [-448.0888671875, -434.722900390625, -421.35693359375, -407.9909362792969, -394.6249694824219, -381.2590026855469, -367.89300537109375, -354.52703857421875, -341.16107177734375, -327.79510498046875, -314.42913818359375, -301.0631408691406, -287.6971740722656, -274.3312072753906, -260.9652099609375, -247.5992431640625, -234.2332763671875, -220.8673095703125, -207.50132751464844, -194.13534545898438, -180.76937866210938, -167.40341186523438, -154.03741455078125, -140.67144775390625, -127.30548095703125, -113.93951416015625, -100.57354736328125, -87.20755004882812, -73.84158325195312, -60.475616455078125, -47.109619140625, -33.74365234375, -20.377685546875, -7.01171875, 6.354248046875, 19.720245361328125, 33.086212158203125, 46.452178955078125, 59.81817626953125, 73.18414306640625, 86.55010986328125, 99.91607666015625, 113.28204345703125, 126.64804077148438, 140.01400756835938, 153.37997436523438, 166.74595642089844, 180.1119384765625, 193.4779052734375, 206.8438720703125, 220.20985412597656, 233.57583618164062, 246.94180297851562, 260.3077697753906, 273.67376708984375, 287.03973388671875, 300.40570068359375, 313.77166748046875, 327.13763427734375, 340.5036315917969, 353.8695983886719, 367.2355651855469, 380.6015625, 393.967529296875, 407.33349609375]}, "gradients/lstm.weight_hh_l0": {"_type": "histogram", "values": [1.0, 0.0, 1.0, 2.0, 2.0, 3.0, 2.0, 4.0, 1.0, 5.0, 5.0, 7.0, 13.0, 16.0, 9.0, 27.0, 27.0, 37.0, 50.0, 88.0, 84.0, 162.0, 239.0, 362.0, 506.0, 947.0, 1484.0, 2550.0, 4699.0, 8928.0, 19714.0, 92884.0, 860334.0, 29390.0, 11941.0, 5861.0, 3263.0, 1879.0, 1112.0, 658.0, 430.0, 253.0, 196.0, 109.0, 78.0, 54.0, 33.0, 32.0, 23.0, 14.0, 13.0, 9.0, 6.0, 6.0, 6.0, 4.0, 6.0, 1.0, 2.0, 0.0, 1.0, 1.0, 0.0, 2.0], "bins": [-95.91838073730469, -92.9390869140625, -89.95979309082031, -86.98049926757812, -84.00120544433594, -81.02190399169922, -78.04261016845703, -75.06331634521484, -72.08402252197266, -69.10472869873047, -66.12543487548828, -63.14613723754883, -60.16684341430664, -57.18754959106445, -54.208251953125, -51.22895812988281, -48.249664306640625, -45.27037048339844, -42.29107666015625, -39.3117790222168, -36.33248519897461, -33.35319137573242, -30.37389373779297, -27.39459991455078, -24.415306091308594, -21.436012268066406, -18.45671844482422, -15.477424621582031, -12.498123168945312, -9.518829345703125, -6.5395355224609375, -3.56024169921875, -0.5809402465820312, 2.3983535766601562, 5.377647399902344, 8.356941223144531, 11.336235046386719, 14.315536499023438, 17.294830322265625, 20.274124145507812, 23.25341796875, 26.232711791992188, 29.212005615234375, 32.19130325317383, 35.170597076416016, 38.1498908996582, 41.129188537597656, 44.108482360839844, 47.08777618408203, 50.06707000732422, 53.046363830566406, 56.02566146850586, 59.00495529174805, 61.984249114990234, 64.96354675292969, 67.94284057617188, 70.92213439941406, 73.90142822265625, 76.88072204589844, 79.86001586914062, 82.83930969238281, 85.81861114501953, 88.79790496826172, 91.7771987915039, 94.7564926147461]}, "gradients/lstm.bias_ih_l0": {"_type": "histogram", "values": [1.0, 0.0, 0.0, 1.0, 0.0, 0.0, 0.0, 0.0, 0.0, 2.0, 0.0, 2.0, 0.0, 2.0, 0.0, 1.0, 2.0, 4.0, 1.0, 9.0, 6.0, 5.0, 4.0, 10.0, 12.0, 14.0, 18.0, 16.0, 23.0, 22.0, 36.0, 48.0, 158.0, 1264.0, 165.0, 42.0, 31.0, 34.0, 19.0, 16.0, 16.0, 11.0, 13.0, 8.0, 7.0, 7.0, 3.0, 5.0, 4.0, 1.0, 2.0, 1.0, 0.0, 0.0, 0.0, 0.0, 0.0, 1.0, 0.0, 0.0, 0.0, 0.0, 0.0, 1.0], "bins": [-448.0888366699219, -434.7228698730469, -421.35687255859375, -407.99090576171875, -394.62493896484375, -381.25897216796875, -367.89300537109375, -354.5270080566406, -341.1610412597656, -327.7950744628906, -314.4290771484375, -301.0631103515625, -287.6971435546875, -274.3311767578125, -260.9652099609375, -247.59921264648438, -234.23324584960938, -220.86727905273438, -207.5012969970703, -194.13531494140625, -180.76934814453125, -167.40338134765625, -154.03738403320312, -140.67141723632812, -127.30545043945312, -113.93948364257812, -100.57351684570312, -87.20751953125, -73.841552734375, -60.4755859375, -47.109588623046875, -33.743621826171875, -20.377685546875, -7.01171875, 6.354248046875, 19.720245361328125, 33.086212158203125, 46.452178955078125, 59.81817626953125, 73.18414306640625, 86.55010986328125, 99.91607666015625, 113.28204345703125, 126.64804077148438, 140.01400756835938, 153.37997436523438, 166.74595642089844, 180.1119384765625, 193.4779052734375, 206.8438720703125, 220.20985412597656, 233.57583618164062, 246.94180297851562, 260.3077697753906, 273.67376708984375, 287.03973388671875, 300.40570068359375, 313.77166748046875, 327.13763427734375, 340.5036315917969, 353.8695983886719, 367.2355651855469, 380.6015625, 393.967529296875, 407.33349609375]}, "gradients/lstm.weight_ih_l0": {"_type": "histogram", "values": [2.0, 1.0, 2.0, 2.0, 2.0, 2.0, 3.0, 2.0, 3.0, 8.0, 6.0, 9.0, 7.0, 13.0, 16.0, 23.0, 40.0, 65.0, 67.0, 104.0, 136.0, 187.0, 268.0, 354.0, 610.0, 928.0, 1516.0, 2586.0, 4779.0, 12527.0, 213625.0, 12584.0, 4753.0, 2571.0, 1496.0, 922.0, 588.0, 414.0, 247.0, 181.0, 130.0, 98.0, 76.0, 55.0, 37.0, 16.0, 19.0, 9.0, 9.0, 7.0, 10.0, 8.0, 1.0, 6.0, 2.0, 1.0, 4.0, 0.0, 1.0, 2.0, 2.0, 0.0, 1.0, 1.0], "bins": [-508.3504333496094, -491.68499755859375, -475.01959228515625, -458.3541564941406, -441.688720703125, -425.0233154296875, -408.3578796386719, -391.69244384765625, -375.02703857421875, -358.36163330078125, -341.6961975097656, -325.03076171875, -308.3653564453125, -291.6999206542969, -275.03448486328125, -258.36907958984375, -241.70364379882812, -225.0382080078125, -208.372802734375, -191.70736694335938, -175.04196166992188, -158.37652587890625, -141.71109008789062, -125.04568481445312, -108.3802490234375, -91.71481323242188, -75.04940795898438, -58.38397216796875, -41.718536376953125, -25.053131103515625, -8.3876953125, 8.277740478515625, 24.943115234375, 41.6085205078125, 58.273956298828125, 74.93939208984375, 91.60479736328125, 108.27023315429688, 124.9356689453125, 141.60107421875, 158.26651000976562, 174.93194580078125, 191.59735107421875, 208.26278686523438, 224.92822265625, 241.5936279296875, 258.2590637207031, 274.9244689941406, 291.58990478515625, 308.25531005859375, 324.9207458496094, 341.586181640625, 358.2515869140625, 374.9170227050781, 391.58245849609375, 408.24786376953125, 424.9132995605469, 441.5787353515625, 458.244140625, 474.9095764160156, 491.57501220703125, 508.24041748046875, 524.9058227539062, 541.5712890625, 558.2366943359375]}, "gradients/encoder.fc.bias": {"_type": "histogram", "values": [2.0, 0.0, 0.0, 2.0, 0.0, 0.0, 1.0, 0.0, 0.0, 1.0, 2.0, 1.0, 0.0, 2.0, 0.0, 1.0, 4.0, 5.0, 1.0, 5.0, 4.0, 3.0, 2.0, 4.0, 2.0, 3.0, 4.0, 1.0, 3.0, 1.0, 3.0, 3.0, 5.0, 2.0, 3.0, 6.0, 5.0, 3.0, 6.0, 3.0, 2.0, 2.0, 4.0, 1.0, 3.0, 3.0, 2.0, 1.0, 2.0, 1.0, 0.0, 2.0, 0.0, 2.0, 2.0, 1.0, 0.0, 1.0, 0.0, 3.0, 0.0, 0.0, 2.0, 1.0], "bins": [-246.31434631347656, -238.76654052734375, -231.21873474121094, -223.67092895507812, -216.12313842773438, -208.57533264160156, -201.02752685546875, -193.47972106933594, -185.93191528320312, -178.38412475585938, -170.83631896972656, -163.28851318359375, -155.74070739746094, -148.19290161132812, -140.64511108398438, -133.09730529785156, -125.54949951171875, -118.00169372558594, -110.45388793945312, -102.90609741210938, -95.35829162597656, -87.81048583984375, -80.26268005371094, -72.71487426757812, -65.16706848144531, -57.61927795410156, -50.07147216796875, -42.52366638183594, -34.975860595703125, -27.428054809570312, -19.880264282226562, -12.33245849609375, -4.78466796875, 2.7631378173828125, 10.310943603515625, 17.858734130859375, 25.406539916992188, 32.954345703125, 40.50215148925781, 48.049957275390625, 55.597747802734375, 63.14555358886719, 70.693359375, 78.24116516113281, 85.78897094726562, 93.33677673339844, 100.88456726074219, 108.432373046875, 115.98017883300781, 123.52798461914062, 131.07577514648438, 138.62359619140625, 146.17138671875, 153.7191925048828, 161.26699829101562, 168.81478881835938, 176.36260986328125, 183.910400390625, 191.4582061767578, 199.00601196289062, 206.55381774902344, 214.10162353515625, 221.6494140625, 229.1972198486328, 236.74502563476562]}, "gradients/encoder.fc.weight": {"_type": "histogram", "values": [2.0, 2.0, 0.0, 1.0, 2.0, 1.0, 1.0, 4.0, 1.0, 4.0, 7.0, 5.0, 3.0, 6.0, 6.0, 11.0, 12.0, 17.0, 22.0, 40.0, 44.0, 49.0, 55.0, 78.0, 78.0, 112.0, 199.0, 208.0, 182.0, 316.0, 401.0, 852.0, 22333.0, 1428.0, 666.0, 447.0, 258.0, 204.0, 124.0, 109.0, 73.0, 87.0, 56.0, 68.0, 51.0, 48.0, 17.0, 22.0, 16.0, 11.0, 10.0, 7.0, 7.0, 7.0, 7.0, 4.0, 4.0, 4.0, 1.0, 3.0, 1.0, 2.0, 1.0, 3.0], "bins": [-1097.8193359375, -1064.407470703125, -1030.9957275390625, -997.5838623046875, -964.1719970703125, -930.7601928710938, -897.348388671875, -863.9365234375, -830.5247192382812, -797.1129150390625, -763.7010498046875, -730.2892456054688, -696.87744140625, -663.465576171875, -630.0537719726562, -596.6419677734375, -563.2301025390625, -529.8182983398438, -496.40643310546875, -462.99462890625, -429.582763671875, -396.17095947265625, -362.7591552734375, -329.3472900390625, -295.93548583984375, -262.523681640625, -229.11181640625, -195.70001220703125, -162.2882080078125, -128.8763427734375, -95.46453857421875, -62.052734375, -28.6407470703125, 4.7711181640625, 38.18292236328125, 71.5947265625, 105.006591796875, 138.41839599609375, 171.8302001953125, 205.2420654296875, 238.65386962890625, 272.065673828125, 305.4775390625, 338.88934326171875, 372.3011474609375, 405.7130126953125, 439.12481689453125, 472.53668212890625, 505.948486328125, 539.3603515625, 572.7721557617188, 606.1839599609375, 639.5958251953125, 673.0076293945312, 706.41943359375, 739.831298828125, 773.2431030273438, 806.6549072265625, 840.0667724609375, 873.4785766601562, 906.890380859375, 940.30224609375, 973.7140502929688, 1007.1259155273438, 1040.5377197265625]}, "gradients/encoder.conv3.bn.weight": {"_type": "histogram", "values": [0.0, 0.0, 0.0, 0.0, 0.0, 0.0, 0.0, 0.0, 0.0, 0.0, 0.0, 0.0, 0.0, 0.0, 0.0, 0.0, 0.0, 0.0, 0.0, 0.0, 0.0, 0.0, 0.0, 0.0, 0.0, 0.0, 0.0, 0.0, 0.0, 0.0, 0.0, 0.0, 1.0, 0.0, 0.0, 0.0, 0.0, 0.0, 0.0, 0.0, 0.0, 0.0, 0.0, 0.0, 0.0, 0.0, 0.0, 0.0, 0.0, 0.0, 0.0, 0.0, 0.0, 0.0, 0.0, 0.0, 0.0, 0.0, 0.0, 0.0, 0.0, 0.0, 0.0, 0.0], "bins": [78.903564453125, 78.903564453125, 78.903564453125, 78.903564453125, 78.903564453125, 78.903564453125, 78.903564453125, 78.903564453125, 78.903564453125, 78.903564453125, 78.903564453125, 78.903564453125, 78.903564453125, 78.903564453125, 78.903564453125, 78.903564453125, 78.903564453125, 78.903564453125, 78.903564453125, 78.903564453125, 78.903564453125, 78.903564453125, 78.903564453125, 78.903564453125, 78.903564453125, 78.903564453125, 78.903564453125, 78.903564453125, 78.903564453125, 78.903564453125, 78.903564453125, 78.903564453125, 78.903564453125, 78.903564453125, 78.903564453125, 78.903564453125, 78.903564453125, 78.903564453125, 78.903564453125, 78.903564453125, 78.903564453125, 78.903564453125, 78.903564453125, 78.903564453125, 78.903564453125, 78.903564453125, 78.903564453125, 78.903564453125, 78.903564453125, 78.903564453125, 78.903564453125, 78.903564453125, 78.903564453125, 78.903564453125, 78.903564453125, 78.903564453125, 78.903564453125, 78.903564453125, 78.903564453125, 78.903564453125, 78.903564453125, 78.903564453125, 78.903564453125, 78.903564453125, 78.903564453125]}, "gradients/encoder.conv3.bn.bias": {"_type": "histogram", "values": [0.0, 0.0, 0.0, 0.0, 0.0, 0.0, 0.0, 0.0, 0.0, 0.0, 0.0, 0.0, 0.0, 0.0, 0.0, 0.0, 0.0, 0.0, 0.0, 0.0, 0.0, 0.0, 0.0, 0.0, 0.0, 0.0, 0.0, 0.0, 0.0, 0.0, 0.0, 0.0, 1.0, 0.0, 0.0, 0.0, 0.0, 0.0, 0.0, 0.0, 0.0, 0.0, 0.0, 0.0, 0.0, 0.0, 0.0, 0.0, 0.0, 0.0, 0.0, 0.0, 0.0, 0.0, 0.0, 0.0, 0.0, 0.0, 0.0, 0.0, 0.0, 0.0, 0.0, 0.0], "bins": [-1041.16455078125, -1041.16455078125, -1041.16455078125, -1041.16455078125, -1041.16455078125, -1041.16455078125, -1041.16455078125, -1041.16455078125, -1041.16455078125, -1041.16455078125, -1041.16455078125, -1041.16455078125, -1041.16455078125, -1041.16455078125, -1041.16455078125, -1041.16455078125, -1041.16455078125, -1041.16455078125, -1041.16455078125, -1041.16455078125, -1041.16455078125, -1041.16455078125, -1041.16455078125, -1041.16455078125, -1041.16455078125, -1041.16455078125, -1041.16455078125, -1041.16455078125, -1041.16455078125, -1041.16455078125, -1041.16455078125, -1041.16455078125, -1041.16455078125, -1041.16455078125, -1041.16455078125, -1041.16455078125, -1041.16455078125, -1041.16455078125, -1041.16455078125, -1041.16455078125, -1041.16455078125, -1041.16455078125, -1041.16455078125, -1041.16455078125, -1041.16455078125, -1041.16455078125, -1041.16455078125, -1041.16455078125, -1041.16455078125, -1041.16455078125, -1041.16455078125, -1041.16455078125, -1041.16455078125, -1041.16455078125, -1041.16455078125, -1041.16455078125, -1041.16455078125, -1041.16455078125, -1041.16455078125, -1041.16455078125, -1041.16455078125, -1041.16455078125, -1041.16455078125, -1041.16455078125, -1041.16455078125]}, "gradients/encoder.conv3.conv.weight": {"_type": "histogram", "values": [1.0, 0.0, 0.0, 2.0, 0.0, 0.0, 1.0, 1.0, 0.0, 0.0, 0.0, 1.0, 0.0, 0.0, 0.0, 1.0, 0.0, 0.0, 1.0, 0.0, 1.0, 0.0, 0.0, 1.0, 1.0, 1.0, 0.0, 2.0, 1.0, 0.0, 0.0, 1.0, 0.0, 1.0, 1.0, 1.0, 3.0, 1.0, 2.0, 2.0, 3.0, 3.0, 3.0, 4.0, 5.0, 4.0, 1.0, 3.0, 2.0, 2.0, 0.0, 0.0, 2.0, 0.0, 0.0, 1.0, 1.0, 1.0, 0.0, 0.0, 0.0, 1.0, 0.0, 1.0], "bins": [-9841.419921875, -9596.365234375, -9351.3095703125, -9106.2548828125, -8861.2001953125, -8616.1455078125, -8371.08984375, -8126.03515625, -7880.98046875, -7635.92529296875, -7390.8701171875, -7145.8154296875, -6900.7607421875, -6655.70556640625, -6410.650390625, -6165.595703125, -5920.541015625, -5675.48583984375, -5430.4306640625, -5185.3759765625, -4940.32080078125, -4695.26611328125, -4450.2109375, -4205.15625, -3960.10107421875, -3715.04638671875, -3469.9912109375, -3224.9365234375, -2979.88134765625, -2734.82666015625, -2489.771484375, -2244.716796875, -1999.66162109375, -1754.6064453125, -1509.5517578125, -1264.49658203125, -1019.44189453125, -774.38671875, -529.33203125, -284.27685546875, -39.22216796875, 205.8330078125, 450.8876953125, 695.94287109375, 940.99755859375, 1186.052734375, 1431.107421875, 1676.16259765625, 1921.217529296875, 2166.2724609375, 2411.327392578125, 2656.38232421875, 2901.437255859375, 3146.4921875, 3391.547119140625, 3636.60205078125, 3881.6572265625, 4126.7119140625, 4371.76708984375, 4616.82177734375, 4861.876953125, 5106.931640625, 5351.98681640625, 5597.04150390625, 5842.0966796875]}, "gradients/encoder.conv3.conv.bias": {"_type": "histogram", "values": [0.0, 0.0, 0.0, 0.0, 0.0, 0.0, 0.0, 0.0, 0.0, 0.0, 0.0, 0.0, 0.0, 0.0, 0.0, 0.0, 0.0, 0.0, 0.0, 0.0, 0.0, 0.0, 0.0, 0.0, 0.0, 0.0, 0.0, 0.0, 0.0, 0.0, 0.0, 0.0, 1.0, 0.0, 0.0, 0.0, 0.0, 0.0, 0.0, 0.0, 0.0, 0.0, 0.0, 0.0, 0.0, 0.0, 0.0, 0.0, 0.0, 0.0, 0.0, 0.0, 0.0, 0.0, 0.0, 0.0, 0.0, 0.0, 0.0, 0.0, 0.0, 0.0, 0.0, 0.0], "bins": [-1.1444091796875e-05, -1.1444091796875e-05, -1.1444091796875e-05, -1.1444091796875e-05, -1.1444091796875e-05, -1.1444091796875e-05, -1.1444091796875e-05, -1.1444091796875e-05, -1.1444091796875e-05, -1.1444091796875e-05, -1.1444091796875e-05, -1.1444091796875e-05, -1.1444091796875e-05, -1.1444091796875e-05, -1.1444091796875e-05, -1.1444091796875e-05, -1.1444091796875e-05, -1.1444091796875e-05, -1.1444091796875e-05, -1.1444091796875e-05, -1.1444091796875e-05, -1.1444091796875e-05, -1.1444091796875e-05, -1.1444091796875e-05, -1.1444091796875e-05, -1.1444091796875e-05, -1.1444091796875e-05, -1.1444091796875e-05, -1.1444091796875e-05, -1.1444091796875e-05, -1.1444091796875e-05, -1.1444091796875e-05, -1.1444091796875e-05, -1.1444091796875e-05, -1.1444091796875e-05, -1.1444091796875e-05, -1.1444091796875e-05, -1.1444091796875e-05, -1.1444091796875e-05, -1.1444091796875e-05, -1.1444091796875e-05, -1.1444091796875e-05, -1.1444091796875e-05, -1.1444091796875e-05, -1.1444091796875e-05, -1.1444091796875e-05, -1.1444091796875e-05, -1.1444091796875e-05, -1.1444091796875e-05, -1.1444091796875e-05, -1.1444091796875e-05, -1.1444091796875e-05, -1.1444091796875e-05, -1.1444091796875e-05, -1.1444091796875e-05, -1.1444091796875e-05, -1.1444091796875e-05, -1.1444091796875e-05, -1.1444091796875e-05, -1.1444091796875e-05, -1.1444091796875e-05, -1.1444091796875e-05, -1.1444091796875e-05, -1.1444091796875e-05, -1.1444091796875e-05]}, "gradients/encoder.conv2.bn.weight": {"_type": "histogram", "values": [1.0, 0.0, 0.0, 0.0, 0.0, 0.0, 0.0, 0.0, 0.0, 0.0, 0.0, 0.0, 0.0, 0.0, 0.0, 0.0, 0.0, 0.0, 0.0, 0.0, 0.0, 2.0, 0.0, 0.0, 0.0, 0.0, 1.0, 0.0, 0.0, 1.0, 1.0, 0.0, 0.0, 0.0, 2.0, 1.0, 0.0, 0.0, 2.0, 1.0, 0.0, 0.0, 0.0, 0.0, 1.0, 0.0, 1.0, 1.0, 0.0, 0.0, 0.0, 0.0, 0.0, 0.0, 0.0, 0.0, 0.0, 0.0, 0.0, 0.0, 0.0, 0.0, 0.0, 1.0], "bins": [-1342.0418701171875, -1303.2266845703125, -1264.4114990234375, -1225.59619140625, -1186.781005859375, -1147.9658203125, -1109.150634765625, -1070.33544921875, -1031.520263671875, -992.7050170898438, -953.8898315429688, -915.0745849609375, -876.2593994140625, -837.4442138671875, -798.6290283203125, -759.8137817382812, -720.9985961914062, -682.1834106445312, -643.3681640625, -604.552978515625, -565.73779296875, -526.9225463867188, -488.10736083984375, -449.29217529296875, -410.4769287109375, -371.6617431640625, -332.8465576171875, -294.0313720703125, -255.2161865234375, -216.40087890625, -177.585693359375, -138.7705078125, -99.955322265625, -61.14013671875, -22.324951171875, 16.490234375, 55.3055419921875, 94.1207275390625, 132.9359130859375, 171.7510986328125, 210.5662841796875, 249.38153076171875, 288.19671630859375, 327.01190185546875, 365.8271484375, 404.642333984375, 443.45751953125, 482.27276611328125, 521.0879516601562, 559.9031372070312, 598.7183837890625, 637.5335693359375, 676.3487548828125, 715.1639404296875, 753.9791870117188, 792.7943725585938, 831.609619140625, 870.4248046875, 909.239990234375, 948.05517578125, 986.8704223632812, 1025.685546875, 1064.5008544921875, 1103.3160400390625, 1142.1312255859375]}, "gradients/encoder.conv2.bn.bias": {"_type": "histogram", "values": [1.0, 1.0, 0.0, 0.0, 0.0, 0.0, 0.0, 0.0, 0.0, 0.0, 0.0, 0.0, 0.0, 0.0, 1.0, 0.0, 0.0, 1.0, 0.0, 1.0, 0.0, 0.0, 0.0, 0.0, 0.0, 0.0, 0.0, 1.0, 0.0, 0.0, 0.0, 1.0, 1.0, 0.0, 1.0, 1.0, 0.0, 0.0, 0.0, 0.0, 0.0, 0.0, 0.0, 0.0, 1.0, 0.0, 0.0, 3.0, 0.0, 0.0, 0.0, 0.0, 0.0, 0.0, 0.0, 0.0, 0.0, 0.0, 0.0, 0.0, 0.0, 1.0, 0.0, 1.0], "bins": [-677.68408203125, -660.3873291015625, -643.090576171875, -625.7938232421875, -608.4970092773438, -591.2002563476562, -573.9035034179688, -556.6067504882812, -539.3099975585938, -522.01318359375, -504.7164611816406, -487.419677734375, -470.1229248046875, -452.826171875, -435.5294189453125, -418.2326354980469, -400.9358825683594, -383.6391296386719, -366.34234619140625, -349.04559326171875, -331.74884033203125, -314.4520568847656, -297.1553039550781, -279.8585510253906, -262.561767578125, -245.2650146484375, -227.96826171875, -210.6715087890625, -193.37472534179688, -176.07797241210938, -158.78118896484375, -141.48443603515625, -124.18765258789062, -106.89089965820312, -89.59414672851562, -72.29736328125, -55.0006103515625, -37.703826904296875, -20.407073974609375, -3.110321044921875, 14.186431884765625, 31.48321533203125, 48.77996826171875, 66.07672119140625, 83.37350463867188, 100.67025756835938, 117.96701049804688, 135.2637939453125, 152.560546875, 169.8572998046875, 187.15406799316406, 204.45083618164062, 221.74758911132812, 239.0443572998047, 256.34112548828125, 273.63787841796875, 290.93463134765625, 308.2314147949219, 325.5281677246094, 342.824951171875, 360.1217041015625, 377.41845703125, 394.7152099609375, 412.0119934082031, 429.3087463378906]}, "gradients/encoder.conv2.conv.weight": {"_type": "histogram", "values": [3.0, 1.0, 1.0, 3.0, 3.0, 1.0, 4.0, 6.0, 6.0, 6.0, 3.0, 9.0, 8.0, 16.0, 27.0, 22.0, 27.0, 32.0, 58.0, 80.0, 145.0, 197.0, 417.0, 443.0, 185.0, 104.0, 71.0, 31.0, 31.0, 13.0, 21.0, 10.0, 13.0, 4.0, 8.0, 5.0, 4.0, 4.0, 5.0, 1.0, 2.0, 1.0, 0.0, 2.0, 3.0, 1.0, 1.0, 1.0, 2.0, 1.0, 0.0, 0.0, 0.0, 0.0, 1.0, 0.0, 0.0, 1.0, 0.0, 2.0, 0.0, 1.0, 0.0, 1.0], "bins": [-3897.458740234375, -3727.819580078125, -3558.180419921875, -3388.541015625, -3218.90185546875, -3049.2626953125, -2879.62353515625, -2709.984375, -2540.34521484375, -2370.7060546875, -2201.066650390625, -2031.427490234375, -1861.788330078125, -1692.149169921875, -1522.509765625, -1352.87060546875, -1183.2314453125, -1013.59228515625, -843.953125, -674.313720703125, -504.674560546875, -335.035400390625, -165.396240234375, 4.242919921875, 173.882080078125, 343.521240234375, 513.160400390625, 682.800048828125, 852.439208984375, 1022.078369140625, 1191.717529296875, 1361.356689453125, 1530.99609375, 1700.63525390625, 1870.2744140625, 2039.91357421875, 2209.552734375, 2379.19189453125, 2548.83154296875, 2718.470703125, 2888.10986328125, 3057.7490234375, 3227.38818359375, 3397.02734375, 3566.66650390625, 3736.3056640625, 3905.945068359375, 4075.584228515625, 4245.2236328125, 4414.8623046875, 4584.501953125, 4754.14111328125, 4923.7802734375, 5093.41943359375, 5263.05859375, 5432.69775390625, 5602.3369140625, 5771.97607421875, 5941.615234375, 6111.2548828125, 6280.89404296875, 6450.533203125, 6620.17236328125, 6789.8115234375, 6959.45068359375]}, "gradients/encoder.conv2.conv.bias": {"_type": "histogram", "values": [1.0, 0.0, 0.0, 0.0, 0.0, 1.0, 0.0, 0.0, 0.0, 0.0, 0.0, 0.0, 1.0, 1.0, 0.0, 1.0, 0.0, 1.0, 1.0, 0.0, 1.0, 0.0, 1.0, 0.0, 1.0, 1.0, 0.0, 2.0, 0.0, 0.0, 0.0, 1.0, 0.0, 0.0, 0.0, 1.0, 0.0, 0.0, 0.0, 0.0, 0.0, 0.0, 0.0, 0.0, 0.0, 0.0, 0.0, 0.0, 0.0, 0.0, 0.0, 0.0, 0.0, 0.0, 0.0, 0.0, 0.0, 0.0, 0.0, 0.0, 0.0, 0.0, 0.0, 1.0], "bins": [-0.00011420249938964844, -0.00010888651013374329, -0.00010357052087783813, -9.825453162193298e-05, -9.293854236602783e-05, -8.762255311012268e-05, -8.230656385421753e-05, -7.699057459831238e-05, -7.167458534240723e-05, -6.635859608650208e-05, -6.104260683059692e-05, -5.572661757469177e-05, -5.041062831878662e-05, -4.509463906288147e-05, -3.977864980697632e-05, -3.446266055107117e-05, -2.9146671295166016e-05, -2.3830682039260864e-05, -1.8514692783355713e-05, -1.3198703527450562e-05, -7.88271427154541e-06, -2.566725015640259e-06, 2.7492642402648926e-06, 8.065253496170044e-06, 1.3381242752075195e-05, 1.8697232007980347e-05, 2.4013221263885498e-05, 2.932921051979065e-05, 3.46451997756958e-05, 3.996118903160095e-05, 4.5277178287506104e-05, 5.0593167543411255e-05, 5.5909156799316406e-05, 6.122514605522156e-05, 6.654113531112671e-05, 7.185712456703186e-05, 7.717311382293701e-05, 8.248910307884216e-05, 8.780509233474731e-05, 9.312108159065247e-05, 9.843707084655762e-05, 0.00010375306010246277, 0.00010906904935836792, 0.00011438503861427307, 0.00011970102787017822, 0.00012501701712608337, 0.00013033300638198853, 0.00013564899563789368, 0.00014096498489379883, 0.00014628097414970398, 0.00015159696340560913, 0.00015691295266151428, 0.00016222894191741943, 0.00016754493117332458, 0.00017286092042922974, 0.0001781769096851349, 0.00018349289894104004, 0.0001888088881969452, 0.00019412487745285034, 0.0001994408667087555, 0.00020475685596466064, 0.0002100728452205658, 0.00021538883447647095, 0.0002207048237323761, 0.00022602081298828125]}, "gradients/encoder.conv1.bn.weight": {"_type": "histogram", "values": [1.0, 0.0, 0.0, 0.0, 0.0, 0.0, 0.0, 0.0, 0.0, 2.0, 0.0, 0.0, 0.0, 0.0, 0.0, 0.0, 0.0, 0.0, 1.0, 0.0, 0.0, 1.0, 0.0, 0.0, 0.0, 3.0, 1.0, 0.0, 3.0, 3.0, 4.0, 3.0, 2.0, 0.0, 0.0, 1.0, 1.0, 1.0, 1.0, 1.0, 0.0, 0.0, 0.0, 1.0, 1.0, 0.0, 0.0, 0.0, 0.0, 0.0, 0.0, 0.0, 0.0, 0.0, 0.0, 0.0, 0.0, 0.0, 0.0, 0.0, 0.0, 0.0, 0.0, 1.0], "bins": [-1082.8018798828125, -1046.6700439453125, -1010.5382690429688, -974.406494140625, -938.274658203125, -902.142822265625, -866.0110473632812, -829.8792724609375, -793.7474365234375, -757.6156005859375, -721.4838256835938, -685.35205078125, -649.22021484375, -613.08837890625, -576.9566040039062, -540.8248291015625, -504.6929931640625, -468.5611572265625, -432.42938232421875, -396.297607421875, -360.165771484375, -324.033935546875, -287.90216064453125, -251.7703857421875, -215.6385498046875, -179.5067138671875, -143.37493896484375, -107.2431640625, -71.111328125, -34.9794921875, 1.1522216796875, 37.2840576171875, 73.4158935546875, 109.5477294921875, 145.6795654296875, 181.811279296875, 217.943115234375, 254.074951171875, 290.20672607421875, 326.3385009765625, 362.4703369140625, 398.6021728515625, 434.73394775390625, 470.86572265625, 506.99755859375, 543.12939453125, 579.2611694335938, 615.3929443359375, 651.5247802734375, 687.6566162109375, 723.7883911132812, 759.920166015625, 796.052001953125, 832.183837890625, 868.3156127929688, 904.4473876953125, 940.5792236328125, 976.7110595703125, 1012.8428344726562, 1048.974609375, 1085.1064453125, 1121.23828125, 1157.3701171875, 1193.5018310546875, 1229.6336669921875]}, "gradients/encoder.conv1.bn.bias": {"_type": "histogram", "values": [1.0, 0.0, 0.0, 0.0, 0.0, 0.0, 0.0, 0.0, 0.0, 0.0, 0.0, 0.0, 1.0, 1.0, 0.0, 0.0, 0.0, 0.0, 0.0, 0.0, 1.0, 1.0, 1.0, 0.0, 2.0, 0.0, 0.0, 0.0, 0.0, 1.0, 0.0, 2.0, 1.0, 3.0, 0.0, 2.0, 1.0, 3.0, 0.0, 3.0, 2.0, 0.0, 0.0, 2.0, 0.0, 0.0, 0.0, 1.0, 0.0, 0.0, 0.0, 0.0, 1.0, 0.0, 1.0, 0.0, 0.0, 0.0, 0.0, 0.0, 0.0, 0.0, 0.0, 1.0], "bins": [-404.32269287109375, -392.6601257324219, -380.9975280761719, -369.3349609375, -357.6723937988281, -346.00982666015625, -334.34722900390625, -322.6846618652344, -311.0220947265625, -299.3594970703125, -287.6969299316406, -276.03436279296875, -264.37176513671875, -252.70919799804688, -241.04661560058594, -229.38404846191406, -217.72146606445312, -206.0588836669922, -194.3963165283203, -182.73373413085938, -171.0711669921875, -159.40858459472656, -147.74600219726562, -136.08343505859375, -124.42083740234375, -112.75827026367188, -101.095703125, -89.43313598632812, -77.77053833007812, -66.10797119140625, -54.445404052734375, -42.782806396484375, -31.1202392578125, -19.457672119140625, -7.795074462890625, 3.86749267578125, 15.530059814453125, 27.192657470703125, 38.855224609375, 50.517791748046875, 62.18035888671875, 73.84295654296875, 85.50552368164062, 97.16810607910156, 108.8306884765625, 120.49325561523438, 132.1558380126953, 143.8184051513672, 155.48098754882812, 167.14356994628906, 178.80613708496094, 190.46871948242188, 202.13128662109375, 213.7938690185547, 225.45645141601562, 237.1190185546875, 248.78160095214844, 260.4441833496094, 272.10675048828125, 283.76934814453125, 295.4319152832031, 307.094482421875, 318.7570495605469, 330.4196472167969, 342.08221435546875]}, "gradients/encoder.conv1.conv.weight": {"_type": "histogram", "values": [1.0, 0.0, 0.0, 2.0, 1.0, 0.0, 3.0, 5.0, 6.0, 7.0, 24.0, 32.0, 38.0, 34.0, 53.0, 65.0, 90.0, 96.0, 105.0, 173.0, 281.0, 251.0, 179.0, 129.0, 106.0, 96.0, 81.0, 45.0, 29.0, 21.0, 18.0, 14.0, 15.0, 9.0, 11.0, 2.0, 5.0, 3.0, 3.0, 2.0, 0.0, 0.0, 2.0, 0.0, 0.0, 0.0, 1.0, 2.0, 0.0, 0.0, 0.0, 0.0, 0.0, 0.0, 0.0, 2.0, 3.0, 2.0, 0.0, 0.0, 0.0, 0.0, 0.0, 1.0], "bins": [-2128.55517578125, -2026.965087890625, -1925.375, -1823.784912109375, -1722.19482421875, -1620.604736328125, -1519.0146484375, -1417.424560546875, -1315.83447265625, -1214.244384765625, -1112.654296875, -1011.0640869140625, -909.4739990234375, -807.8839111328125, -706.2938232421875, -604.7037353515625, -503.1136474609375, -401.5235595703125, -299.9334716796875, -198.3433837890625, -96.7532958984375, 4.8369140625, 106.427001953125, 208.01708984375, 309.607177734375, 411.197265625, 512.787353515625, 614.37744140625, 715.967529296875, 817.5576171875, 919.147705078125, 1020.73779296875, 1122.327880859375, 1223.91796875, 1325.508056640625, 1427.09814453125, 1528.688232421875, 1630.2783203125, 1731.868408203125, 1833.45849609375, 1935.048583984375, 2036.638671875, 2138.228759765625, 2239.81884765625, 2341.4091796875, 2442.9990234375, 2544.58935546875, 2646.17919921875, 2747.76953125, 2849.359375, 2950.94970703125, 3052.53955078125, 3154.1298828125, 3255.7197265625, 3357.31005859375, 3458.900146484375, 3560.490234375, 3662.080322265625, 3763.67041015625, 3865.260498046875, 3966.8505859375, 4068.440673828125, 4170.03076171875, 4271.62060546875, 4373.2109375]}, "gradients/encoder.conv1.conv.bias": {"_type": "histogram", "values": [1.0, 0.0, 0.0, 0.0, 0.0, 0.0, 1.0, 0.0, 0.0, 0.0, 1.0, 0.0, 0.0, 0.0, 0.0, 0.0, 0.0, 0.0, 0.0, 0.0, 0.0, 0.0, 0.0, 0.0, 0.0, 0.0, 1.0, 0.0, 2.0, 1.0, 0.0, 2.0, 0.0, 1.0, 3.0, 1.0, 1.0, 1.0, 2.0, 0.0, 2.0, 1.0, 1.0, 0.0, 0.0, 1.0, 2.0, 3.0, 0.0, 1.0, 0.0, 0.0, 0.0, 1.0, 0.0, 0.0, 0.0, 0.0, 1.0, 0.0, 0.0, 0.0, 0.0, 1.0], "bins": [-1.4185905456542969e-05, -1.380033791065216e-05, -1.3414770364761353e-05, -1.3029202818870544e-05, -1.2643635272979736e-05, -1.2258067727088928e-05, -1.187250018119812e-05, -1.1486932635307312e-05, -1.1101365089416504e-05, -1.0715797543525696e-05, -1.0330229997634888e-05, -9.94466245174408e-06, -9.559094905853271e-06, -9.173527359962463e-06, -8.787959814071655e-06, -8.402392268180847e-06, -8.016824722290039e-06, -7.631257176399231e-06, -7.245689630508423e-06, -6.860122084617615e-06, -6.474554538726807e-06, -6.0889869928359985e-06, -5.7034194469451904e-06, -5.317851901054382e-06, -4.932284355163574e-06, -4.546716809272766e-06, -4.161149263381958e-06, -3.77558171749115e-06, -3.390014171600342e-06, -3.0044466257095337e-06, -2.6188790798187256e-06, -2.2333115339279175e-06, -1.8477439880371094e-06, -1.4621764421463013e-06, -1.0766088962554932e-06, -6.910413503646851e-07, -3.0547380447387695e-07, 8.009374141693115e-08, 4.6566128730773926e-07, 8.512288331985474e-07, 1.2367963790893555e-06, 1.6223639249801636e-06, 2.0079314708709717e-06, 2.3934990167617798e-06, 2.779066562652588e-06, 3.164634108543396e-06, 3.550201654434204e-06, 3.935769200325012e-06, 4.32133674621582e-06, 4.706904292106628e-06, 5.0924718379974365e-06, 5.478039383888245e-06, 5.863606929779053e-06, 6.249174475669861e-06, 6.634742021560669e-06, 7.020309567451477e-06, 7.405877113342285e-06, 7.791444659233093e-06, 8.177012205123901e-06, 8.56257975101471e-06, 8.948147296905518e-06, 9.333714842796326e-06, 9.719282388687134e-06, 1.0104849934577942e-05, 1.049041748046875e-05]}, "_wandb": {"runtime": 65}}