{"running train loss": 0.00016910507527730564, "running learning rate": 0.00029999811141943216, "training ssim": 0.9970336556434631, "training psnr": 35.75730895996094, "_timestamp": 1678863118.035478, "_runtime": 567.6987202167511, "_step": 5799, "running valid loss": 0.0004151379075160043, "predictions": {"_type": "image-file", "sha256": "c393094565a88aa78ca1558b84aef20394b0c2ea3c2cd49431960ee0f21a6b81", "size": 125919, "path": "media/images/predictions_5798_c393094565a88aa78ca1.png", "format": "png", "width": 1200, "height": 1200}, "validation ssim": 0.9959221482276917, "validation psnr": 36.05870056152344, "lr": 0.00029999811141943216, "train loss": 0.00016910507527730564, "valid loss": 0.0004151379075160043, "gradients/graph_2decoder.conv6.bn.weight": {"_type": "histogram", "values": [0.0, 0.0, 0.0, 0.0, 0.0, 0.0, 0.0, 0.0, 0.0, 0.0, 0.0, 0.0, 0.0, 0.0, 0.0, 0.0, 0.0, 0.0, 0.0, 0.0, 0.0, 0.0, 0.0, 0.0, 0.0, 0.0, 0.0, 0.0, 0.0, 0.0, 0.0, 0.0, 1.0, 0.0, 0.0, 0.0, 0.0, 0.0, 0.0, 0.0, 0.0, 0.0, 0.0, 0.0, 0.0, 0.0, 0.0, 0.0, 0.0, 0.0, 0.0, 0.0, 0.0, 0.0, 0.0, 0.0, 0.0, 0.0, 0.0, 0.0, 0.0, 0.0, 0.0, 0.0], "bins": [-4.9945487262448296e-05, -4.9945487262448296e-05, -4.9945487262448296e-05, -4.9945487262448296e-05, -4.9945487262448296e-05, -4.9945487262448296e-05, -4.9945487262448296e-05, -4.9945487262448296e-05, -4.9945487262448296e-05, -4.9945487262448296e-05, -4.9945487262448296e-05, -4.9945487262448296e-05, -4.9945487262448296e-05, -4.9945487262448296e-05, -4.9945487262448296e-05, -4.9945487262448296e-05, -4.9945487262448296e-05, -4.9945487262448296e-05, -4.9945487262448296e-05, -4.9945487262448296e-05, -4.9945487262448296e-05, -4.9945487262448296e-05, -4.9945487262448296e-05, -4.9945487262448296e-05, -4.9945487262448296e-05, -4.9945487262448296e-05, -4.9945487262448296e-05, -4.9945487262448296e-05, -4.9945487262448296e-05, -4.9945487262448296e-05, -4.9945487262448296e-05, -4.9945487262448296e-05, -4.9945487262448296e-05, -4.9945487262448296e-05, -4.9945487262448296e-05, -4.9945487262448296e-05, -4.9945487262448296e-05, -4.9945487262448296e-05, -4.9945487262448296e-05, -4.9945487262448296e-05, -4.9945487262448296e-05, -4.9945487262448296e-05, -4.9945487262448296e-05, -4.9945487262448296e-05, -4.9945487262448296e-05, -4.9945487262448296e-05, -4.9945487262448296e-05, -4.9945487262448296e-05, -4.9945487262448296e-05, -4.9945487262448296e-05, -4.9945487262448296e-05, -4.9945487262448296e-05, -4.9945487262448296e-05, -4.9945487262448296e-05, -4.9945487262448296e-05, -4.9945487262448296e-05, -4.9945487262448296e-05, -4.9945487262448296e-05, -4.9945487262448296e-05, -4.9945487262448296e-05, -4.9945487262448296e-05, -4.9945487262448296e-05, -4.9945487262448296e-05, -4.9945487262448296e-05, -4.9945487262448296e-05]}, "gradients/graph_2decoder.conv6.bn.bias": {"_type": "histogram", "values": [0.0, 0.0, 0.0, 0.0, 0.0, 0.0, 0.0, 0.0, 0.0, 0.0, 0.0, 0.0, 0.0, 0.0, 0.0, 0.0, 0.0, 0.0, 0.0, 0.0, 0.0, 0.0, 0.0, 0.0, 0.0, 0.0, 0.0, 0.0, 0.0, 0.0, 0.0, 0.0, 1.0, 0.0, 0.0, 0.0, 0.0, 0.0, 0.0, 0.0, 0.0, 0.0, 0.0, 0.0, 0.0, 0.0, 0.0, 0.0, 0.0, 0.0, 0.0, 0.0, 0.0, 0.0, 0.0, 0.0, 0.0, 0.0, 0.0, 0.0, 0.0, 0.0, 0.0, 0.0], "bins": [-6.082048639655113e-05, -6.082048639655113e-05, -6.082048639655113e-05, -6.082048639655113e-05, -6.082048639655113e-05, -6.082048639655113e-05, -6.082048639655113e-05, -6.082048639655113e-05, -6.082048639655113e-05, -6.082048639655113e-05, -6.082048639655113e-05, -6.082048639655113e-05, -6.082048639655113e-05, -6.082048639655113e-05, -6.082048639655113e-05, -6.082048639655113e-05, -6.082048639655113e-05, -6.082048639655113e-05, -6.082048639655113e-05, -6.082048639655113e-05, -6.082048639655113e-05, -6.082048639655113e-05, -6.082048639655113e-05, -6.082048639655113e-05, -6.082048639655113e-05, -6.082048639655113e-05, -6.082048639655113e-05, -6.082048639655113e-05, -6.082048639655113e-05, -6.082048639655113e-05, -6.082048639655113e-05, -6.082048639655113e-05, -6.082048639655113e-05, -6.082048639655113e-05, -6.082048639655113e-05, -6.082048639655113e-05, -6.082048639655113e-05, -6.082048639655113e-05, -6.082048639655113e-05, -6.082048639655113e-05, -6.082048639655113e-05, -6.082048639655113e-05, -6.082048639655113e-05, -6.082048639655113e-05, -6.082048639655113e-05, -6.082048639655113e-05, -6.082048639655113e-05, -6.082048639655113e-05, -6.082048639655113e-05, -6.082048639655113e-05, -6.082048639655113e-05, -6.082048639655113e-05, -6.082048639655113e-05, -6.082048639655113e-05, -6.082048639655113e-05, -6.082048639655113e-05, -6.082048639655113e-05, -6.082048639655113e-05, -6.082048639655113e-05, -6.082048639655113e-05, -6.082048639655113e-05, -6.082048639655113e-05, -6.082048639655113e-05, -6.082048639655113e-05, -6.082048639655113e-05]}, "gradients/graph_2decoder.conv6.conv.weight": {"_type": "histogram", "values": [1.0, 0.0, 0.0, 0.0, 0.0, 1.0, 0.0, 1.0, 0.0, 0.0, 0.0, 0.0, 0.0, 0.0, 2.0, 1.0, 1.0, 1.0, 0.0, 1.0, 1.0, 1.0, 0.0, 3.0, 2.0, 5.0, 3.0, 3.0, 2.0, 4.0, 4.0, 6.0, 2.0, 4.0, 4.0, 5.0, 7.0, 3.0, 4.0, 4.0, 6.0, 7.0, 4.0, 1.0, 3.0, 2.0, 3.0, 5.0, 1.0, 1.0, 1.0, 0.0, 1.0, 0.0, 3.0, 1.0, 1.0, 2.0, 3.0, 1.0, 2.0, 1.0, 2.0, 1.0], "bins": [-1.9600374798756093e-05, -1.8971928511746228e-05, -1.8343484043725766e-05, -1.7715039575705305e-05, -1.708659328869544e-05, -1.6458147001685575e-05, -1.5829702533665113e-05, -1.520125715614995e-05, -1.4572811778634787e-05, -1.3944366401119623e-05, -1.331592102360446e-05, -1.2687475646089297e-05, -1.2059030268574134e-05, -1.143058489105897e-05, -1.0802139513543807e-05, -1.0173694136028644e-05, -9.54524875851348e-06, -8.916803380998317e-06, -8.288358003483154e-06, -7.65991262596799e-06, -7.031467248452827e-06, -6.403021870937664e-06, -5.774576493422501e-06, -5.1461311159073375e-06, -4.517685738392174e-06, -3.889239451382309e-06, -3.2607949833618477e-06, -2.632350515341386e-06, -2.003904228331521e-06, -1.3754579413216561e-06, -7.470134733011946e-07, -1.1856900528073311e-07, 5.098772817291319e-07, 1.138323568738997e-06, 1.7667680367594585e-06, 2.39521250477992e-06, 3.023658791789785e-06, 3.65210507879965e-06, 4.2805495468201116e-06, 4.908994014840573e-06, 5.537440301850438e-06, 6.165885679365601e-06, 6.794331056880765e-06, 7.422776434395928e-06, 8.051221811911091e-06, 8.679667189426254e-06, 9.308112566941418e-06, 9.936557944456581e-06, 1.0565003321971744e-05, 1.1193448699486908e-05, 1.182189407700207e-05, 1.2450339454517234e-05, 1.3078784832032397e-05, 1.370723020954756e-05, 1.4335675587062724e-05, 1.4964120964577887e-05, 1.559256634209305e-05, 1.6221012629102916e-05, 1.6849457097123377e-05, 1.747790156514384e-05, 1.8106347852153704e-05, 1.873479413916357e-05, 1.936323860718403e-05, 1.999168307520449e-05, 2.0620129362214357e-05]}, "gradients/graph_2decoder.conv6.conv.bias": {"_type": "histogram", "values": [0.0, 0.0, 0.0, 0.0, 0.0, 0.0, 0.0, 0.0, 0.0, 0.0, 0.0, 0.0, 0.0, 0.0, 0.0, 0.0, 0.0, 0.0, 0.0, 0.0, 0.0, 0.0, 0.0, 0.0, 0.0, 0.0, 0.0, 0.0, 0.0, 0.0, 0.0, 0.0, 1.0, 0.0, 0.0, 0.0, 0.0, 0.0, 0.0, 0.0, 0.0, 0.0, 0.0, 0.0, 0.0, 0.0, 0.0, 0.0, 0.0, 0.0, 0.0, 0.0, 0.0, 0.0, 0.0, 0.0, 0.0, 0.0, 0.0, 0.0, 0.0, 0.0, 0.0, 0.0], "bins": [1.4551915228366852e-11, 1.4551915228366852e-11, 1.4551915228366852e-11, 1.4551915228366852e-11, 1.4551915228366852e-11, 1.4551915228366852e-11, 1.4551915228366852e-11, 1.4551915228366852e-11, 1.4551915228366852e-11, 1.4551915228366852e-11, 1.4551915228366852e-11, 1.4551915228366852e-11, 1.4551915228366852e-11, 1.4551915228366852e-11, 1.4551915228366852e-11, 1.4551915228366852e-11, 1.4551915228366852e-11, 1.4551915228366852e-11, 1.4551915228366852e-11, 1.4551915228366852e-11, 1.4551915228366852e-11, 1.4551915228366852e-11, 1.4551915228366852e-11, 1.4551915228366852e-11, 1.4551915228366852e-11, 1.4551915228366852e-11, 1.4551915228366852e-11, 1.4551915228366852e-11, 1.4551915228366852e-11, 1.4551915228366852e-11, 1.4551915228366852e-11, 1.4551915228366852e-11, 1.4551915228366852e-11, 1.4551915228366852e-11, 1.4551915228366852e-11, 1.4551915228366852e-11, 1.4551915228366852e-11, 1.4551915228366852e-11, 1.4551915228366852e-11, 1.4551915228366852e-11, 1.4551915228366852e-11, 1.4551915228366852e-11, 1.4551915228366852e-11, 1.4551915228366852e-11, 1.4551915228366852e-11, 1.4551915228366852e-11, 1.4551915228366852e-11, 1.4551915228366852e-11, 1.4551915228366852e-11, 1.4551915228366852e-11, 1.4551915228366852e-11, 1.4551915228366852e-11, 1.4551915228366852e-11, 1.4551915228366852e-11, 1.4551915228366852e-11, 1.4551915228366852e-11, 1.4551915228366852e-11, 1.4551915228366852e-11, 1.4551915228366852e-11, 1.4551915228366852e-11, 1.4551915228366852e-11, 1.4551915228366852e-11, 1.4551915228366852e-11, 1.4551915228366852e-11, 1.4551915228366852e-11]}, "gradients/graph_2decoder.conv5.bn.weight": {"_type": "histogram", "values": [1.0, 0.0, 0.0, 0.0, 0.0, 1.0, 0.0, 1.0, 0.0, 0.0, 0.0, 0.0, 0.0, 0.0, 0.0, 0.0, 0.0, 0.0, 0.0, 0.0, 1.0, 0.0, 0.0, 0.0, 0.0, 0.0, 0.0, 0.0, 0.0, 0.0, 0.0, 0.0, 0.0, 0.0, 0.0, 0.0, 0.0, 0.0, 0.0, 0.0, 0.0, 0.0, 0.0, 0.0, 0.0, 0.0, 0.0, 0.0, 0.0, 0.0, 0.0, 1.0, 1.0, 0.0, 0.0, 1.0, 0.0, 0.0, 0.0, 0.0, 0.0, 0.0, 0.0, 1.0], "bins": [-5.874733687960543e-06, -5.685416908818297e-06, -5.4961001296760514e-06, -5.306783350533806e-06, -5.117467026138911e-06, -4.928150246996665e-06, -4.73883346785442e-06, -4.549516688712174e-06, -4.360200364317279e-06, -4.170883585175034e-06, -3.981566806032788e-06, -3.7922500268905424e-06, -3.6029332477482967e-06, -3.4136166959797265e-06, -3.224299916837481e-06, -3.0349833650689106e-06, -2.845666585926665e-06, -2.6563498067844193e-06, -2.467033255015849e-06, -2.2777164758736035e-06, -2.0883999241050333e-06, -1.8990831449627876e-06, -1.709766365820542e-06, -1.5204495866782963e-06, -1.3311328075360507e-06, -1.141816483141156e-06, -9.524997039989103e-07, -7.631829248566646e-07, -5.73866145714419e-07, -3.845493665721733e-07, -1.9523304217727855e-07, -5.916263035032898e-09, 1.8340006135986187e-07, 3.727168405021075e-07, 5.620336196443532e-07, 7.513499440392479e-07, 9.406667231814936e-07, 1.1299835023237392e-06, 1.3193002814659849e-06, 1.5086170606082305e-06, 1.6979333850031253e-06, 1.887250164145371e-06, 2.0765669432876166e-06, 2.2658837224298622e-06, 2.455200501572108e-06, 2.644517053340678e-06, 2.8338338324829238e-06, 3.023150384251494e-06, 3.2124671633937396e-06, 3.4017839425359853e-06, 3.5911004943045555e-06, 3.780417273446801e-06, 3.969733825215371e-06, 4.159050604357617e-06, 4.348367383499863e-06, 4.537684162642108e-06, 4.727000487037003e-06, 4.916317266179249e-06, 5.105634045321494e-06, 5.29495082446374e-06, 5.484267603605986e-06, 5.673584382748231e-06, 5.862900707143126e-06, 6.052217486285372e-06, 6.241534265427617e-06]}, "gradients/graph_2decoder.conv5.bn.bias": {"_type": "histogram", "values": [1.0, 0.0, 1.0, 0.0, 0.0, 0.0, 0.0, 0.0, 0.0, 0.0, 0.0, 0.0, 0.0, 0.0, 0.0, 0.0, 0.0, 0.0, 0.0, 0.0, 0.0, 0.0, 0.0, 0.0, 1.0, 0.0, 0.0, 0.0, 0.0, 0.0, 0.0, 0.0, 0.0, 1.0, 0.0, 0.0, 0.0, 1.0, 0.0, 0.0, 0.0, 0.0, 0.0, 0.0, 0.0, 0.0, 0.0, 0.0, 0.0, 0.0, 1.0, 0.0, 0.0, 0.0, 0.0, 0.0, 0.0, 0.0, 0.0, 0.0, 0.0, 1.0, 0.0, 1.0], "bins": [-1.5822679415578023e-05, -1.5468831406906247e-05, -1.5114984307729173e-05, -1.4761136299057398e-05, -1.4407289199880324e-05, -1.4053441191208549e-05, -1.3699593182536773e-05, -1.33457460833597e-05, -1.2991898074687924e-05, -1.263805097551085e-05, -1.2284202966839075e-05, -1.19303549581673e-05, -1.1576507858990226e-05, -1.1222660759813152e-05, -1.0868812751141377e-05, -1.0514964742469601e-05, -1.0161116733797826e-05, -9.807269634620752e-06, -9.453422535443678e-06, -9.099574526771903e-06, -8.745726518100128e-06, -8.391878509428352e-06, -8.038031410251278e-06, -7.684183401579503e-06, -7.330336302402429e-06, -6.976488293730654e-06, -6.62264119455358e-06, -6.268793185881805e-06, -5.914945177210029e-06, -5.5610980780329555e-06, -5.20725006936118e-06, -4.853402970184106e-06, -4.499554961512331e-06, -4.1457069528405555e-06, -3.7918598536634818e-06, -3.4380118449917063e-06, -3.0841647458146326e-06, -2.730316737142857e-06, -2.3764687284710817e-06, -2.022621629294008e-06, -1.6687736206222326e-06, -1.3149265214451589e-06, -9.610785127733834e-07, -6.072309588489588e-07, -2.5338340492453426e-07, 1.0046414899989031e-07, 4.5431215767166577e-07, 8.081597115960903e-07, 1.162007265520515e-06, 1.5158548194449395e-06, 1.869702373369364e-06, 2.2235503820411395e-06, 2.577397935965564e-06, 2.9312454898899887e-06, 3.2850930438144132e-06, 3.6389408251125133e-06, 3.992788151663262e-06, 4.346636160335038e-06, 4.7004837142594624e-06, 5.054331268183887e-06, 5.408178822108312e-06, 5.762026376032736e-06, 6.115874384704512e-06, 6.469721938628936e-06, 6.823569492553361e-06]}, "gradients/graph_2decoder.conv5.conv.weight": {"_type": "histogram", "values": [1.0, 0.0, 0.0, 1.0, 0.0, 0.0, 2.0, 1.0, 2.0, 2.0, 0.0, 2.0, 0.0, 2.0, 5.0, 4.0, 9.0, 9.0, 11.0, 22.0, 6.0, 20.0, 21.0, 22.0, 37.0, 38.0, 47.0, 44.0, 61.0, 58.0, 82.0, 92.0, 95.0, 131.0, 131.0, 124.0, 121.0, 116.0, 114.0, 89.0, 91.0, 77.0, 48.0, 57.0, 55.0, 41.0, 32.0, 23.0, 24.0, 20.0, 8.0, 12.0, 6.0, 3.0, 3.0, 5.0, 5.0, 3.0, 2.0, 3.0, 4.0, 1.0, 1.0, 2.0], "bins": [-2.398360265942756e-05, -2.3292590412893333e-05, -2.2601578166359104e-05, -2.1910564100835472e-05, -2.1219551854301244e-05, -2.0528539607767016e-05, -1.9837527361232787e-05, -1.914651511469856e-05, -1.845550286816433e-05, -1.77644888026407e-05, -1.707347655610647e-05, -1.6382464309572242e-05, -1.5691452063038014e-05, -1.5000438907009084e-05, -1.4309426660474855e-05, -1.3618413504445925e-05, -1.2927401257911697e-05, -1.2236389011377469e-05, -1.1545375855348539e-05, -1.085436360881431e-05, -1.016335045278538e-05, -9.472338206251152e-06, -8.781325959716924e-06, -8.090313713182695e-06, -7.399301466648467e-06, -6.708287401124835e-06, -6.017275154590607e-06, -5.326262908056378e-06, -4.63525066152215e-06, -3.944238414987922e-06, -3.25322434946429e-06, -2.5622121029300615e-06, -1.8711980374064296e-06, -1.1801857908722013e-06, -4.89173544337973e-07, 2.0184052118565887e-07, 8.928527677198872e-07, 1.5838650142541155e-06, 2.274877260788344e-06, 2.965889507322572e-06, 3.656903572846204e-06, 4.347915819380432e-06, 5.038928065914661e-06, 5.729940312448889e-06, 6.420952558983117e-06, 7.1119657150120474e-06, 7.802977961546276e-06, 8.493991117575206e-06, 9.185003364109434e-06, 9.876015610643663e-06, 1.0567028766672593e-05, 1.1258041013206821e-05, 1.1949054169235751e-05, 1.264006641576998e-05, 1.3331078662304208e-05, 1.4022090908838436e-05, 1.4713104064867366e-05, 1.5404117220896296e-05, 1.6095129467430525e-05, 1.6786141713964753e-05, 1.747715396049898e-05, 1.8168168026022613e-05, 1.885918027255684e-05, 1.955019251909107e-05, 2.0241204765625298e-05]}, "gradients/graph_2decoder.conv5.conv.bias": {"_type": "histogram", "values": [1.0, 0.0, 0.0, 0.0, 1.0, 0.0, 0.0, 0.0, 0.0, 0.0, 1.0, 0.0, 0.0, 0.0, 1.0, 0.0, 1.0, 0.0, 0.0, 0.0, 0.0, 0.0, 0.0, 0.0, 1.0, 0.0, 0.0, 1.0, 0.0, 0.0, 0.0, 0.0, 0.0, 0.0, 0.0, 0.0, 0.0, 0.0, 0.0, 0.0, 0.0, 0.0, 0.0, 0.0, 0.0, 0.0, 0.0, 0.0, 0.0, 0.0, 0.0, 0.0, 0.0, 0.0, 0.0, 0.0, 0.0, 0.0, 0.0, 0.0, 0.0, 0.0, 0.0, 1.0], "bins": [-9.43600753089413e-12, -8.819611707622244e-12, -8.203215884350357e-12, -7.58682006107847e-12, -6.970424237806583e-12, -6.354028414534696e-12, -5.737632591262809e-12, -5.121236767990922e-12, -4.504840944719035e-12, -3.888445121447148e-12, -3.2720492981752614e-12, -2.6556534749033744e-12, -2.0392576516314875e-12, -1.4228618283596006e-12, -8.064660050877137e-13, -1.900701818158268e-13, 4.263256414560601e-13, 1.042721464727947e-12, 1.659117287999834e-12, 2.275513111271721e-12, 2.8919089345436078e-12, 3.5083047578154947e-12, 4.1247005810873816e-12, 4.7410964043592685e-12, 5.357492227631155e-12, 5.973888050903042e-12, 6.590283874174929e-12, 7.206679697446816e-12, 7.823075520718703e-12, 8.43947134399059e-12, 9.055867167262477e-12, 9.672262990534364e-12, 1.028865881380625e-11, 1.0905054637078138e-11, 1.1521450460350025e-11, 1.2137846283621911e-11, 1.2754242106893798e-11, 1.3370637930165685e-11, 1.3987033753437572e-11, 1.460342957670946e-11, 1.5219825399981346e-11, 1.5836221223253233e-11, 1.645261704652512e-11, 1.7069012869797007e-11, 1.7685408693068894e-11, 1.830180451634078e-11, 1.8918200339612667e-11, 1.9534596162884554e-11, 2.015099198615644e-11, 2.0767387809428328e-11, 2.1383783632700215e-11, 2.2000179455972102e-11, 2.261657527924399e-11, 2.3232971102515876e-11, 2.3849366925787763e-11, 2.446576274905965e-11, 2.5082158572331537e-11, 2.5698554395603423e-11, 2.631495021887531e-11, 2.6931346042147197e-11, 2.7547741865419084e-11, 2.816413768869097e-11, 2.8780533511962858e-11, 2.9396929335234745e-11, 3.001332515850663e-11]}, "gradients/graph_2decoder.conv4.bn.weight": {"_type": "histogram", "values": [1.0, 0.0, 0.0, 0.0, 0.0, 0.0, 0.0, 0.0, 0.0, 1.0, 0.0, 0.0, 0.0, 0.0, 0.0, 0.0, 1.0, 0.0, 0.0, 0.0, 0.0, 0.0, 0.0, 0.0, 1.0, 1.0, 1.0, 0.0, 0.0, 0.0, 1.0, 0.0, 1.0, 0.0, 0.0, 0.0, 0.0, 0.0, 1.0, 0.0, 0.0, 0.0, 1.0, 0.0, 2.0, 0.0, 0.0, 1.0, 0.0, 0.0, 0.0, 0.0, 0.0, 1.0, 0.0, 0.0, 1.0, 0.0, 0.0, 0.0, 0.0, 0.0, 0.0, 1.0], "bins": [-5.1758911467914e-06, -5.024603069614386e-06, -4.873314992437372e-06, -4.722026915260358e-06, -4.570738838083344e-06, -4.419450760906329e-06, -4.268162683729315e-06, -4.116875061299652e-06, -3.965586984122638e-06, -3.814298679571948e-06, -3.663010602394934e-06, -3.511722752591595e-06, -3.360434675414581e-06, -3.2091465982375666e-06, -3.0578585210605524e-06, -2.9065704438835382e-06, -2.755282366706524e-06, -2.60399428952951e-06, -2.4527062123524956e-06, -2.3014181351754814e-06, -2.1501300579984672e-06, -1.9988422081951285e-06, -1.8475541310181143e-06, -1.6962660538411e-06, -1.5449779766640859e-06, -1.3936898994870717e-06, -1.242402049683733e-06, -1.0911139725067187e-06, -9.398258953297045e-07, -7.885378181526903e-07, -6.372497409756761e-07, -4.859616637986619e-07, -3.346731318742968e-07, -1.833850546972826e-07, -3.209697752026841e-08, 1.1919109965674579e-07, 2.7047917683376e-07, 4.217672540107742e-07, 5.730553311877884e-07, 7.243431809911272e-07, 8.756312581681414e-07, 1.0269193353451556e-06, 1.1782074125221698e-06, 1.329495489699184e-06, 1.4807833395025227e-06, 1.632071416679537e-06, 1.7833594938565511e-06, 1.9346475710335653e-06, 2.0859356482105795e-06, 2.2372237253875937e-06, 2.388511802564608e-06, 2.539799879741622e-06, 2.6910879569186363e-06, 2.8423760340956505e-06, 2.9936638838989893e-06, 3.1449519610760035e-06, 3.2962400382530177e-06, 3.447528115430032e-06, 3.598816192607046e-06, 3.750104042410385e-06, 3.901392119587399e-06, 4.052680196764413e-06, 4.2039682739414275e-06, 4.355256351118442e-06, 4.506544428295456e-06]}, "gradients/graph_2decoder.conv4.bn.bias": {"_type": "histogram", "values": [1.0, 0.0, 0.0, 0.0, 0.0, 0.0, 0.0, 0.0, 0.0, 0.0, 0.0, 0.0, 0.0, 0.0, 1.0, 0.0, 0.0, 1.0, 0.0, 0.0, 0.0, 1.0, 0.0, 0.0, 0.0, 1.0, 0.0, 1.0, 1.0, 0.0, 0.0, 0.0, 2.0, 0.0, 1.0, 0.0, 1.0, 0.0, 0.0, 1.0, 1.0, 0.0, 0.0, 0.0, 1.0, 0.0, 1.0, 0.0, 0.0, 0.0, 0.0, 0.0, 0.0, 0.0, 0.0, 0.0, 0.0, 0.0, 0.0, 0.0, 0.0, 0.0, 0.0, 1.0], "bins": [-5.800675353384577e-06, -5.6378362387476955e-06, -5.474997124110814e-06, -5.312157554726582e-06, -5.149318440089701e-06, -4.9864793254528195e-06, -4.823639756068587e-06, -4.660800641431706e-06, -4.497961526794825e-06, -4.3351224121579435e-06, -4.172283297521062e-06, -4.00944372813683e-06, -3.846604613499949e-06, -3.6837654988630675e-06, -3.5209261568525108e-06, -3.358086814841954e-06, -3.1952477002050728e-06, -3.0324085855681915e-06, -2.8695692435576348e-06, -2.706729901547078e-06, -2.5438907869101968e-06, -2.3810516722733155e-06, -2.2182123302627588e-06, -2.055372988252202e-06, -1.8925338736153208e-06, -1.7296947589784395e-06, -1.5668556443415582e-06, -1.404016074957326e-06, -1.2411769603204448e-06, -1.0783378456835635e-06, -9.154982762993313e-07, -7.526591616624501e-07, -5.898205017729197e-07, -4.269813871360384e-07, -2.641422724991571e-07, -1.0130270311492495e-07, 6.153641152195632e-08, 2.243755261588376e-07, 3.8721509554306976e-07, 5.50054210179951e-07, 7.128933248168323e-07, 8.757324394537136e-07, 1.0385717814642703e-06, 1.201411123474827e-06, 1.3642502381117083e-06, 1.5270893527485896e-06, 1.6899286947591463e-06, 1.852768036769703e-06, 2.0156071514065843e-06, 2.1784462660434656e-06, 2.3412856080540223e-06, 2.504124950064579e-06, 2.6669640647014603e-06, 2.8298031793383416e-06, 2.9926425213488983e-06, 3.155481863359455e-06, 3.3183209779963363e-06, 3.4811600926332176e-06, 3.6439994346437743e-06, 3.806838776654331e-06, 3.969677891291212e-06, 4.1325170059280936e-06, 4.295356120564975e-06, 4.458195689949207e-06, 4.621034804586088e-06]}, "gradients/graph_2decoder.conv4.conv.weight": {"_type": "histogram", "values": [2.0, 0.0, 1.0, 1.0, 0.0, 1.0, 3.0, 2.0, 2.0, 11.0, 6.0, 2.0, 8.0, 22.0, 19.0, 20.0, 31.0, 32.0, 45.0, 55.0, 79.0, 105.0, 123.0, 197.0, 211.0, 257.0, 350.0, 456.0, 564.0, 739.0, 824.0, 787.0, 745.0, 551.0, 450.0, 366.0, 268.0, 211.0, 173.0, 119.0, 97.0, 62.0, 40.0, 42.0, 35.0, 16.0, 17.0, 18.0, 7.0, 8.0, 3.0, 0.0, 3.0, 0.0, 1.0, 1.0, 3.0, 0.0, 0.0, 0.0, 0.0, 0.0, 0.0, 1.0], "bins": [-1.5643889128114097e-05, -1.5132530279515777e-05, -1.4621170521422755e-05, -1.4109811672824435e-05, -1.3598451914731413e-05, -1.3087093066133093e-05, -1.2575734217534773e-05, -1.2064374459441751e-05, -1.1553015610843431e-05, -1.1041656762245111e-05, -1.053029700415209e-05, -1.001893815555377e-05, -9.50757930695545e-06, -8.996219548862427e-06, -8.484860700264107e-06, -7.973500942171086e-06, -7.462142093572766e-06, -6.9507832449744456e-06, -6.439423486881424e-06, -5.928064638283104e-06, -5.416704880190082e-06, -4.905346031591762e-06, -4.393987182993442e-06, -3.88262742490042e-06, -3.3712685763021e-06, -2.85990972770378e-06, -2.348549969610758e-06, -1.837191121012438e-06, -1.325832272414118e-06, -8.144725143210962e-07, -3.0311275622807443e-07, 2.0824518287554383e-07, 7.196067599579692e-07, 1.230966518050991e-06, 1.7423244571546093e-06, 2.253684215247631e-06, 2.765043973340653e-06, 3.276402821938973e-06, 3.787761670537293e-06, 4.299121428630315e-06, 4.810480277228635e-06, 5.321839125826955e-06, 5.833198883919977e-06, 6.344557732518297e-06, 6.855916581116617e-06, 7.3672763392096385e-06, 7.878635187807959e-06, 8.38999494590098e-06, 8.9013537944993e-06, 9.41271264309762e-06, 9.924072401190642e-06, 1.0435431249788962e-05, 1.0946791007881984e-05, 1.1458149856480304e-05, 1.1969508705078624e-05, 1.2480868463171646e-05, 1.2992227311769966e-05, 1.3503586160368286e-05, 1.4014945918461308e-05, 1.4526304767059628e-05, 1.5037663615657948e-05, 1.554902337375097e-05, 1.606038313184399e-05, 1.657174107094761e-05, 1.708310082904063e-05]}, "gradients/graph_2decoder.conv4.conv.bias": {"_type": "histogram", "values": [1.0, 0.0, 0.0, 0.0, 0.0, 0.0, 0.0, 0.0, 0.0, 0.0, 0.0, 0.0, 0.0, 0.0, 0.0, 0.0, 0.0, 0.0, 0.0, 0.0, 0.0, 0.0, 0.0, 0.0, 0.0, 0.0, 0.0, 0.0, 1.0, 1.0, 1.0, 1.0, 0.0, 0.0, 0.0, 0.0, 0.0, 1.0, 0.0, 0.0, 0.0, 0.0, 0.0, 0.0, 1.0, 2.0, 1.0, 3.0, 1.0, 0.0, 0.0, 0.0, 0.0, 0.0, 0.0, 0.0, 0.0, 0.0, 0.0, 0.0, 0.0, 0.0, 0.0, 2.0], "bins": [-9.094947017729282e-12, -8.894662784086904e-12, -8.694378550444526e-12, -8.494094316802148e-12, -8.29381008315977e-12, -8.093525849517391e-12, -7.893241615875013e-12, -7.692957382232635e-12, -7.492673148590256e-12, -7.292388914947878e-12, -7.0921046813055e-12, -6.891820447663122e-12, -6.6915362140207435e-12, -6.491251980378365e-12, -6.290967746735987e-12, -6.090683513093609e-12, -5.8903992794512305e-12, -5.690115045808852e-12, -5.489830812166474e-12, -5.289546578524096e-12, -5.0892623448817176e-12, -4.888978111239339e-12, -4.688693877596961e-12, -4.488409643954583e-12, -4.288125410312205e-12, -4.087841176669826e-12, -3.887556943027448e-12, -3.68727270938507e-12, -3.4869884757426917e-12, -3.2867042421003134e-12, -3.086420008457935e-12, -2.886135774815557e-12, -2.6858515411731787e-12, -2.4855673075308005e-12, -2.2852830738884222e-12, -2.084998840246044e-12, -1.8847146066036657e-12, -1.6844303729612875e-12, -1.4841461393189093e-12, -1.283861905676531e-12, -1.0835776720341528e-12, -8.832934383917745e-13, -6.830092047493963e-13, -4.827249711070181e-13, -2.824407374646398e-13, -8.215650382226158e-14, 1.1812772982011666e-13, 3.184119634624949e-13, 5.186961971048731e-13, 7.189804307472514e-13, 9.192646643896296e-13, 1.1195488980320079e-12, 1.319833131674386e-12, 1.5201173653167643e-12, 1.7204015989591426e-12, 1.920685832601521e-12, 2.120970066243899e-12, 2.3212542998862773e-12, 2.5215385335286555e-12, 2.7218227671710338e-12, 2.922107000813412e-12, 3.1223912344557903e-12, 3.3226754680981685e-12, 3.5229597017405467e-12, 3.723243935382925e-12]}, "gradients/graph_2decoder.conv3.bn.weight": {"_type": "histogram", "values": [1.0, 0.0, 0.0, 0.0, 0.0, 0.0, 0.0, 0.0, 0.0, 0.0, 0.0, 0.0, 0.0, 0.0, 0.0, 1.0, 0.0, 0.0, 1.0, 1.0, 1.0, 0.0, 1.0, 0.0, 0.0, 0.0, 0.0, 0.0, 0.0, 1.0, 0.0, 1.0, 0.0, 1.0, 0.0, 0.0, 1.0, 0.0, 2.0, 3.0, 1.0, 3.0, 1.0, 2.0, 0.0, 2.0, 0.0, 0.0, 1.0, 0.0, 2.0, 2.0, 0.0, 0.0, 1.0, 1.0, 0.0, 0.0, 0.0, 0.0, 0.0, 0.0, 0.0, 1.0], "bins": [-5.91412481298903e-06, -5.761036845797207e-06, -5.6079484238580335e-06, -5.454860456666211e-06, -5.301772034727037e-06, -5.148684067535214e-06, -4.995596100343391e-06, -4.8425081331515685e-06, -4.689419711212395e-06, -4.536331289273221e-06, -4.383243322081398e-06, -4.230155354889575e-06, -4.0770673876977526e-06, -3.923978965758579e-06, -3.770890998566756e-06, -3.6178028040012578e-06, -3.4647146094357595e-06, -3.3116264148702612e-06, -3.158538220304763e-06, -3.00545025311294e-06, -2.852362058547442e-06, -2.6992738639819436e-06, -2.5461858967901208e-06, -2.3930977022246225e-06, -2.240009507659124e-06, -2.0869215404673014e-06, -1.9338331185281277e-06, -1.7807451513363048e-06, -1.627657184144482e-06, -1.4745687622053083e-06, -1.3214807950134855e-06, -1.1683923730743118e-06, -1.015303951135138e-06, -8.622159839433152e-07, -7.091275620041415e-07, -5.560395948123187e-07, -4.0295117287314497e-07, -2.4986320568132214e-07, -9.677523848949932e-08, 5.63131834496744e-08, 2.0940115064149722e-07, 3.624893452069955e-07, 5.155775397724938e-07, 6.686655069643166e-07, 8.217537015298149e-07, 9.748418960953131e-07, 1.127929863287136e-06, 1.2810180578526342e-06, 1.4341062524181325e-06, 1.5871944469836308e-06, 1.740282641549129e-06, 1.8933706087409519e-06, 2.04645880330645e-06, 2.1995469978719484e-06, 2.3526349650637712e-06, 2.5057231596292695e-06, 2.6588113541947678e-06, 2.811899548760266e-06, 2.9649877433257643e-06, 3.118075710517587e-06, 3.2711639050830854e-06, 3.4242520996485837e-06, 3.5773400668404065e-06, 3.7304282614059048e-06, 3.883516455971403e-06]}, "gradients/graph_2decoder.conv3.bn.bias": {"_type": "histogram", "values": [1.0, 0.0, 0.0, 0.0, 0.0, 0.0, 0.0, 0.0, 1.0, 0.0, 0.0, 1.0, 0.0, 0.0, 0.0, 0.0, 1.0, 1.0, 0.0, 0.0, 0.0, 0.0, 0.0, 0.0, 1.0, 0.0, 0.0, 0.0, 1.0, 0.0, 0.0, 0.0, 0.0, 0.0, 2.0, 2.0, 2.0, 0.0, 2.0, 1.0, 0.0, 4.0, 1.0, 2.0, 0.0, 0.0, 0.0, 0.0, 1.0, 1.0, 2.0, 0.0, 0.0, 0.0, 0.0, 0.0, 2.0, 1.0, 0.0, 1.0, 0.0, 0.0, 0.0, 1.0], "bins": [-3.6371143323776778e-06, -3.5492298593453597e-06, -3.4613453863130417e-06, -3.3734609132807236e-06, -3.28557621287473e-06, -3.197691739842412e-06, -3.109807266810094e-06, -3.021922793777776e-06, -2.9340380933717825e-06, -2.8461536203394644e-06, -2.7582691473071463e-06, -2.6703846742748283e-06, -2.5825002012425102e-06, -2.494615728210192e-06, -2.406731255177874e-06, -2.3188465547718806e-06, -2.2309620817395626e-06, -2.1430776087072445e-06, -2.055192908301251e-06, -1.967308435268933e-06, -1.879423962236615e-06, -1.7915394892042968e-06, -1.7036550161719788e-06, -1.6157705431396607e-06, -1.5278860701073427e-06, -1.4400013697013492e-06, -1.3521168966690311e-06, -1.264232423636713e-06, -1.176347950604395e-06, -1.088463477572077e-06, -1.0005787771660835e-06, -9.126943041337654e-07, -8.248096037277719e-07, -7.369251306954538e-07, -6.490406576631358e-07, -5.611559572571423e-07, -4.7327148422482423e-07, -3.853870111925062e-07, -2.975025381601881e-07, -2.0961806512787007e-07, -1.2173336472187657e-07, -3.3848891689558513e-08, 5.403558134275954e-08, 1.419200543750776e-07, 2.2980452740739565e-07, 3.1768911412655143e-07, 4.055735871588695e-07, 4.934581738780253e-07, 5.813426469103433e-07, 6.692271199426614e-07, 7.571117066618172e-07, 8.449961796941352e-07, 9.32880766413291e-07, 1.020765239445609e-06, 1.108649712477927e-06, 1.1965341855102452e-06, 1.284418772229401e-06, 1.3723033589485567e-06, 1.4601878319808748e-06, 1.5480723050131928e-06, 1.6359567780455109e-06, 1.7238413647646667e-06, 1.8117258377969847e-06, 1.8996104245161405e-06, 1.9874948975484585e-06]}, "gradients/graph_2decoder.conv3.conv.weight": {"_type": "histogram", "values": [2.0, 1.0, 0.0, 3.0, 1.0, 1.0, 0.0, 2.0, 4.0, 1.0, 4.0, 2.0, 3.0, 7.0, 10.0, 9.0, 7.0, 25.0, 17.0, 26.0, 34.0, 45.0, 67.0, 88.0, 112.0, 160.0, 270.0, 348.0, 555.0, 816.0, 1261.0, 2016.0, 3374.0, 6624.0, 6705.0, 3826.0, 2164.0, 1394.0, 952.0, 584.0, 398.0, 264.0, 164.0, 127.0, 83.0, 53.0, 45.0, 37.0, 19.0, 15.0, 11.0, 10.0, 5.0, 4.0, 6.0, 4.0, 1.0, 0.0, 0.0, 0.0, 1.0, 0.0, 0.0, 1.0], "bins": [-8.844982403388713e-06, -8.583923772675917e-06, -8.322864232468419e-06, -8.061805601755623e-06, -7.800746061548125e-06, -7.539687430835329e-06, -7.278628345375182e-06, -7.017569259915035e-06, -6.756510174454888e-06, -6.4954510889947414e-06, -6.2343920035345946e-06, -5.973332918074448e-06, -5.712274287361652e-06, -5.451214747154154e-06, -5.190156116441358e-06, -4.929097030981211e-06, -4.668037945521064e-06, -4.406978860060917e-06, -4.14591977460077e-06, -3.8848606891406234e-06, -3.6238016036804765e-06, -3.3627429729676805e-06, -3.1016838875075337e-06, -2.8406248020473868e-06, -2.57956571658724e-06, -2.318506631127093e-06, -2.057447545666946e-06, -1.7963884602067992e-06, -1.5353298294940032e-06, -1.2742707440338563e-06, -1.0132116585737094e-06, -7.521521183662117e-07, -4.910943971481174e-07, -2.3003576643532142e-07, 3.1023773772176355e-08, 2.9208285923232324e-07, 5.531419446924701e-07, 8.142005754052661e-07, 1.075259660865413e-06, 1.33631874632556e-06, 1.5973778317857068e-06, 1.8584369172458537e-06, 2.1194960027060006e-06, 2.3805550881661475e-06, 2.6416137188789435e-06, 2.9026728043390904e-06, 3.1637318897992373e-06, 3.424790975259384e-06, 3.685850060719531e-06, 3.946909146179678e-06, 4.207968231639825e-06, 4.469026862352621e-06, 4.730086402560119e-06, 4.991145033272915e-06, 5.2522041187330615e-06, 5.513263204193208e-06, 5.774322289653355e-06, 6.035381375113502e-06, 6.296440460573649e-06, 6.557499546033796e-06, 6.818558176746592e-06, 7.079617262206739e-06, 7.340676347666886e-06, 7.601735433127033e-06, 7.86279451858718e-06]}, "gradients/graph_2decoder.conv3.conv.bias": {"_type": "histogram", "values": [1.0, 0.0, 0.0, 1.0, 0.0, 0.0, 0.0, 0.0, 0.0, 1.0, 0.0, 1.0, 0.0, 0.0, 0.0, 0.0, 3.0, 1.0, 2.0, 0.0, 0.0, 2.0, 0.0, 1.0, 0.0, 0.0, 0.0, 2.0, 2.0, 0.0, 1.0, 0.0, 1.0, 2.0, 3.0, 0.0, 0.0, 1.0, 0.0, 0.0, 0.0, 0.0, 0.0, 1.0, 0.0, 0.0, 0.0, 2.0, 0.0, 0.0, 0.0, 0.0, 1.0, 0.0, 1.0, 0.0, 0.0, 0.0, 0.0, 1.0, 0.0, 0.0, 0.0, 1.0], "bins": [-7.958078640513122e-13, -7.718270467194088e-13, -7.478462293875054e-13, -7.238654120556021e-13, -6.998845947236987e-13, -6.759037773917953e-13, -6.519229600598919e-13, -6.279421427279885e-13, -6.039613253960852e-13, -5.799805080641818e-13, -5.559996907322784e-13, -5.32018873400375e-13, -5.080380560684716e-13, -4.840572387365683e-13, -4.600764214046649e-13, -4.360956040727615e-13, -4.121147867408581e-13, -3.8813396940895473e-13, -3.6415315207705135e-13, -3.4017233474514796e-13, -3.161915174132446e-13, -2.922107000813412e-13, -2.682298827494378e-13, -2.4424906541753444e-13, -2.2026824808563106e-13, -1.9628743075372768e-13, -1.723066134218243e-13, -1.4832579608992091e-13, -1.2434497875801753e-13, -1.0036416142611415e-13, -7.638334409421077e-14, -5.240252676230739e-14, -2.842170943040401e-14, -4.440892098500626e-15, 1.9539925233402755e-14, 4.3520742565306136e-14, 6.750155989720952e-14, 9.14823772291129e-14, 1.1546319456101628e-13, 1.3944401189291966e-13, 1.6342482922482304e-13, 1.8740564655672642e-13, 2.113864638886298e-13, 2.353672812205332e-13, 2.5934809855243657e-13, 2.8332891588433995e-13, 3.0730973321624333e-13, 3.312905505481467e-13, 3.552713678800501e-13, 3.7925218521195347e-13, 4.0323300254385686e-13, 4.2721381987576024e-13, 4.511946372076636e-13, 4.75175454539567e-13, 4.991562718714704e-13, 5.231370892033738e-13, 5.471179065352771e-13, 5.710987238671805e-13, 5.950795411990839e-13, 6.190603585309873e-13, 6.430411758628907e-13, 6.67021993194794e-13, 6.910028105266974e-13, 7.149836278586008e-13, 7.389644451905042e-13]}, "gradients/graph_2decoder.conv2.bn.weight": {"_type": "histogram", "values": [1.0, 0.0, 0.0, 0.0, 0.0, 0.0, 0.0, 0.0, 0.0, 0.0, 1.0, 0.0, 0.0, 0.0, 0.0, 1.0, 0.0, 0.0, 0.0, 0.0, 0.0, 0.0, 0.0, 1.0, 0.0, 3.0, 1.0, 1.0, 1.0, 2.0, 1.0, 3.0, 4.0, 2.0, 6.0, 2.0, 2.0, 2.0, 2.0, 2.0, 3.0, 2.0, 2.0, 0.0, 2.0, 2.0, 2.0, 2.0, 2.0, 1.0, 1.0, 0.0, 0.0, 1.0, 0.0, 1.0, 1.0, 0.0, 1.0, 1.0, 0.0, 0.0, 1.0, 1.0], "bins": [-2.152478373318445e-06, -2.0959435005352134e-06, -2.0394084003783064e-06, -1.982873527595075e-06, -1.926338427438168e-06, -1.8698035546549363e-06, -1.813268568184867e-06, -1.7567335817147978e-06, -1.7001985952447285e-06, -1.6436636087746592e-06, -1.58712862230459e-06, -1.5305936358345207e-06, -1.4740587630512891e-06, -1.4175236628943821e-06, -1.3609887901111506e-06, -1.3044538036410813e-06, -1.247918817171012e-06, -1.1913838307009428e-06, -1.1348488442308735e-06, -1.0783138577608042e-06, -1.021778871290735e-06, -9.652439985075034e-07, -9.087090120374341e-07, -8.521740255673649e-07, -7.956390390972956e-07, -7.391040526272263e-07, -6.825690661571571e-07, -6.260340796870878e-07, -5.694992069038562e-07, -5.12964220433787e-07, -4.564292339637177e-07, -3.9989424749364844e-07, -3.4335926102357917e-07, -2.868242745535099e-07, -2.3028928808344062e-07, -1.7375430161337135e-07, -1.1721931514330208e-07, -6.068444236007053e-08, -4.1494558900012635e-09, 5.238553058006801e-08, 1.0892051705013728e-07, 1.6545550352020655e-07, 2.2199048999027582e-07, 2.785254764603451e-07, 3.3506034924357664e-07, 3.915953357136459e-07, 4.481303221837152e-07, 5.046653086537845e-07, 5.612002951238537e-07, 6.17735281593923e-07, 6.742702680639923e-07, 7.308051976906427e-07, 7.873401841607119e-07, 8.438751706307812e-07, 9.004101002574316e-07, 9.569450867275009e-07, 1.0134800731975702e-06, 1.0700150596676394e-06, 1.1265500461377087e-06, 1.183085032607778e-06, 1.2396199053910095e-06, 1.2961548918610788e-06, 1.352689878331148e-06, 1.4092248648012173e-06, 1.4657598512712866e-06]}, "gradients/graph_2decoder.conv2.bn.bias": {"_type": "histogram", "values": [1.0, 0.0, 0.0, 0.0, 0.0, 0.0, 1.0, 0.0, 0.0, 0.0, 0.0, 0.0, 0.0, 0.0, 0.0, 1.0, 1.0, 0.0, 0.0, 0.0, 0.0, 0.0, 0.0, 1.0, 1.0, 0.0, 2.0, 5.0, 1.0, 2.0, 1.0, 1.0, 2.0, 3.0, 2.0, 1.0, 1.0, 1.0, 2.0, 2.0, 1.0, 2.0, 1.0, 2.0, 1.0, 2.0, 2.0, 3.0, 0.0, 1.0, 0.0, 2.0, 2.0, 2.0, 2.0, 1.0, 2.0, 1.0, 0.0, 2.0, 0.0, 0.0, 1.0, 2.0], "bins": [-1.38239556690678e-06, -1.3502470892490237e-06, -1.3180986115912674e-06, -1.285950133933511e-06, -1.2538016562757548e-06, -1.2216532923048362e-06, -1.18950481464708e-06, -1.1573563369893236e-06, -1.1252078593315673e-06, -1.093059381673811e-06, -1.0609109040160547e-06, -1.0287624263582984e-06, -9.966140623873798e-07, -9.644654710427858e-07, -9.323171070718672e-07, -9.001686294141109e-07, -8.680201517563546e-07, -8.358716740985983e-07, -8.03723196440842e-07, -7.715747756265046e-07, -7.394262979687483e-07, -7.07277820310992e-07, -6.751293994966545e-07, -6.429809218388982e-07, -6.108324441811419e-07, -5.786839665233856e-07, -5.465354888656293e-07, -5.143870680512919e-07, -4.822385903935356e-07, -4.5009011273577926e-07, -4.179416919214418e-07, -3.857932142636855e-07, -3.5364485029276693e-07, -3.2149637263501063e-07, -2.8934789497725433e-07, -2.571994741629169e-07, -2.2505099650516058e-07, -1.9290251884740428e-07, -1.6075409803306684e-07, -1.2860562037531054e-07, -9.645714271755423e-08, -6.430866505979793e-08, -3.216018740204163e-08, -1.1766587704187259e-11, 3.2136711070052115e-08, 6.428518872780842e-08, 9.643360954214586e-08, 1.2858208719990216e-07, 1.6073056485765846e-07, 1.9287904251541477e-07, 2.2502749175146164e-07, 2.571759409875085e-07, 2.893244186452648e-07, 3.214728963030211e-07, 3.53621345539068e-07, 3.8576979477511486e-07, 4.1791827243287116e-07, 4.5006675009062747e-07, 4.822152277483838e-07, 5.143636485627212e-07, 5.465121262204775e-07, 5.786606038782338e-07, 6.108090246925713e-07, 6.429575023503276e-07, 6.751059800080839e-07]}, "gradients/graph_2decoder.conv2.conv.weight": {"_type": "histogram", "values": [2.0, 1.0, 0.0, 3.0, 2.0, 2.0, 2.0, 4.0, 2.0, 7.0, 7.0, 4.0, 7.0, 11.0, 15.0, 23.0, 20.0, 26.0, 33.0, 31.0, 35.0, 38.0, 69.0, 90.0, 110.0, 164.0, 224.0, 295.0, 399.0, 677.0, 1009.0, 1823.0, 3882.0, 18362.0, 88438.0, 7946.0, 3081.0, 1605.0, 943.0, 587.0, 345.0, 251.0, 137.0, 92.0, 71.0, 38.0, 32.0, 23.0, 18.0, 15.0, 18.0, 10.0, 11.0, 7.0, 4.0, 5.0, 4.0, 2.0, 2.0, 1.0, 2.0, 0.0, 2.0, 3.0], "bins": [-5.177126240596408e-06, -5.0259272939001676e-06, -4.874728801951278e-06, -4.7235298552550375e-06, -4.572330908558797e-06, -4.421131961862557e-06, -4.269933469913667e-06, -4.118734523217427e-06, -3.967536031268537e-06, -3.816337084572297e-06, -3.665138137876056e-06, -3.513939418553491e-06, -3.362740699230926e-06, -3.2115417525346857e-06, -3.0603430332121206e-06, -2.90914408651588e-06, -2.757945367193315e-06, -2.60674664787075e-06, -2.4555477011745097e-06, -2.3043489818519447e-06, -2.1531500351557042e-06, -2.0019513158331392e-06, -1.8507525965105742e-06, -1.6995536498143338e-06, -1.5483549304917688e-06, -1.3971562111692037e-06, -1.2459572644729633e-06, -1.0947583177767228e-06, -9.435598258278333e-07, -7.923608791315928e-07, -6.411619324353524e-07, -4.899634404864628e-07, -3.3876449379022233e-07, -1.8756554709398188e-07, -3.636705514509231e-08, 1.1483189155114815e-07, 2.660308382473886e-07, 4.1722933019627817e-07, 5.684282768925186e-07, 7.196272235887591e-07, 8.708259429113241e-07, 1.022024662233889e-06, 1.1732236089301296e-06, 1.3244223282526946e-06, 1.4756210475752596e-06, 1.6268199942715e-06, 1.778018713594065e-06, 1.9292176602903055e-06, 2.0804163796128705e-06, 2.2316150989354355e-06, 2.382814045631676e-06, 2.534012764954241e-06, 2.6852117116504814e-06, 2.8364104309730465e-06, 2.9876091502956115e-06, 3.138808096991852e-06, 3.290006816314417e-06, 3.441205535636982e-06, 3.5924044823332224e-06, 3.7436032016557874e-06, 3.8948019209783524e-06, 4.046000867674593e-06, 4.197199814370833e-06, 4.348398306319723e-06, 4.499597253015963e-06]}, "gradients/graph_2decoder.conv2.conv.bias": {"_type": "histogram", "values": [1.0, 0.0, 0.0, 0.0, 0.0, 0.0, 0.0, 0.0, 0.0, 0.0, 0.0, 0.0, 0.0, 0.0, 0.0, 1.0, 0.0, 0.0, 0.0, 1.0, 0.0, 0.0, 2.0, 4.0, 1.0, 1.0, 1.0, 0.0, 3.0, 1.0, 3.0, 2.0, 3.0, 1.0, 4.0, 0.0, 1.0, 0.0, 6.0, 1.0, 2.0, 3.0, 1.0, 2.0, 1.0, 1.0, 3.0, 3.0, 1.0, 2.0, 1.0, 1.0, 2.0, 0.0, 1.0, 1.0, 0.0, 0.0, 0.0, 0.0, 1.0, 0.0, 0.0, 1.0], "bins": [-5.826450433232822e-13, -5.67323965583455e-13, -5.520028878436278e-13, -5.366818101038007e-13, -5.213607323639735e-13, -5.060396546241464e-13, -4.907185768843192e-13, -4.75397499144492e-13, -4.600764214046649e-13, -4.447553436648377e-13, -4.2943426592501055e-13, -4.141131881851834e-13, -3.9879211044535623e-13, -3.8347103270552907e-13, -3.681499549657019e-13, -3.5282887722587475e-13, -3.375077994860476e-13, -3.2218672174622043e-13, -3.0686564400639327e-13, -2.915445662665661e-13, -2.7622348852673895e-13, -2.609024107869118e-13, -2.4558133304708463e-13, -2.3026025530725747e-13, -2.149391775674303e-13, -1.9961809982760315e-13, -1.8429702208777599e-13, -1.6897594434794883e-13, -1.5365486660812167e-13, -1.383337888682945e-13, -1.2301271112846734e-13, -1.0769163338864018e-13, -9.237055564881302e-14, -7.704947790898586e-14, -6.17284001691587e-14, -4.6407322429331543e-14, -3.108624468950438e-14, -1.5765166949677223e-14, -4.440892098500626e-16, 1.4876988529977098e-14, 3.019806626980426e-14, 4.551914400963142e-14, 6.084022174945858e-14, 7.616129948928574e-14, 9.14823772291129e-14, 1.0680345496894006e-13, 1.2212453270876722e-13, 1.3744561044859438e-13, 1.5276668818842154e-13, 1.680877659282487e-13, 1.8340884366807586e-13, 1.9872992140790302e-13, 2.1405099914773018e-13, 2.2937207688755734e-13, 2.446931546273845e-13, 2.6001423236721166e-13, 2.753353101070388e-13, 2.90656387846866e-13, 3.0597746558669314e-13, 3.212985433265203e-13, 3.3661962106634746e-13, 3.519406988061746e-13, 3.672617765460018e-13, 3.8258285428582894e-13, 3.979039320256561e-13]}, "gradients/graph_2decoder.conv1.bn.weight": {"_type": "histogram", "values": [1.0, 0.0, 0.0, 1.0, 0.0, 2.0, 1.0, 0.0, 0.0, 0.0, 0.0, 0.0, 0.0, 1.0, 1.0, 1.0, 0.0, 1.0, 0.0, 2.0, 1.0, 1.0, 0.0, 1.0, 3.0, 0.0, 8.0, 8.0, 9.0, 12.0, 14.0, 14.0, 11.0, 9.0, 3.0, 6.0, 3.0, 6.0, 0.0, 2.0, 0.0, 2.0, 1.0, 1.0, 0.0, 1.0, 0.0, 0.0, 0.0, 0.0, 0.0, 0.0, 0.0, 0.0, 0.0, 0.0, 0.0, 0.0, 0.0, 0.0, 0.0, 0.0, 0.0, 1.0], "bins": [-1.633884608054359e-06, -1.5794528280821396e-06, -1.5250209344230825e-06, -1.4705891544508631e-06, -1.4161573744786438e-06, -1.3617255945064244e-06, -1.307293814534205e-06, -1.252861920875148e-06, -1.1984301409029285e-06, -1.1439983609307092e-06, -1.089566467271652e-06, -1.0351346872994327e-06, -9.807029073272133e-07, -9.26271127354994e-07, -8.718392905393557e-07, -8.174074537237175e-07, -7.629756737514981e-07, -7.085438937792787e-07, -6.541121138070594e-07, -5.996802201480023e-07, -5.452484401757829e-07, -4.908166602035635e-07, -4.363847665445064e-07, -3.8195298657228705e-07, -3.2752120660006767e-07, -2.730894266278483e-07, -2.1865764665562892e-07, -1.6422575299657183e-07, -1.0979397302435245e-07, -5.536219305213308e-08, -9.30299393075984e-10, 5.350148057914339e-08, 1.0793337423820049e-07, 1.6236515421041986e-07, 2.1679693418263923e-07, 2.7122882784169633e-07, 3.256606078139157e-07, 3.800923877861351e-07, 4.3452428144519217e-07, 4.889560614174115e-07, 5.433878413896309e-07, 5.978196213618503e-07, 6.522514013340697e-07, 7.066832949931268e-07, 7.611150749653461e-07, 8.155468549375655e-07, 8.699787485966226e-07, 9.24410528568842e-07, 9.788423085410614e-07, 1.0332740885132807e-06, 1.0877058684855e-06, 1.1421377621445572e-06, 1.1965695421167766e-06, 1.251001322088996e-06, 1.305433215748053e-06, 1.3598649957202724e-06, 1.4142967756924918e-06, 1.4687285556647112e-06, 1.5231603356369305e-06, 1.5775922292959876e-06, 1.632024009268207e-06, 1.6864557892404264e-06, 1.7408876828994835e-06, 1.7953194628717029e-06, 1.8497512428439222e-06]}, "gradients/graph_2decoder.conv1.bn.bias": {"_type": "histogram", "values": [2.0, 0.0, 0.0, 0.0, 1.0, 0.0, 1.0, 1.0, 0.0, 1.0, 1.0, 1.0, 0.0, 0.0, 1.0, 2.0, 1.0, 1.0, 2.0, 1.0, 2.0, 2.0, 4.0, 7.0, 2.0, 2.0, 2.0, 6.0, 7.0, 2.0, 4.0, 7.0, 2.0, 6.0, 5.0, 4.0, 3.0, 8.0, 7.0, 5.0, 1.0, 2.0, 6.0, 3.0, 2.0, 1.0, 4.0, 1.0, 1.0, 0.0, 0.0, 1.0, 0.0, 1.0, 0.0, 0.0, 1.0, 0.0, 0.0, 0.0, 0.0, 0.0, 0.0, 1.0], "bins": [-5.361006856219319e-07, -5.18670105975616e-07, -5.01239583172719e-07, -4.838090035264031e-07, -4.663784238800872e-07, -4.489478442337713e-07, -4.3151729300916486e-07, -4.140867417845584e-07, -3.966561621382425e-07, -3.792255824919266e-07, -3.6179503126732016e-07, -3.443644800427137e-07, -3.269339003963978e-07, -3.095033207500819e-07, -2.9207276952547545e-07, -2.74642218300869e-07, -2.572116386545531e-07, -2.397810590082372e-07, -2.2235050778363075e-07, -2.0491995655902429e-07, -1.874893769127084e-07, -1.700587972663925e-07, -1.5262824604178604e-07, -1.3519769481717958e-07, -1.1776711517086369e-07, -1.003365355245478e-07, -8.290598429994134e-08, -6.547543307533488e-08, -4.8044853429018985e-08, -3.0614273782703094e-08, -1.3183750979806064e-08, 4.246828666509828e-09, 2.167746515624458e-08, 3.910804480256047e-08, 5.653862444887636e-08, 7.396914725177339e-08, 9.139972689808928e-08, 1.0883030654440518e-07, 1.2626085776901164e-07, 1.436914089936181e-07, 1.61121988639934e-07, 1.7855256828624988e-07, 1.9598311951085634e-07, 2.134136707354628e-07, 2.308442503817787e-07, 2.482748300280946e-07, 2.6570538125270105e-07, 2.831359324773075e-07, 3.005665121236234e-07, 3.179970917699393e-07, 3.3542764299454575e-07, 3.528581942191522e-07, 3.702887738654681e-07, 3.87719353511784e-07, 4.0514990473639045e-07, 4.225804559609969e-07, 4.400110356073128e-07, 4.574416152536287e-07, 4.7487216647823516e-07, 4.923027177028416e-07, 5.097332973491575e-07, 5.271638769954734e-07, 5.445943997983704e-07, 5.620249794446863e-07, 5.794555590910022e-07]}, "gradients/graph_2decoder.conv1.conv.weight": {"_type": "histogram", "values": [1.0, 0.0, 0.0, 1.0, 0.0, 1.0, 1.0, 1.0, 2.0, 1.0, 0.0, 1.0, 2.0, 2.0, 4.0, 2.0, 6.0, 7.0, 10.0, 10.0, 10.0, 18.0, 22.0, 33.0, 49.0, 93.0, 150.0, 338.0, 716.0, 2210.0, 10333.0, 2251758.0, 84990.0, 5835.0, 1489.0, 569.0, 261.0, 124.0, 74.0, 59.0, 27.0, 15.0, 13.0, 11.0, 9.0, 9.0, 6.0, 7.0, 1.0, 3.0, 2.0, 1.0, 1.0, 1.0, 2.0, 1.0, 0.0, 2.0, 0.0, 0.0, 1.0, 0.0, 0.0, 1.0], "bins": [-1.9299102405057056e-06, -1.8692999219638295e-06, -1.8086894897351158e-06, -1.7480791711932397e-06, -1.687468738964526e-06, -1.62685842042265e-06, -1.566248101880774e-06, -1.5056377833388979e-06, -1.445027351110184e-06, -1.3844169188814703e-06, -1.3238066003395943e-06, -1.2631962817977183e-06, -1.2025859632558422e-06, -1.1419755310271285e-06, -1.0813652124852524e-06, -1.0207547802565387e-06, -9.601444617146626e-07, -8.995341431727866e-07, -8.389237109440728e-07, -7.783133924021968e-07, -7.17702960173483e-07, -6.57092641631607e-07, -5.964823230897309e-07, -5.358718908610172e-07, -4.752615723191411e-07, -4.146512537772651e-07, -3.540408215485513e-07, -2.934305030066753e-07, -2.3282018446479924e-07, -1.7220975223608548e-07, -1.1159943369420944e-07, -5.0989001465495676e-08, 9.621317076380365e-09, 7.02316356182564e-08, 1.3084206784697017e-07, 1.914523863888462e-07, 2.5206281861755997e-07, 3.12673137159436e-07, 3.7328345570131205e-07, 4.338938879300258e-07, 4.945042064719019e-07, 5.551145250137779e-07, 6.157249572424917e-07, 6.763352757843677e-07, 7.369455943262437e-07, 7.975560265549575e-07, 8.581663450968335e-07, 9.187767773255473e-07, 9.793870958674233e-07, 1.0399974144092994e-06, 1.1006078466380131e-06, 1.1612181651798892e-06, 1.221828597408603e-06, 1.282438915950479e-06, 1.343049234492355e-06, 1.403659553034231e-06, 1.4642699852629448e-06, 1.5248804174916586e-06, 1.5854907360335346e-06, 1.6461010545754107e-06, 1.7067113731172867e-06, 1.7673218053460005e-06, 1.8279321238878765e-06, 1.8885425561165903e-06, 1.9491528746584663e-06]}, "gradients/graph_2decoder.conv1.conv.bias": {"_type": "histogram", "values": [1.0, 0.0, 1.0, 0.0, 0.0, 0.0, 0.0, 0.0, 0.0, 0.0, 1.0, 0.0, 0.0, 0.0, 0.0, 0.0, 0.0, 0.0, 0.0, 0.0, 0.0, 0.0, 1.0, 1.0, 1.0, 2.0, 2.0, 1.0, 4.0, 0.0, 5.0, 0.0, 2.0, 5.0, 4.0, 11.0, 3.0, 12.0, 15.0, 8.0, 11.0, 3.0, 3.0, 8.0, 4.0, 2.0, 3.0, 2.0, 4.0, 1.0, 0.0, 1.0, 0.0, 0.0, 1.0, 0.0, 1.0, 1.0, 0.0, 0.0, 1.0, 1.0, 0.0, 1.0], "bins": [-2.1316282072803006e-13, -2.0761170560490427e-13, -2.020605904817785e-13, -1.965094753586527e-13, -1.9095836023552692e-13, -1.8540724511240114e-13, -1.7985612998927536e-13, -1.7430501486614958e-13, -1.687538997430238e-13, -1.63202784619898e-13, -1.5765166949677223e-13, -1.5210055437364645e-13, -1.4654943925052066e-13, -1.4099832412739488e-13, -1.354472090042691e-13, -1.2989609388114332e-13, -1.2434497875801753e-13, -1.1879386363489175e-13, -1.1324274851176597e-13, -1.0769163338864018e-13, -1.021405182655144e-13, -9.658940314238862e-14, -9.103828801926284e-14, -8.548717289613705e-14, -7.993605777301127e-14, -7.438494264988549e-14, -6.88338275267597e-14, -6.328271240363392e-14, -5.773159728050814e-14, -5.218048215738236e-14, -4.6629367034256575e-14, -4.107825191113079e-14, -3.552713678800501e-14, -2.9976021664879227e-14, -2.4424906541753444e-14, -1.887379141862766e-14, -1.3322676295501878e-14, -7.771561172376096e-15, -2.220446049250313e-15, 3.3306690738754696e-15, 8.881784197001252e-15, 1.4432899320127035e-14, 1.9984014443252818e-14, 2.55351295663786e-14, 3.108624468950438e-14, 3.6637359812630166e-14, 4.218847493575595e-14, 4.773959005888173e-14, 5.3290705182007514e-14, 5.88418203051333e-14, 6.439293542825908e-14, 6.994405055138486e-14, 7.549516567451064e-14, 8.104628079763643e-14, 8.659739592076221e-14, 9.214851104388799e-14, 9.769962616701378e-14, 1.0325074129013956e-13, 1.0880185641326534e-13, 1.1435297153639112e-13, 1.199040866595169e-13, 1.254552017826427e-13, 1.3100631690576847e-13, 1.3655743202889425e-13, 1.4210854715202004e-13]}, "gradients/graph_2lstm.bias_hh_l1": {"_type": "histogram", "values": [2.0, 3.0, 0.0, 0.0, 1.0, 1.0, 2.0, 3.0, 3.0, 1.0, 8.0, 3.0, 4.0, 12.0, 8.0, 11.0, 21.0, 18.0, 24.0, 29.0, 41.0, 43.0, 113.0, 1341.0, 140.0, 43.0, 26.0, 27.0, 30.0, 26.0, 13.0, 12.0, 6.0, 9.0, 4.0, 5.0, 2.0, 3.0, 2.0, 1.0, 5.0, 1.0, 0.0, 0.0, 0.0, 0.0, 0.0, 0.0, 0.0, 0.0, 0.0, 0.0, 0.0, 0.0, 0.0, 0.0, 0.0, 0.0, 0.0, 0.0, 0.0, 0.0, 0.0, 1.0], "bins": [-2.0746129791859858e-07, -1.986916657870097e-07, -1.8992203365542082e-07, -1.8115240152383194e-07, -1.7238276939224306e-07, -1.6361313726065418e-07, -1.548434909182106e-07, -1.460738587866217e-07, -1.3730422665503283e-07, -1.2853459452344396e-07, -1.1976496239185508e-07, -1.1099533736569356e-07, -1.0222569812867732e-07, -9.345606599708844e-08, -8.468643386549957e-08, -7.591680173391069e-08, -6.714716960232181e-08, -5.837753747073293e-08, -4.9607905339144054e-08, -4.0838273207555176e-08, -3.20686410759663e-08, -2.329900894437742e-08, -1.4529376812788541e-08, -5.759744681199663e-09, 3.00990166124393e-09, 1.1779533792832808e-08, 2.0549165924421686e-08, 2.9318798056010564e-08, 3.808843018759944e-08, 4.685806231918832e-08, 5.56276944507772e-08, 6.439732658236608e-08, 7.316694450310024e-08, 8.193657663468912e-08, 9.0706208766278e-08, 9.947584089786687e-08, 1.0824547302945575e-07, 1.1701510516104463e-07, 1.257847372926335e-07, 1.3455436942422239e-07, 1.4332400155581126e-07, 1.5209364789825486e-07, 1.6086328002984374e-07, 1.6963291216143261e-07, 1.784025442930215e-07, 1.8717217642461037e-07, 1.9594180855619925e-07, 2.0471144068778813e-07, 2.13481072819377e-07, 2.2225070495096588e-07, 2.3102033708255476e-07, 2.3978998342499835e-07, 2.4855961555658723e-07, 2.573292476881761e-07, 2.66098879819765e-07, 2.7486851195135387e-07, 2.8363814408294274e-07, 2.924077762145316e-07, 3.011774083461205e-07, 3.099470404777094e-07, 3.1871667260929826e-07, 3.2748630474088714e-07, 3.36255936872476e-07, 3.450255690040649e-07, 3.5379520113565377e-07]}, "gradients/graph_2lstm.weight_hh_l1": {"_type": "histogram", "values": [1.0, 0.0, 0.0, 0.0, 0.0, 0.0, 2.0, 0.0, 0.0, 0.0, 3.0, 4.0, 3.0, 9.0, 11.0, 7.0, 13.0, 22.0, 30.0, 42.0, 68.0, 98.0, 159.0, 247.0, 378.0, 638.0, 1028.0, 1836.0, 3214.0, 6612.0, 14673.0, 38206.0, 863976.0, 76130.0, 21646.0, 9346.0, 4441.0, 2316.0, 1315.0, 778.0, 482.0, 298.0, 180.0, 117.0, 73.0, 49.0, 46.0, 23.0, 18.0, 10.0, 8.0, 2.0, 3.0, 5.0, 3.0, 1.0, 0.0, 2.0, 1.0, 1.0, 0.0, 0.0, 1.0, 1.0], "bins": [-3.9989295430586935e-08, -3.8767272059203606e-08, -3.7545248687820276e-08, -3.632322176372327e-08, -3.510119839233994e-08, -3.387917502095661e-08, -3.265715164957328e-08, -3.143512827818995e-08, -3.021310135409294e-08, -2.8991077982709612e-08, -2.7769054611326283e-08, -2.6547031239942953e-08, -2.5325007868559624e-08, -2.4102982720819455e-08, -2.2880959349436125e-08, -2.1658934201695956e-08, -2.0436910830312627e-08, -1.9214887458929297e-08, -1.799286231118913e-08, -1.67708389398058e-08, -1.554881379206563e-08, -1.43267904206823e-08, -1.3104767049298971e-08, -1.1882741901558802e-08, -1.0660718530175473e-08, -9.438693382435304e-09, -8.216670011051974e-09, -6.994646639668645e-09, -5.772623268285315e-09, -4.550599896901986e-09, -3.3285729728049773e-09, -2.106549601421648e-09, -8.845226773246395e-10, 3.3750069405869e-10, 1.5595240654420195e-09, 2.781550989539028e-09, 4.003574360922357e-09, 5.225597732305687e-09, 6.447621103689016e-09, 7.669644475072346e-09, 8.891669622812515e-09, 1.0113692994195844e-08, 1.1335718141936013e-08, 1.2557741513319343e-08, 1.3779764884702672e-08, 1.500179003244284e-08, 1.622381340382617e-08, 1.744583855156634e-08, 1.866786192294967e-08, 1.9889885294333e-08, 2.1111910442073167e-08, 2.2333933813456497e-08, 2.3555958961196666e-08, 2.4777982332579995e-08, 2.6000005703963325e-08, 2.7222029075346654e-08, 2.8444054223086823e-08, 2.9666079370826992e-08, 3.088810274221032e-08, 3.211012611359365e-08, 3.333214948497698e-08, 3.455417285636031e-08, 3.577619978045732e-08, 3.699822315184065e-08, 3.822024652322398e-08]}, "gradients/graph_2lstm.bias_ih_l1": {"_type": "histogram", "values": [2.0, 3.0, 0.0, 0.0, 1.0, 1.0, 2.0, 3.0, 3.0, 1.0, 8.0, 3.0, 4.0, 12.0, 8.0, 11.0, 21.0, 18.0, 24.0, 29.0, 41.0, 43.0, 113.0, 1341.0, 140.0, 43.0, 26.0, 27.0, 30.0, 26.0, 13.0, 12.0, 6.0, 9.0, 4.0, 5.0, 2.0, 3.0, 2.0, 1.0, 5.0, 1.0, 0.0, 0.0, 0.0, 0.0, 0.0, 0.0, 0.0, 0.0, 0.0, 0.0, 0.0, 0.0, 0.0, 0.0, 0.0, 0.0, 0.0, 0.0, 0.0, 0.0, 0.0, 1.0], "bins": [-2.0746129791859858e-07, -1.986916657870097e-07, -1.8992203365542082e-07, -1.8115240152383194e-07, -1.7238276939224306e-07, -1.6361313726065418e-07, -1.548434909182106e-07, -1.460738587866217e-07, -1.3730422665503283e-07, -1.2853459452344396e-07, -1.1976496239185508e-07, -1.1099533736569356e-07, -1.0222569812867732e-07, -9.345606599708844e-08, -8.468643386549957e-08, -7.591680173391069e-08, -6.714716960232181e-08, -5.837753747073293e-08, -4.9607905339144054e-08, -4.0838273207555176e-08, -3.20686410759663e-08, -2.329900894437742e-08, -1.4529376812788541e-08, -5.759744681199663e-09, 3.00990166124393e-09, 1.1779533792832808e-08, 2.0549165924421686e-08, 2.9318798056010564e-08, 3.808843018759944e-08, 4.685806231918832e-08, 5.56276944507772e-08, 6.439732658236608e-08, 7.316694450310024e-08, 8.193657663468912e-08, 9.0706208766278e-08, 9.947584089786687e-08, 1.0824547302945575e-07, 1.1701510516104463e-07, 1.257847372926335e-07, 1.3455436942422239e-07, 1.4332400155581126e-07, 1.5209364789825486e-07, 1.6086328002984374e-07, 1.6963291216143261e-07, 1.784025442930215e-07, 1.8717217642461037e-07, 1.9594180855619925e-07, 2.0471144068778813e-07, 2.13481072819377e-07, 2.2225070495096588e-07, 2.3102033708255476e-07, 2.3978998342499835e-07, 2.4855961555658723e-07, 2.573292476881761e-07, 2.66098879819765e-07, 2.7486851195135387e-07, 2.8363814408294274e-07, 2.924077762145316e-07, 3.011774083461205e-07, 3.099470404777094e-07, 3.1871667260929826e-07, 3.2748630474088714e-07, 3.36255936872476e-07, 3.450255690040649e-07, 3.5379520113565377e-07]}, "gradients/graph_2lstm.weight_ih_l1": {"_type": "histogram", "values": [1.0, 0.0, 0.0, 0.0, 1.0, 0.0, 0.0, 1.0, 0.0, 0.0, 0.0, 0.0, 0.0, 0.0, 1.0, 1.0, 1.0, 1.0, 5.0, 7.0, 16.0, 5.0, 14.0, 32.0, 24.0, 47.0, 61.0, 84.0, 158.0, 265.0, 411.0, 807.0, 1560.0, 3644.0, 12028.0, 217100.0, 792170.0, 12771.0, 3774.0, 1608.0, 767.0, 452.0, 252.0, 179.0, 97.0, 63.0, 42.0, 42.0, 30.0, 20.0, 4.0, 6.0, 4.0, 5.0, 3.0, 2.0, 2.0, 4.0, 0.0, 0.0, 0.0, 0.0, 1.0, 3.0], "bins": [-2.4035918499976106e-07, -2.3368667712020397e-07, -2.2701415502979216e-07, -2.2034163293938036e-07, -2.1366912505982327e-07, -2.0699661718026618e-07, -2.0032409508985438e-07, -1.9365157299944258e-07, -1.869790651198855e-07, -1.803065572403284e-07, -1.736340351499166e-07, -1.669615130595048e-07, -1.602890051799477e-07, -1.5361649730039062e-07, -1.4694397520997882e-07, -1.4027145311956701e-07, -1.3359894524000993e-07, -1.2692643736045284e-07, -1.2025391527004103e-07, -1.1358139317962923e-07, -1.0690888530007214e-07, -1.0023637742051505e-07, -9.356385533010325e-08, -8.689133323969145e-08, -8.021882536013436e-08, -7.354631748057727e-08, -6.687379539016547e-08, -6.020127329975367e-08, -5.352876542019658e-08, -4.685625754063949e-08, -4.0183735450227687e-08, -3.3511213359815883e-08, -2.6838705480258795e-08, -2.0166197600701707e-08, -1.3493675510289904e-08, -6.821153419878101e-09, -1.4864554032101296e-10, 6.523862339236075e-09, 1.3196384429647878e-08, 1.986890652005968e-08, 2.654141439961677e-08, 3.321392227917386e-08, 3.988644436958566e-08, 4.6558966459997464e-08, 5.323147433955455e-08, 5.990398221911164e-08, 6.657650430952344e-08, 7.324901929450789e-08, 7.992153427949233e-08, 8.659404926447678e-08, 9.326656424946123e-08, 9.993907923444567e-08, 1.0661159421943012e-07, 1.1328410920441456e-07, 1.19956624189399e-07, 1.266291462798108e-07, 1.333016541593679e-07, 1.39974162038925e-07, 1.466466841293368e-07, 1.533192062197486e-07, 1.5999171409930568e-07, 1.6666422197886277e-07, 1.7333674406927457e-07, 1.8000926615968638e-07, 1.8668177403924346e-07]}, "gradients/graph_2lstm.bias_hh_l0": {"_type": "histogram", "values": [1.0, 0.0, 0.0, 0.0, 1.0, 1.0, 0.0, 0.0, 0.0, 3.0, 1.0, 4.0, 2.0, 11.0, 7.0, 17.0, 30.0, 65.0, 200.0, 1416.0, 188.0, 52.0, 22.0, 10.0, 9.0, 2.0, 2.0, 1.0, 1.0, 0.0, 0.0, 0.0, 1.0, 0.0, 0.0, 0.0, 0.0, 0.0, 0.0, 0.0, 0.0, 0.0, 0.0, 0.0, 0.0, 0.0, 0.0, 0.0, 0.0, 0.0, 0.0, 0.0, 0.0, 0.0, 0.0, 0.0, 0.0, 0.0, 0.0, 0.0, 0.0, 0.0, 0.0, 1.0], "bins": [-6.108604679866403e-07, -5.796489404019667e-07, -5.484373559738742e-07, -5.172257715457818e-07, -4.860142439611081e-07, -4.548026879547251e-07, -4.235911319483421e-07, -3.9237957594195905e-07, -3.61168019935576e-07, -3.29956463929193e-07, -2.9874490792280994e-07, -2.675333519164269e-07, -2.3632179591004387e-07, -2.0511023990366084e-07, -1.738986838972778e-07, -1.4268712789089477e-07, -1.1147557188451174e-07, -8.026398745641927e-08, -4.905245987174567e-08, -1.7840932287072064e-08, 1.33706521410204e-08, 4.4582236569112865e-08, 7.579376415378647e-08, 1.0700529173846007e-07, 1.3821687616655254e-07, 1.69428460594645e-07, 2.006399881793186e-07, 2.318515157639922e-07, 2.630631001920847e-07, 2.9427468462017714e-07, 3.2548621220485074e-07, 3.5669773978952435e-07, 3.8790926737419795e-07, 4.191208518022904e-07, 4.50332379386964e-07, 4.815439069716376e-07, 5.127554913997301e-07, 5.439670758278226e-07, 5.751786034124962e-07, 6.063901309971698e-07, 6.376017154252622e-07, 6.688132998533547e-07, 7.000248274380283e-07, 7.312363550227019e-07, 7.624479394507944e-07, 7.936595238788868e-07, 8.248710514635604e-07, 8.56082579048234e-07, 8.872941634763265e-07, 9.18505747904419e-07, 9.497172754890926e-07, 9.809288030737662e-07, 1.0121403875018586e-06, 1.043351971929951e-06, 1.0745634426712058e-06, 1.1057750270992983e-06, 1.1369866115273908e-06, 1.1681981959554832e-06, 1.1994097803835757e-06, 1.2306212511248305e-06, 1.261832835552923e-06, 1.2930444199810154e-06, 1.3242558907222701e-06, 1.3554674751503626e-06, 1.386679059578455e-06]}, "gradients/graph_2lstm.weight_hh_l0": {"_type": "histogram", "values": [1.0, 1.0, 0.0, 0.0, 0.0, 1.0, 0.0, 0.0, 0.0, 0.0, 0.0, 0.0, 0.0, 2.0, 0.0, 0.0, 1.0, 3.0, 3.0, 3.0, 2.0, 3.0, 5.0, 8.0, 8.0, 15.0, 26.0, 31.0, 65.0, 85.0, 132.0, 270.0, 554.0, 1383.0, 5097.0, 64000.0, 961981.0, 11070.0, 2211.0, 741.0, 372.0, 172.0, 114.0, 66.0, 42.0, 25.0, 26.0, 12.0, 10.0, 8.0, 6.0, 5.0, 2.0, 2.0, 1.0, 2.0, 0.0, 1.0, 2.0, 0.0, 2.0, 1.0, 0.0, 3.0], "bins": [-3.727555508703517e-07, -3.624614066666254e-07, -3.521672908846085e-07, -3.418731466808822e-07, -3.315790308988653e-07, -3.21284886695139e-07, -3.109907709131221e-07, -3.006966267093958e-07, -2.904025109273789e-07, -2.801083667236526e-07, -2.698142509416357e-07, -2.5952010673790937e-07, -2.492259909558925e-07, -2.3893184675216617e-07, -2.2863771675929456e-07, -2.1834358676642296e-07, -2.0804945677355136e-07, -1.9775532678067975e-07, -1.8746119678780815e-07, -1.7716706679493655e-07, -1.6687293680206494e-07, -1.5657880680919334e-07, -1.4628467681632173e-07, -1.3599054682345013e-07, -1.256964026197238e-07, -1.1540228683770692e-07, -1.051081426339806e-07, -9.481402685196372e-08, -8.45198826482374e-08, -7.422576686622051e-08, -6.393162266249419e-08, -5.3637506880477304e-08, -4.3343362676750985e-08, -3.3049218473024666e-08, -2.2755102691007778e-08, -1.246095848728146e-08, -2.166842705264571e-09, 8.127301498461748e-09, 1.8421417280478636e-08, 2.8715561484204954e-08, 3.900967726622184e-08, 4.930382146994816e-08, 5.9597951462819765e-08, 6.989208145569137e-08, 8.018621144856297e-08, 9.048034144143458e-08, 1.0077447143430618e-07, 1.1106860142717778e-07, 1.2136273142004939e-07, 1.31656861412921e-07, 1.419509914057926e-07, 1.522451213986642e-07, 1.625392513915358e-07, 1.728333813844074e-07, 1.8312752558813372e-07, 1.934216413701506e-07, 2.0371578557387693e-07, 2.1400990135589382e-07, 2.2430404555962014e-07, 2.3459817555249174e-07, 2.4489230554536334e-07, 2.5518642132738023e-07, 2.6548056553110655e-07, 2.7577468131312344e-07, 2.8606882551684976e-07]}, "gradients/graph_2lstm.bias_ih_l0": {"_type": "histogram", "values": [1.0, 0.0, 0.0, 0.0, 1.0, 1.0, 0.0, 0.0, 0.0, 3.0, 1.0, 4.0, 2.0, 11.0, 7.0, 17.0, 30.0, 65.0, 200.0, 1416.0, 188.0, 52.0, 22.0, 10.0, 9.0, 2.0, 2.0, 1.0, 1.0, 0.0, 0.0, 0.0, 1.0, 0.0, 0.0, 0.0, 0.0, 0.0, 0.0, 0.0, 0.0, 0.0, 0.0, 0.0, 0.0, 0.0, 0.0, 0.0, 0.0, 0.0, 0.0, 0.0, 0.0, 0.0, 0.0, 0.0, 0.0, 0.0, 0.0, 0.0, 0.0, 0.0, 0.0, 1.0], "bins": [-6.108604111432214e-07, -5.79648826715129e-07, -5.484372991304554e-07, -5.172257715457818e-07, -4.860141871176893e-07, -4.5480263111130625e-07, -4.235910751049232e-07, -3.923795190985402e-07, -3.6116796309215715e-07, -3.299564070857741e-07, -2.987448510793911e-07, -2.6753329507300805e-07, -2.3632173906662501e-07, -2.0511018306024198e-07, -1.7389862705385895e-07, -1.426870710474759e-07, -1.1147551504109288e-07, -8.026393061300041e-08, -4.905240302832681e-08, -1.7840875443653204e-08, 1.3370708984439261e-08, 4.4582293412531726e-08, 7.579382099720533e-08, 1.0700534858187893e-07, 1.382169330099714e-07, 1.6942851743806386e-07, 2.0064004502273747e-07, 2.3185157260741107e-07, 2.6306315703550354e-07, 2.94274741463596e-07, 3.254862690482696e-07, 3.566977966329432e-07, 3.8790926737419795e-07, 4.191208518022904e-07, 4.50332379386964e-07, 4.815439069716376e-07, 5.127554913997301e-07, 5.439670758278226e-07, 5.751786034124962e-07, 6.063901309971698e-07, 6.376017154252622e-07, 6.688132998533547e-07, 7.000248274380283e-07, 7.312363550227019e-07, 7.624479394507944e-07, 7.936595238788868e-07, 8.248710514635604e-07, 8.56082579048234e-07, 8.872941634763265e-07, 9.18505747904419e-07, 9.497172754890926e-07, 9.809288030737662e-07, 1.0121403875018586e-06, 1.043351971929951e-06, 1.0745634426712058e-06, 1.1057750270992983e-06, 1.1369866115273908e-06, 1.1681981959554832e-06, 1.1994097803835757e-06, 1.2306212511248305e-06, 1.261832835552923e-06, 1.2930444199810154e-06, 1.3242558907222701e-06, 1.3554674751503626e-06, 1.386679059578455e-06]}, "gradients/graph_2lstm.weight_ih_l0": {"_type": "histogram", "values": [1.0, 0.0, 1.0, 0.0, 0.0, 0.0, 0.0, 2.0, 2.0, 1.0, 3.0, 1.0, 0.0, 0.0, 1.0, 2.0, 2.0, 1.0, 0.0, 0.0, 1.0, 2.0, 2.0, 6.0, 9.0, 5.0, 14.0, 21.0, 22.0, 51.0, 101.0, 289.0, 739.0, 3267.0, 197587.0, 55827.0, 2864.0, 737.0, 278.0, 135.0, 55.0, 27.0, 19.0, 16.0, 9.0, 9.0, 8.0, 6.0, 2.0, 3.0, 4.0, 4.0, 1.0, 0.0, 1.0, 1.0, 0.0, 0.0, 1.0, 1.0, 2.0, 0.0, 0.0, 1.0], "bins": [-1.7841723547462607e-06, -1.733130261527549e-06, -1.6820881683088373e-06, -1.631045961403288e-06, -1.5800038681845763e-06, -1.5289617749658646e-06, -1.4779195680603152e-06, -1.4268774748416035e-06, -1.3758353816228919e-06, -1.3247932884041802e-06, -1.2737511951854685e-06, -1.2227089882799191e-06, -1.1716668950612075e-06, -1.1206248018424958e-06, -1.0695825949369464e-06, -1.0185405017182347e-06, -9.67498408499523e-07, -9.164563152808114e-07, -8.654141652186809e-07, -8.143720151565503e-07, -7.633299219378387e-07, -7.12287828719127e-07, -6.612456218135776e-07, -6.102035285948659e-07, -5.591614353761543e-07, -5.081193421574426e-07, -4.570772489387309e-07, -4.060350420331815e-07, -3.5499294881446986e-07, -3.039508555957582e-07, -2.529086486902088e-07, -2.0186655547149712e-07, -1.5082446225278545e-07, -9.978236903407378e-08, -4.874027581536211e-08, 2.3019310901872814e-09, 5.334402430889895e-08, 1.0438611752761062e-07, 1.5542832443316001e-07, 2.0647041765187168e-07, 2.5751251087058336e-07, 3.08554604089295e-07, 3.595966973080067e-07, 4.106389042135561e-07, 4.6168099743226776e-07, 5.127230906509794e-07, 5.6376524071311e-07, 6.148073907752405e-07, 6.658494839939522e-07, 7.168915772126638e-07, 7.679337272747944e-07, 8.189758773369249e-07, 8.700179705556366e-07, 9.210600637743482e-07, 9.721022706798976e-07, 1.0231443638986093e-06, 1.074186457117321e-06, 1.1252285503360326e-06, 1.1762706435547443e-06, 1.2273128504602937e-06, 1.2783549436790054e-06, 1.329397036897717e-06, 1.3804392438032664e-06, 1.4314813370219781e-06, 1.4825234302406898e-06]}, "gradients/graph_2encoder.fc.bias": {"_type": "histogram", "values": [1.0, 1.0, 0.0, 0.0, 0.0, 2.0, 0.0, 1.0, 1.0, 0.0, 2.0, 0.0, 1.0, 3.0, 0.0, 4.0, 1.0, 1.0, 5.0, 2.0, 2.0, 1.0, 4.0, 3.0, 7.0, 6.0, 4.0, 5.0, 5.0, 2.0, 2.0, 7.0, 5.0, 4.0, 3.0, 5.0, 6.0, 3.0, 6.0, 1.0, 2.0, 3.0, 0.0, 1.0, 1.0, 3.0, 2.0, 2.0, 1.0, 0.0, 0.0, 0.0, 0.0, 2.0, 2.0, 1.0, 1.0, 0.0, 0.0, 0.0, 0.0, 0.0, 0.0, 1.0], "bins": [-9.40241818625509e-07, -9.103350180339476e-07, -8.804281605989672e-07, -8.505213600074057e-07, -8.206145594158443e-07, -7.907077588242828e-07, -7.608009013893025e-07, -7.30894100797741e-07, -7.009872433627606e-07, -6.710804427711992e-07, -6.411736421796377e-07, -6.112668415880762e-07, -5.813599841530959e-07, -5.514531835615344e-07, -5.21546326126554e-07, -4.916395255349926e-07, -4.617327249434311e-07, -4.318259243518696e-07, -4.019190669168893e-07, -3.720122663253278e-07, -3.421054657337663e-07, -3.12198608298786e-07, -2.822918077072245e-07, -2.5238500711566303e-07, -2.224781496806827e-07, -1.925713490891212e-07, -1.6266454849755974e-07, -1.3275774790599826e-07, -1.0285089047101792e-07, -7.294408987945644e-08, -4.3037289287894964e-08, -1.3130431852914626e-08, 1.6776425582065713e-08, 4.668322617362719e-08, 7.659008360860753e-08, 1.06496884200169e-07, 1.3640368479173048e-07, 1.6631054222671082e-07, 1.962173428182723e-07, 2.2612414340983378e-07, 2.5603094400139526e-07, 2.859378014363756e-07, 3.1584460202793707e-07, 3.4575140261949855e-07, 3.756582600544789e-07, 4.0556506064604037e-07, 4.3547186123760184e-07, 4.653787186725822e-07, 4.952855192641437e-07, 5.25192376699124e-07, 5.550991772906855e-07, 5.85005977882247e-07, 6.149127784738084e-07, 6.448195790653699e-07, 6.747264365003502e-07, 7.046332370919117e-07, 7.345400945268921e-07, 7.644468951184535e-07, 7.94353695710015e-07, 8.242604963015765e-07, 8.541673537365568e-07, 8.840741543281183e-07, 9.139809549196798e-07, 9.438878123546601e-07, 9.737946129462216e-07]}, "gradients/graph_2encoder.fc.weight": {"_type": "histogram", "values": [2.0, 0.0, 0.0, 0.0, 2.0, 1.0, 0.0, 1.0, 3.0, 1.0, 2.0, 1.0, 4.0, 3.0, 2.0, 4.0, 7.0, 5.0, 10.0, 13.0, 20.0, 21.0, 27.0, 29.0, 62.0, 70.0, 87.0, 111.0, 205.0, 333.0, 707.0, 26228.0, 290.0, 166.0, 90.0, 75.0, 59.0, 24.0, 36.0, 24.0, 20.0, 9.0, 9.0, 7.0, 8.0, 2.0, 0.0, 4.0, 2.0, 4.0, 1.0, 1.0, 1.0, 2.0, 2.0, 1.0, 1.0, 0.0, 0.0, 0.0, 0.0, 0.0, 0.0, 1.0], "bins": [-7.781738531775773e-06, -7.531656592618674e-06, -7.281574198714225e-06, -7.031492259557126e-06, -6.781409865652677e-06, -6.531327926495578e-06, -6.28124598733848e-06, -6.031164048181381e-06, -5.781081654276932e-06, -5.530999260372482e-06, -5.280917321215384e-06, -5.030835382058285e-06, -4.780753442901187e-06, -4.530671048996737e-06, -4.280589109839639e-06, -4.030506715935189e-06, -3.7804247767780907e-06, -3.5303428376209922e-06, -3.280260443716543e-06, -3.0301785045594443e-06, -2.780096110654995e-06, -2.5300141714978963e-06, -2.2799322323407978e-06, -2.0298498384363484e-06, -1.7797678992792498e-06, -1.5296859601221513e-06, -1.2796035662177019e-06, -1.0295216270606034e-06, -7.794396879035048e-07, -5.293572939990554e-07, -2.7927535484195687e-07, -2.919296093750745e-08, 2.2088988771429285e-07, 4.709718268713914e-07, 7.210542207758408e-07, 9.711361599329393e-07, 1.2212185538373888e-06, 1.4713004929944873e-06, 1.7213824321515858e-06, 1.9714648260560352e-06, 2.2215467652131338e-06, 2.4716287043702323e-06, 2.7217110982746817e-06, 2.9717930374317802e-06, 3.2218749765888788e-06, 3.471957370493328e-06, 3.7220393096504267e-06, 3.972121703554876e-06, 4.222203642711975e-06, 4.472285581869073e-06, 4.722367975773523e-06, 4.972449914930621e-06, 5.222532308835071e-06, 5.472614247992169e-06, 5.722696187149268e-06, 5.972778126306366e-06, 6.222860520210816e-06, 6.472942914115265e-06, 6.7230248532723635e-06, 6.973106792429462e-06, 7.223188731586561e-06, 7.47327112549101e-06, 7.72335351939546e-06, 7.973435458552558e-06, 8.223517397709657e-06]}, "gradients/graph_2encoder.conv3.bn.weight": {"_type": "histogram", "values": [0.0, 0.0, 0.0, 0.0, 0.0, 0.0, 0.0, 0.0, 0.0, 0.0, 0.0, 0.0, 0.0, 0.0, 0.0, 0.0, 0.0, 0.0, 0.0, 0.0, 0.0, 0.0, 0.0, 0.0, 0.0, 0.0, 0.0, 0.0, 0.0, 0.0, 0.0, 0.0, 1.0, 0.0, 0.0, 0.0, 0.0, 0.0, 0.0, 0.0, 0.0, 0.0, 0.0, 0.0, 0.0, 0.0, 0.0, 0.0, 0.0, 0.0, 0.0, 0.0, 0.0, 0.0, 0.0, 0.0, 0.0, 0.0, 0.0, 0.0, 0.0, 0.0, 0.0, 0.0], "bins": [7.986709533724934e-07, 7.986709533724934e-07, 7.986709533724934e-07, 7.986709533724934e-07, 7.986709533724934e-07, 7.986709533724934e-07, 7.986709533724934e-07, 7.986709533724934e-07, 7.986709533724934e-07, 7.986709533724934e-07, 7.986709533724934e-07, 7.986709533724934e-07, 7.986709533724934e-07, 7.986709533724934e-07, 7.986709533724934e-07, 7.986709533724934e-07, 7.986709533724934e-07, 7.986709533724934e-07, 7.986709533724934e-07, 7.986709533724934e-07, 7.986709533724934e-07, 7.986709533724934e-07, 7.986709533724934e-07, 7.986709533724934e-07, 7.986709533724934e-07, 7.986709533724934e-07, 7.986709533724934e-07, 7.986709533724934e-07, 7.986709533724934e-07, 7.986709533724934e-07, 7.986709533724934e-07, 7.986709533724934e-07, 7.986709533724934e-07, 7.986709533724934e-07, 7.986709533724934e-07, 7.986709533724934e-07, 7.986709533724934e-07, 7.986709533724934e-07, 7.986709533724934e-07, 7.986709533724934e-07, 7.986709533724934e-07, 7.986709533724934e-07, 7.986709533724934e-07, 7.986709533724934e-07, 7.986709533724934e-07, 7.986709533724934e-07, 7.986709533724934e-07, 7.986709533724934e-07, 7.986709533724934e-07, 7.986709533724934e-07, 7.986709533724934e-07, 7.986709533724934e-07, 7.986709533724934e-07, 7.986709533724934e-07, 7.986709533724934e-07, 7.986709533724934e-07, 7.986709533724934e-07, 7.986709533724934e-07, 7.986709533724934e-07, 7.986709533724934e-07, 7.986709533724934e-07, 7.986709533724934e-07, 7.986709533724934e-07, 7.986709533724934e-07, 7.986709533724934e-07]}, "gradients/graph_2encoder.conv3.bn.bias": {"_type": "histogram", "values": [0.0, 0.0, 0.0, 0.0, 0.0, 0.0, 0.0, 0.0, 0.0, 0.0, 0.0, 0.0, 0.0, 0.0, 0.0, 0.0, 0.0, 0.0, 0.0, 0.0, 0.0, 0.0, 0.0, 0.0, 0.0, 0.0, 0.0, 0.0, 0.0, 0.0, 0.0, 0.0, 1.0, 0.0, 0.0, 0.0, 0.0, 0.0, 0.0, 0.0, 0.0, 0.0, 0.0, 0.0, 0.0, 0.0, 0.0, 0.0, 0.0, 0.0, 0.0, 0.0, 0.0, 0.0, 0.0, 0.0, 0.0, 0.0, 0.0, 0.0, 0.0, 0.0, 0.0, 0.0], "bins": [1.3573453543358482e-06, 1.3573453543358482e-06, 1.3573453543358482e-06, 1.3573453543358482e-06, 1.3573453543358482e-06, 1.3573453543358482e-06, 1.3573453543358482e-06, 1.3573453543358482e-06, 1.3573453543358482e-06, 1.3573453543358482e-06, 1.3573453543358482e-06, 1.3573453543358482e-06, 1.3573453543358482e-06, 1.3573453543358482e-06, 1.3573453543358482e-06, 1.3573453543358482e-06, 1.3573453543358482e-06, 1.3573453543358482e-06, 1.3573453543358482e-06, 1.3573453543358482e-06, 1.3573453543358482e-06, 1.3573453543358482e-06, 1.3573453543358482e-06, 1.3573453543358482e-06, 1.3573453543358482e-06, 1.3573453543358482e-06, 1.3573453543358482e-06, 1.3573453543358482e-06, 1.3573453543358482e-06, 1.3573453543358482e-06, 1.3573453543358482e-06, 1.3573453543358482e-06, 1.3573453543358482e-06, 1.3573453543358482e-06, 1.3573453543358482e-06, 1.3573453543358482e-06, 1.3573453543358482e-06, 1.3573453543358482e-06, 1.3573453543358482e-06, 1.3573453543358482e-06, 1.3573453543358482e-06, 1.3573453543358482e-06, 1.3573453543358482e-06, 1.3573453543358482e-06, 1.3573453543358482e-06, 1.3573453543358482e-06, 1.3573453543358482e-06, 1.3573453543358482e-06, 1.3573453543358482e-06, 1.3573453543358482e-06, 1.3573453543358482e-06, 1.3573453543358482e-06, 1.3573453543358482e-06, 1.3573453543358482e-06, 1.3573453543358482e-06, 1.3573453543358482e-06, 1.3573453543358482e-06, 1.3573453543358482e-06, 1.3573453543358482e-06, 1.3573453543358482e-06, 1.3573453543358482e-06, 1.3573453543358482e-06, 1.3573453543358482e-06, 1.3573453543358482e-06, 1.3573453543358482e-06]}, "gradients/graph_2encoder.conv3.conv.weight": {"_type": "histogram", "values": [1.0, 0.0, 0.0, 0.0, 0.0, 0.0, 0.0, 0.0, 0.0, 0.0, 1.0, 1.0, 2.0, 1.0, 0.0, 1.0, 0.0, 3.0, 0.0, 0.0, 2.0, 3.0, 1.0, 2.0, 0.0, 2.0, 2.0, 0.0, 2.0, 1.0, 2.0, 5.0, 4.0, 2.0, 3.0, 4.0, 3.0, 0.0, 1.0, 0.0, 1.0, 0.0, 1.0, 1.0, 3.0, 2.0, 0.0, 1.0, 1.0, 0.0, 0.0, 0.0, 1.0, 1.0, 0.0, 0.0, 0.0, 1.0, 0.0, 1.0, 0.0, 0.0, 0.0, 1.0], "bins": [-6.618601219088305e-06, -6.416236374207074e-06, -6.213871529325843e-06, -6.011507139191963e-06, -5.809142294310732e-06, -5.606777449429501e-06, -5.404413059295621e-06, -5.20204821441439e-06, -4.999683369533159e-06, -4.797318524651928e-06, -4.594953679770697e-06, -4.392589289636817e-06, -4.190224444755586e-06, -3.987859599874355e-06, -3.7854949823667994e-06, -3.583130364859244e-06, -3.380765519978013e-06, -3.178400675096782e-06, -2.9760360575892264e-06, -2.773671440081671e-06, -2.57130659520044e-06, -2.368941750319209e-06, -2.166577360185329e-06, -1.964212515304098e-06, -1.761847670422867e-06, -1.559482825541636e-06, -1.357117980660405e-06, -1.154753590526525e-06, -9.52388745645294e-07, -7.50023900764063e-07, -5.476595106301829e-07, -3.4529466574895196e-07, -1.429293661203701e-07, 5.943547876086086e-08, 2.618003236420918e-07, 4.641647137759719e-07, 6.665295586572029e-07, 8.688944035384338e-07, 1.071258793672314e-06, 1.2736236385535449e-06, 1.4759884834347758e-06, 1.6783533283160068e-06, 1.8807181731972378e-06, 2.083082563331118e-06, 2.285447408212349e-06, 2.4878122530935798e-06, 2.6901768706011353e-06, 2.892541488108691e-06, 3.094906332989922e-06, 3.2972711778711528e-06, 3.4996357953787083e-06, 3.702000412886264e-06, 3.904365257767495e-06, 4.106730102648726e-06, 4.309094947529957e-06, 4.511459337663837e-06, 4.713824182545068e-06, 4.916189027426299e-06, 5.118553417560179e-06, 5.32091826244141e-06, 5.523283107322641e-06, 5.725647952203872e-06, 5.928012797085103e-06, 6.130377187218983e-06, 6.332742032100214e-06]}, "gradients/graph_2encoder.conv3.conv.bias": {"_type": "histogram", "values": [0.0, 0.0, 0.0, 0.0, 0.0, 0.0, 0.0, 0.0, 0.0, 0.0, 0.0, 0.0, 0.0, 0.0, 0.0, 0.0, 0.0, 0.0, 0.0, 0.0, 0.0, 0.0, 0.0, 0.0, 0.0, 0.0, 0.0, 0.0, 0.0, 0.0, 0.0, 0.0, 1.0, 0.0, 0.0, 0.0, 0.0, 0.0, 0.0, 0.0, 0.0, 0.0, 0.0, 0.0, 0.0, 0.0, 0.0, 0.0, 0.0, 0.0, 0.0, 0.0, 0.0, 0.0, 0.0, 0.0, 0.0, 0.0, 0.0, 0.0, 0.0, 0.0, 0.0, 0.0], "bins": [-2.7000623958883807e-13, -2.7000623958883807e-13, -2.7000623958883807e-13, -2.7000623958883807e-13, -2.7000623958883807e-13, -2.7000623958883807e-13, -2.7000623958883807e-13, -2.7000623958883807e-13, -2.7000623958883807e-13, -2.7000623958883807e-13, -2.7000623958883807e-13, -2.7000623958883807e-13, -2.7000623958883807e-13, -2.7000623958883807e-13, -2.7000623958883807e-13, -2.7000623958883807e-13, -2.7000623958883807e-13, -2.7000623958883807e-13, -2.7000623958883807e-13, -2.7000623958883807e-13, -2.7000623958883807e-13, -2.7000623958883807e-13, -2.7000623958883807e-13, -2.7000623958883807e-13, -2.7000623958883807e-13, -2.7000623958883807e-13, -2.7000623958883807e-13, -2.7000623958883807e-13, -2.7000623958883807e-13, -2.7000623958883807e-13, -2.7000623958883807e-13, -2.7000623958883807e-13, -2.7000623958883807e-13, -2.7000623958883807e-13, -2.7000623958883807e-13, -2.7000623958883807e-13, -2.7000623958883807e-13, -2.7000623958883807e-13, -2.7000623958883807e-13, -2.7000623958883807e-13, -2.7000623958883807e-13, -2.7000623958883807e-13, -2.7000623958883807e-13, -2.7000623958883807e-13, -2.7000623958883807e-13, -2.7000623958883807e-13, -2.7000623958883807e-13, -2.7000623958883807e-13, -2.7000623958883807e-13, -2.7000623958883807e-13, -2.7000623958883807e-13, -2.7000623958883807e-13, -2.7000623958883807e-13, -2.7000623958883807e-13, -2.7000623958883807e-13, -2.7000623958883807e-13, -2.7000623958883807e-13, -2.7000623958883807e-13, -2.7000623958883807e-13, -2.7000623958883807e-13, -2.7000623958883807e-13, -2.7000623958883807e-13, -2.7000623958883807e-13, -2.7000623958883807e-13, -2.7000623958883807e-13]}, "gradients/graph_2encoder.conv2.bn.weight": {"_type": "histogram", "values": [1.0, 0.0, 0.0, 0.0, 0.0, 0.0, 0.0, 0.0, 0.0, 0.0, 0.0, 0.0, 0.0, 0.0, 0.0, 0.0, 0.0, 1.0, 0.0, 0.0, 0.0, 0.0, 0.0, 0.0, 1.0, 1.0, 0.0, 1.0, 0.0, 3.0, 2.0, 1.0, 1.0, 0.0, 0.0, 0.0, 0.0, 0.0, 0.0, 1.0, 0.0, 0.0, 0.0, 0.0, 1.0, 0.0, 0.0, 0.0, 0.0, 0.0, 1.0, 0.0, 0.0, 0.0, 0.0, 0.0, 0.0, 0.0, 0.0, 0.0, 0.0, 0.0, 0.0, 1.0], "bins": [-8.897081897885073e-07, -8.615194246885949e-07, -8.333306027452636e-07, -8.051418376453512e-07, -7.769530725454388e-07, -7.487642506021075e-07, -7.205754855021951e-07, -6.923867204022827e-07, -6.641979553023702e-07, -6.360091902024578e-07, -6.078203682591266e-07, -5.796316031592141e-07, -5.514427812158829e-07, -5.232540161159704e-07, -4.95065251016058e-07, -4.668764859161456e-07, -4.3868769239452376e-07, -4.104988988729019e-07, -3.823101337729895e-07, -3.541213686730771e-07, -3.259325467297458e-07, -2.977437816298334e-07, -2.69555016529921e-07, -2.4136625143000856e-07, -2.1317742948667728e-07, -1.8498866438676487e-07, -1.5679989928685245e-07, -1.2861107734352117e-07, -1.0042231224360876e-07, -7.223354714369634e-08, -4.4044782043783925e-08, -1.585596010045265e-08, 1.2332804999459768e-08, 4.0521570099372184e-08, 6.871039204270346e-08, 9.689915714261588e-08, 1.250879222425283e-07, 1.532766873424407e-07, 1.8146550928577199e-07, 2.096542743856844e-07, 2.3784303948559682e-07, 2.660318614289281e-07, 2.942206265288405e-07, 3.2240939162875293e-07, 3.5059815672866534e-07, 3.787869786719966e-07, 4.0697574377190904e-07, 4.3516450887182145e-07, 4.633533023934433e-07, 4.915420959150651e-07, 5.197308610149776e-07, 5.4791962611489e-07, 5.761083912148024e-07, 6.042972131581337e-07, 6.324859782580461e-07, 6.606748002013774e-07, 6.888635653012898e-07, 7.170523304012022e-07, 7.452410955011146e-07, 7.73429860601027e-07, 8.016186825443583e-07, 8.298074476442707e-07, 8.579962127441831e-07, 8.861850346875144e-07, 9.143737997874268e-07]}, "gradients/graph_2encoder.conv2.bn.bias": {"_type": "histogram", "values": [1.0, 1.0, 0.0, 0.0, 0.0, 0.0, 0.0, 0.0, 0.0, 0.0, 0.0, 1.0, 0.0, 0.0, 0.0, 0.0, 0.0, 1.0, 0.0, 0.0, 1.0, 0.0, 0.0, 0.0, 0.0, 0.0, 1.0, 0.0, 0.0, 0.0, 0.0, 1.0, 0.0, 0.0, 1.0, 0.0, 0.0, 0.0, 2.0, 0.0, 0.0, 0.0, 0.0, 1.0, 0.0, 0.0, 0.0, 0.0, 1.0, 0.0, 0.0, 0.0, 1.0, 0.0, 0.0, 0.0, 0.0, 1.0, 0.0, 0.0, 0.0, 1.0, 0.0, 1.0], "bins": [-2.0546825396650092e-07, -1.998059531160834e-07, -1.9414365226566588e-07, -1.8848135141524835e-07, -1.8281905056483083e-07, -1.771567497144133e-07, -1.7149443465314107e-07, -1.6583214801357826e-07, -1.6016983295230602e-07, -1.5450754631274322e-07, -1.4884523125147098e-07, -1.4318294461190817e-07, -1.3752062955063593e-07, -1.318583287002184e-07, -1.2619602784980088e-07, -1.2053372699938336e-07, -1.1487142614896584e-07, -1.0920912529854832e-07, -1.0354682444813079e-07, -9.788452359771327e-08, -9.222222274729575e-08, -8.655991479145086e-08, -8.08976210464607e-08, -7.523532019604318e-08, -6.957300513477094e-08, -6.391070428435341e-08, -5.824840343393589e-08, -5.258610258351837e-08, -4.6923801733100845e-08, -4.126150088268332e-08, -3.55992000322658e-08, -2.9936899181848275e-08, -2.4274584120576037e-08, -1.8612283270158514e-08, -1.294998241974099e-08, -7.2876815693234676e-09, -1.6253807189059444e-09, 4.036920131511579e-09, 9.699220981929102e-09, 1.5361521832346625e-08, 2.1023822682764148e-08, 2.6686137744036387e-08, 3.234843859445391e-08, 3.8010732339444075e-08, 4.3673040295288956e-08, 4.933534114570648e-08, 5.4997641996124e-08, 6.065994284654153e-08, 6.632224369695905e-08, 7.198454454737657e-08, 7.76468453977941e-08, 8.330914624821162e-08, 8.897144709862914e-08, 9.463375505447402e-08, 1.0029605590489155e-07, 1.0595835675530907e-07, 1.1162065760572659e-07, 1.1728295845614412e-07, 1.22945266411989e-07, 1.2860756726240652e-07, 1.3426986811282404e-07, 1.3993216896324157e-07, 1.455944698136591e-07, 1.512567706640766e-07, 1.5691907151449414e-07]}, "gradients/graph_2encoder.conv2.conv.weight": {"_type": "histogram", "values": [1.0, 0.0, 1.0, 1.0, 0.0, 1.0, 0.0, 2.0, 4.0, 3.0, 5.0, 3.0, 9.0, 13.0, 13.0, 9.0, 16.0, 28.0, 17.0, 21.0, 26.0, 55.0, 66.0, 95.0, 242.0, 514.0, 476.0, 149.0, 59.0, 32.0, 25.0, 21.0, 15.0, 18.0, 18.0, 12.0, 13.0, 9.0, 6.0, 7.0, 7.0, 2.0, 6.0, 3.0, 3.0, 3.0, 2.0, 1.0, 0.0, 2.0, 0.0, 3.0, 1.0, 2.0, 2.0, 0.0, 0.0, 1.0, 1.0, 1.0, 1.0, 1.0, 0.0, 1.0], "bins": [-2.655650405358756e-06, -2.553501872171182e-06, -2.451353566357284e-06, -2.34920503316971e-06, -2.2470567273558117e-06, -2.144908194168238e-06, -2.0427598883543396e-06, -1.940611355166766e-06, -1.8384630493528675e-06, -1.7363145161652938e-06, -1.6341660966645577e-06, -1.5320176771638216e-06, -1.4298692576630856e-06, -1.3277208381623495e-06, -1.2255724186616135e-06, -1.1234239991608774e-06, -1.0212755796601414e-06, -9.191271601594053e-07, -8.169787406586693e-07, -7.148303211579332e-07, -6.126817879703594e-07, -5.105334821564611e-07, -4.0838494896888733e-07, -3.06236643154989e-07, -2.0408810996741522e-07, -1.0193980415351689e-07, 2.0872903405688703e-10, 1.0235703484795522e-07, 2.04505568035529e-07, 3.0665387384942733e-07, 4.088024070370011e-07, 5.109507128508994e-07, 6.130992460384732e-07, 7.15247779226047e-07, 8.173960850399453e-07, 9.195446182275191e-07, 1.0216929240414174e-06, 1.1238414572289912e-06, 1.2259897630428895e-06, 1.3281382962304633e-06, 1.4302866020443616e-06, 1.5324351352319354e-06, 1.6345834410458338e-06, 1.7367319742334075e-06, 1.8388802800473059e-06, 1.9410288132348796e-06, 2.043177119048778e-06, 2.1453256522363517e-06, 2.2474741854239255e-06, 2.349622491237824e-06, 2.451770797051722e-06, 2.553919330239296e-06, 2.6560678634268697e-06, 2.758216169240768e-06, 2.8603644750546664e-06, 2.96251300824224e-06, 3.064661541429814e-06, 3.1668098472437123e-06, 3.268958380431286e-06, 3.3711066862451844e-06, 3.473255219432758e-06, 3.5754035252466565e-06, 3.6775520584342303e-06, 3.7797003642481286e-06, 3.881848897435702e-06]}, "gradients/graph_2encoder.conv2.conv.bias": {"_type": "histogram", "values": [1.0, 0.0, 0.0, 0.0, 0.0, 0.0, 0.0, 0.0, 0.0, 0.0, 0.0, 0.0, 0.0, 0.0, 0.0, 0.0, 0.0, 0.0, 0.0, 0.0, 0.0, 0.0, 0.0, 0.0, 0.0, 0.0, 0.0, 0.0, 0.0, 0.0, 0.0, 0.0, 1.0, 0.0, 0.0, 0.0, 0.0, 1.0, 0.0, 0.0, 0.0, 0.0, 0.0, 0.0, 2.0, 1.0, 1.0, 1.0, 1.0, 0.0, 1.0, 0.0, 1.0, 1.0, 1.0, 0.0, 0.0, 1.0, 1.0, 0.0, 0.0, 0.0, 0.0, 1.0], "bins": [-2.4868995751603507e-13, -2.42861286636753e-13, -2.370326157574709e-13, -2.3120394487818885e-13, -2.2537527399890678e-13, -2.195466031196247e-13, -2.1371793224034263e-13, -2.0788926136106056e-13, -2.020605904817785e-13, -1.9623191960249642e-13, -1.9040324872321435e-13, -1.8457457784393227e-13, -1.787459069646502e-13, -1.7291723608536813e-13, -1.6708856520608606e-13, -1.61259894326804e-13, -1.5543122344752192e-13, -1.4960255256823984e-13, -1.4377388168895777e-13, -1.379452108096757e-13, -1.3211653993039363e-13, -1.2628786905111156e-13, -1.2045919817182948e-13, -1.1463052729254741e-13, -1.0880185641326534e-13, -1.0297318553398327e-13, -9.71445146547012e-14, -9.131584377541913e-14, -8.548717289613705e-14, -7.965850201685498e-14, -7.382983113757291e-14, -6.800116025829084e-14, -6.217248937900877e-14, -5.6343818499726694e-14, -5.051514762044462e-14, -4.468647674116255e-14, -3.885780586188048e-14, -3.302913498259841e-14, -2.7200464103316335e-14, -2.1371793224034263e-14, -1.554312234475219e-14, -9.71445146547012e-15, -3.885780586188048e-15, 1.942890293094024e-15, 7.771561172376096e-15, 1.3600232051658168e-14, 1.942890293094024e-14, 2.525757381022231e-14, 3.108624468950438e-14, 3.6914915568786455e-14, 4.2743586448068527e-14, 4.85722573273506e-14, 5.440092820663267e-14, 6.022959908591474e-14, 6.605826996519681e-14, 7.188694084447889e-14, 7.771561172376096e-14, 8.354428260304303e-14, 8.93729534823251e-14, 9.520162436160717e-14, 1.0103029524088925e-13, 1.0685896612017132e-13, 1.1268763699945339e-13, 1.1851630787873546e-13, 1.2434497875801753e-13]}, "gradients/graph_2encoder.conv1.bn.weight": {"_type": "histogram", "values": [1.0, 0.0, 0.0, 0.0, 0.0, 0.0, 0.0, 0.0, 0.0, 0.0, 0.0, 0.0, 0.0, 0.0, 1.0, 1.0, 0.0, 0.0, 0.0, 0.0, 0.0, 1.0, 0.0, 1.0, 0.0, 0.0, 1.0, 0.0, 3.0, 1.0, 4.0, 4.0, 2.0, 0.0, 1.0, 2.0, 1.0, 0.0, 1.0, 2.0, 1.0, 0.0, 0.0, 1.0, 0.0, 0.0, 0.0, 0.0, 0.0, 0.0, 0.0, 0.0, 0.0, 0.0, 1.0, 0.0, 0.0, 0.0, 0.0, 0.0, 0.0, 0.0, 0.0, 2.0], "bins": [-8.163146958395373e-07, -7.911220336609404e-07, -7.659293714823434e-07, -7.407366524603276e-07, -7.155439902817307e-07, -6.903513281031337e-07, -6.651586090811179e-07, -6.39965946902521e-07, -6.14773284723924e-07, -5.895806225453271e-07, -5.643879603667301e-07, -5.391952413447143e-07, -5.140025791661174e-07, -4.888099169875204e-07, -4.6361722638721403e-07, -4.3842453578690765e-07, -4.132318736083107e-07, -3.8803921142971376e-07, -3.628465208294074e-07, -3.37653830229101e-07, -3.1246116805050406e-07, -2.872685058719071e-07, -2.620757868498913e-07, -2.3688312467129435e-07, -2.116904624926974e-07, -1.8649780031410046e-07, -1.613051381355035e-07, -1.361124191134877e-07, -1.1091975693489076e-07, -8.572709475629381e-08, -6.0534375734278e-08, -3.5341713555681054e-08, -1.0149051377084106e-08, 1.504361080151284e-08, 4.023627298010979e-08, 6.54289920021256e-08, 9.062165418072254e-08, 1.1581431635931949e-07, 1.410070353813353e-07, 1.6619969755993225e-07, 1.913923597385292e-07, 2.1658502191712614e-07, 2.417776840957231e-07, 2.669704031177389e-07, 2.9216306529633584e-07, 3.173557274749328e-07, 3.4254841807523917e-07, 3.6774110867554555e-07, 3.929337708541425e-07, 4.1812643303273944e-07, 4.433191236330458e-07, 4.685118142333522e-07, 4.937044764119491e-07, 5.188971385905461e-07, 5.440898576125619e-07, 5.692825197911588e-07, 5.944751819697558e-07, 6.196678441483527e-07, 6.448605063269497e-07, 6.700532253489655e-07, 6.952458875275624e-07, 7.204385497061594e-07, 7.456312687281752e-07, 7.708239309067721e-07, 7.960165930853691e-07]}, "gradients/graph_2encoder.conv1.bn.bias": {"_type": "histogram", "values": [1.0, 0.0, 0.0, 0.0, 0.0, 0.0, 0.0, 0.0, 2.0, 0.0, 2.0, 0.0, 0.0, 2.0, 2.0, 0.0, 0.0, 0.0, 0.0, 2.0, 1.0, 0.0, 1.0, 1.0, 0.0, 1.0, 0.0, 1.0, 0.0, 0.0, 0.0, 1.0, 1.0, 0.0, 1.0, 0.0, 1.0, 0.0, 0.0, 1.0, 0.0, 1.0, 0.0, 1.0, 0.0, 0.0, 0.0, 0.0, 1.0, 1.0, 1.0, 1.0, 0.0, 1.0, 0.0, 0.0, 1.0, 0.0, 0.0, 0.0, 0.0, 0.0, 1.0, 2.0], "bins": [-3.602338836117269e-07, -3.4954331340486533e-07, -3.3885274319800374e-07, -3.2816217299114214e-07, -3.1747160278428055e-07, -3.0678103257741896e-07, -2.960904907922668e-07, -2.8539989216369577e-07, -2.747093503785436e-07, -2.640187517499726e-07, -2.533282099648204e-07, -2.426376397579588e-07, -2.3194706955109723e-07, -2.2125649934423564e-07, -2.1056592913737404e-07, -1.9987535893051245e-07, -1.8918478872365085e-07, -1.7849421851678926e-07, -1.6780364830992767e-07, -1.5711307810306607e-07, -1.4642250789620448e-07, -1.357319519001976e-07, -1.25041381693336e-07, -1.143507972756197e-07, -1.0366025549046753e-07, -9.296968528360594e-08, -8.227911507674435e-08, -7.158854486988275e-08, -6.089797466302116e-08, -5.0207404456159566e-08, -3.951683424929797e-08, -2.8826264042436378e-08, -1.8135665413865354e-08, -7.44509520700376e-09, 3.2454749998578336e-09, 1.3936045206719427e-08, 2.462661541358102e-08, 3.5317185620442615e-08, 4.600775582730421e-08, 5.66983260341658e-08, 6.73888962410274e-08, 7.807943802617956e-08, 8.877002244389587e-08, 9.946059265075746e-08, 1.1015114864676434e-07, 1.2084171885362593e-07, 1.3153228906048753e-07, 1.4222285926734912e-07, 1.5291342947421072e-07, 1.636039996810723e-07, 1.742945698879339e-07, 1.849851400947955e-07, 1.956757103016571e-07, 2.0636628050851868e-07, 2.1705683650452556e-07, 2.2774740671138716e-07, 2.3843796270739404e-07, 2.4912856133596506e-07, 2.598191031211172e-07, 2.705096733279788e-07, 2.812002435348404e-07, 2.91890813741702e-07, 3.025813839485636e-07, 3.132719541554252e-07, 3.239625243622868e-07]}, "gradients/graph_2encoder.conv1.conv.weight": {"_type": "histogram", "values": [1.0, 0.0, 0.0, 0.0, 0.0, 0.0, 0.0, 0.0, 0.0, 0.0, 0.0, 1.0, 0.0, 0.0, 0.0, 5.0, 2.0, 3.0, 6.0, 8.0, 5.0, 12.0, 11.0, 15.0, 19.0, 35.0, 32.0, 43.0, 64.0, 78.0, 98.0, 107.0, 225.0, 535.0, 223.0, 101.0, 83.0, 58.0, 61.0, 50.0, 33.0, 22.0, 18.0, 17.0, 14.0, 10.0, 9.0, 6.0, 4.0, 7.0, 2.0, 1.0, 2.0, 5.0, 3.0, 2.0, 1.0, 0.0, 2.0, 3.0, 1.0, 2.0, 1.0, 2.0], "bins": [-3.2799171094666235e-06, -3.182618456776254e-06, -3.0853200314595597e-06, -2.98802137876919e-06, -2.890722953452496e-06, -2.7934243007621262e-06, -2.6961256480717566e-06, -2.5988272227550624e-06, -2.501528797438368e-06, -2.4042301447479986e-06, -2.306931492057629e-06, -2.2096330667409347e-06, -2.112334414050565e-06, -2.015035988733871e-06, -1.9177373360435013e-06, -1.8204387970399694e-06, -1.7231402580364374e-06, -1.6258417190329055e-06, -1.5285431800293736e-06, -1.4312446410258417e-06, -1.3339461020223098e-06, -1.2366474493319402e-06, -1.139349024015246e-06, -1.0420503713248763e-06, -9.447517186345067e-07, -8.474532933178125e-07, -7.501546406274429e-07, -6.528562153107487e-07, -5.55557562620379e-07, -4.5825913730368484e-07, -3.609604846133152e-07, -2.63662059296621e-07, -1.6636317923257593e-07, -6.90645265422063e-08, 2.8233898774487898e-08, 1.2553255146485753e-07, 2.2283097678155173e-07, 3.2012962947192136e-07, 4.1742805478861555e-07, 5.147267074789852e-07, 6.120251327956794e-07, 7.09323785486049e-07, 8.066224381764187e-07, 9.039208634931128e-07, 1.0012195161834825e-06, 1.0985180551870144e-06, 1.1958165941905463e-06, 1.2931151331940782e-06, 1.3904136721976101e-06, 1.487712211201142e-06, 1.585010750204674e-06, 1.6823092892082059e-06, 1.7796078282117378e-06, 1.8769064809021074e-06, 1.974205133592477e-06, 2.0715035589091713e-06, 2.1688019842258655e-06, 2.266100636916235e-06, 2.3633992896066047e-06, 2.460697714923299e-06, 2.5579963676136686e-06, 2.6552947929303627e-06, 2.7525934456207324e-06, 2.8498918709374266e-06, 2.947190523627796e-06]}, "gradients/graph_2encoder.conv1.conv.bias": {"_type": "histogram", "values": [1.0, 0.0, 0.0, 0.0, 0.0, 0.0, 0.0, 0.0, 0.0, 0.0, 0.0, 0.0, 0.0, 0.0, 0.0, 1.0, 1.0, 0.0, 0.0, 0.0, 0.0, 0.0, 0.0, 0.0, 0.0, 0.0, 1.0, 0.0, 0.0, 0.0, 0.0, 0.0, 0.0, 0.0, 0.0, 0.0, 1.0, 4.0, 0.0, 1.0, 1.0, 0.0, 2.0, 0.0, 0.0, 1.0, 2.0, 2.0, 0.0, 0.0, 1.0, 1.0, 2.0, 0.0, 1.0, 2.0, 1.0, 1.0, 1.0, 0.0, 2.0, 1.0, 0.0, 1.0], "bins": [-3.296918293926865e-12, -3.2294167340296553e-12, -3.161915174132446e-12, -3.0944136142352363e-12, -3.0269120543380268e-12, -2.9594104944408173e-12, -2.8919089345436078e-12, -2.8244073746463982e-12, -2.7569058147491887e-12, -2.6894042548519792e-12, -2.6219026949547697e-12, -2.55440113505756e-12, -2.4868995751603507e-12, -2.419398015263141e-12, -2.3518964553659316e-12, -2.284394895468722e-12, -2.2168933355715126e-12, -2.149391775674303e-12, -2.0818902157770935e-12, -2.014388655879884e-12, -1.9468870959826745e-12, -1.879385536085465e-12, -1.8118839761882555e-12, -1.744382416291046e-12, -1.6768808563938364e-12, -1.609379296496627e-12, -1.5418777365994174e-12, -1.4743761767022079e-12, -1.4068746168049984e-12, -1.3393730569077889e-12, -1.2718714970105793e-12, -1.2043699371133698e-12, -1.1368683772161603e-12, -1.0693668173189508e-12, -1.0018652574217413e-12, -9.343636975245317e-13, -8.668621376273222e-13, -7.993605777301127e-13, -7.318590178329032e-13, -6.643574579356937e-13, -5.968558980384842e-13, -5.293543381412746e-13, -4.618527782440651e-13, -3.943512183468556e-13, -3.268496584496461e-13, -2.5934809855243657e-13, -1.9184653865522705e-13, -1.2434497875801753e-13, -5.684341886080802e-14, 1.0658141036401503e-14, 7.815970093361102e-14, 1.4566126083082054e-13, 2.1316282072803006e-13, 2.8066438062523957e-13, 3.481659405224491e-13, 4.156675004196586e-13, 4.831690603168681e-13, 5.506706202140776e-13, 6.181721801112872e-13, 6.856737400084967e-13, 7.531752999057062e-13, 8.206768598029157e-13, 8.881784197001252e-13, 9.556799795973347e-13, 1.0231815394945443e-12]}}