{"lr": 0.00029999963437018194, "train loss": 78060764.25, "valid loss": 84085649.77777778, "_timestamp": 1678815068.225197, "_runtime": 229.0777530670166, "_step": 43, "gradients/decoder.conv6.bn.weight": {"_type": "histogram", "values": [0.0, 0.0, 0.0, 0.0, 0.0, 0.0, 0.0, 0.0, 0.0, 0.0, 0.0, 0.0, 0.0, 0.0, 0.0, 0.0, 0.0, 0.0, 0.0, 0.0, 0.0, 0.0, 0.0, 0.0, 0.0, 0.0, 0.0, 0.0, 0.0, 0.0, 0.0, 0.0, 1.0, 0.0, 0.0, 0.0, 0.0, 0.0, 0.0, 0.0, 0.0, 0.0, 0.0, 0.0, 0.0, 0.0, 0.0, 0.0, 0.0, 0.0, 0.0, 0.0, 0.0, 0.0, 0.0, 0.0, 0.0, 0.0, 0.0, 0.0, 0.0, 0.0, 0.0, 0.0], "bins": [-3486275.75, -3486275.75, -3486275.75, -3486275.75, -3486275.75, -3486275.75, -3486275.75, -3486275.75, -3486275.75, -3486275.75, -3486275.75, -3486275.75, -3486275.75, -3486275.75, -3486275.75, -3486275.75, -3486275.75, -3486275.75, -3486275.75, -3486275.75, -3486275.75, -3486275.75, -3486275.75, -3486275.75, -3486275.75, -3486275.75, -3486275.75, -3486275.75, -3486275.75, -3486275.75, -3486275.75, -3486275.75, -3486275.75, -3486275.75, -3486275.75, -3486275.75, -3486275.75, -3486275.75, -3486275.75, -3486275.75, -3486275.75, -3486275.75, -3486275.75, -3486275.75, -3486275.75, -3486275.75, -3486275.75, -3486275.75, -3486275.75, -3486275.75, -3486275.75, -3486275.75, -3486275.75, -3486275.75, -3486275.75, -3486275.75, -3486275.75, -3486275.75, -3486275.75, -3486275.75, -3486275.75, -3486275.75, -3486275.75, -3486275.75, -3486275.75]}, "gradients/decoder.conv6.bn.bias": {"_type": "histogram", "values": [0.0, 0.0, 0.0, 0.0, 0.0, 0.0, 0.0, 0.0, 0.0, 0.0, 0.0, 0.0, 0.0, 0.0, 0.0, 0.0, 0.0, 0.0, 0.0, 0.0, 0.0, 0.0, 0.0, 0.0, 0.0, 0.0, 0.0, 0.0, 0.0, 0.0, 0.0, 0.0, 1.0, 0.0, 0.0, 0.0, 0.0, 0.0, 0.0, 0.0, 0.0, 0.0, 0.0, 0.0, 0.0, 0.0, 0.0, 0.0, 0.0, 0.0, 0.0, 0.0, 0.0, 0.0, 0.0, 0.0, 0.0, 0.0, 0.0, 0.0, 0.0, 0.0, 0.0, 0.0], "bins": [-868015.5, -868015.5, -868015.5, -868015.5, -868015.5, -868015.5, -868015.5, -868015.5, -868015.5, -868015.5, -868015.5, -868015.5, -868015.5, -868015.5, -868015.5, -868015.5, -868015.5, -868015.5, -868015.5, -868015.5, -868015.5, -868015.5, -868015.5, -868015.5, -868015.5, -868015.5, -868015.5, -868015.5, -868015.5, -868015.5, -868015.5, -868015.5, -868015.5, -868015.5, -868015.5, -868015.5, -868015.5, -868015.5, -868015.5, -868015.5, -868015.5, -868015.5, -868015.5, -868015.5, -868015.5, -868015.5, -868015.5, -868015.5, -868015.5, -868015.5, -868015.5, -868015.5, -868015.5, -868015.5, -868015.5, -868015.5, -868015.5, -868015.5, -868015.5, -868015.5, -868015.5, -868015.5, -868015.5, -868015.5, -868015.5]}, "gradients/decoder.conv6.conv.weight": {"_type": "histogram", "values": [1.0, 2.0, 0.0, 0.0, 0.0, 1.0, 0.0, 0.0, 1.0, 1.0, 0.0, 4.0, 4.0, 9.0, 7.0, 6.0, 6.0, 5.0, 5.0, 2.0, 7.0, 3.0, 4.0, 12.0, 4.0, 3.0, 4.0, 2.0, 4.0, 2.0, 3.0, 2.0, 2.0, 2.0, 2.0, 1.0, 2.0, 1.0, 2.0, 2.0, 0.0, 2.0, 1.0, 1.0, 1.0, 1.0, 0.0, 1.0, 1.0, 0.0, 0.0, 0.0, 0.0, 1.0, 0.0, 0.0, 0.0, 0.0, 0.0, 0.0, 0.0, 0.0, 0.0, 1.0], "bins": [-13817.6689453125, -12835.373046875, -11853.0771484375, -10870.78125, -9888.484375, -8906.1884765625, -7923.892578125, -6941.59619140625, -5959.30029296875, -4977.00390625, -3994.7080078125, -3012.412109375, -2030.1162109375, -1047.8203125, -65.5234375, 916.7724609375, 1899.068359375, 2881.3642578125, 3863.6611328125, 4845.9560546875, 5828.2529296875, 6810.5478515625, 7792.8447265625, 8775.1416015625, 9757.4365234375, 10739.7333984375, 11722.0283203125, 12704.3251953125, 13686.6220703125, 14668.9169921875, 15651.2138671875, 16633.5078125, 17615.806640625, 18598.103515625, 19580.3984375, 20562.6953125, 21544.990234375, 22527.287109375, 23509.583984375, 24491.87890625, 25474.17578125, 26456.470703125, 27438.767578125, 28421.064453125, 29403.359375, 30385.65625, 31367.951171875, 32350.248046875, 33332.54296875, 34314.83984375, 35297.13671875, 36279.43359375, 37261.7265625, 38244.0234375, 39226.3203125, 40208.6171875, 41190.9140625, 42173.20703125, 43155.50390625, 44137.80078125, 45120.09765625, 46102.39453125, 47084.6875, 48066.984375, 49049.28125]}, "gradients/decoder.conv6.conv.bias": {"_type": "histogram", "values": [0.0, 0.0, 0.0, 0.0, 0.0, 0.0, 0.0, 0.0, 0.0, 0.0, 0.0, 0.0, 0.0, 0.0, 0.0, 0.0, 0.0, 0.0, 0.0, 0.0, 0.0, 0.0, 0.0, 0.0, 0.0, 0.0, 0.0, 0.0, 0.0, 0.0, 0.0, 0.0, 1.0, 0.0, 0.0, 0.0, 0.0, 0.0, 0.0, 0.0, 0.0, 0.0, 0.0, 0.0, 0.0, 0.0, 0.0, 0.0, 0.0, 0.0, 0.0, 0.0, 0.0, 0.0, 0.0, 0.0, 0.0, 0.0, 0.0, 0.0, 0.0, 0.0, 0.0, 0.0], "bins": [-0.580078125, -0.580078125, -0.580078125, -0.580078125, -0.580078125, -0.580078125, -0.580078125, -0.580078125, -0.580078125, -0.580078125, -0.580078125, -0.580078125, -0.580078125, -0.580078125, -0.580078125, -0.580078125, -0.580078125, -0.580078125, -0.580078125, -0.580078125, -0.580078125, -0.580078125, -0.580078125, -0.580078125, -0.580078125, -0.580078125, -0.580078125, -0.580078125, -0.580078125, -0.580078125, -0.580078125, -0.580078125, -0.580078125, -0.580078125, -0.580078125, -0.580078125, -0.580078125, -0.580078125, -0.580078125, -0.580078125, -0.580078125, -0.580078125, -0.580078125, -0.580078125, -0.580078125, -0.580078125, -0.580078125, -0.580078125, -0.580078125, -0.580078125, -0.580078125, -0.580078125, -0.580078125, -0.580078125, -0.580078125, -0.580078125, -0.580078125, -0.580078125, -0.580078125, -0.580078125, -0.580078125, -0.580078125, -0.580078125, -0.580078125, -0.580078125]}, "gradients/decoder.conv5.bn.weight": {"_type": "histogram", "values": [1.0, 0.0, 0.0, 0.0, 0.0, 0.0, 0.0, 0.0, 0.0, 1.0, 0.0, 1.0, 1.0, 1.0, 0.0, 0.0, 0.0, 0.0, 0.0, 0.0, 0.0, 0.0, 1.0, 0.0, 0.0, 1.0, 0.0, 0.0, 0.0, 0.0, 0.0, 0.0, 0.0, 0.0, 0.0, 0.0, 0.0, 0.0, 0.0, 0.0, 0.0, 0.0, 0.0, 0.0, 0.0, 0.0, 0.0, 0.0, 0.0, 0.0, 0.0, 0.0, 0.0, 0.0, 0.0, 0.0, 0.0, 0.0, 0.0, 0.0, 0.0, 0.0, 0.0, 1.0], "bins": [-11560.0615234375, -10975.2275390625, -10390.392578125, -9805.55859375, -9220.724609375, -8635.8896484375, -8051.0556640625, -7466.22119140625, -6881.38671875, -6296.55224609375, -5711.7177734375, -5126.8837890625, -4542.04931640625, -3957.21484375, -3372.380859375, -2787.5458984375, -2202.7119140625, -1617.8779296875, -1033.04296875, -448.208984375, 136.6259765625, 721.4599609375, 1306.2939453125, 1891.12890625, 2475.962890625, 3060.796875, 3645.6318359375, 4230.4658203125, 4815.2998046875, 5400.1337890625, 5984.9697265625, 6569.8037109375, 7154.638671875, 7739.47265625, 8324.306640625, 8909.142578125, 9493.9765625, 10078.810546875, 10663.64453125, 11248.4794921875, 11833.3134765625, 12418.1474609375, 13002.982421875, 13587.81640625, 14172.650390625, 14757.4853515625, 15342.3193359375, 15927.154296875, 16511.98828125, 17096.822265625, 17681.65625, 18266.4921875, 18851.326171875, 19436.16015625, 20020.994140625, 20605.828125, 21190.6640625, 21775.498046875, 22360.33203125, 22945.166015625, 23530.0, 24114.833984375, 24699.669921875, 25284.50390625, 25869.337890625]}, "gradients/decoder.conv5.bn.bias": {"_type": "histogram", "values": [1.0, 0.0, 0.0, 0.0, 0.0, 0.0, 0.0, 0.0, 0.0, 0.0, 0.0, 0.0, 0.0, 0.0, 0.0, 0.0, 0.0, 0.0, 0.0, 0.0, 0.0, 0.0, 0.0, 0.0, 0.0, 0.0, 0.0, 0.0, 0.0, 0.0, 0.0, 0.0, 0.0, 0.0, 0.0, 1.0, 0.0, 0.0, 1.0, 0.0, 0.0, 2.0, 0.0, 0.0, 0.0, 0.0, 0.0, 0.0, 0.0, 0.0, 0.0, 0.0, 0.0, 0.0, 0.0, 0.0, 0.0, 1.0, 0.0, 0.0, 0.0, 0.0, 1.0, 1.0], "bins": [-21966.646484375, -21476.30859375, -20985.970703125, -20495.6328125, -20005.296875, -19514.958984375, -19024.62109375, -18534.283203125, -18043.9453125, -17553.607421875, -17063.26953125, -16572.93359375, -16082.595703125, -15592.2578125, -15101.919921875, -14611.58203125, -14121.244140625, -13630.9072265625, -13140.5693359375, -12650.2314453125, -12159.89453125, -11669.556640625, -11179.21875, -10688.880859375, -10198.5439453125, -9708.2060546875, -9217.8681640625, -8727.53125, -8237.193359375, -7746.85546875, -7256.517578125, -6766.1806640625, -6275.8427734375, -5785.5048828125, -5295.16796875, -4804.830078125, -4314.4921875, -3824.154296875, -3333.8173828125, -2843.4794921875, -2353.1416015625, -1862.8046875, -1372.466796875, -882.12890625, -391.791015625, 98.5458984375, 588.8837890625, 1079.2216796875, 1569.55908203125, 2059.896484375, 2550.234375, 3040.57177734375, 3530.90966796875, 4021.2470703125, 4511.5849609375, 5001.92236328125, 5492.259765625, 5982.59765625, 6472.935546875, 6963.27294921875, 7453.6103515625, 7943.9482421875, 8434.2861328125, 8924.623046875, 9414.9609375]}, "gradients/decoder.conv5.conv.weight": {"_type": "histogram", "values": [1.0, 2.0, 3.0, 5.0, 4.0, 12.0, 7.0, 15.0, 17.0, 25.0, 26.0, 56.0, 48.0, 90.0, 84.0, 121.0, 132.0, 157.0, 163.0, 144.0, 134.0, 101.0, 79.0, 87.0, 73.0, 67.0, 49.0, 40.0, 31.0, 30.0, 23.0, 24.0, 26.0, 14.0, 12.0, 23.0, 8.0, 11.0, 10.0, 9.0, 10.0, 8.0, 11.0, 5.0, 5.0, 5.0, 3.0, 7.0, 4.0, 6.0, 4.0, 0.0, 4.0, 2.0, 1.0, 3.0, 1.0, 3.0, 1.0, 1.0, 0.0, 0.0, 0.0, 1.0], "bins": [-21606.447265625, -20529.89453125, -19453.341796875, -18376.7890625, -17300.236328125, -16223.68359375, -15147.1318359375, -14070.5791015625, -12994.0263671875, -11917.4736328125, -10840.9208984375, -9764.3681640625, -8687.81640625, -7611.263671875, -6534.7109375, -5458.158203125, -4381.60546875, -3305.052734375, -2228.5, -1151.947265625, -75.39453125, 1001.158203125, 2077.7109375, 3154.263671875, 4230.814453125, 5307.3671875, 6383.919921875, 7460.47265625, 8537.025390625, 9613.578125, 10690.130859375, 11766.685546875, 12843.23828125, 13919.7890625, 14996.34375, 16072.896484375, 17149.44921875, 18226.001953125, 19302.5546875, 20379.107421875, 21455.66015625, 22532.2109375, 23608.763671875, 24685.31640625, 25761.869140625, 26838.421875, 27914.974609375, 28991.52734375, 30068.080078125, 31144.6328125, 32221.185546875, 33297.73828125, 34374.2890625, 35450.84375, 36527.39453125, 37603.94921875, 38680.5, 39757.0546875, 40833.60546875, 41910.16015625, 42986.7109375, 44063.265625, 45139.81640625, 46216.37109375, 47292.921875]}, "gradients/decoder.conv5.conv.bias": {"_type": "histogram", "values": [1.0, 0.0, 0.0, 0.0, 0.0, 0.0, 0.0, 0.0, 0.0, 0.0, 0.0, 0.0, 0.0, 0.0, 0.0, 0.0, 1.0, 1.0, 0.0, 1.0, 1.0, 0.0, 0.0, 1.0, 0.0, 0.0, 0.0, 0.0, 0.0, 0.0, 1.0, 0.0, 0.0, 0.0, 0.0, 0.0, 0.0, 0.0, 0.0, 0.0, 0.0, 0.0, 0.0, 0.0, 0.0, 0.0, 0.0, 0.0, 0.0, 0.0, 0.0, 0.0, 0.0, 0.0, 0.0, 0.0, 0.0, 0.0, 0.0, 0.0, 0.0, 0.0, 0.0, 1.0], "bins": [-0.00390625, -0.003665924072265625, -0.00342559814453125, -0.003185272216796875, -0.0029449462890625, -0.002704620361328125, -0.00246429443359375, -0.002223968505859375, -0.001983642578125, -0.001743316650390625, -0.00150299072265625, -0.001262664794921875, -0.0010223388671875, -0.000782012939453125, -0.00054168701171875, -0.000301361083984375, -6.103515625e-05, 0.000179290771484375, 0.00041961669921875, 0.000659942626953125, 0.0009002685546875, 0.001140594482421875, 0.00138092041015625, 0.001621246337890625, 0.001861572265625, 0.002101898193359375, 0.00234222412109375, 0.002582550048828125, 0.0028228759765625, 0.003063201904296875, 0.00330352783203125, 0.003543853759765625, 0.0037841796875, 0.004024505615234375, 0.00426483154296875, 0.004505157470703125, 0.0047454833984375, 0.004985809326171875, 0.00522613525390625, 0.005466461181640625, 0.005706787109375, 0.005947113037109375, 0.00618743896484375, 0.006427764892578125, 0.0066680908203125, 0.006908416748046875, 0.00714874267578125, 0.007389068603515625, 0.00762939453125, 0.007869720458984375, 0.00811004638671875, 0.008350372314453125, 0.0085906982421875, 0.008831024169921875, 0.00907135009765625, 0.009311676025390625, 0.009552001953125, 0.009792327880859375, 0.01003265380859375, 0.010272979736328125, 0.0105133056640625, 0.010753631591796875, 0.01099395751953125, 0.011234283447265625, 0.011474609375]}, "gradients/decoder.conv4.bn.weight": {"_type": "histogram", "values": [1.0, 0.0, 0.0, 0.0, 0.0, 0.0, 0.0, 0.0, 0.0, 0.0, 0.0, 0.0, 0.0, 0.0, 0.0, 0.0, 1.0, 0.0, 0.0, 0.0, 0.0, 0.0, 0.0, 0.0, 1.0, 0.0, 0.0, 0.0, 1.0, 1.0, 0.0, 0.0, 0.0, 0.0, 1.0, 0.0, 0.0, 2.0, 0.0, 1.0, 0.0, 0.0, 0.0, 1.0, 0.0, 0.0, 0.0, 0.0, 0.0, 1.0, 0.0, 0.0, 0.0, 2.0, 0.0, 0.0, 0.0, 1.0, 0.0, 0.0, 0.0, 0.0, 1.0, 1.0], "bins": [-15961.326171875, -15562.84765625, -15164.3701171875, -14765.8916015625, -14367.4140625, -13968.935546875, -13570.45703125, -13171.9794921875, -12773.501953125, -12375.0234375, -11976.544921875, -11578.0673828125, -11179.5888671875, -10781.111328125, -10382.6328125, -9984.154296875, -9585.6767578125, -9187.19921875, -8788.720703125, -8390.2421875, -7991.7646484375, -7593.2861328125, -7194.80859375, -6796.330078125, -6397.8515625, -5999.3740234375, -5600.8955078125, -5202.41796875, -4803.939453125, -4405.4619140625, -4006.9833984375, -3608.505859375, -3210.0263671875, -2811.5478515625, -2413.0703125, -2014.591796875, -1616.1142578125, -1217.6357421875, -819.158203125, -420.6796875, -22.2021484375, 376.2763671875, 774.7548828125, 1173.232421875, 1571.7109375, 1970.18896484375, 2368.6669921875, 2767.14501953125, 3165.623046875, 3564.10107421875, 3962.5791015625, 4361.05712890625, 4759.53515625, 5158.013671875, 5556.49169921875, 5954.9697265625, 6353.44775390625, 6751.92578125, 7150.40380859375, 7548.8818359375, 7947.3603515625, 8345.837890625, 8744.31640625, 9142.7939453125, 9541.2724609375]}, "gradients/decoder.conv4.bn.bias": {"_type": "histogram", "values": [1.0, 0.0, 0.0, 0.0, 0.0, 1.0, 1.0, 0.0, 0.0, 0.0, 0.0, 0.0, 0.0, 1.0, 0.0, 0.0, 1.0, 0.0, 1.0, 0.0, 0.0, 0.0, 1.0, 0.0, 0.0, 0.0, 1.0, 1.0, 0.0, 1.0, 1.0, 0.0, 0.0, 0.0, 0.0, 0.0, 0.0, 0.0, 0.0, 0.0, 1.0, 0.0, 0.0, 0.0, 0.0, 0.0, 1.0, 0.0, 0.0, 0.0, 0.0, 0.0, 1.0, 0.0, 0.0, 0.0, 1.0, 0.0, 0.0, 0.0, 0.0, 0.0, 0.0, 1.0], "bins": [-5352.87744140625, -5224.2841796875, -5095.6904296875, -4967.09716796875, -4838.50390625, -4709.91064453125, -4581.31689453125, -4452.7236328125, -4324.13037109375, -4195.537109375, -4066.943359375, -3938.35009765625, -3809.756591796875, -3681.1630859375, -3552.56982421875, -3423.9765625, -3295.383056640625, -3166.78955078125, -3038.1962890625, -2909.602783203125, -2781.009521484375, -2652.416015625, -2523.82275390625, -2395.229248046875, -2266.6357421875, -2138.04248046875, -2009.448974609375, -1880.855712890625, -1752.26220703125, -1623.6689453125, -1495.075439453125, -1366.482177734375, -1237.888916015625, -1109.29541015625, -980.7021484375, -852.108642578125, -723.515380859375, -594.921875, -466.32861328125, -337.735107421875, -209.141845703125, -80.54833984375, 48.045166015625, 176.638427734375, 305.23193359375, 433.8251953125, 562.418701171875, 691.011962890625, 819.60546875, 948.1988525390625, 1076.792236328125, 1205.3856201171875, 1333.97900390625, 1462.572509765625, 1591.1658935546875, 1719.75927734375, 1848.3526611328125, 1976.946044921875, 2105.53955078125, 2234.1328125, 2362.726318359375, 2491.319580078125, 2619.9130859375, 2748.50634765625, 2877.099853515625]}, "gradients/decoder.conv4.conv.weight": {"_type": "histogram", "values": [2.0, 0.0, 0.0, 2.0, 5.0, 6.0, 4.0, 6.0, 8.0, 12.0, 15.0, 13.0, 17.0, 24.0, 32.0, 43.0, 49.0, 76.0, 79.0, 114.0, 130.0, 154.0, 183.0, 253.0, 273.0, 319.0, 401.0, 447.0, 496.0, 504.0, 521.0, 496.0, 454.0, 418.0, 405.0, 371.0, 316.0, 288.0, 267.0, 204.0, 163.0, 152.0, 112.0, 95.0, 67.0, 43.0, 44.0, 27.0, 24.0, 22.0, 10.0, 7.0, 4.0, 4.0, 3.0, 0.0, 2.0, 4.0, 1.0, 0.0, 0.0, 0.0, 0.0, 1.0], "bins": [-17717.90625, -17137.794921875, -16557.685546875, -15977.57421875, -15397.4638671875, -14817.353515625, -14237.2421875, -13657.1318359375, -13077.021484375, -12496.9111328125, -11916.80078125, -11336.689453125, -10756.5791015625, -10176.46875, -9596.357421875, -9016.2470703125, -8436.13671875, -7856.0263671875, -7275.916015625, -6695.8046875, -6115.6943359375, -5535.583984375, -4955.47265625, -4375.3623046875, -3795.251953125, -3215.1416015625, -2635.03125, -2054.919921875, -1474.8095703125, -894.69921875, -314.587890625, 265.521484375, 845.6328125, 1425.744140625, 2005.853515625, 2585.96484375, 3166.0751953125, 3746.185546875, 4326.296875, 4906.4072265625, 5486.517578125, 6066.6279296875, 6646.73828125, 7226.849609375, 7806.9599609375, 8387.0703125, 8967.181640625, 9547.2919921875, 10127.40234375, 10707.5126953125, 11287.623046875, 11867.734375, 12447.8447265625, 13027.955078125, 13608.06640625, 14188.1767578125, 14768.287109375, 15348.3974609375, 15928.5078125, 16508.619140625, 17088.73046875, 17668.83984375, 18248.951171875, 18829.060546875, 19409.171875]}, "gradients/decoder.conv4.conv.bias": {"_type": "histogram", "values": [1.0, 0.0, 0.0, 0.0, 1.0, 0.0, 1.0, 0.0, 0.0, 0.0, 0.0, 1.0, 1.0, 1.0, 1.0, 1.0, 2.0, 0.0, 1.0, 0.0, 0.0, 0.0, 1.0, 0.0, 1.0, 1.0, 0.0, 0.0, 0.0, 0.0, 1.0, 0.0, 0.0, 0.0, 0.0, 0.0, 0.0, 0.0, 0.0, 0.0, 0.0, 0.0, 0.0, 0.0, 0.0, 0.0, 0.0, 0.0, 0.0, 0.0, 0.0, 0.0, 0.0, 0.0, 0.0, 0.0, 0.0, 0.0, 0.0, 0.0, 0.0, 0.0, 0.0, 1.0], "bins": [-0.00244140625, -0.0023202896118164062, -0.0021991729736328125, -0.0020780563354492188, -0.001956939697265625, -0.0018358230590820312, -0.0017147064208984375, -0.0015935897827148438, -0.00147247314453125, -0.0013513565063476562, -0.0012302398681640625, -0.0011091232299804688, -0.000988006591796875, -0.0008668899536132812, -0.0007457733154296875, -0.0006246566772460938, -0.0005035400390625, -0.00038242340087890625, -0.0002613067626953125, -0.00014019012451171875, -1.9073486328125e-05, 0.00010204315185546875, 0.0002231597900390625, 0.00034427642822265625, 0.00046539306640625, 0.0005865097045898438, 0.0007076263427734375, 0.0008287429809570312, 0.000949859619140625, 0.0010709762573242188, 0.0011920928955078125, 0.0013132095336914062, 0.001434326171875, 0.0015554428100585938, 0.0016765594482421875, 0.0017976760864257812, 0.001918792724609375, 0.0020399093627929688, 0.0021610260009765625, 0.0022821426391601562, 0.00240325927734375, 0.0025243759155273438, 0.0026454925537109375, 0.0027666091918945312, 0.002887725830078125, 0.0030088424682617188, 0.0031299591064453125, 0.0032510757446289062, 0.0033721923828125, 0.0034933090209960938, 0.0036144256591796875, 0.0037355422973632812, 0.003856658935546875, 0.003977775573730469, 0.0040988922119140625, 0.004220008850097656, 0.00434112548828125, 0.004462242126464844, 0.0045833587646484375, 0.004704475402832031, 0.004825592041015625, 0.004946708679199219, 0.0050678253173828125, 0.005188941955566406, 0.00531005859375]}, "gradients/decoder.conv3.bn.weight": {"_type": "histogram", "values": [1.0, 1.0, 0.0, 0.0, 0.0, 0.0, 0.0, 0.0, 0.0, 0.0, 0.0, 1.0, 0.0, 0.0, 0.0, 2.0, 0.0, 0.0, 0.0, 1.0, 0.0, 0.0, 1.0, 1.0, 0.0, 0.0, 1.0, 0.0, 0.0, 1.0, 1.0, 2.0, 2.0, 2.0, 2.0, 1.0, 0.0, 0.0, 1.0, 3.0, 1.0, 0.0, 3.0, 1.0, 1.0, 1.0, 0.0, 0.0, 0.0, 0.0, 0.0, 0.0, 0.0, 0.0, 0.0, 0.0, 0.0, 0.0, 0.0, 0.0, 0.0, 0.0, 0.0, 1.0], "bins": [-7694.20849609375, -7453.34619140625, -7212.4833984375, -6971.62109375, -6730.75830078125, -6489.89599609375, -6249.033203125, -6008.1708984375, -5767.30810546875, -5526.44580078125, -5285.5830078125, -5044.720703125, -4803.8583984375, -4562.99560546875, -4322.1328125, -4081.2705078125, -3840.407958984375, -3599.54541015625, -3358.68310546875, -3117.8203125, -2876.9580078125, -2636.09521484375, -2395.23291015625, -2154.3701171875, -1913.5078125, -1672.64501953125, -1431.78271484375, -1190.919921875, -950.0576171875, -709.19482421875, -468.33251953125, -227.4697265625, 13.392578125, 254.2548828125, 495.11767578125, 735.97998046875, 976.8427734375, 1217.705078125, 1458.56787109375, 1699.43017578125, 1940.29296875, 2181.1552734375, 2422.01806640625, 2662.88037109375, 2903.7431640625, 3144.60546875, 3385.46826171875, 3626.33056640625, 3867.193115234375, 4108.0556640625, 4348.91796875, 4589.78076171875, 4830.6435546875, 5071.505859375, 5312.3681640625, 5553.23095703125, 5794.09326171875, 6034.9560546875, 6275.818359375, 6516.68115234375, 6757.54345703125, 6998.40625, 7239.2685546875, 7480.13134765625, 7720.99365234375]}, "gradients/decoder.conv3.bn.bias": {"_type": "histogram", "values": [1.0, 0.0, 0.0, 0.0, 0.0, 0.0, 0.0, 0.0, 0.0, 0.0, 1.0, 0.0, 1.0, 0.0, 0.0, 0.0, 0.0, 1.0, 2.0, 1.0, 3.0, 2.0, 2.0, 1.0, 2.0, 1.0, 1.0, 0.0, 0.0, 1.0, 2.0, 0.0, 0.0, 1.0, 2.0, 2.0, 0.0, 0.0, 1.0, 0.0, 1.0, 0.0, 1.0, 0.0, 0.0, 0.0, 0.0, 1.0, 0.0, 0.0, 0.0, 0.0, 0.0, 0.0, 0.0, 0.0, 0.0, 0.0, 0.0, 0.0, 0.0, 0.0, 0.0, 1.0], "bins": [-5067.49951171875, -4877.99609375, -4688.49267578125, -4498.9892578125, -4309.486328125, -4119.98291015625, -3930.4794921875, -3740.97607421875, -3551.47265625, -3361.969482421875, -3172.466064453125, -2982.962646484375, -2793.45947265625, -2603.9560546875, -2414.45263671875, -2224.949462890625, -2035.446044921875, -1845.942626953125, -1656.439453125, -1466.93603515625, -1277.4326171875, -1087.929443359375, -898.42578125, -708.9228515625, -519.41943359375, -329.916015625, -140.41259765625, 49.0908203125, 238.59423828125, 428.09716796875, 617.6005859375, 807.10400390625, 996.607421875, 1186.11083984375, 1375.6142578125, 1565.11767578125, 1754.62060546875, 1944.1240234375, 2133.62744140625, 2323.130859375, 2512.63427734375, 2702.1376953125, 2891.640625, 3081.144287109375, 3270.6474609375, 3460.15087890625, 3649.654296875, 3839.157470703125, 4028.660888671875, 4218.1640625, 4407.66748046875, 4597.1708984375, 4786.67431640625, 4976.177734375, 5165.6806640625, 5355.1845703125, 5544.6875, 5734.19091796875, 5923.6943359375, 6113.19775390625, 6302.701171875, 6492.2041015625, 6681.70751953125, 6871.2109375, 7060.71435546875]}, "gradients/decoder.conv3.conv.weight": {"_type": "histogram", "values": [1.0, 1.0, 1.0, 0.0, 1.0, 2.0, 0.0, 0.0, 4.0, 4.0, 1.0, 3.0, 7.0, 7.0, 7.0, 13.0, 21.0, 19.0, 29.0, 32.0, 48.0, 66.0, 71.0, 101.0, 158.0, 213.0, 327.0, 458.0, 659.0, 1077.0, 1942.0, 3873.0, 8218.0, 7197.0, 3725.0, 1964.0, 982.0, 556.0, 315.0, 209.0, 104.0, 82.0, 44.0, 61.0, 33.0, 24.0, 19.0, 21.0, 13.0, 15.0, 6.0, 8.0, 3.0, 4.0, 4.0, 1.0, 1.0, 2.0, 4.0, 2.0, 1.0, 1.0, 2.0, 1.0], "bins": [-20069.94921875, -19457.35546875, -18844.76171875, -18232.169921875, -17619.576171875, -17006.982421875, -16394.390625, -15781.796875, -15169.203125, -14556.609375, -13944.0166015625, -13331.423828125, -12718.830078125, -12106.236328125, -11493.6435546875, -10881.05078125, -10268.45703125, -9655.86328125, -9043.2705078125, -8430.677734375, -7818.083984375, -7205.490234375, -6592.8974609375, -5980.3046875, -5367.7109375, -4755.1171875, -4142.5244140625, -3529.931640625, -2917.337890625, -2304.744140625, -1692.15234375, -1079.55859375, -466.962890625, 145.630859375, 758.224609375, 1370.81640625, 1983.41015625, 2596.00390625, 3208.5966796875, 3821.189453125, 4433.783203125, 5046.376953125, 5658.9697265625, 6271.5625, 6884.15625, 7496.75, 8109.3427734375, 8721.935546875, 9334.529296875, 9947.123046875, 10559.7158203125, 11172.30859375, 11784.90234375, 12397.49609375, 13010.0888671875, 13622.681640625, 14235.275390625, 14847.869140625, 15460.4619140625, 16073.0546875, 16685.6484375, 17298.2421875, 17910.8359375, 18523.427734375, 19136.021484375]}, "gradients/decoder.conv3.conv.bias": {"_type": "histogram", "values": [2.0, 0.0, 0.0, 0.0, 0.0, 0.0, 1.0, 0.0, 1.0, 0.0, 1.0, 0.0, 0.0, 0.0, 0.0, 0.0, 1.0, 0.0, 1.0, 0.0, 3.0, 1.0, 0.0, 1.0, 0.0, 1.0, 3.0, 1.0, 1.0, 0.0, 2.0, 1.0, 1.0, 2.0, 0.0, 1.0, 0.0, 2.0, 0.0, 0.0, 1.0, 1.0, 1.0, 0.0, 0.0, 0.0, 0.0, 1.0, 0.0, 0.0, 0.0, 0.0, 0.0, 0.0, 0.0, 0.0, 0.0, 0.0, 0.0, 0.0, 0.0, 0.0, 0.0, 1.0], "bins": [-0.001220703125, -0.0011844635009765625, -0.001148223876953125, -0.0011119842529296875, -0.00107574462890625, -0.0010395050048828125, -0.001003265380859375, -0.0009670257568359375, -0.0009307861328125, -0.0008945465087890625, -0.000858306884765625, -0.0008220672607421875, -0.00078582763671875, -0.0007495880126953125, -0.000713348388671875, -0.0006771087646484375, -0.000640869140625, -0.0006046295166015625, -0.000568389892578125, -0.0005321502685546875, -0.00049591064453125, -0.0004596710205078125, -0.000423431396484375, -0.0003871917724609375, -0.0003509521484375, -0.0003147125244140625, -0.000278472900390625, -0.0002422332763671875, -0.00020599365234375, -0.0001697540283203125, -0.000133514404296875, -9.72747802734375e-05, -6.103515625e-05, -2.47955322265625e-05, 1.1444091796875e-05, 4.76837158203125e-05, 8.392333984375e-05, 0.0001201629638671875, 0.000156402587890625, 0.0001926422119140625, 0.0002288818359375, 0.0002651214599609375, 0.000301361083984375, 0.0003376007080078125, 0.00037384033203125, 0.0004100799560546875, 0.000446319580078125, 0.0004825592041015625, 0.000518798828125, 0.0005550384521484375, 0.000591278076171875, 0.0006275177001953125, 0.00066375732421875, 0.0006999969482421875, 0.000736236572265625, 0.0007724761962890625, 0.0008087158203125, 0.0008449554443359375, 0.000881195068359375, 0.0009174346923828125, 0.00095367431640625, 0.0009899139404296875, 0.001026153564453125, 0.0010623931884765625, 0.0010986328125]}, "gradients/decoder.conv2.bn.weight": {"_type": "histogram", "values": [1.0, 0.0, 0.0, 0.0, 0.0, 0.0, 0.0, 1.0, 0.0, 0.0, 0.0, 0.0, 0.0, 0.0, 1.0, 0.0, 2.0, 0.0, 0.0, 0.0, 1.0, 0.0, 2.0, 1.0, 4.0, 1.0, 1.0, 1.0, 2.0, 4.0, 0.0, 1.0, 1.0, 2.0, 2.0, 5.0, 2.0, 4.0, 2.0, 1.0, 0.0, 3.0, 4.0, 0.0, 1.0, 2.0, 0.0, 1.0, 2.0, 0.0, 2.0, 2.0, 2.0, 0.0, 1.0, 0.0, 0.0, 0.0, 0.0, 1.0, 0.0, 0.0, 0.0, 1.0], "bins": [-6163.43994140625, -5990.2861328125, -5817.1318359375, -5643.97802734375, -5470.82373046875, -5297.669921875, -5124.515625, -4951.36181640625, -4778.2080078125, -4605.0537109375, -4431.8994140625, -4258.74560546875, -4085.591796875, -3912.437744140625, -3739.28369140625, -3566.129638671875, -3392.9755859375, -3219.821533203125, -3046.66748046875, -2873.513427734375, -2700.359375, -2527.20556640625, -2354.051513671875, -2180.8974609375, -2007.74365234375, -1834.58935546875, -1661.435546875, -1488.28125, -1315.12744140625, -1141.97314453125, -968.8193359375, -795.6650390625, -622.5107421875, -449.35693359375, -276.20263671875, -103.048828125, 70.10546875, 243.25927734375, 416.41357421875, 589.5673828125, 762.7216796875, 935.87548828125, 1109.029541015625, 1282.18359375, 1455.33740234375, 1628.491455078125, 1801.6455078125, 1974.799560546875, 2147.95361328125, 2321.107666015625, 2494.26171875, 2667.415771484375, 2840.56982421875, 3013.7236328125, 3186.877685546875, 3360.03173828125, 3533.185791015625, 3706.33984375, 3879.493896484375, 4052.64794921875, 4225.8017578125, 4398.9560546875, 4572.10986328125, 4745.26416015625, 4918.41796875]}, "gradients/decoder.conv2.bn.bias": {"_type": "histogram", "values": [1.0, 0.0, 0.0, 0.0, 1.0, 0.0, 0.0, 0.0, 0.0, 0.0, 0.0, 0.0, 0.0, 0.0, 0.0, 0.0, 0.0, 0.0, 1.0, 2.0, 2.0, 1.0, 1.0, 3.0, 1.0, 1.0, 1.0, 1.0, 2.0, 2.0, 1.0, 2.0, 0.0, 4.0, 1.0, 2.0, 4.0, 2.0, 2.0, 0.0, 4.0, 3.0, 2.0, 3.0, 2.0, 1.0, 1.0, 1.0, 0.0, 0.0, 2.0, 1.0, 1.0, 2.0, 0.0, 0.0, 0.0, 0.0, 0.0, 0.0, 0.0, 1.0, 1.0, 1.0], "bins": [-3738.5517578125, -3638.69091796875, -3538.830078125, -3438.969482421875, -3339.108642578125, -3239.247802734375, -3139.386962890625, -3039.5263671875, -2939.66552734375, -2839.8046875, -2739.94384765625, -2640.0830078125, -2540.22216796875, -2440.361572265625, -2340.500732421875, -2240.64013671875, -2140.779296875, -2040.9183349609375, -1941.0576171875, -1841.19677734375, -1741.3360595703125, -1641.475341796875, -1541.614501953125, -1441.753662109375, -1341.892822265625, -1242.031982421875, -1142.17138671875, -1042.310546875, -942.44970703125, -842.5888671875, -742.728271484375, -642.867431640625, -543.006591796875, -443.145751953125, -343.284912109375, -243.42431640625, -143.5634765625, -43.70263671875, 56.158203125, 156.018798828125, 255.879638671875, 355.740478515625, 455.601318359375, 555.462158203125, 655.3228759765625, 755.18359375, 855.04443359375, 954.9051513671875, 1054.7659912109375, 1154.6268310546875, 1254.487548828125, 1354.348388671875, 1454.2091064453125, 1554.0699462890625, 1653.9306640625, 1753.79150390625, 1853.65234375, 1953.5130615234375, 2053.373779296875, 2153.234619140625, 2253.095458984375, 2352.956298828125, 2452.81689453125, 2552.677734375, 2652.53857421875]}, "gradients/decoder.conv2.conv.weight": {"_type": "histogram", "values": [5.0, 2.0, 4.0, 4.0, 3.0, 3.0, 3.0, 5.0, 5.0, 13.0, 14.0, 17.0, 18.0, 14.0, 17.0, 28.0, 37.0, 44.0, 51.0, 60.0, 96.0, 100.0, 170.0, 243.0, 392.0, 653.0, 2519.0, 94178.0, 27828.0, 2483.0, 899.0, 398.0, 233.0, 144.0, 95.0, 72.0, 61.0, 39.0, 18.0, 17.0, 18.0, 17.0, 13.0, 7.0, 4.0, 2.0, 3.0, 0.0, 6.0, 2.0, 3.0, 4.0, 0.0, 1.0, 0.0, 1.0, 0.0, 0.0, 1.0, 1.0, 1.0, 0.0, 1.0, 2.0], "bins": [-20565.443359375, -19828.921875, -19092.3984375, -18355.875, -17619.353515625, -16882.83203125, -16146.30859375, -15409.7861328125, -14673.263671875, -13936.7412109375, -13200.21875, -12463.6962890625, -11727.173828125, -10990.6513671875, -10254.12890625, -9517.6064453125, -8781.083984375, -8044.5615234375, -7308.0390625, -6571.5166015625, -5834.994140625, -5098.4716796875, -4361.94921875, -3625.427734375, -2888.904296875, -2152.380859375, -1415.859375, -679.337890625, 57.185546875, 793.708984375, 1530.23046875, 2266.751953125, 3003.27734375, 3739.80078125, 4476.322265625, 5212.84375, 5949.3671875, 6685.890625, 7422.412109375, 8158.93359375, 8895.45703125, 9631.98046875, 10368.501953125, 11105.0244140625, 11841.546875, 12578.0693359375, 13314.591796875, 14051.1142578125, 14787.63671875, 15524.1591796875, 16260.681640625, 16997.203125, 17733.7265625, 18470.25, 19206.771484375, 19943.29296875, 20679.81640625, 21416.33984375, 22152.861328125, 22889.3828125, 23625.90625, 24362.4296875, 25098.951171875, 25835.47265625, 26571.99609375]}, "gradients/decoder.conv2.conv.bias": {"_type": "histogram", "values": [1.0, 0.0, 0.0, 0.0, 0.0, 0.0, 2.0, 0.0, 0.0, 0.0, 0.0, 1.0, 1.0, 1.0, 0.0, 0.0, 0.0, 0.0, 0.0, 0.0, 0.0, 1.0, 0.0, 0.0, 0.0, 0.0, 0.0, 0.0, 1.0, 8.0, 0.0, 1.0, 1.0, 1.0, 3.0, 3.0, 2.0, 2.0, 10.0, 3.0, 3.0, 4.0, 1.0, 2.0, 1.0, 1.0, 2.0, 0.0, 0.0, 2.0, 0.0, 2.0, 0.0, 0.0, 0.0, 2.0, 0.0, 1.0, 0.0, 0.0, 0.0, 0.0, 0.0, 1.0], "bins": [-0.0010986328125, -0.0010700225830078125, -0.001041412353515625, -0.0010128021240234375, -0.00098419189453125, -0.0009555816650390625, -0.000926971435546875, -0.0008983612060546875, -0.0008697509765625, -0.0008411407470703125, -0.000812530517578125, -0.0007839202880859375, -0.00075531005859375, -0.0007266998291015625, -0.000698089599609375, -0.0006694793701171875, -0.000640869140625, -0.0006122589111328125, -0.000583648681640625, -0.0005550384521484375, -0.00052642822265625, -0.0004978179931640625, -0.000469207763671875, -0.0004405975341796875, -0.0004119873046875, -0.0003833770751953125, -0.000354766845703125, -0.0003261566162109375, -0.00029754638671875, -0.0002689361572265625, -0.000240325927734375, -0.0002117156982421875, -0.00018310546875, -0.0001544952392578125, -0.000125885009765625, -9.72747802734375e-05, -6.866455078125e-05, -4.00543212890625e-05, -1.1444091796875e-05, 1.71661376953125e-05, 4.57763671875e-05, 7.43865966796875e-05, 0.000102996826171875, 0.0001316070556640625, 0.00016021728515625, 0.0001888275146484375, 0.000217437744140625, 0.0002460479736328125, 0.000274658203125, 0.0003032684326171875, 0.000331878662109375, 0.0003604888916015625, 0.00038909912109375, 0.0004177093505859375, 0.000446319580078125, 0.0004749298095703125, 0.0005035400390625, 0.0005321502685546875, 0.000560760498046875, 0.0005893707275390625, 0.00061798095703125, 0.0006465911865234375, 0.000675201416015625, 0.0007038116455078125, 0.000732421875]}, "gradients/decoder.conv1.bn.weight": {"_type": "histogram", "values": [1.0, 0.0, 0.0, 0.0, 1.0, 0.0, 0.0, 0.0, 0.0, 0.0, 0.0, 0.0, 0.0, 1.0, 0.0, 0.0, 2.0, 0.0, 0.0, 1.0, 0.0, 0.0, 1.0, 1.0, 1.0, 1.0, 1.0, 0.0, 0.0, 3.0, 0.0, 3.0, 2.0, 9.0, 10.0, 16.0, 13.0, 10.0, 10.0, 3.0, 12.0, 3.0, 4.0, 1.0, 3.0, 1.0, 0.0, 1.0, 1.0, 2.0, 1.0, 3.0, 0.0, 1.0, 1.0, 0.0, 0.0, 2.0, 0.0, 0.0, 1.0, 0.0, 0.0, 1.0], "bins": [-10289.8115234375, -10013.216796875, -9736.6220703125, -9460.0283203125, -9183.43359375, -8906.8388671875, -8630.244140625, -8353.650390625, -8077.0556640625, -7800.4609375, -7523.8662109375, -7247.27197265625, -6970.67724609375, -6694.0830078125, -6417.48828125, -6140.89404296875, -5864.29931640625, -5587.70458984375, -5311.1103515625, -5034.515625, -4757.92138671875, -4481.32666015625, -4204.732421875, -3928.1376953125, -3651.54296875, -3374.94873046875, -3098.35400390625, -2821.759765625, -2545.1650390625, -2268.57080078125, -1991.9765625, -1715.3818359375, -1438.787109375, -1162.1923828125, -885.59765625, -609.00341796875, -332.4091796875, -55.814453125, 220.77978515625, 497.37451171875, 773.96875, 1050.5634765625, 1327.158203125, 1603.75244140625, 1880.34716796875, 2156.94140625, 2433.5361328125, 2710.13037109375, 2986.72509765625, 3263.31982421875, 3539.9140625, 3816.508544921875, 4093.10302734375, 4369.69775390625, 4646.2919921875, 4922.88671875, 5199.4814453125, 5476.07568359375, 5752.669921875, 6029.2646484375, 6305.859375, 6582.45361328125, 6859.04833984375, 7135.642578125, 7412.2373046875]}, "gradients/decoder.conv1.bn.bias": {"_type": "histogram", "values": [1.0, 0.0, 1.0, 2.0, 0.0, 0.0, 1.0, 1.0, 0.0, 0.0, 0.0, 0.0, 1.0, 0.0, 1.0, 0.0, 1.0, 3.0, 1.0, 1.0, 0.0, 0.0, 2.0, 2.0, 3.0, 0.0, 3.0, 2.0, 4.0, 11.0, 17.0, 17.0, 6.0, 15.0, 3.0, 2.0, 4.0, 3.0, 2.0, 0.0, 2.0, 2.0, 1.0, 4.0, 2.0, 1.0, 0.0, 1.0, 2.0, 1.0, 0.0, 0.0, 0.0, 0.0, 0.0, 1.0, 0.0, 0.0, 0.0, 0.0, 0.0, 0.0, 0.0, 1.0], "bins": [-4569.70947265625, -4425.5263671875, -4281.34375, -4137.1611328125, -3992.97802734375, -3848.795166015625, -3704.6123046875, -3560.429443359375, -3416.24658203125, -3272.063720703125, -3127.880859375, -2983.697998046875, -2839.51513671875, -2695.332275390625, -2551.1494140625, -2406.966552734375, -2262.78369140625, -2118.600830078125, -1974.41796875, -1830.235107421875, -1686.05224609375, -1541.869384765625, -1397.6865234375, -1253.503662109375, -1109.32080078125, -965.137939453125, -820.955078125, -676.772216796875, -532.58935546875, -388.40673828125, -244.2236328125, -100.04052734375, 44.14208984375, 188.32470703125, 332.5078125, 476.69091796875, 620.87353515625, 765.056396484375, 909.2392578125, 1053.422119140625, 1197.60498046875, 1341.787841796875, 1485.970703125, 1630.153564453125, 1774.33642578125, 1918.519287109375, 2062.7021484375, 2206.885009765625, 2351.06787109375, 2495.250732421875, 2639.43359375, 2783.616455078125, 2927.79931640625, 3071.982177734375, 3216.1650390625, 3360.347900390625, 3504.53076171875, 3648.713623046875, 3792.896484375, 3937.079345703125, 4081.26220703125, 4225.4453125, 4369.6279296875, 4513.810546875, 4657.99365234375]}, "gradients/decoder.conv1.conv.weight": {"_type": "histogram", "values": [1.0, 0.0, 1.0, 0.0, 1.0, 0.0, 1.0, 3.0, 4.0, 2.0, 5.0, 5.0, 6.0, 8.0, 16.0, 24.0, 24.0, 30.0, 50.0, 43.0, 82.0, 102.0, 180.0, 252.0, 390.0, 721.0, 1451.0, 4037.0, 55093.0, 2287287.0, 5443.0, 1797.0, 856.0, 486.0, 300.0, 192.0, 112.0, 85.0, 44.0, 35.0, 37.0, 17.0, 16.0, 15.0, 10.0, 6.0, 7.0, 6.0, 1.0, 4.0, 1.0, 2.0, 2.0, 0.0, 0.0, 1.0, 1.0, 0.0, 0.0, 0.0, 0.0, 0.0, 0.0, 1.0], "bins": [-10902.5537109375, -10528.1044921875, -10153.65625, -9779.20703125, -9404.7578125, -9030.3095703125, -8655.8603515625, -8281.412109375, -7906.962890625, -7532.51416015625, -7158.0654296875, -6783.6162109375, -6409.16748046875, -6034.71875, -5660.26953125, -5285.82080078125, -4911.3720703125, -4536.92333984375, -4162.474609375, -3788.025390625, -3413.57666015625, -3039.1279296875, -2664.6787109375, -2290.23046875, -1915.78125, -1541.33203125, -1166.8837890625, -792.4345703125, -417.9853515625, -43.537109375, 330.912109375, 705.3603515625, 1079.80859375, 1454.2578125, 1828.7060546875, 2203.1552734375, 2577.603515625, 2952.052734375, 3326.501953125, 3700.9501953125, 4075.3994140625, 4449.8486328125, 4824.296875, 5198.74609375, 5573.19482421875, 5947.6435546875, 6322.0927734375, 6696.54150390625, 7070.990234375, 7445.43896484375, 7819.8876953125, 8194.3369140625, 8568.78515625, 8943.234375, 9317.68359375, 9692.1328125, 10066.5810546875, 10441.029296875, 10815.478515625, 11189.927734375, 11564.376953125, 11938.8251953125, 12313.2744140625, 12687.72265625, 13062.171875]}, "gradients/decoder.conv1.conv.bias": {"_type": "histogram", "values": [1.0, 0.0, 0.0, 0.0, 0.0, 0.0, 0.0, 0.0, 0.0, 0.0, 0.0, 2.0, 0.0, 2.0, 0.0, 0.0, 3.0, 1.0, 4.0, 1.0, 7.0, 5.0, 4.0, 9.0, 14.0, 32.0, 13.0, 7.0, 6.0, 1.0, 1.0, 1.0, 0.0, 0.0, 3.0, 0.0, 4.0, 1.0, 0.0, 1.0, 0.0, 1.0, 0.0, 1.0, 0.0, 0.0, 1.0, 0.0, 0.0, 0.0, 0.0, 0.0, 0.0, 1.0, 0.0, 0.0, 0.0, 0.0, 0.0, 0.0, 0.0, 0.0, 0.0, 1.0], "bins": [-0.00067138671875, -0.000644683837890625, -0.00061798095703125, -0.000591278076171875, -0.0005645751953125, -0.000537872314453125, -0.00051116943359375, -0.000484466552734375, -0.000457763671875, -0.000431060791015625, -0.00040435791015625, -0.000377655029296875, -0.0003509521484375, -0.000324249267578125, -0.00029754638671875, -0.000270843505859375, -0.000244140625, -0.000217437744140625, -0.00019073486328125, -0.000164031982421875, -0.0001373291015625, -0.000110626220703125, -8.392333984375e-05, -5.7220458984375e-05, -3.0517578125e-05, -3.814697265625e-06, 2.288818359375e-05, 4.9591064453125e-05, 7.62939453125e-05, 0.000102996826171875, 0.00012969970703125, 0.000156402587890625, 0.00018310546875, 0.000209808349609375, 0.00023651123046875, 0.000263214111328125, 0.0002899169921875, 0.000316619873046875, 0.00034332275390625, 0.000370025634765625, 0.000396728515625, 0.000423431396484375, 0.00045013427734375, 0.000476837158203125, 0.0005035400390625, 0.000530242919921875, 0.00055694580078125, 0.000583648681640625, 0.0006103515625, 0.000637054443359375, 0.00066375732421875, 0.000690460205078125, 0.0007171630859375, 0.000743865966796875, 0.00077056884765625, 0.000797271728515625, 0.000823974609375, 0.000850677490234375, 0.00087738037109375, 0.000904083251953125, 0.0009307861328125, 0.000957489013671875, 0.00098419189453125, 0.001010894775390625, 0.00103759765625]}, "gradients/lstm.bias_hh_l1": {"_type": "histogram", "values": [1.0, 0.0, 0.0, 0.0, 0.0, 2.0, 0.0, 1.0, 1.0, 0.0, 1.0, 1.0, 0.0, 0.0, 2.0, 0.0, 4.0, 1.0, 3.0, 6.0, 3.0, 3.0, 4.0, 8.0, 15.0, 18.0, 35.0, 35.0, 48.0, 100.0, 222.0, 1161.0, 151.0, 53.0, 48.0, 27.0, 18.0, 18.0, 13.0, 12.0, 6.0, 5.0, 8.0, 3.0, 1.0, 1.0, 2.0, 1.0, 1.0, 0.0, 1.0, 1.0, 0.0, 1.0, 0.0, 0.0, 0.0, 0.0, 0.0, 1.0, 0.0, 0.0, 0.0, 1.0], "bins": [-958.3037109375, -927.882568359375, -897.46142578125, -867.040283203125, -836.619140625, -806.197998046875, -775.7767944335938, -745.3556518554688, -714.9345092773438, -684.5133666992188, -654.0922241210938, -623.6710205078125, -593.2498779296875, -562.8287353515625, -532.4075927734375, -501.9864501953125, -471.5653076171875, -441.1441650390625, -410.7230224609375, -380.3018798828125, -349.8807373046875, -319.45953369140625, -289.03839111328125, -258.61724853515625, -228.19610595703125, -197.77496337890625, -167.35382080078125, -136.93267822265625, -106.511474609375, -76.09033203125, -45.669189453125, -15.248046875, 15.173095703125, 45.59423828125, 76.015380859375, 106.4365234375, 136.857666015625, 167.27886962890625, 197.70001220703125, 228.12115478515625, 258.54229736328125, 288.96343994140625, 319.38458251953125, 349.80572509765625, 380.2269287109375, 410.6480712890625, 441.0692138671875, 471.4903564453125, 501.9114990234375, 532.3326416015625, 562.7537841796875, 593.1749267578125, 623.5960693359375, 654.0172119140625, 684.4384155273438, 714.8595581054688, 745.2807006835938, 775.7018432617188, 806.1229858398438, 836.544189453125, 866.96533203125, 897.386474609375, 927.8076171875, 958.228759765625, 988.64990234375]}, "gradients/lstm.weight_hh_l1": {"_type": "histogram", "values": [1.0, 0.0, 0.0, 0.0, 0.0, 0.0, 0.0, 0.0, 1.0, 1.0, 2.0, 0.0, 0.0, 4.0, 1.0, 4.0, 4.0, 5.0, 4.0, 7.0, 13.0, 15.0, 19.0, 37.0, 38.0, 75.0, 109.0, 188.0, 320.0, 685.0, 1533.0, 5072.0, 51638.0, 975606.0, 9052.0, 2218.0, 883.0, 413.0, 231.0, 142.0, 84.0, 44.0, 36.0, 20.0, 22.0, 12.0, 5.0, 9.0, 6.0, 3.0, 4.0, 3.0, 1.0, 0.0, 2.0, 0.0, 0.0, 0.0, 2.0, 0.0, 1.0, 0.0, 0.0, 1.0], "bins": [-475.95086669921875, -461.6070556640625, -447.2632751464844, -432.9194641113281, -418.57568359375, -404.23187255859375, -389.8880615234375, -375.5442810058594, -361.20050048828125, -346.856689453125, -332.51287841796875, -318.1690979003906, -303.8252868652344, -289.48150634765625, -275.1376953125, -260.79388427734375, -246.45010375976562, -232.10630798339844, -217.76251220703125, -203.418701171875, -189.07492065429688, -174.73110961914062, -160.3873291015625, -146.04351806640625, -131.69970703125, -117.35592651367188, -103.01211547851562, -88.6683349609375, -74.32452392578125, -59.980743408203125, -45.636932373046875, -31.29315185546875, -16.949371337890625, -2.605560302734375, 11.73822021484375, 26.08203125, 40.425811767578125, 54.769622802734375, 69.1134033203125, 83.45721435546875, 97.80099487304688, 112.14480590820312, 126.48861694335938, 140.8323974609375, 155.17620849609375, 169.51998901367188, 183.86380004882812, 198.2075958251953, 212.5513916015625, 226.8951873779297, 241.23898315429688, 255.58277893066406, 269.92657470703125, 284.2703857421875, 298.61419677734375, 312.9579772949219, 327.3017578125, 341.64556884765625, 355.9893798828125, 370.3331604003906, 384.6769714355469, 399.020751953125, 413.36456298828125, 427.7083435058594, 442.0521545410156]}, "gradients/lstm.bias_ih_l1": {"_type": "histogram", "values": [1.0, 0.0, 0.0, 0.0, 0.0, 2.0, 0.0, 1.0, 1.0, 0.0, 1.0, 1.0, 0.0, 0.0, 2.0, 0.0, 4.0, 1.0, 3.0, 6.0, 3.0, 3.0, 4.0, 8.0, 15.0, 18.0, 35.0, 35.0, 48.0, 100.0, 222.0, 1161.0, 151.0, 53.0, 48.0, 27.0, 18.0, 18.0, 13.0, 12.0, 6.0, 5.0, 8.0, 3.0, 1.0, 1.0, 2.0, 1.0, 1.0, 0.0, 1.0, 1.0, 0.0, 1.0, 0.0, 0.0, 0.0, 0.0, 0.0, 1.0, 0.0, 0.0, 0.0, 1.0], "bins": [-958.3037109375, -927.882568359375, -897.46142578125, -867.040283203125, -836.619140625, -806.197998046875, -775.7767944335938, -745.3556518554688, -714.9345092773438, -684.5133666992188, -654.0922241210938, -623.6710205078125, -593.2498779296875, -562.8287353515625, -532.4075927734375, -501.9864501953125, -471.5653076171875, -441.1441650390625, -410.7230224609375, -380.3018798828125, -349.8807373046875, -319.45953369140625, -289.03839111328125, -258.61724853515625, -228.19610595703125, -197.77496337890625, -167.35382080078125, -136.93267822265625, -106.511474609375, -76.09033203125, -45.669189453125, -15.248046875, 15.173095703125, 45.59423828125, 76.015380859375, 106.4365234375, 136.857666015625, 167.27886962890625, 197.70001220703125, 228.12115478515625, 258.54229736328125, 288.96343994140625, 319.38458251953125, 349.80572509765625, 380.2269287109375, 410.6480712890625, 441.0692138671875, 471.4903564453125, 501.9114990234375, 532.3326416015625, 562.7537841796875, 593.1749267578125, 623.5960693359375, 654.0172119140625, 684.4384155273438, 714.8595581054688, 745.2807006835938, 775.7018432617188, 806.1229858398438, 836.544189453125, 866.96533203125, 897.386474609375, 927.8076171875, 958.228759765625, 988.64990234375]}, "gradients/lstm.weight_ih_l1": {"_type": "histogram", "values": [1.0, 1.0, 0.0, 0.0, 2.0, 1.0, 4.0, 2.0, 6.0, 3.0, 12.0, 8.0, 7.0, 19.0, 11.0, 19.0, 33.0, 32.0, 42.0, 41.0, 89.0, 121.0, 163.0, 208.0, 313.0, 442.0, 677.0, 1192.0, 1986.0, 3844.0, 8405.0, 30366.0, 951447.0, 31341.0, 8483.0, 3807.0, 2023.0, 1156.0, 695.0, 421.0, 307.0, 241.0, 165.0, 113.0, 77.0, 59.0, 36.0, 36.0, 22.0, 16.0, 14.0, 15.0, 20.0, 11.0, 1.0, 4.0, 4.0, 3.0, 3.0, 1.0, 1.0, 3.0, 0.0, 1.0], "bins": [-881.9571533203125, -854.8276977539062, -827.6983032226562, -800.56884765625, -773.4393920898438, -746.3099365234375, -719.1805419921875, -692.0510864257812, -664.921630859375, -637.792236328125, -610.6627807617188, -583.5333251953125, -556.4039306640625, -529.2744750976562, -502.1450500488281, -475.0155944824219, -447.88616943359375, -420.7567443847656, -393.6272888183594, -366.49786376953125, -339.368408203125, -312.239013671875, -285.10955810546875, -257.9801025390625, -230.8507080078125, -203.72125244140625, -176.591796875, -149.46234130859375, -122.33294677734375, -95.2034912109375, -68.07403564453125, -40.94464111328125, -13.81524658203125, 13.314208984375, 40.443603515625, 67.57305908203125, 94.7025146484375, 121.8319091796875, 148.96136474609375, 176.0908203125, 203.22027587890625, 230.34967041015625, 257.4791259765625, 284.60858154296875, 311.73797607421875, 338.867431640625, 365.9968566894531, 393.1263122558594, 420.2557373046875, 447.3851623535156, 474.5146179199219, 501.64404296875, 528.7734985351562, 555.9029541015625, 583.0323486328125, 610.1618041992188, 637.291259765625, 664.420654296875, 691.5501098632812, 718.6795654296875, 745.8089599609375, 772.9384155273438, 800.06787109375, 827.197265625, 854.3267211914062]}, "gradients/lstm.bias_hh_l0": {"_type": "histogram", "values": [1.0, 0.0, 0.0, 1.0, 0.0, 0.0, 0.0, 0.0, 0.0, 0.0, 0.0, 1.0, 0.0, 0.0, 0.0, 1.0, 0.0, 1.0, 1.0, 0.0, 1.0, 0.0, 1.0, 2.0, 1.0, 1.0, 0.0, 1.0, 2.0, 2.0, 4.0, 6.0, 3.0, 8.0, 10.0, 23.0, 45.0, 124.0, 935.0, 612.0, 125.0, 58.0, 28.0, 16.0, 7.0, 6.0, 3.0, 2.0, 5.0, 0.0, 2.0, 2.0, 0.0, 2.0, 1.0, 0.0, 0.0, 1.0, 0.0, 1.0, 0.0, 1.0, 0.0, 1.0], "bins": [-4015.23583984375, -3912.11669921875, -3808.997802734375, -3705.878662109375, -3602.759521484375, -3499.640625, -3396.521484375, -3293.40234375, -3190.283203125, -3087.164306640625, -2984.045166015625, -2880.92626953125, -2777.80712890625, -2674.68798828125, -2571.56884765625, -2468.44970703125, -2365.330810546875, -2262.2119140625, -2159.0927734375, -2055.9736328125, -1952.8544921875, -1849.735595703125, -1746.616455078125, -1643.497314453125, -1540.37841796875, -1437.25927734375, -1334.14013671875, -1231.02099609375, -1127.902099609375, -1024.782958984375, -921.663818359375, -818.544921875, -715.42578125, -612.306640625, -509.187744140625, -406.068603515625, -302.949462890625, -199.83056640625, -96.71142578125, 6.40771484375, 109.52685546875, 212.645751953125, 315.764892578125, 418.884033203125, 522.0029296875, 625.1220703125, 728.2410888671875, 831.3602294921875, 934.479248046875, 1037.5982666015625, 1140.7174072265625, 1243.83642578125, 1346.95556640625, 1450.0745849609375, 1553.193603515625, 1656.312744140625, 1759.4317626953125, 1862.55078125, 1965.669921875, 2068.7890625, 2171.907958984375, 2275.027099609375, 2378.146240234375, 2481.26513671875, 2584.38427734375]}, "gradients/lstm.weight_hh_l0": {"_type": "histogram", "values": [1.0, 0.0, 0.0, 1.0, 1.0, 1.0, 1.0, 2.0, 1.0, 1.0, 3.0, 3.0, 10.0, 5.0, 6.0, 11.0, 10.0, 18.0, 17.0, 33.0, 38.0, 38.0, 55.0, 70.0, 100.0, 150.0, 250.0, 370.0, 668.0, 1389.0, 3600.0, 16404.0, 980091.0, 36261.0, 5074.0, 1702.0, 820.0, 449.0, 253.0, 156.0, 120.0, 88.0, 63.0, 58.0, 31.0, 38.0, 17.0, 21.0, 13.0, 10.0, 11.0, 9.0, 8.0, 6.0, 6.0, 4.0, 3.0, 1.0, 3.0, 2.0, 0.0, 0.0, 0.0, 1.0], "bins": [-2172.11328125, -2105.60498046875, -2039.0965576171875, -1972.588134765625, -1906.0797119140625, -1839.5712890625, -1773.06298828125, -1706.5545654296875, -1640.046142578125, -1573.537841796875, -1507.0294189453125, -1440.52099609375, -1374.0126953125, -1307.5042724609375, -1240.995849609375, -1174.487548828125, -1107.9791259765625, -1041.470703125, -974.96240234375, -908.4539794921875, -841.945556640625, -775.437255859375, -708.9288330078125, -642.42041015625, -575.912109375, -509.4036865234375, -442.895263671875, -376.3868408203125, -309.8785400390625, -243.3701171875, -176.8616943359375, -110.353271484375, -43.844970703125, 22.663330078125, 89.1717529296875, 155.68017578125, 222.1885986328125, 288.6968994140625, 355.205322265625, 421.7137451171875, 488.22216796875, 554.73046875, 621.2388916015625, 687.747314453125, 754.255615234375, 820.7640380859375, 887.2724609375, 953.78076171875, 1020.2891845703125, 1086.797607421875, 1153.305908203125, 1219.8143310546875, 1286.32275390625, 1352.8310546875, 1419.3394775390625, 1485.847900390625, 1552.356201171875, 1618.8646240234375, 1685.373046875, 1751.88134765625, 1818.3897705078125, 1884.898193359375, 1951.4066162109375, 2017.9149169921875, 2084.42333984375]}, "gradients/lstm.bias_ih_l0": {"_type": "histogram", "values": [1.0, 0.0, 0.0, 1.0, 0.0, 0.0, 0.0, 0.0, 0.0, 0.0, 0.0, 1.0, 0.0, 0.0, 0.0, 1.0, 0.0, 1.0, 1.0, 0.0, 1.0, 0.0, 1.0, 2.0, 1.0, 1.0, 0.0, 1.0, 2.0, 2.0, 4.0, 6.0, 3.0, 8.0, 10.0, 23.0, 45.0, 124.0, 935.0, 612.0, 125.0, 58.0, 28.0, 16.0, 7.0, 6.0, 3.0, 2.0, 5.0, 0.0, 2.0, 2.0, 0.0, 2.0, 1.0, 0.0, 0.0, 1.0, 0.0, 1.0, 0.0, 1.0, 0.0, 1.0], "bins": [-4015.23583984375, -3912.11669921875, -3808.997802734375, -3705.878662109375, -3602.759521484375, -3499.640625, -3396.521484375, -3293.40234375, -3190.283203125, -3087.164306640625, -2984.045166015625, -2880.92626953125, -2777.80712890625, -2674.68798828125, -2571.56884765625, -2468.44970703125, -2365.330810546875, -2262.2119140625, -2159.0927734375, -2055.9736328125, -1952.8544921875, -1849.735595703125, -1746.616455078125, -1643.497314453125, -1540.37841796875, -1437.25927734375, -1334.14013671875, -1231.02099609375, -1127.902099609375, -1024.782958984375, -921.663818359375, -818.544921875, -715.42578125, -612.306640625, -509.187744140625, -406.068603515625, -302.949462890625, -199.83056640625, -96.71142578125, 6.40771484375, 109.52685546875, 212.645751953125, 315.764892578125, 418.884033203125, 522.0029296875, 625.1220703125, 728.2410888671875, 831.3602294921875, 934.479248046875, 1037.5982666015625, 1140.7174072265625, 1243.83642578125, 1346.95556640625, 1450.0745849609375, 1553.193603515625, 1656.312744140625, 1759.4317626953125, 1862.55078125, 1965.669921875, 2068.7890625, 2171.907958984375, 2275.027099609375, 2378.146240234375, 2481.26513671875, 2584.38427734375]}, "gradients/lstm.weight_ih_l0": {"_type": "histogram", "values": [1.0, 0.0, 2.0, 0.0, 3.0, 0.0, 0.0, 3.0, 4.0, 8.0, 8.0, 9.0, 12.0, 21.0, 19.0, 29.0, 36.0, 52.0, 55.0, 96.0, 135.0, 204.0, 276.0, 503.0, 1080.0, 3100.0, 22025.0, 221839.0, 8746.0, 1927.0, 715.0, 414.0, 239.0, 166.0, 120.0, 64.0, 55.0, 46.0, 29.0, 21.0, 24.0, 10.0, 10.0, 9.0, 4.0, 2.0, 4.0, 2.0, 4.0, 3.0, 3.0, 1.0, 2.0, 1.0, 1.0, 0.0, 0.0, 0.0, 0.0, 1.0, 0.0, 0.0, 0.0, 1.0], "bins": [-4268.923828125, -4112.5888671875, -3956.254150390625, -3799.91943359375, -3643.58447265625, -3487.249755859375, -3330.9150390625, -3174.580078125, -3018.245361328125, -2861.91064453125, -2705.57568359375, -2549.240966796875, -2392.90625, -2236.5712890625, -2080.236572265625, -1923.901611328125, -1767.56689453125, -1611.232177734375, -1454.897216796875, -1298.5625, -1142.2275390625, -985.892822265625, -829.55810546875, -673.22314453125, -516.888427734375, -360.5537109375, -204.21875, -47.8837890625, 108.45068359375, 264.78564453125, 421.12060546875, 577.455078125, 733.7900390625, 890.125, 1046.45947265625, 1202.79443359375, 1359.12939453125, 1515.4638671875, 1671.798828125, 1828.1337890625, 1984.468505859375, 2140.80322265625, 2297.13818359375, 2453.472900390625, 2609.8076171875, 2766.142578125, 2922.477294921875, 3078.812255859375, 3235.14697265625, 3391.481689453125, 3547.816650390625, 3704.1513671875, 3860.486328125, 4016.821044921875, 4173.15576171875, 4329.49072265625, 4485.8251953125, 4642.16015625, 4798.4951171875, 4954.830078125, 5111.16455078125, 5267.49951171875, 5423.83447265625, 5580.1689453125, 5736.50390625]}, "gradients/encoder.fc.bias": {"_type": "histogram", "values": [3.0, 1.0, 0.0, 1.0, 0.0, 1.0, 0.0, 1.0, 2.0, 2.0, 0.0, 4.0, 1.0, 0.0, 0.0, 6.0, 3.0, 1.0, 0.0, 5.0, 1.0, 2.0, 0.0, 3.0, 1.0, 6.0, 1.0, 4.0, 6.0, 3.0, 4.0, 3.0, 1.0, 4.0, 3.0, 3.0, 6.0, 6.0, 4.0, 2.0, 5.0, 1.0, 3.0, 4.0, 1.0, 1.0, 1.0, 0.0, 1.0, 4.0, 0.0, 1.0, 3.0, 1.0, 2.0, 0.0, 2.0, 0.0, 0.0, 1.0, 0.0, 1.0, 0.0, 2.0], "bins": [-3694.27490234375, -3569.6630859375, -3445.051025390625, -3320.43896484375, -3195.8271484375, -3071.21533203125, -2946.603271484375, -2821.9912109375, -2697.37939453125, -2572.767578125, -2448.155517578125, -2323.54345703125, -2198.931640625, -2074.31982421875, -1949.707763671875, -1825.0958251953125, -1700.48388671875, -1575.8720703125, -1451.260009765625, -1326.64794921875, -1202.0361328125, -1077.42431640625, -952.812255859375, -828.2001953125, -703.58837890625, -578.9765625, -454.364501953125, -329.75244140625, -205.140625, -80.52880859375, 44.083251953125, 168.6953125, 293.30712890625, 417.9189453125, 542.531005859375, 667.14306640625, 791.7548828125, 916.36669921875, 1040.978759765625, 1165.5908203125, 1290.20263671875, 1414.814453125, 1539.426513671875, 1664.03857421875, 1788.650390625, 1913.26220703125, 2037.874267578125, 2162.486328125, 2287.09814453125, 2411.7099609375, 2536.322021484375, 2660.93408203125, 2785.5458984375, 2910.15771484375, 3034.769775390625, 3159.3818359375, 3283.99365234375, 3408.60546875, 3533.217529296875, 3657.82958984375, 3782.44140625, 3907.05322265625, 4031.665283203125, 4156.27734375, 4280.88916015625]}, "gradients/encoder.fc.weight": {"_type": "histogram", "values": [3.0, 1.0, 0.0, 1.0, 0.0, 1.0, 0.0, 1.0, 2.0, 2.0, 6.0, 4.0, 5.0, 0.0, 5.0, 19.0, 15.0, 22.0, 24.0, 24.0, 48.0, 48.0, 49.0, 101.0, 101.0, 158.0, 185.0, 324.0, 587.0, 24364.0, 928.0, 525.0, 344.0, 212.0, 165.0, 123.0, 82.0, 59.0, 58.0, 40.0, 38.0, 22.0, 26.0, 19.0, 13.0, 12.0, 5.0, 3.0, 2.0, 5.0, 2.0, 3.0, 5.0, 1.0, 2.0, 0.0, 2.0, 0.0, 0.0, 1.0, 0.0, 1.0, 0.0, 2.0], "bins": [-24731.81640625, -23898.044921875, -23064.275390625, -22230.50390625, -21396.732421875, -20562.9609375, -19729.19140625, -18895.419921875, -18061.6484375, -17227.87890625, -16394.107421875, -15560.3369140625, -14726.56640625, -13892.794921875, -13059.0244140625, -12225.2529296875, -11391.482421875, -10557.7119140625, -9723.9404296875, -8890.169921875, -8056.3984375, -7222.62890625, -6388.857421875, -5555.0859375, -4721.31640625, -3887.544921875, -3053.7734375, -2220.001953125, -1386.232421875, -552.4609375, 281.310546875, 1115.080078125, 1948.8515625, 2782.623046875, 3616.392578125, 4450.1640625, 5283.935546875, 6117.705078125, 6951.4765625, 7785.248046875, 8619.01953125, 9452.7890625, 10286.560546875, 11120.33203125, 11954.1015625, 12787.873046875, 13621.6435546875, 14455.4150390625, 15289.185546875, 16122.9560546875, 16956.7265625, 17790.498046875, 18624.26953125, 19458.0390625, 20291.810546875, 21125.58203125, 21959.3515625, 22793.123046875, 23626.89453125, 24460.6640625, 25294.435546875, 26128.20703125, 26961.978515625, 27795.748046875, 28629.51953125]}, "gradients/encoder.conv3.bn.weight": {"_type": "histogram", "values": [0.0, 0.0, 0.0, 0.0, 0.0, 0.0, 0.0, 0.0, 0.0, 0.0, 0.0, 0.0, 0.0, 0.0, 0.0, 0.0, 0.0, 0.0, 0.0, 0.0, 0.0, 0.0, 0.0, 0.0, 0.0, 0.0, 0.0, 0.0, 0.0, 0.0, 0.0, 0.0, 1.0, 0.0, 0.0, 0.0, 0.0, 0.0, 0.0, 0.0, 0.0, 0.0, 0.0, 0.0, 0.0, 0.0, 0.0, 0.0, 0.0, 0.0, 0.0, 0.0, 0.0, 0.0, 0.0, 0.0, 0.0, 0.0, 0.0, 0.0, 0.0, 0.0, 0.0, 0.0], "bins": [12818.091796875, 12818.091796875, 12818.091796875, 12818.091796875, 12818.091796875, 12818.091796875, 12818.091796875, 12818.091796875, 12818.091796875, 12818.091796875, 12818.091796875, 12818.091796875, 12818.091796875, 12818.091796875, 12818.091796875, 12818.091796875, 12818.091796875, 12818.091796875, 12818.091796875, 12818.091796875, 12818.091796875, 12818.091796875, 12818.091796875, 12818.091796875, 12818.091796875, 12818.091796875, 12818.091796875, 12818.091796875, 12818.091796875, 12818.091796875, 12818.091796875, 12818.091796875, 12818.091796875, 12818.091796875, 12818.091796875, 12818.091796875, 12818.091796875, 12818.091796875, 12818.091796875, 12818.091796875, 12818.091796875, 12818.091796875, 12818.091796875, 12818.091796875, 12818.091796875, 12818.091796875, 12818.091796875, 12818.091796875, 12818.091796875, 12818.091796875, 12818.091796875, 12818.091796875, 12818.091796875, 12818.091796875, 12818.091796875, 12818.091796875, 12818.091796875, 12818.091796875, 12818.091796875, 12818.091796875, 12818.091796875, 12818.091796875, 12818.091796875, 12818.091796875, 12818.091796875]}, "gradients/encoder.conv3.bn.bias": {"_type": "histogram", "values": [0.0, 0.0, 0.0, 0.0, 0.0, 0.0, 0.0, 0.0, 0.0, 0.0, 0.0, 0.0, 0.0, 0.0, 0.0, 0.0, 0.0, 0.0, 0.0, 0.0, 0.0, 0.0, 0.0, 0.0, 0.0, 0.0, 0.0, 0.0, 0.0, 0.0, 0.0, 0.0, 1.0, 0.0, 0.0, 0.0, 0.0, 0.0, 0.0, 0.0, 0.0, 0.0, 0.0, 0.0, 0.0, 0.0, 0.0, 0.0, 0.0, 0.0, 0.0, 0.0, 0.0, 0.0, 0.0, 0.0, 0.0, 0.0, 0.0, 0.0, 0.0, 0.0, 0.0, 0.0], "bins": [5075.06494140625, 5075.06494140625, 5075.06494140625, 5075.06494140625, 5075.06494140625, 5075.06494140625, 5075.06494140625, 5075.06494140625, 5075.06494140625, 5075.06494140625, 5075.06494140625, 5075.06494140625, 5075.06494140625, 5075.06494140625, 5075.06494140625, 5075.06494140625, 5075.06494140625, 5075.06494140625, 5075.06494140625, 5075.06494140625, 5075.06494140625, 5075.06494140625, 5075.06494140625, 5075.06494140625, 5075.06494140625, 5075.06494140625, 5075.06494140625, 5075.06494140625, 5075.06494140625, 5075.06494140625, 5075.06494140625, 5075.06494140625, 5075.06494140625, 5075.06494140625, 5075.06494140625, 5075.06494140625, 5075.06494140625, 5075.06494140625, 5075.06494140625, 5075.06494140625, 5075.06494140625, 5075.06494140625, 5075.06494140625, 5075.06494140625, 5075.06494140625, 5075.06494140625, 5075.06494140625, 5075.06494140625, 5075.06494140625, 5075.06494140625, 5075.06494140625, 5075.06494140625, 5075.06494140625, 5075.06494140625, 5075.06494140625, 5075.06494140625, 5075.06494140625, 5075.06494140625, 5075.06494140625, 5075.06494140625, 5075.06494140625, 5075.06494140625, 5075.06494140625, 5075.06494140625, 5075.06494140625]}, "gradients/encoder.conv3.conv.weight": {"_type": "histogram", "values": [1.0, 2.0, 0.0, 0.0, 0.0, 0.0, 0.0, 1.0, 0.0, 0.0, 0.0, 2.0, 0.0, 2.0, 1.0, 0.0, 1.0, 0.0, 0.0, 2.0, 2.0, 1.0, 1.0, 2.0, 4.0, 0.0, 1.0, 3.0, 10.0, 4.0, 5.0, 2.0, 0.0, 3.0, 2.0, 0.0, 2.0, 1.0, 3.0, 0.0, 0.0, 1.0, 0.0, 0.0, 0.0, 1.0, 0.0, 1.0, 0.0, 0.0, 0.0, 0.0, 1.0, 0.0, 1.0, 0.0, 0.0, 0.0, 0.0, 0.0, 0.0, 0.0, 0.0, 1.0], "bins": [-52491.57421875, -50741.40234375, -48991.23046875, -47241.05859375, -45490.88671875, -43740.71484375, -41990.546875, -40240.375, -38490.203125, -36740.03125, -34989.859375, -33239.6875, -31489.515625, -29739.34375, -27989.171875, -26239.0, -24488.828125, -22738.65625, -20988.484375, -19238.3125, -17488.140625, -15737.96875, -13987.796875, -12237.625, -10487.45703125, -8737.28515625, -6987.11328125, -5236.94140625, -3486.76953125, -1736.59765625, 13.57421875, 1763.74609375, 3513.921875, 5264.09375, 7014.265625, 8764.4375, 10514.609375, 12264.78125, 14014.953125, 15765.125, 17515.296875, 19265.46484375, 21015.63671875, 22765.80859375, 24515.98046875, 26266.15234375, 28016.32421875, 29766.49609375, 31516.66796875, 33266.83984375, 35017.01171875, 36767.18359375, 38517.35546875, 40267.5234375, 42017.6953125, 43767.8671875, 45518.0390625, 47268.2109375, 49018.3828125, 50768.5546875, 52518.7265625, 54268.8984375, 56019.0703125, 57769.2421875, 59519.4140625]}, "gradients/encoder.conv3.conv.bias": {"_type": "histogram", "values": [0.0, 0.0, 0.0, 0.0, 0.0, 0.0, 0.0, 0.0, 0.0, 0.0, 0.0, 0.0, 0.0, 0.0, 0.0, 0.0, 0.0, 0.0, 0.0, 0.0, 0.0, 0.0, 0.0, 0.0, 0.0, 0.0, 0.0, 0.0, 0.0, 0.0, 0.0, 0.0, 1.0, 0.0, 0.0, 0.0, 0.0, 0.0, 0.0, 0.0, 0.0, 0.0, 0.0, 0.0, 0.0, 0.0, 0.0, 0.0, 0.0, 0.0, 0.0, 0.0, 0.0, 0.0, 0.0, 0.0, 0.0, 0.0, 0.0, 0.0, 0.0, 0.0, 0.0, 0.0], "bins": [0.0028076171875, 0.0028076171875, 0.0028076171875, 0.0028076171875, 0.0028076171875, 0.0028076171875, 0.0028076171875, 0.0028076171875, 0.0028076171875, 0.0028076171875, 0.0028076171875, 0.0028076171875, 0.0028076171875, 0.0028076171875, 0.0028076171875, 0.0028076171875, 0.0028076171875, 0.0028076171875, 0.0028076171875, 0.0028076171875, 0.0028076171875, 0.0028076171875, 0.0028076171875, 0.0028076171875, 0.0028076171875, 0.0028076171875, 0.0028076171875, 0.0028076171875, 0.0028076171875, 0.0028076171875, 0.0028076171875, 0.0028076171875, 0.0028076171875, 0.0028076171875, 0.0028076171875, 0.0028076171875, 0.0028076171875, 0.0028076171875, 0.0028076171875, 0.0028076171875, 0.0028076171875, 0.0028076171875, 0.0028076171875, 0.0028076171875, 0.0028076171875, 0.0028076171875, 0.0028076171875, 0.0028076171875, 0.0028076171875, 0.0028076171875, 0.0028076171875, 0.0028076171875, 0.0028076171875, 0.0028076171875, 0.0028076171875, 0.0028076171875, 0.0028076171875, 0.0028076171875, 0.0028076171875, 0.0028076171875, 0.0028076171875, 0.0028076171875, 0.0028076171875, 0.0028076171875, 0.0028076171875]}, "gradients/encoder.conv2.bn.weight": {"_type": "histogram", "values": [1.0, 0.0, 0.0, 0.0, 0.0, 0.0, 0.0, 0.0, 0.0, 0.0, 1.0, 0.0, 0.0, 1.0, 0.0, 0.0, 0.0, 0.0, 0.0, 0.0, 1.0, 0.0, 0.0, 0.0, 0.0, 0.0, 1.0, 0.0, 1.0, 1.0, 0.0, 0.0, 2.0, 0.0, 0.0, 1.0, 1.0, 0.0, 2.0, 0.0, 0.0, 1.0, 0.0, 0.0, 0.0, 0.0, 0.0, 0.0, 0.0, 0.0, 0.0, 0.0, 0.0, 0.0, 0.0, 1.0, 0.0, 0.0, 0.0, 0.0, 0.0, 0.0, 0.0, 1.0], "bins": [-5382.486328125, -5211.93994140625, -5041.39404296875, -4870.84765625, -4700.3017578125, -4529.75537109375, -4359.208984375, -4188.6630859375, -4018.11669921875, -3847.57080078125, -3677.0244140625, -3506.478271484375, -3335.93212890625, -3165.385986328125, -2994.839599609375, -2824.29345703125, -2653.747314453125, -2483.201171875, -2312.655029296875, -2142.108642578125, -1971.5625, -1801.016357421875, -1630.47021484375, -1459.924072265625, -1289.3779296875, -1118.83154296875, -948.28564453125, -777.7392578125, -607.19287109375, -436.64697265625, -266.1005859375, -95.5546875, 74.99169921875, 245.5380859375, 416.083984375, 586.63037109375, 757.17626953125, 927.72265625, 1098.26904296875, 1268.81494140625, 1439.361328125, 1609.907470703125, 1780.45361328125, 1950.999755859375, 2121.5458984375, 2292.092041015625, 2462.638427734375, 2633.1845703125, 2803.730712890625, 2974.27685546875, 3144.822998046875, 3315.369384765625, 3485.91552734375, 3656.461669921875, 3827.0078125, 3997.55419921875, 4168.10009765625, 4338.646484375, 4509.1923828125, 4679.73876953125, 4850.28515625, 5020.8310546875, 5191.37744140625, 5361.92333984375, 5532.4697265625]}, "gradients/encoder.conv2.bn.bias": {"_type": "histogram", "values": [1.0, 0.0, 0.0, 0.0, 1.0, 0.0, 0.0, 0.0, 2.0, 0.0, 0.0, 1.0, 0.0, 0.0, 0.0, 0.0, 1.0, 0.0, 0.0, 0.0, 1.0, 0.0, 0.0, 0.0, 1.0, 0.0, 1.0, 0.0, 0.0, 0.0, 0.0, 0.0, 0.0, 0.0, 0.0, 0.0, 2.0, 0.0, 0.0, 0.0, 0.0, 0.0, 0.0, 1.0, 0.0, 0.0, 0.0, 0.0, 0.0, 0.0, 0.0, 0.0, 1.0, 0.0, 0.0, 0.0, 1.0, 0.0, 0.0, 1.0, 0.0, 0.0, 0.0, 1.0], "bins": [-2376.12890625, -2313.15771484375, -2250.1865234375, -2187.21533203125, -2124.244140625, -2061.27294921875, -1998.3016357421875, -1935.3304443359375, -1872.3592529296875, -1809.387939453125, -1746.416748046875, -1683.445556640625, -1620.474365234375, -1557.503173828125, -1494.531982421875, -1431.560791015625, -1368.589599609375, -1305.6182861328125, -1242.6470947265625, -1179.6759033203125, -1116.7047119140625, -1053.7335205078125, -990.7623291015625, -927.791015625, -864.81982421875, -801.8486328125, -738.87744140625, -675.90625, -612.93505859375, -549.9637451171875, -486.9925537109375, -424.0213623046875, -361.0501708984375, -298.0789794921875, -235.1077880859375, -172.1365966796875, -109.165283203125, -46.194091796875, 16.777099609375, 79.748291015625, 142.719482421875, 205.690673828125, 268.6619873046875, 331.6331787109375, 394.6043701171875, 457.5755615234375, 520.5467529296875, 583.5179443359375, 646.4891967773438, 709.4603881835938, 772.431640625, 835.40283203125, 898.3740234375, 961.3452758789062, 1024.31640625, 1087.28759765625, 1150.2589111328125, 1213.2301025390625, 1276.2012939453125, 1339.1724853515625, 1402.1436767578125, 1465.114990234375, 1528.086181640625, 1591.057373046875, 1654.028564453125]}, "gradients/encoder.conv2.conv.weight": {"_type": "histogram", "values": [1.0, 0.0, 0.0, 0.0, 0.0, 0.0, 0.0, 0.0, 0.0, 2.0, 1.0, 2.0, 0.0, 3.0, 1.0, 2.0, 3.0, 0.0, 4.0, 4.0, 0.0, 6.0, 6.0, 11.0, 15.0, 17.0, 28.0, 31.0, 49.0, 57.0, 64.0, 100.0, 155.0, 392.0, 447.0, 178.0, 116.0, 72.0, 53.0, 44.0, 35.0, 25.0, 21.0, 12.0, 7.0, 17.0, 8.0, 13.0, 6.0, 9.0, 7.0, 4.0, 5.0, 3.0, 1.0, 2.0, 0.0, 2.0, 2.0, 3.0, 0.0, 0.0, 1.0, 1.0], "bins": [-36857.28515625, -35774.296875, -34691.30859375, -33608.3203125, -32525.333984375, -31442.345703125, -30359.359375, -29276.37109375, -28193.3828125, -27110.39453125, -26027.40625, -24944.419921875, -23861.431640625, -22778.443359375, -21695.45703125, -20612.46875, -19529.48046875, -18446.4921875, -17363.50390625, -16280.517578125, -15197.529296875, -14114.541015625, -13031.5546875, -11948.56640625, -10865.578125, -9782.58984375, -8699.6015625, -7616.615234375, -6533.626953125, -5450.638671875, -4367.65234375, -3284.6640625, -2201.671875, -1118.68359375, -35.6953125, 1047.291015625, 2130.279296875, 3213.267578125, 4296.25390625, 5379.2421875, 6462.23046875, 7545.21875, 8628.20703125, 9711.193359375, 10794.181640625, 11877.169921875, 12960.15625, 14043.14453125, 15126.1328125, 16209.12109375, 17292.109375, 18375.095703125, 19458.083984375, 20541.072265625, 21624.05859375, 22707.046875, 23790.03515625, 24873.0234375, 25956.01171875, 27038.998046875, 28121.986328125, 29204.974609375, 30287.9609375, 31370.94921875, 32453.9375]}, "gradients/encoder.conv2.conv.bias": {"_type": "histogram", "values": [1.0, 0.0, 0.0, 0.0, 0.0, 0.0, 0.0, 0.0, 0.0, 0.0, 0.0, 0.0, 0.0, 0.0, 0.0, 0.0, 0.0, 0.0, 0.0, 0.0, 1.0, 0.0, 0.0, 0.0, 0.0, 0.0, 0.0, 1.0, 1.0, 0.0, 1.0, 0.0, 2.0, 2.0, 1.0, 1.0, 1.0, 1.0, 0.0, 0.0, 0.0, 0.0, 0.0, 0.0, 0.0, 1.0, 1.0, 0.0, 0.0, 0.0, 0.0, 0.0, 0.0, 0.0, 0.0, 0.0, 0.0, 0.0, 0.0, 0.0, 0.0, 0.0, 0.0, 1.0], "bins": [-0.0020294189453125, -0.0019670724868774414, -0.0019047260284423828, -0.0018423795700073242, -0.0017800331115722656, -0.001717686653137207, -0.0016553401947021484, -0.0015929937362670898, -0.0015306472778320312, -0.0014683008193969727, -0.001405954360961914, -0.0013436079025268555, -0.0012812614440917969, -0.0012189149856567383, -0.0011565685272216797, -0.001094222068786621, -0.0010318756103515625, -0.0009695291519165039, -0.0009071826934814453, -0.0008448362350463867, -0.0007824897766113281, -0.0007201433181762695, -0.0006577968597412109, -0.0005954504013061523, -0.0005331039428710938, -0.00047075748443603516, -0.00040841102600097656, -0.00034606456756591797, -0.0002837181091308594, -0.00022137165069580078, -0.0001590251922607422, -9.66787338256836e-05, -3.4332275390625e-05, 2.8014183044433594e-05, 9.036064147949219e-05, 0.00015270709991455078, 0.00021505355834960938, 0.00027740001678466797, 0.00033974647521972656, 0.00040209293365478516, 0.00046443939208984375, 0.0005267858505249023, 0.0005891323089599609, 0.0006514787673950195, 0.0007138252258300781, 0.0007761716842651367, 0.0008385181427001953, 0.0009008646011352539, 0.0009632110595703125, 0.001025557518005371, 0.0010879039764404297, 0.0011502504348754883, 0.0012125968933105469, 0.0012749433517456055, 0.001337289810180664, 0.0013996362686157227, 0.0014619827270507812, 0.0015243291854858398, 0.0015866756439208984, 0.001649022102355957, 0.0017113685607910156, 0.0017737150192260742, 0.0018360614776611328, 0.0018984079360961914, 0.00196075439453125]}, "gradients/encoder.conv1.bn.weight": {"_type": "histogram", "values": [1.0, 0.0, 0.0, 0.0, 1.0, 0.0, 0.0, 1.0, 1.0, 1.0, 0.0, 0.0, 1.0, 1.0, 0.0, 0.0, 0.0, 0.0, 1.0, 1.0, 2.0, 1.0, 0.0, 3.0, 4.0, 2.0, 1.0, 2.0, 0.0, 0.0, 0.0, 1.0, 0.0, 2.0, 0.0, 0.0, 0.0, 0.0, 1.0, 0.0, 0.0, 1.0, 0.0, 0.0, 0.0, 0.0, 0.0, 0.0, 0.0, 1.0, 1.0, 0.0, 0.0, 0.0, 0.0, 0.0, 0.0, 0.0, 0.0, 0.0, 0.0, 0.0, 0.0, 1.0], "bins": [-4425.2470703125, -4247.75244140625, -4070.2578125, -3892.763427734375, -3715.268798828125, -3537.774169921875, -3360.27978515625, -3182.78515625, -3005.29052734375, -2827.7958984375, -2650.30126953125, -2472.806884765625, -2295.312255859375, -2117.817626953125, -1940.3232421875, -1762.82861328125, -1585.333984375, -1407.83935546875, -1230.3447265625, -1052.850341796875, -875.355712890625, -697.861083984375, -520.36669921875, -342.8720703125, -165.37744140625, 12.1171875, 189.61181640625, 367.1064453125, 544.6005859375, 722.09521484375, 899.58984375, 1077.08447265625, 1254.5791015625, 1432.07373046875, 1609.568359375, 1787.06298828125, 1964.5576171875, 2142.0517578125, 2319.54638671875, 2497.041015625, 2674.53564453125, 2852.0302734375, 3029.52490234375, 3207.019287109375, 3384.513916015625, 3562.008544921875, 3739.5029296875, 3916.99755859375, 4094.4921875, 4271.98681640625, 4449.4814453125, 4626.9755859375, 4804.470703125, 4981.96484375, 5159.45947265625, 5336.9541015625, 5514.44873046875, 5691.943359375, 5869.43798828125, 6046.9326171875, 6224.4267578125, 6401.92138671875, 6579.416015625, 6756.91064453125, 6934.4052734375]}, "gradients/encoder.conv1.bn.bias": {"_type": "histogram", "values": [1.0, 0.0, 0.0, 0.0, 0.0, 0.0, 2.0, 0.0, 0.0, 0.0, 1.0, 1.0, 1.0, 1.0, 1.0, 0.0, 0.0, 0.0, 1.0, 1.0, 0.0, 0.0, 0.0, 0.0, 0.0, 1.0, 1.0, 1.0, 2.0, 2.0, 0.0, 3.0, 0.0, 0.0, 0.0, 0.0, 0.0, 1.0, 1.0, 1.0, 1.0, 0.0, 1.0, 2.0, 0.0, 0.0, 1.0, 0.0, 0.0, 1.0, 1.0, 0.0, 1.0, 0.0, 0.0, 0.0, 0.0, 0.0, 0.0, 0.0, 0.0, 0.0, 0.0, 1.0], "bins": [-1654.158447265625, -1595.8253173828125, -1537.4921875, -1479.1590576171875, -1420.825927734375, -1362.4927978515625, -1304.15966796875, -1245.82666015625, -1187.493408203125, -1129.160400390625, -1070.8271484375, -1012.4940795898438, -954.1610107421875, -895.827880859375, -837.4947509765625, -779.16162109375, -720.8284912109375, -662.495361328125, -604.1622314453125, -545.8291015625, -487.4959716796875, -429.162841796875, -370.8297119140625, -312.49658203125, -254.16357421875, -195.8304443359375, -137.497314453125, -79.1641845703125, -20.8310546875, 37.5020751953125, 95.835205078125, 154.1683349609375, 212.50146484375, 270.8345947265625, 329.167724609375, 387.5008544921875, 445.833984375, 504.1671142578125, 562.500244140625, 620.8333740234375, 679.16650390625, 737.49951171875, 795.8326416015625, 854.165771484375, 912.4989013671875, 970.83203125, 1029.1651611328125, 1087.498291015625, 1145.8314208984375, 1204.16455078125, 1262.4976806640625, 1320.830810546875, 1379.1639404296875, 1437.4970703125, 1495.830078125, 1554.163330078125, 1612.496337890625, 1670.82958984375, 1729.16259765625, 1787.4957275390625, 1845.828857421875, 1904.1619873046875, 1962.4951171875, 2020.8282470703125, 2079.161376953125]}, "gradients/encoder.conv1.conv.weight": {"_type": "histogram", "values": [1.0, 1.0, 1.0, 1.0, 0.0, 0.0, 2.0, 3.0, 0.0, 0.0, 0.0, 1.0, 4.0, 4.0, 3.0, 4.0, 5.0, 9.0, 14.0, 23.0, 33.0, 23.0, 36.0, 44.0, 40.0, 62.0, 49.0, 69.0, 87.0, 102.0, 104.0, 233.0, 303.0, 164.0, 85.0, 110.0, 84.0, 86.0, 72.0, 38.0, 35.0, 23.0, 28.0, 10.0, 18.0, 12.0, 10.0, 3.0, 1.0, 1.0, 3.0, 0.0, 0.0, 0.0, 1.0, 1.0, 1.0, 0.0, 0.0, 0.0, 0.0, 0.0, 0.0, 1.0], "bins": [-20473.77734375, -19834.90234375, -19196.029296875, -18557.154296875, -17918.28125, -17279.40625, -16640.53125, -16001.6572265625, -15362.783203125, -14723.9091796875, -14085.03515625, -13446.16015625, -12807.2861328125, -12168.412109375, -11529.537109375, -10890.6630859375, -10251.7890625, -9612.9150390625, -8974.041015625, -8335.166015625, -7696.2919921875, -7057.41796875, -6418.54296875, -5779.6689453125, -5140.794921875, -4501.9208984375, -3863.046875, -3224.171875, -2585.296875, -1946.423828125, -1307.548828125, -668.67578125, -29.80078125, 609.07421875, 1247.947265625, 1886.822265625, 2525.6953125, 3164.5703125, 3803.4453125, 4442.3193359375, 5081.193359375, 5720.0673828125, 6358.94140625, 6997.81640625, 7636.6904296875, 8275.564453125, 8914.439453125, 9553.3134765625, 10192.1875, 10831.0615234375, 11469.935546875, 12108.810546875, 12747.6845703125, 13386.55859375, 14025.43359375, 14664.3076171875, 15303.181640625, 15942.0556640625, 16580.9296875, 17219.8046875, 17858.6796875, 18497.552734375, 19136.427734375, 19775.30078125, 20414.17578125]}, "gradients/encoder.conv1.conv.bias": {"_type": "histogram", "values": [1.0, 0.0, 0.0, 0.0, 0.0, 0.0, 0.0, 0.0, 0.0, 0.0, 0.0, 0.0, 0.0, 0.0, 1.0, 0.0, 1.0, 0.0, 1.0, 0.0, 0.0, 0.0, 0.0, 2.0, 1.0, 1.0, 0.0, 1.0, 0.0, 0.0, 1.0, 2.0, 0.0, 3.0, 2.0, 1.0, 2.0, 0.0, 1.0, 1.0, 1.0, 1.0, 1.0, 2.0, 1.0, 0.0, 1.0, 0.0, 0.0, 0.0, 1.0, 0.0, 1.0, 0.0, 0.0, 0.0, 0.0, 0.0, 0.0, 0.0, 0.0, 0.0, 0.0, 1.0], "bins": [-7.808208465576172e-05, -7.579289376735687e-05, -7.350370287895203e-05, -7.121451199054718e-05, -6.892532110214233e-05, -6.663613021373749e-05, -6.434693932533264e-05, -6.20577484369278e-05, -5.976855754852295e-05, -5.74793666601181e-05, -5.519017577171326e-05, -5.290098488330841e-05, -5.0611793994903564e-05, -4.832260310649872e-05, -4.603341221809387e-05, -4.3744221329689026e-05, -4.145503044128418e-05, -3.9165839552879333e-05, -3.687664866447449e-05, -3.458745777606964e-05, -3.2298266887664795e-05, -3.000907599925995e-05, -2.7719885110855103e-05, -2.5430694222450256e-05, -2.314150333404541e-05, -2.0852312445640564e-05, -1.8563121557235718e-05, -1.627393066883087e-05, -1.3984739780426025e-05, -1.169554889202118e-05, -9.406358003616333e-06, -7.117167115211487e-06, -4.827976226806641e-06, -2.5387853384017944e-06, -2.4959444999694824e-07, 2.039596438407898e-06, 4.328787326812744e-06, 6.61797821521759e-06, 8.907169103622437e-06, 1.1196359992027283e-05, 1.3485550880432129e-05, 1.5774741768836975e-05, 1.806393265724182e-05, 2.0353123545646667e-05, 2.2642314434051514e-05, 2.493150532245636e-05, 2.7220696210861206e-05, 2.9509887099266052e-05, 3.17990779876709e-05, 3.4088268876075745e-05, 3.637745976448059e-05, 3.866665065288544e-05, 4.095584154129028e-05, 4.324503242969513e-05, 4.5534223318099976e-05, 4.782341420650482e-05, 5.011260509490967e-05, 5.2401795983314514e-05, 5.469098687171936e-05, 5.6980177760124207e-05, 5.926936864852905e-05, 6.15585595369339e-05, 6.384775042533875e-05, 6.613694131374359e-05, 6.842613220214844e-05]}, "_wandb": {"runtime": 228}}