{"lr": 0.0002999981119858674, "train loss": 1606.6373545328777, "valid loss": 1705.5357123480903, "_timestamp": 1678814665.3843951, "_runtime": 61.16554617881775, "_step": 9, "gradients/graph_1decoder.conv6.bn.weight": {"_type": "histogram", "values": [0.0, 0.0, 0.0, 0.0, 0.0, 0.0, 0.0, 0.0, 0.0, 0.0, 0.0, 0.0, 0.0, 0.0, 0.0, 0.0, 0.0, 0.0, 0.0, 0.0, 0.0, 0.0, 0.0, 0.0, 0.0, 0.0, 0.0, 0.0, 0.0, 0.0, 0.0, 0.0, 1.0, 0.0, 0.0, 0.0, 0.0, 0.0, 0.0, 0.0, 0.0, 0.0, 0.0, 0.0, 0.0, 0.0, 0.0, 0.0, 0.0, 0.0, 0.0, 0.0, 0.0, 0.0, 0.0, 0.0, 0.0, 0.0, 0.0, 0.0, 0.0, 0.0, 0.0, 0.0], "bins": [-72.10450744628906, -72.10450744628906, -72.10450744628906, -72.10450744628906, -72.10450744628906, -72.10450744628906, -72.10450744628906, -72.10450744628906, -72.10450744628906, -72.10450744628906, -72.10450744628906, -72.10450744628906, -72.10450744628906, -72.10450744628906, -72.10450744628906, -72.10450744628906, -72.10450744628906, -72.10450744628906, -72.10450744628906, -72.10450744628906, -72.10450744628906, -72.10450744628906, -72.10450744628906, -72.10450744628906, -72.10450744628906, -72.10450744628906, -72.10450744628906, -72.10450744628906, -72.10450744628906, -72.10450744628906, -72.10450744628906, -72.10450744628906, -72.10450744628906, -72.10450744628906, -72.10450744628906, -72.10450744628906, -72.10450744628906, -72.10450744628906, -72.10450744628906, -72.10450744628906, -72.10450744628906, -72.10450744628906, -72.10450744628906, -72.10450744628906, -72.10450744628906, -72.10450744628906, -72.10450744628906, -72.10450744628906, -72.10450744628906, -72.10450744628906, -72.10450744628906, -72.10450744628906, -72.10450744628906, -72.10450744628906, -72.10450744628906, -72.10450744628906, -72.10450744628906, -72.10450744628906, -72.10450744628906, -72.10450744628906, -72.10450744628906, -72.10450744628906, -72.10450744628906, -72.10450744628906, -72.10450744628906]}, "gradients/graph_1decoder.conv6.bn.bias": {"_type": "histogram", "values": [0.0, 0.0, 0.0, 0.0, 0.0, 0.0, 0.0, 0.0, 0.0, 0.0, 0.0, 0.0, 0.0, 0.0, 0.0, 0.0, 0.0, 0.0, 0.0, 0.0, 0.0, 0.0, 0.0, 0.0, 0.0, 0.0, 0.0, 0.0, 0.0, 0.0, 0.0, 0.0, 1.0, 0.0, 0.0, 0.0, 0.0, 0.0, 0.0, 0.0, 0.0, 0.0, 0.0, 0.0, 0.0, 0.0, 0.0, 0.0, 0.0, 0.0, 0.0, 0.0, 0.0, 0.0, 0.0, 0.0, 0.0, 0.0, 0.0, 0.0, 0.0, 0.0, 0.0, 0.0], "bins": [-17.735700607299805, -17.735700607299805, -17.735700607299805, -17.735700607299805, -17.735700607299805, -17.735700607299805, -17.735700607299805, -17.735700607299805, -17.735700607299805, -17.735700607299805, -17.735700607299805, -17.735700607299805, -17.735700607299805, -17.735700607299805, -17.735700607299805, -17.735700607299805, -17.735700607299805, -17.735700607299805, -17.735700607299805, -17.735700607299805, -17.735700607299805, -17.735700607299805, -17.735700607299805, -17.735700607299805, -17.735700607299805, -17.735700607299805, -17.735700607299805, -17.735700607299805, -17.735700607299805, -17.735700607299805, -17.735700607299805, -17.735700607299805, -17.735700607299805, -17.735700607299805, -17.735700607299805, -17.735700607299805, -17.735700607299805, -17.735700607299805, -17.735700607299805, -17.735700607299805, -17.735700607299805, -17.735700607299805, -17.735700607299805, -17.735700607299805, -17.735700607299805, -17.735700607299805, -17.735700607299805, -17.735700607299805, -17.735700607299805, -17.735700607299805, -17.735700607299805, -17.735700607299805, -17.735700607299805, -17.735700607299805, -17.735700607299805, -17.735700607299805, -17.735700607299805, -17.735700607299805, -17.735700607299805, -17.735700607299805, -17.735700607299805, -17.735700607299805, -17.735700607299805, -17.735700607299805, -17.735700607299805]}, "gradients/graph_1decoder.conv6.conv.weight": {"_type": "histogram", "values": [1.0, 0.0, 0.0, 0.0, 0.0, 1.0, 0.0, 1.0, 0.0, 1.0, 0.0, 0.0, 0.0, 1.0, 2.0, 1.0, 0.0, 1.0, 1.0, 2.0, 7.0, 3.0, 5.0, 7.0, 5.0, 3.0, 6.0, 5.0, 3.0, 6.0, 4.0, 4.0, 0.0, 6.0, 6.0, 6.0, 5.0, 1.0, 2.0, 3.0, 5.0, 2.0, 3.0, 5.0, 2.0, 1.0, 1.0, 2.0, 1.0, 3.0, 0.0, 1.0, 0.0, 0.0, 0.0, 0.0, 1.0, 0.0, 1.0, 0.0, 0.0, 0.0, 0.0, 1.0], "bins": [-0.43588417768478394, -0.4195927083492279, -0.4033012390136719, -0.38700976967811584, -0.3707183003425598, -0.3544268310070038, -0.33813536167144775, -0.3218439221382141, -0.3055524230003357, -0.28926098346710205, -0.27296948432922363, -0.25667804479599, -0.24038657546043396, -0.22409510612487793, -0.2078036367893219, -0.19151216745376587, -0.17522069811820984, -0.1589292287826538, -0.14263775944709778, -0.12634629011154175, -0.11005482077598572, -0.09376335144042969, -0.07747188210487366, -0.06118041276931763, -0.044888973236083984, -0.028597503900527954, -0.012306034564971924, 0.0039854347705841064, 0.020276904106140137, 0.03656837344169617, 0.0528598427772522, 0.06915134191513062, 0.08544278144836426, 0.1017342209815979, 0.11802572011947632, 0.13431718945503235, 0.15060865879058838, 0.1669001281261444, 0.18319159746170044, 0.19948306679725647, 0.2157745361328125, 0.23206597566604614, 0.24835744500160217, 0.2646489143371582, 0.28094038367271423, 0.29723185300827026, 0.3135233223438263, 0.3298147916793823, 0.34610626101493835, 0.3623977303504944, 0.3786891996860504, 0.39498066902160645, 0.4112721383571625, 0.4275636076927185, 0.44385504722595215, 0.46014654636383057, 0.4764379858970642, 0.4927294850349426, 0.5090209245681763, 0.5253124237060547, 0.5416038632392883, 0.5578953623771667, 0.5741868019104004, 0.5904783010482788, 0.6067697405815125]}, "gradients/graph_1decoder.conv6.conv.bias": {"_type": "histogram", "values": [0.0, 0.0, 0.0, 0.0, 0.0, 0.0, 0.0, 0.0, 0.0, 0.0, 0.0, 0.0, 0.0, 0.0, 0.0, 0.0, 0.0, 0.0, 0.0, 0.0, 0.0, 0.0, 0.0, 0.0, 0.0, 0.0, 0.0, 0.0, 0.0, 0.0, 0.0, 0.0, 1.0, 0.0, 0.0, 0.0, 0.0, 0.0, 0.0, 0.0, 0.0, 0.0, 0.0, 0.0, 0.0, 0.0, 0.0, 0.0, 0.0, 0.0, 0.0, 0.0, 0.0, 0.0, 0.0, 0.0, 0.0, 0.0, 0.0, 0.0, 0.0, 0.0, 0.0, 0.0], "bins": [-6.616115570068359e-06, -6.616115570068359e-06, -6.616115570068359e-06, -6.616115570068359e-06, -6.616115570068359e-06, -6.616115570068359e-06, -6.616115570068359e-06, -6.616115570068359e-06, -6.616115570068359e-06, -6.616115570068359e-06, -6.616115570068359e-06, -6.616115570068359e-06, -6.616115570068359e-06, -6.616115570068359e-06, -6.616115570068359e-06, -6.616115570068359e-06, -6.616115570068359e-06, -6.616115570068359e-06, -6.616115570068359e-06, -6.616115570068359e-06, -6.616115570068359e-06, -6.616115570068359e-06, -6.616115570068359e-06, -6.616115570068359e-06, -6.616115570068359e-06, -6.616115570068359e-06, -6.616115570068359e-06, -6.616115570068359e-06, -6.616115570068359e-06, -6.616115570068359e-06, -6.616115570068359e-06, -6.616115570068359e-06, -6.616115570068359e-06, -6.616115570068359e-06, -6.616115570068359e-06, -6.616115570068359e-06, -6.616115570068359e-06, -6.616115570068359e-06, -6.616115570068359e-06, -6.616115570068359e-06, -6.616115570068359e-06, -6.616115570068359e-06, -6.616115570068359e-06, -6.616115570068359e-06, -6.616115570068359e-06, -6.616115570068359e-06, -6.616115570068359e-06, -6.616115570068359e-06, -6.616115570068359e-06, -6.616115570068359e-06, -6.616115570068359e-06, -6.616115570068359e-06, -6.616115570068359e-06, -6.616115570068359e-06, -6.616115570068359e-06, -6.616115570068359e-06, -6.616115570068359e-06, -6.616115570068359e-06, -6.616115570068359e-06, -6.616115570068359e-06, -6.616115570068359e-06, -6.616115570068359e-06, -6.616115570068359e-06, -6.616115570068359e-06, -6.616115570068359e-06]}, "gradients/graph_1decoder.conv5.bn.weight": {"_type": "histogram", "values": [1.0, 0.0, 0.0, 1.0, 0.0, 0.0, 0.0, 0.0, 1.0, 0.0, 0.0, 0.0, 0.0, 0.0, 0.0, 0.0, 0.0, 0.0, 1.0, 0.0, 0.0, 0.0, 0.0, 0.0, 2.0, 0.0, 0.0, 0.0, 0.0, 0.0, 0.0, 0.0, 0.0, 1.0, 0.0, 0.0, 0.0, 0.0, 0.0, 0.0, 0.0, 0.0, 0.0, 0.0, 0.0, 0.0, 0.0, 0.0, 0.0, 0.0, 0.0, 0.0, 0.0, 0.0, 0.0, 0.0, 0.0, 0.0, 0.0, 0.0, 0.0, 0.0, 0.0, 1.0], "bins": [-0.0931035727262497, -0.0884850025177002, -0.08386643975973129, -0.07924787700176239, -0.07462930679321289, -0.07001073658466339, -0.06539217382669449, -0.06077360734343529, -0.056155040860176086, -0.051536474376916885, -0.046917907893657684, -0.04229934141039848, -0.03768077492713928, -0.03306220844388008, -0.02844364196062088, -0.023825079202651978, -0.019206508994102478, -0.014587938785552979, -0.009969376027584076, -0.005350813269615173, -0.0007322430610656738, 0.0038863271474838257, 0.008504889905452728, 0.01312345266342163, 0.01774202287197113, 0.02236059308052063, 0.026979155838489532, 0.031597718596458435, 0.036216288805007935, 0.040834859013557434, 0.04545341432094574, 0.05007198452949524, 0.05469055473804474, 0.05930912494659424, 0.06392769515514374, 0.06854625046253204, 0.07316482067108154, 0.07778339087963104, 0.08240195363759995, 0.08702051639556885, 0.09163908660411835, 0.09625765681266785, 0.10087621957063675, 0.10549478232860565, 0.11011335253715515, 0.11473192274570465, 0.11935048550367355, 0.12396904826164246, 0.12858761847019196, 0.13320618867874146, 0.13782474398612976, 0.14244331419467926, 0.14706188440322876, 0.15168045461177826, 0.15629902482032776, 0.16091758012771606, 0.16553615033626556, 0.17015472054481506, 0.17477327585220337, 0.17939184606075287, 0.18401041626930237, 0.18862898647785187, 0.19324755668640137, 0.19786611199378967, 0.20248468220233917]}, "gradients/graph_1decoder.conv5.bn.bias": {"_type": "histogram", "values": [1.0, 0.0, 0.0, 1.0, 1.0, 0.0, 0.0, 1.0, 0.0, 0.0, 0.0, 0.0, 0.0, 0.0, 0.0, 0.0, 0.0, 0.0, 0.0, 0.0, 0.0, 0.0, 0.0, 0.0, 0.0, 0.0, 1.0, 0.0, 0.0, 1.0, 0.0, 0.0, 0.0, 0.0, 0.0, 0.0, 0.0, 0.0, 0.0, 0.0, 0.0, 0.0, 0.0, 0.0, 0.0, 0.0, 0.0, 0.0, 0.0, 0.0, 0.0, 0.0, 0.0, 0.0, 0.0, 0.0, 0.0, 0.0, 0.0, 0.0, 0.0, 0.0, 1.0, 1.0], "bins": [0.11465490609407425, 0.11653076857328415, 0.11840662360191345, 0.12028248608112335, 0.12215834110975266, 0.12403420358896255, 0.12591005861759186, 0.12778592109680176, 0.12966178357601166, 0.13153764605522156, 0.13341349363327026, 0.13528935611248016, 0.13716521859169006, 0.13904108107089996, 0.14091694355010986, 0.14279280602931976, 0.14466865360736847, 0.14654451608657837, 0.14842037856578827, 0.15029624104499817, 0.15217208862304688, 0.15404796600341797, 0.15592381358146667, 0.15779967606067657, 0.15967553853988647, 0.16155138611793518, 0.16342726349830627, 0.16530311107635498, 0.16717897355556488, 0.16905483603477478, 0.17093069851398468, 0.17280656099319458, 0.1746824085712433, 0.17655827105045319, 0.17843413352966309, 0.18030999600887299, 0.18218585848808289, 0.1840617060661316, 0.1859375685453415, 0.1878134310245514, 0.1896892935037613, 0.1915651559829712, 0.1934410035610199, 0.1953168660402298, 0.1971927285194397, 0.1990685909986496, 0.2009444534778595, 0.2028203010559082, 0.2046961635351181, 0.206572026014328, 0.2084478884935379, 0.2103237509727478, 0.2121995985507965, 0.2140754610300064, 0.2159513235092163, 0.2178271859884262, 0.2197030484676361, 0.22157889604568481, 0.22345475852489471, 0.22533062100410461, 0.22720648348331451, 0.22908234596252441, 0.23095819354057312, 0.23283405601978302, 0.23470991849899292]}, "gradients/graph_1decoder.conv5.conv.weight": {"_type": "histogram", "values": [1.0, 0.0, 0.0, 1.0, 0.0, 0.0, 0.0, 0.0, 0.0, 0.0, 1.0, 1.0, 4.0, 5.0, 3.0, 2.0, 5.0, 3.0, 8.0, 7.0, 10.0, 11.0, 15.0, 26.0, 27.0, 23.0, 46.0, 40.0, 36.0, 62.0, 99.0, 117.0, 112.0, 157.0, 171.0, 141.0, 130.0, 112.0, 92.0, 82.0, 67.0, 52.0, 51.0, 42.0, 39.0, 33.0, 29.0, 25.0, 20.0, 23.0, 23.0, 23.0, 13.0, 15.0, 6.0, 9.0, 3.0, 2.0, 4.0, 4.0, 7.0, 2.0, 5.0, 1.0], "bins": [-0.48112303018569946, -0.46738582849502563, -0.4536486268043518, -0.4399113953113556, -0.42617419362068176, -0.41243699193000793, -0.3986997604370117, -0.3849625587463379, -0.37122535705566406, -0.35748815536499023, -0.3437509536743164, -0.3300137221813202, -0.31627652049064636, -0.30253931879997253, -0.2888020873069763, -0.2750648856163025, -0.26132768392562866, -0.24759048223495483, -0.2338532656431198, -0.2201160490512848, -0.20637884736061096, -0.19264164566993713, -0.17890441417694092, -0.1651672124862671, -0.15143001079559326, -0.13769280910491943, -0.1239556074142456, -0.11021837592124939, -0.09648117423057556, -0.08274397253990173, -0.06900674104690552, -0.05526953935623169, -0.04153236746788025, -0.02779516577720642, -0.014057964086532593, -0.00032073259353637695, 0.013416469097137451, 0.02715367078781128, 0.040890902280807495, 0.05462810397148132, 0.06836530566215515, 0.08210250735282898, 0.09583970904350281, 0.10957694053649902, 0.12331414222717285, 0.13705134391784668, 0.1507885605096817, 0.16452577710151672, 0.17826297879219055, 0.19200018048286438, 0.2057373970746994, 0.21947461366653442, 0.23321181535720825, 0.24694901704788208, 0.2606862187385559, 0.2744234502315521, 0.28816065192222595, 0.3018978536128998, 0.315635085105896, 0.3293722867965698, 0.34310948848724365, 0.3568466901779175, 0.3705838918685913, 0.3843211233615875, 0.39805832505226135]}, "gradients/graph_1decoder.conv5.conv.bias": {"_type": "histogram", "values": [1.0, 0.0, 0.0, 0.0, 0.0, 0.0, 0.0, 0.0, 0.0, 0.0, 0.0, 1.0, 0.0, 0.0, 0.0, 0.0, 0.0, 1.0, 0.0, 0.0, 1.0, 0.0, 0.0, 0.0, 0.0, 0.0, 0.0, 0.0, 0.0, 0.0, 0.0, 0.0, 0.0, 0.0, 0.0, 0.0, 0.0, 0.0, 0.0, 0.0, 0.0, 0.0, 0.0, 0.0, 0.0, 0.0, 0.0, 1.0, 1.0, 1.0, 0.0, 0.0, 0.0, 0.0, 0.0, 0.0, 0.0, 0.0, 0.0, 0.0, 0.0, 0.0, 0.0, 1.0], "bins": [-2.1606683731079102e-07, -2.1015875972807407e-07, -2.0425068214535713e-07, -1.983426045626402e-07, -1.9243452697992325e-07, -1.865264493972063e-07, -1.8061837181448936e-07, -1.7471029423177242e-07, -1.6880221664905548e-07, -1.6289413906633854e-07, -1.569860614836216e-07, -1.5107798390090466e-07, -1.4516990631818771e-07, -1.3926182873547077e-07, -1.3335375115275383e-07, -1.274456735700369e-07, -1.2153759598731995e-07, -1.15629518404603e-07, -1.0972144082188606e-07, -1.0381336323916912e-07, -9.790528565645218e-08, -9.199720807373524e-08, -8.60891304910183e-08, -8.018105290830135e-08, -7.427297532558441e-08, -6.836489774286747e-08, -6.245682016015053e-08, -5.6548742577433586e-08, -5.0640664994716644e-08, -4.47325874119997e-08, -3.882450982928276e-08, -3.291643224656582e-08, -2.7008354663848877e-08, -2.1100277081131935e-08, -1.5192199498414993e-08, -9.284121915698051e-09, -3.3760443329811096e-09, 2.5320332497358322e-09, 8.440110832452774e-09, 1.4348188415169716e-08, 2.0256265997886658e-08, 2.61643435806036e-08, 3.207242116332054e-08, 3.798049874603748e-08, 4.3888576328754425e-08, 4.979665391147137e-08, 5.570473149418831e-08, 6.161280907690525e-08, 6.752088665962219e-08, 7.342896424233913e-08, 7.933704182505608e-08, 8.524511940777302e-08, 9.115319699048996e-08, 9.70612745732069e-08, 1.0296935215592384e-07, 1.0887742973864079e-07, 1.1478550732135773e-07, 1.2069358490407467e-07, 1.266016624867916e-07, 1.3250974006950855e-07, 1.384178176522255e-07, 1.4432589523494244e-07, 1.5023397281765938e-07, 1.5614205040037632e-07, 1.6205012798309326e-07]}, "gradients/graph_1decoder.conv4.bn.weight": {"_type": "histogram", "values": [1.0, 0.0, 0.0, 0.0, 0.0, 0.0, 0.0, 0.0, 0.0, 0.0, 0.0, 0.0, 1.0, 1.0, 0.0, 0.0, 0.0, 0.0, 0.0, 0.0, 1.0, 1.0, 0.0, 0.0, 1.0, 2.0, 2.0, 0.0, 0.0, 0.0, 0.0, 0.0, 0.0, 0.0, 0.0, 1.0, 0.0, 0.0, 0.0, 0.0, 0.0, 0.0, 0.0, 0.0, 0.0, 0.0, 0.0, 0.0, 0.0, 2.0, 0.0, 1.0, 0.0, 0.0, 0.0, 0.0, 1.0, 0.0, 0.0, 0.0, 0.0, 0.0, 0.0, 1.0], "bins": [-0.152265265583992, -0.14737579226493835, -0.1424863338470459, -0.13759686052799225, -0.1327073872089386, -0.12781791388988495, -0.12292845547199249, -0.11803898215293884, -0.11314950883388519, -0.10826004296541214, -0.10337057709693909, -0.09848110377788544, -0.09359163790941238, -0.08870216459035873, -0.08381269872188568, -0.07892322540283203, -0.07403375953435898, -0.06914429366588593, -0.06425482034683228, -0.05936535447835922, -0.05447588115930557, -0.04958641529083252, -0.04469694197177887, -0.03980747610330582, -0.034918010234832764, -0.030028536915779114, -0.025139063596725464, -0.020249605178833008, -0.015360131859779358, -0.010470658540725708, -0.005581185221672058, -0.000691726803779602, 0.004197746515274048, 0.009087219834327698, 0.013976678252220154, 0.018866151571273804, 0.023755624890327454, 0.028645098209381104, 0.03353455662727356, 0.03842402994632721, 0.04331350326538086, 0.04820296913385391, 0.053092435002326965, 0.057981908321380615, 0.06287137418985367, 0.06776084750890732, 0.07265031337738037, 0.07753978669643402, 0.08242925256490707, 0.08731871843338013, 0.09220819175243378, 0.09709765762090683, 0.10198713093996048, 0.10687659680843353, 0.11176607012748718, 0.11665553599596024, 0.12154500186443329, 0.12643447518348694, 0.1313239485025406, 0.13621340692043304, 0.1411028802394867, 0.14599235355854034, 0.150881826877594, 0.15577128529548645, 0.1606607586145401]}, "gradients/graph_1decoder.conv4.bn.bias": {"_type": "histogram", "values": [1.0, 0.0, 0.0, 0.0, 0.0, 0.0, 0.0, 0.0, 0.0, 0.0, 0.0, 0.0, 0.0, 0.0, 1.0, 0.0, 0.0, 1.0, 0.0, 0.0, 0.0, 0.0, 0.0, 0.0, 0.0, 0.0, 1.0, 0.0, 0.0, 0.0, 0.0, 1.0, 1.0, 0.0, 0.0, 0.0, 2.0, 0.0, 2.0, 1.0, 0.0, 0.0, 1.0, 0.0, 0.0, 0.0, 1.0, 0.0, 0.0, 0.0, 0.0, 0.0, 0.0, 0.0, 1.0, 0.0, 0.0, 0.0, 0.0, 0.0, 0.0, 0.0, 1.0, 1.0], "bins": [-0.06307201832532883, -0.060970909893512726, -0.058869801461696625, -0.056768689304590225, -0.054667580872774124, -0.05256647244095802, -0.050465360283851624, -0.04836425185203552, -0.04626314342021942, -0.04416203498840332, -0.04206092655658722, -0.03995981439948082, -0.03785870596766472, -0.03575759753584862, -0.03365648537874222, -0.03155537694692612, -0.029454268515110016, -0.027353160083293915, -0.025252051651477814, -0.023150939494371414, -0.021049831062555313, -0.018948722630739212, -0.016847610473632812, -0.014746502041816711, -0.01264539361000061, -0.01054428517818451, -0.008443176746368408, -0.006342064589262009, -0.004240956157445908, -0.0021398477256298065, -3.873556852340698e-05, 0.002062372863292694, 0.004163488745689392, 0.006264597177505493, 0.008365705609321594, 0.010466817766427994, 0.012567926198244095, 0.014669034630060196, 0.016770146787166595, 0.018871255218982697, 0.020972363650798798, 0.0230734720826149, 0.025174580514431, 0.0272756926715374, 0.0293768011033535, 0.0314779095351696, 0.033579021692276, 0.0356801301240921, 0.0377812385559082, 0.039882346987724304, 0.041983455419540405, 0.044084567576646805, 0.046185676008462906, 0.04828678444027901, 0.050387896597385406, 0.05248900502920151, 0.05459011346101761, 0.05669122189283371, 0.05879233032464981, 0.06089344248175621, 0.06299455463886261, 0.06509566307067871, 0.06719677150249481, 0.06929787993431091, 0.07139898836612701]}, "gradients/graph_1decoder.conv4.conv.weight": {"_type": "histogram", "values": [1.0, 0.0, 0.0, 0.0, 0.0, 1.0, 0.0, 0.0, 0.0, 0.0, 1.0, 0.0, 2.0, 1.0, 1.0, 3.0, 2.0, 5.0, 6.0, 13.0, 10.0, 17.0, 13.0, 21.0, 30.0, 50.0, 61.0, 61.0, 118.0, 134.0, 155.0, 221.0, 327.0, 406.0, 493.0, 682.0, 735.0, 749.0, 722.0, 679.0, 570.0, 439.0, 370.0, 313.0, 194.0, 161.0, 101.0, 83.0, 51.0, 47.0, 32.0, 28.0, 26.0, 14.0, 7.0, 8.0, 6.0, 5.0, 7.0, 0.0, 3.0, 2.0, 4.0, 1.0], "bins": [-0.6506327390670776, -0.6334694623947144, -0.6163061857223511, -0.5991429090499878, -0.5819796323776245, -0.564816415309906, -0.5476531386375427, -0.5304898619651794, -0.5133265852928162, -0.4961633086204529, -0.4790000319480896, -0.4618367850780487, -0.4446735084056854, -0.42751023173332214, -0.41034698486328125, -0.39318370819091797, -0.3760204315185547, -0.3588571548461914, -0.3416938781738281, -0.32453063130378723, -0.30736735463142395, -0.29020407795906067, -0.2730408310890198, -0.2558775544166565, -0.2387142777442932, -0.22155100107192993, -0.20438772439956665, -0.18722447752952576, -0.17006120085716248, -0.1528979241847992, -0.1357346773147583, -0.11857140064239502, -0.10140818357467651, -0.08424490690231323, -0.06708163022994995, -0.04991838335990906, -0.032755106687545776, -0.015591830015182495, 0.0015714168548583984, 0.01873469352722168, 0.03589797019958496, 0.05306124687194824, 0.07022452354431152, 0.08738777041435242, 0.1045510470867157, 0.12171432375907898, 0.13887757062911987, 0.15604084730148315, 0.17320412397384644, 0.19036740064620972, 0.2075306624174118, 0.2246939241886139, 0.24185720086097717, 0.25902047753334045, 0.27618372440338135, 0.29334700107574463, 0.3105102777481079, 0.3276735544204712, 0.3448368310928345, 0.36200007796287537, 0.37916335463523865, 0.39632663130760193, 0.4134898781776428, 0.4306531548500061, 0.4478164315223694]}, "gradients/graph_1decoder.conv4.conv.bias": {"_type": "histogram", "values": [1.0, 0.0, 0.0, 0.0, 0.0, 0.0, 0.0, 0.0, 0.0, 0.0, 0.0, 0.0, 0.0, 0.0, 0.0, 0.0, 1.0, 0.0, 0.0, 0.0, 0.0, 0.0, 0.0, 0.0, 1.0, 0.0, 1.0, 0.0, 2.0, 0.0, 0.0, 0.0, 0.0, 1.0, 0.0, 0.0, 0.0, 1.0, 0.0, 1.0, 0.0, 2.0, 0.0, 0.0, 0.0, 0.0, 0.0, 0.0, 0.0, 0.0, 2.0, 0.0, 0.0, 0.0, 0.0, 1.0, 1.0, 0.0, 0.0, 0.0, 0.0, 0.0, 0.0, 1.0], "bins": [-4.470348358154297e-08, -4.3524778448045254e-08, -4.234607331454754e-08, -4.1167368181049824e-08, -3.998866304755211e-08, -3.8809957914054394e-08, -3.763125278055668e-08, -3.6452547647058964e-08, -3.527384251356125e-08, -3.4095137380063534e-08, -3.291643224656582e-08, -3.1737727113068104e-08, -3.055902197957039e-08, -2.9380316846072674e-08, -2.820161171257496e-08, -2.7022906579077244e-08, -2.584420144557953e-08, -2.4665496312081814e-08, -2.34867911785841e-08, -2.2308086045086384e-08, -2.112938091158867e-08, -1.9950675778090954e-08, -1.877197064459324e-08, -1.7593265511095524e-08, -1.641456037759781e-08, -1.5235855244100094e-08, -1.4057150110602379e-08, -1.2878444977104664e-08, -1.1699739843606949e-08, -1.0521034710109234e-08, -9.342329576611519e-09, -8.163624443113804e-09, -6.984919309616089e-09, -5.806214176118374e-09, -4.627509042620659e-09, -3.448803909122944e-09, -2.270098775625229e-09, -1.0913936421275139e-09, 8.731149137020111e-11, 1.2660166248679161e-09, 2.444721758365631e-09, 3.623426891863346e-09, 4.802132025361061e-09, 5.980837158858776e-09, 7.159542292356491e-09, 8.338247425854206e-09, 9.516952559351921e-09, 1.0695657692849636e-08, 1.1874362826347351e-08, 1.3053067959845066e-08, 1.4231773093342781e-08, 1.5410478226840496e-08, 1.658918336033821e-08, 1.7767888493835926e-08, 1.894659362733364e-08, 2.0125298760831356e-08, 2.130400389432907e-08, 2.2482709027826786e-08, 2.36614141613245e-08, 2.4840119294822216e-08, 2.601882442831993e-08, 2.7197529561817646e-08, 2.837623469531536e-08, 2.9554939828813076e-08, 3.073364496231079e-08]}, "gradients/graph_1decoder.conv3.bn.weight": {"_type": "histogram", "values": [1.0, 0.0, 0.0, 0.0, 0.0, 0.0, 0.0, 0.0, 0.0, 0.0, 0.0, 0.0, 0.0, 0.0, 0.0, 1.0, 0.0, 0.0, 0.0, 0.0, 0.0, 1.0, 0.0, 0.0, 0.0, 0.0, 2.0, 2.0, 1.0, 3.0, 2.0, 2.0, 0.0, 3.0, 0.0, 1.0, 0.0, 0.0, 2.0, 0.0, 2.0, 2.0, 1.0, 0.0, 0.0, 0.0, 1.0, 1.0, 0.0, 1.0, 0.0, 1.0, 0.0, 1.0, 0.0, 0.0, 0.0, 0.0, 0.0, 0.0, 0.0, 0.0, 0.0, 1.0], "bins": [-0.20317354798316956, -0.1973549723625183, -0.19153639674186707, -0.18571780622005463, -0.17989923059940338, -0.17408065497875214, -0.1682620644569397, -0.16244348883628845, -0.1566249132156372, -0.15080633759498596, -0.14498776197433472, -0.13916917145252228, -0.13335059583187103, -0.1275320202112198, -0.12171343713998795, -0.1158948540687561, -0.11007627844810486, -0.10425770282745361, -0.09843911975622177, -0.09262053668498993, -0.08680196106433868, -0.08098338544368744, -0.075164794921875, -0.06934621930122375, -0.06352764368057251, -0.057709068059921265, -0.05189049243927002, -0.04607190191745758, -0.040253326296806335, -0.03443475067615509, -0.02861616015434265, -0.022797584533691406, -0.016979023814201355, -0.01116044819355011, -0.005341872572898865, 0.0004767179489135742, 0.006295293569564819, 0.012113869190216064, 0.017932459712028503, 0.02375103533267975, 0.029569610953330994, 0.03538818657398224, 0.041206762194633484, 0.04702535271644592, 0.05284392833709717, 0.05866250395774841, 0.06448108702898026, 0.0702996701002121, 0.07611824572086334, 0.08193682134151459, 0.08775540441274643, 0.09357398748397827, 0.09939256310462952, 0.10521113872528076, 0.1110297217965126, 0.11684830486774445, 0.12266688048839569, 0.12848545610904694, 0.13430404663085938, 0.14012262225151062, 0.14594119787216187, 0.1517597734928131, 0.15757834911346436, 0.1633969396352768, 0.16921551525592804]}, "gradients/graph_1decoder.conv3.bn.bias": {"_type": "histogram", "values": [1.0, 1.0, 0.0, 0.0, 0.0, 0.0, 0.0, 0.0, 0.0, 1.0, 0.0, 0.0, 0.0, 1.0, 0.0, 0.0, 0.0, 1.0, 1.0, 1.0, 0.0, 0.0, 1.0, 0.0, 1.0, 0.0, 3.0, 0.0, 1.0, 0.0, 1.0, 1.0, 0.0, 1.0, 0.0, 1.0, 0.0, 0.0, 3.0, 2.0, 2.0, 0.0, 1.0, 2.0, 0.0, 0.0, 1.0, 1.0, 0.0, 2.0, 0.0, 0.0, 0.0, 0.0, 0.0, 0.0, 0.0, 0.0, 0.0, 0.0, 0.0, 0.0, 0.0, 1.0], "bins": [-0.047940123826265335, -0.04647654667496681, -0.04501297324895859, -0.043549396097660065, -0.04208581894636154, -0.04062224552035332, -0.039158668369054794, -0.03769509494304657, -0.03623151779174805, -0.034767940640449524, -0.0333043672144413, -0.031840790063142776, -0.030377214774489403, -0.02891363948583603, -0.027450062334537506, -0.025986487045884132, -0.02452291175723076, -0.023059336468577385, -0.02159576117992401, -0.02013218402862549, -0.018668608739972115, -0.01720503345131874, -0.015741456300020218, -0.014277882874011993, -0.01281430572271347, -0.011350728571414948, -0.009887155145406723, -0.0084235779941082, -0.006960000842809677, -0.005496427416801453, -0.00403285026550293, -0.002569276839494705, -0.0011056959629058838, 0.00035788118839263916, 0.0018214546144008636, 0.0032850317656993866, 0.004748605191707611, 0.006212182343006134, 0.007675759494304657, 0.009139332920312881, 0.010602910071611404, 0.012066487222909927, 0.013530060648918152, 0.014993637800216675, 0.01645721308887005, 0.017920788377523422, 0.019384365528821945, 0.02084794081747532, 0.022311516106128693, 0.023775091394782066, 0.02523866668343544, 0.026702243834733963, 0.028165819123387337, 0.02962939441204071, 0.031092971563339233, 0.032556548714637756, 0.03402012214064598, 0.035483695566654205, 0.03694727271795273, 0.03841084986925125, 0.039874427020549774, 0.041338000446558, 0.04280157759785652, 0.044265151023864746, 0.04572872817516327]}, "gradients/graph_1decoder.conv3.conv.weight": {"_type": "histogram", "values": [1.0, 0.0, 0.0, 0.0, 0.0, 0.0, 1.0, 0.0, 1.0, 2.0, 1.0, 1.0, 3.0, 1.0, 4.0, 5.0, 3.0, 10.0, 8.0, 9.0, 21.0, 38.0, 44.0, 62.0, 109.0, 154.0, 237.0, 322.0, 535.0, 789.0, 1134.0, 1787.0, 2419.0, 3790.0, 5717.0, 5250.0, 3550.0, 2326.0, 1550.0, 987.0, 664.0, 452.0, 239.0, 175.0, 110.0, 80.0, 51.0, 34.0, 23.0, 18.0, 14.0, 8.0, 11.0, 6.0, 4.0, 2.0, 2.0, 0.0, 0.0, 0.0, 2.0, 1.0, 0.0, 1.0], "bins": [-0.4703435003757477, -0.45685669779777527, -0.44336989521980286, -0.42988309264183044, -0.4163963198661804, -0.402909517288208, -0.3894227147102356, -0.3759359121322632, -0.36244910955429077, -0.34896230697631836, -0.33547550439834595, -0.32198870182037354, -0.3085018992424011, -0.2950150966644287, -0.2815283238887787, -0.2680415213108063, -0.25455471873283386, -0.24106791615486145, -0.22758111357688904, -0.21409431099891663, -0.2006075084209442, -0.1871207356452942, -0.17363393306732178, -0.16014713048934937, -0.14666032791137695, -0.13317352533340454, -0.11968672275543213, -0.10619992017745972, -0.09271314740180969, -0.07922634482383728, -0.06573954224586487, -0.052252739667892456, -0.038765937089920044, -0.025279134511947632, -0.01179233193397522, 0.0016944706439971924, 0.015181273221969604, 0.02866804599761963, 0.04215484857559204, 0.05564165115356445, 0.06912845373153687, 0.08261525630950928, 0.09610205888748169, 0.1095888614654541, 0.12307563424110413, 0.13656243681907654, 0.15004923939704895, 0.16353604197502136, 0.17702284455299377, 0.1905096471309662, 0.2039964497089386, 0.21748323738574982, 0.23097003996372223, 0.24445684254169464, 0.25794363021850586, 0.27143043279647827, 0.2849172353744507, 0.2984040379524231, 0.3118908405303955, 0.3253776431083679, 0.33886444568634033, 0.35235121846199036, 0.36583802103996277, 0.3793248236179352, 0.3928116261959076]}, "gradients/graph_1decoder.conv3.conv.bias": {"_type": "histogram", "values": [1.0, 0.0, 0.0, 0.0, 0.0, 0.0, 0.0, 0.0, 0.0, 0.0, 0.0, 0.0, 0.0, 0.0, 0.0, 1.0, 0.0, 1.0, 0.0, 0.0, 2.0, 1.0, 0.0, 0.0, 0.0, 0.0, 0.0, 0.0, 1.0, 0.0, 2.0, 1.0, 3.0, 0.0, 0.0, 1.0, 1.0, 1.0, 2.0, 0.0, 0.0, 0.0, 1.0, 0.0, 0.0, 5.0, 0.0, 2.0, 0.0, 1.0, 1.0, 0.0, 0.0, 0.0, 0.0, 1.0, 1.0, 1.0, 0.0, 0.0, 0.0, 0.0, 0.0, 1.0], "bins": [-2.9802322387695312e-08, -2.9060174711048603e-08, -2.8318027034401894e-08, -2.7575879357755184e-08, -2.6833731681108475e-08, -2.6091584004461765e-08, -2.5349436327815056e-08, -2.4607288651168346e-08, -2.3865140974521637e-08, -2.3122993297874928e-08, -2.2380845621228218e-08, -2.163869794458151e-08, -2.08965502679348e-08, -2.015440259128809e-08, -1.941225491464138e-08, -1.867010723799467e-08, -1.792795956134796e-08, -1.7185811884701252e-08, -1.6443664208054543e-08, -1.5701516531407833e-08, -1.4959368854761124e-08, -1.4217221178114414e-08, -1.3475073501467705e-08, -1.2732925824820995e-08, -1.1990778148174286e-08, -1.1248630471527576e-08, -1.0506482794880867e-08, -9.764335118234158e-09, -9.022187441587448e-09, -8.280039764940739e-09, -7.53789208829403e-09, -6.79574441164732e-09, -6.05359673500061e-09, -5.311449058353901e-09, -4.5693013817071915e-09, -3.827153705060482e-09, -3.0850060284137726e-09, -2.342858351767063e-09, -1.6007106751203537e-09, -8.585629984736443e-10, -1.1641532182693481e-10, 6.257323548197746e-10, 1.367880031466484e-09, 2.1100277081131935e-09, 2.852175384759903e-09, 3.5943230614066124e-09, 4.336470738053322e-09, 5.078618414700031e-09, 5.820766091346741e-09, 6.56291376799345e-09, 7.30506144464016e-09, 8.047209121286869e-09, 8.789356797933578e-09, 9.531504474580288e-09, 1.0273652151226997e-08, 1.1015799827873707e-08, 1.1757947504520416e-08, 1.2500095181167126e-08, 1.3242242857813835e-08, 1.3984390534460545e-08, 1.4726538211107254e-08, 1.5468685887753963e-08, 1.6210833564400673e-08, 1.6952981241047382e-08, 1.7695128917694092e-08]}, "gradients/graph_1decoder.conv2.bn.weight": {"_type": "histogram", "values": [1.0, 0.0, 0.0, 1.0, 3.0, 0.0, 1.0, 1.0, 0.0, 0.0, 0.0, 5.0, 2.0, 0.0, 4.0, 0.0, 1.0, 1.0, 2.0, 2.0, 2.0, 1.0, 5.0, 3.0, 3.0, 3.0, 1.0, 6.0, 1.0, 3.0, 1.0, 1.0, 2.0, 0.0, 0.0, 0.0, 1.0, 1.0, 1.0, 0.0, 1.0, 1.0, 0.0, 0.0, 1.0, 1.0, 0.0, 0.0, 0.0, 0.0, 0.0, 0.0, 0.0, 0.0, 0.0, 0.0, 0.0, 0.0, 0.0, 0.0, 0.0, 0.0, 0.0, 1.0], "bins": [-0.10051282495260239, -0.09610103070735931, -0.09168922901153564, -0.08727743476629257, -0.0828656405210495, -0.07845384627580643, -0.07404205203056335, -0.06963025033473969, -0.06521845608949661, -0.06080666184425354, -0.05639486387372017, -0.0519830659031868, -0.047571271657943726, -0.04315947741270065, -0.03874767944216728, -0.03433588147163391, -0.02992408722639084, -0.025512292981147766, -0.021100498735904694, -0.016688697040081024, -0.012276902794837952, -0.00786510854959488, -0.0034533068537712097, 0.0009584873914718628, 0.005370281636714935, 0.009782075881958008, 0.01419387012720108, 0.01860567182302475, 0.023017466068267822, 0.027429260313510895, 0.031841062009334564, 0.03625284880399704, 0.040664657950401306, 0.045076459646224976, 0.04948824644088745, 0.05390004813671112, 0.05831184238195419, 0.06272363662719727, 0.06713543832302094, 0.07154723256826401, 0.07595902681350708, 0.08037082105875015, 0.08478261530399323, 0.0891944169998169, 0.09360621124505997, 0.09801800549030304, 0.10242980718612671, 0.10684160143136978, 0.11125339567661285, 0.11566518992185593, 0.120076984167099, 0.12448878586292267, 0.12890058755874634, 0.1333123743534088, 0.13772417604923248, 0.14213597774505615, 0.14654776453971863, 0.1509595662355423, 0.15537135303020477, 0.15978315472602844, 0.16419494152069092, 0.1686067432165146, 0.17301854491233826, 0.17743033170700073, 0.1818421334028244]}, "gradients/graph_1decoder.conv2.bn.bias": {"_type": "histogram", "values": [2.0, 1.0, 0.0, 0.0, 1.0, 0.0, 0.0, 1.0, 3.0, 3.0, 1.0, 0.0, 0.0, 2.0, 3.0, 0.0, 0.0, 3.0, 1.0, 2.0, 5.0, 1.0, 1.0, 2.0, 1.0, 1.0, 1.0, 0.0, 4.0, 3.0, 1.0, 3.0, 4.0, 2.0, 1.0, 1.0, 2.0, 1.0, 0.0, 2.0, 0.0, 0.0, 2.0, 1.0, 0.0, 0.0, 1.0, 0.0, 0.0, 0.0, 0.0, 0.0, 0.0, 0.0, 0.0, 0.0, 0.0, 0.0, 0.0, 0.0, 0.0, 0.0, 0.0, 1.0], "bins": [-0.026500733569264412, -0.025462111458182335, -0.02442348748445511, -0.02338486537337303, -0.022346243262290955, -0.021307621151208878, -0.02026899717748165, -0.019230375066399574, -0.018191751092672348, -0.01715312898159027, -0.016114506870508194, -0.015075883828103542, -0.01403726078569889, -0.012998638674616814, -0.011960015632212162, -0.010921393521130085, -0.009882770478725433, -0.008844148367643356, -0.00780552439391613, -0.006766902282834053, -0.005728280171751976, -0.00468965619802475, -0.0036510340869426727, -0.0026124119758605957, -0.0015737880021333694, -0.0005351658910512924, 0.0005034562200307846, 0.0015420783311128616, 0.002580702304840088, 0.003619324415922165, 0.004657946527004242, 0.005696570500731468, 0.0067351944744586945, 0.0077738165855407715, 0.008812440559267998, 0.009851062670350075, 0.010889684781432152, 0.011928308755159378, 0.012966930866241455, 0.014005552977323532, 0.015044175088405609, 0.016082799062132835, 0.017121421173214912, 0.01816004328429699, 0.019198667258024216, 0.020237289369106293, 0.02127591148018837, 0.022314535453915596, 0.023353157564997673, 0.0243917815387249, 0.025430403649806976, 0.026469025760889053, 0.02750764787197113, 0.028546269983053207, 0.029584893956780434, 0.03062351606786251, 0.03166214004158974, 0.032700762152671814, 0.03373938426375389, 0.03477800637483597, 0.035816628485918045, 0.03685525059700012, 0.0378938764333725, 0.038932498544454575, 0.03997112065553665]}, "gradients/graph_1decoder.conv2.conv.weight": {"_type": "histogram", "values": [1.0, 3.0, 3.0, 7.0, 3.0, 13.0, 7.0, 14.0, 11.0, 12.0, 19.0, 12.0, 14.0, 24.0, 35.0, 41.0, 72.0, 80.0, 106.0, 130.0, 163.0, 241.0, 241.0, 338.0, 435.0, 570.0, 757.0, 1021.0, 1223.0, 1729.0, 2370.0, 3509.0, 6186.0, 19700.0, 61662.0, 13550.0, 5595.0, 3265.0, 2234.0, 1542.0, 1173.0, 779.0, 526.0, 408.0, 298.0, 231.0, 179.0, 131.0, 90.0, 68.0, 56.0, 49.0, 26.0, 27.0, 25.0, 10.0, 8.0, 10.0, 7.0, 10.0, 6.0, 7.0, 4.0, 6.0], "bins": [-0.17848961055278778, -0.1732897162437439, -0.1680898368358612, -0.16288994252681732, -0.15769004821777344, -0.15249015390872955, -0.14729025959968567, -0.14209038019180298, -0.1368904858827591, -0.1316905915737152, -0.12649071216583252, -0.12129081785678864, -0.11609092354774475, -0.11089102923870087, -0.10569114238023758, -0.10049125552177429, -0.09529136121273041, -0.09009146690368652, -0.08489158004522324, -0.07969169318675995, -0.07449179887771606, -0.06929190456867218, -0.06409201771020889, -0.058892130851745605, -0.05369223654270172, -0.04849234223365784, -0.04329244792461395, -0.03809256851673126, -0.03289267420768738, -0.027692779898643494, -0.022492900490760803, -0.01729300618171692, -0.01209309697151184, -0.0068932026624679565, -0.0016933083534240723, 0.003506571054458618, 0.008706465363502502, 0.013906359672546387, 0.019106239080429077, 0.02430613338947296, 0.029506027698516846, 0.03470592200756073, 0.03990580886602402, 0.045105695724487305, 0.05030559003353119, 0.05550548434257507, 0.06070537120103836, 0.06590525805950165, 0.07110515236854553, 0.07630504667758942, 0.0815049335360527, 0.08670482039451599, 0.09190471470355988, 0.09710460901260376, 0.10230449587106705, 0.10750438272953033, 0.11270427703857422, 0.1179041713476181, 0.12310405820608139, 0.12830394506454468, 0.13350383937358856, 0.13870373368263245, 0.14390361309051514, 0.14910350739955902, 0.1543034017086029]}, "gradients/graph_1decoder.conv2.conv.bias": {"_type": "histogram", "values": [1.0, 2.0, 0.0, 0.0, 0.0, 0.0, 1.0, 0.0, 0.0, 1.0, 2.0, 0.0, 1.0, 2.0, 0.0, 1.0, 0.0, 2.0, 1.0, 1.0, 1.0, 0.0, 0.0, 3.0, 0.0, 0.0, 2.0, 1.0, 6.0, 3.0, 3.0, 2.0, 4.0, 0.0, 0.0, 3.0, 1.0, 0.0, 0.0, 2.0, 0.0, 6.0, 0.0, 3.0, 0.0, 0.0, 1.0, 0.0, 4.0, 1.0, 1.0, 0.0, 1.0, 0.0, 0.0, 0.0, 0.0, 0.0, 0.0, 0.0, 0.0, 0.0, 0.0, 1.0], "bins": [-1.3737007975578308e-08, -1.3318640412762761e-08, -1.2900272849947214e-08, -1.2481905287131667e-08, -1.206353772431612e-08, -1.1645170161500573e-08, -1.1226802598685026e-08, -1.080843503586948e-08, -1.0390067473053932e-08, -9.971699910238385e-09, -9.553332347422838e-09, -9.134964784607291e-09, -8.716597221791744e-09, -8.298229658976197e-09, -7.87986209616065e-09, -7.461494533345103e-09, -7.043126970529556e-09, -6.624759407714009e-09, -6.206391844898462e-09, -5.788024282082915e-09, -5.369656719267368e-09, -4.951289156451821e-09, -4.532921593636274e-09, -4.114554030820727e-09, -3.6961864680051804e-09, -3.2778189051896334e-09, -2.8594513423740864e-09, -2.4410837795585394e-09, -2.0227162167429924e-09, -1.6043486539274454e-09, -1.1859810911118984e-09, -7.676135282963514e-10, -3.4924596548080444e-10, 6.912159733474255e-11, 4.874891601502895e-10, 9.058567229658365e-10, 1.3242242857813835e-09, 1.7425918485969305e-09, 2.1609594114124775e-09, 2.5793269742280245e-09, 2.9976945370435715e-09, 3.4160620998591185e-09, 3.8344296626746655e-09, 4.2527972254902124e-09, 4.6711647883057594e-09, 5.0895323511213064e-09, 5.507899913936853e-09, 5.9262674767524e-09, 6.344635039567947e-09, 6.763002602383494e-09, 7.181370165199041e-09, 7.599737728014588e-09, 8.018105290830135e-09, 8.436472853645682e-09, 8.85484041646123e-09, 9.273207979276776e-09, 9.691575542092323e-09, 1.010994310490787e-08, 1.0528310667723417e-08, 1.0946678230538964e-08, 1.1365045793354511e-08, 1.1783413356170058e-08, 1.2201780918985605e-08, 1.2620148481801152e-08, 1.30385160446167e-08]}, "gradients/graph_1decoder.conv1.bn.weight": {"_type": "histogram", "values": [1.0, 0.0, 2.0, 0.0, 1.0, 0.0, 1.0, 2.0, 3.0, 0.0, 0.0, 0.0, 5.0, 2.0, 9.0, 0.0, 5.0, 5.0, 3.0, 6.0, 11.0, 4.0, 4.0, 9.0, 5.0, 4.0, 4.0, 2.0, 1.0, 4.0, 2.0, 2.0, 2.0, 0.0, 5.0, 1.0, 1.0, 3.0, 4.0, 1.0, 2.0, 1.0, 0.0, 1.0, 1.0, 2.0, 1.0, 1.0, 0.0, 0.0, 0.0, 1.0, 0.0, 0.0, 1.0, 0.0, 0.0, 0.0, 0.0, 1.0, 1.0, 0.0, 0.0, 1.0], "bins": [-0.047041427344083786, -0.04515425115823746, -0.04326707497239113, -0.0413798987865448, -0.03949272260069847, -0.03760554641485214, -0.03571837395429611, -0.033831194043159485, -0.031944021582603455, -0.030056843534111977, -0.028169667348265648, -0.02628249116241932, -0.02439531683921814, -0.02250814065337181, -0.020620964467525482, -0.018733788281679153, -0.016846612095832825, -0.014959435909986496, -0.013072259724140167, -0.011185083538293839, -0.00929790735244751, -0.007410731166601181, -0.005523554980754852, -0.0036363787949085236, -0.0017492063343524933, 0.00013796985149383545, 0.002025146037340164, 0.003912322223186493, 0.005799498409032822, 0.00768667459487915, 0.009573850780725479, 0.011461026966571808, 0.013348199427127838, 0.015235375612974167, 0.017122551798820496, 0.019009727984666824, 0.020896904170513153, 0.022784080356359482, 0.02467125654220581, 0.02655843272805214, 0.028445608913898468, 0.0303327813744545, 0.03221995756030083, 0.034107133746147156, 0.035994309931993484, 0.03788148611783981, 0.03976866230368614, 0.04165583848953247, 0.0435430146753788, 0.04543019086122513, 0.04731736704707146, 0.049204543232917786, 0.051091719418764114, 0.05297889560461044, 0.05486606806516647, 0.0567532479763031, 0.05864042043685913, 0.06052760034799576, 0.06241477280855179, 0.06430195271968842, 0.06618912518024445, 0.06807630509138107, 0.0699634775519371, 0.07185065746307373, 0.07373782992362976]}, "gradients/graph_1decoder.conv1.bn.bias": {"_type": "histogram", "values": [1.0, 1.0, 0.0, 0.0, 0.0, 1.0, 0.0, 0.0, 0.0, 0.0, 1.0, 2.0, 0.0, 2.0, 1.0, 4.0, 5.0, 2.0, 4.0, 5.0, 2.0, 6.0, 6.0, 8.0, 5.0, 4.0, 5.0, 4.0, 1.0, 3.0, 3.0, 4.0, 5.0, 5.0, 1.0, 3.0, 4.0, 3.0, 3.0, 1.0, 2.0, 3.0, 2.0, 3.0, 0.0, 1.0, 2.0, 1.0, 1.0, 2.0, 0.0, 0.0, 0.0, 1.0, 1.0, 2.0, 0.0, 0.0, 0.0, 1.0, 0.0, 0.0, 0.0, 1.0], "bins": [-0.02202638052403927, -0.021299298852682114, -0.02057221531867981, -0.019845131784677505, -0.01911805011332035, -0.018390968441963196, -0.01766388490796089, -0.016936801373958588, -0.016209719702601433, -0.015482637099921703, -0.014755554497241974, -0.014028471894562244, -0.013301389291882515, -0.012574306689202785, -0.011847224086523056, -0.011120141483843327, -0.010393058881163597, -0.009665976278483868, -0.008938893675804138, -0.008211811073124409, -0.007484728470444679, -0.00675764586776495, -0.00603056326508522, -0.0053034815937280655, -0.004576398059725761, -0.0038493145257234573, -0.0031222328543663025, -0.0023951511830091476, -0.0016680676490068436, -0.0009409841150045395, -0.00021390244364738464, 0.0005131792277097702, 0.0012402627617120743, 0.0019673462957143784, 0.002694427967071533, 0.003421509638428688, 0.004148593172430992, 0.004875676706433296, 0.005602758377790451, 0.006329840049147606, 0.00705692358314991, 0.007784007117152214, 0.008511088788509369, 0.009238171391189098, 0.009965253993868828, 0.010692336596548557, 0.011419419199228287, 0.012146501801908016, 0.012873584404587746, 0.013600667007267475, 0.014327749609947205, 0.015054832212626934, 0.015781914815306664, 0.01650899648666382, 0.017236080020666122, 0.017963163554668427, 0.01869024522602558, 0.019417326897382736, 0.02014441043138504, 0.020871493965387344, 0.0215985756367445, 0.022325657308101654, 0.023052740842103958, 0.023779824376106262, 0.024506906047463417]}, "gradients/graph_1decoder.conv1.conv.weight": {"_type": "histogram", "values": [1.0, 3.0, 1.0, 2.0, 2.0, 2.0, 8.0, 8.0, 11.0, 18.0, 22.0, 31.0, 39.0, 52.0, 83.0, 97.0, 150.0, 179.0, 271.0, 349.0, 503.0, 761.0, 1059.0, 1500.0, 2323.0, 3571.0, 5798.0, 10117.0, 21119.0, 90949.0, 2130307.0, 50114.0, 16661.0, 8581.0, 5035.0, 2990.0, 1970.0, 1367.0, 916.0, 602.0, 453.0, 333.0, 254.0, 189.0, 132.0, 88.0, 62.0, 55.0, 42.0, 33.0, 21.0, 22.0, 8.0, 11.0, 5.0, 4.0, 4.0, 2.0, 2.0, 1.0, 0.0, 2.0, 0.0, 1.0], "bins": [-0.04877053201198578, -0.0471639521420002, -0.04555736854672432, -0.04395078867673874, -0.04234420508146286, -0.04073762521147728, -0.0391310453414917, -0.03752446174621582, -0.03591787815093994, -0.03431129828095436, -0.03270471841096878, -0.0310981348156929, -0.02949155494570732, -0.02788497321307659, -0.026278391480445862, -0.024671809747815132, -0.023065228015184402, -0.021458646282553673, -0.019852064549922943, -0.018245482817292213, -0.016638901084661484, -0.015032321214675903, -0.013425737619400024, -0.011819157749414444, -0.010212577879428864, -0.008605994284152985, -0.006999414414167404, -0.005392830818891525, -0.003786250948905945, -0.002179667353630066, -0.0005730874836444855, 0.0010334961116313934, 0.0026400722563266754, 0.004246652126312256, 0.005853235721588135, 0.007459815591573715, 0.009066399186849594, 0.010672979056835175, 0.012279562652111053, 0.013886142522096634, 0.015492726117372513, 0.017099305987358093, 0.018705885857343674, 0.020312469452619553, 0.021919049322605133, 0.023525631055235863, 0.025132212787866592, 0.026738794520497322, 0.028345376253128052, 0.02995195798575878, 0.03155853971838951, 0.03316511958837509, 0.03477170318365097, 0.03637828305363655, 0.03798486292362213, 0.03959144651889801, 0.04119803011417389, 0.04280460998415947, 0.04441118985414505, 0.04601777344942093, 0.04762435331940651, 0.04923093691468239, 0.05083751678466797, 0.05244410037994385, 0.05405068024992943]}, "gradients/graph_1decoder.conv1.conv.bias": {"_type": "histogram", "values": [1.0, 4.0, 1.0, 1.0, 0.0, 1.0, 1.0, 2.0, 0.0, 1.0, 1.0, 1.0, 1.0, 3.0, 5.0, 3.0, 1.0, 7.0, 7.0, 8.0, 2.0, 11.0, 4.0, 6.0, 4.0, 10.0, 6.0, 3.0, 4.0, 3.0, 3.0, 3.0, 3.0, 2.0, 2.0, 0.0, 2.0, 2.0, 0.0, 0.0, 0.0, 0.0, 3.0, 0.0, 1.0, 0.0, 0.0, 0.0, 0.0, 0.0, 1.0, 0.0, 0.0, 1.0, 0.0, 0.0, 1.0, 0.0, 0.0, 0.0, 1.0, 0.0, 0.0, 1.0], "bins": [-2.2584572434425354e-08, -2.153319655917585e-08, -2.0481820683926344e-08, -1.943044480867684e-08, -1.8379068933427334e-08, -1.732769305817783e-08, -1.6276317182928324e-08, -1.522494130767882e-08, -1.4173565432429314e-08, -1.3122189557179809e-08, -1.2070813681930304e-08, -1.1019437806680799e-08, -9.968061931431293e-09, -8.916686056181788e-09, -7.865310180932283e-09, -6.813934305682778e-09, -5.762558430433273e-09, -4.711182555183768e-09, -3.6598066799342632e-09, -2.608430804684758e-09, -1.5570549294352531e-09, -5.056790541857481e-10, 5.456968210637569e-10, 1.597072696313262e-09, 2.648448571562767e-09, 3.699824446812272e-09, 4.751200322061777e-09, 5.802576197311282e-09, 6.853952072560787e-09, 7.905327947810292e-09, 8.956703823059797e-09, 1.0008079698309302e-08, 1.1059455573558807e-08, 1.2110831448808312e-08, 1.3162207324057817e-08, 1.4213583199307323e-08, 1.5264959074556828e-08, 1.6316334949806333e-08, 1.7367710825055838e-08, 1.8419086700305343e-08, 1.9470462575554848e-08, 2.0521838450804353e-08, 2.1573214326053858e-08, 2.2624590201303363e-08, 2.3675966076552868e-08, 2.4727341951802373e-08, 2.5778717827051878e-08, 2.6830093702301383e-08, 2.7881469577550888e-08, 2.8932845452800393e-08, 2.99842213280499e-08, 3.10355972032994e-08, 3.208697307854891e-08, 3.313834895379841e-08, 3.418972482904792e-08, 3.5241100704297423e-08, 3.629247657954693e-08, 3.7343852454796433e-08, 3.839522833004594e-08, 3.9446604205295444e-08, 4.049798008054495e-08, 4.1549355955794454e-08, 4.260073183104396e-08, 4.3652107706293464e-08, 4.470348358154297e-08]}, "gradients/graph_1lstm.bias_hh_l1": {"_type": "histogram", "values": [1.0, 1.0, 0.0, 0.0, 1.0, 1.0, 1.0, 2.0, 1.0, 8.0, 4.0, 6.0, 9.0, 4.0, 8.0, 12.0, 16.0, 14.0, 16.0, 16.0, 23.0, 21.0, 11.0, 20.0, 32.0, 25.0, 152.0, 1409.0, 25.0, 23.0, 24.0, 16.0, 14.0, 23.0, 15.0, 12.0, 8.0, 9.0, 10.0, 6.0, 6.0, 9.0, 6.0, 4.0, 7.0, 0.0, 2.0, 2.0, 1.0, 5.0, 4.0, 2.0, 0.0, 0.0, 0.0, 0.0, 0.0, 0.0, 0.0, 0.0, 0.0, 0.0, 0.0, 1.0], "bins": [-0.012226773425936699, -0.01177839282900095, -0.0113300122320652, -0.010881631635129452, -0.010433251038193703, -0.009984869509935379, -0.00953648891299963, -0.009088108316063881, -0.008639727719128132, -0.008191347122192383, -0.007742966525256634, -0.007294585462659597, -0.006846204865723848, -0.006397824268788099, -0.005949443206191063, -0.005501062609255314, -0.005052682012319565, -0.004604301415383816, -0.004155920818448067, -0.0037075402215123177, -0.0032591596245765686, -0.002810778096318245, -0.002362397499382496, -0.0019140169024467468, -0.0014656363055109978, -0.0010172557085752487, -0.0005688751116394997, -0.00012049451470375061, 0.00032788701355457306, 0.0007762676104903221, 0.0012246482074260712, 0.0016730288043618202, 0.0021214094012975693, 0.0025697899982333183, 0.0030181705951690674, 0.0034665511921048164, 0.0039149317890405655, 0.004363313317298889, 0.004811693914234638, 0.005260074511170387, 0.005708455108106136, 0.006156835705041885, 0.006605216301977634, 0.0070535968989133835, 0.007501978427171707, 0.007950359024107456, 0.008398739621043205, 0.008847120217978954, 0.009295500814914703, 0.009743881411850452, 0.010192262008786201, 0.010640643537044525, 0.0110890232026577, 0.011537404730916023, 0.011985785327851772, 0.012434165924787521, 0.01288254652172327, 0.01333092711865902, 0.013779307715594769, 0.014227688312530518, 0.014676069840788841, 0.01512445043772459, 0.01557283103466034, 0.016021210700273514, 0.016469592228531837]}, "gradients/graph_1lstm.weight_hh_l1": {"_type": "histogram", "values": [1.0, 0.0, 0.0, 0.0, 0.0, 1.0, 0.0, 0.0, 1.0, 2.0, 1.0, 1.0, 7.0, 11.0, 14.0, 20.0, 18.0, 42.0, 54.0, 75.0, 119.0, 220.0, 328.0, 454.0, 656.0, 1114.0, 1786.0, 2792.0, 4636.0, 7766.0, 14404.0, 29710.0, 870391.0, 63850.0, 22256.0, 11349.0, 6245.0, 3823.0, 2278.0, 1480.0, 933.0, 564.0, 379.0, 264.0, 152.0, 99.0, 74.0, 60.0, 49.0, 34.0, 32.0, 9.0, 7.0, 0.0, 1.0, 1.0, 3.0, 0.0, 2.0, 3.0, 1.0, 2.0, 1.0, 1.0], "bins": [-0.0009480629814788699, -0.0009191739372909069, -0.0008902848931029439, -0.0008613959071226418, -0.0008325068629346788, -0.0008036178187467158, -0.0007747288327664137, -0.0007458397885784507, -0.0007169507443904877, -0.0006880617002025247, -0.0006591726560145617, -0.0006302836700342596, -0.0006013946258462965, -0.0005725055816583335, -0.0005436165956780314, -0.0005147275514900684, -0.0004858385073021054, -0.0004569494631141424, -0.0004280604189261794, -0.0003991714329458773, -0.0003702823887579143, -0.0003413933445699513, -0.0003125043585896492, -0.0002836153144016862, -0.0002547262702137232, -0.00022583722602576017, -0.00019694818183779716, -0.00016805919585749507, -0.00013917015166953206, -0.00011028110748156905, -8.139212150126696e-05, -5.250307731330395e-05, -2.3614091333001852e-05, 5.274952854961157e-06, 3.4163997042924166e-05, 6.305298302322626e-05, 9.194202721118927e-05, 0.00012083107139915228, 0.00014972005737945437, 0.00017860910156741738, 0.0002074981457553804, 0.0002363871899433434, 0.0002652762341313064, 0.0002941652201116085, 0.0003230542642995715, 0.0003519433084875345, 0.0003808322944678366, 0.00040972133865579963, 0.00043861038284376264, 0.00046749942703172565, 0.0004963884130120277, 0.0005252774571999907, 0.0005541665013879538, 0.0005830555455759168, 0.0006119445897638798, 0.0006408335757441819, 0.0006697226199321449, 0.0006986116641201079, 0.00072750065010041, 0.000756389694288373, 0.000785278738476336, 0.000814167782664299, 0.000843056826852262, 0.0008719458128325641, 0.0009008348570205271]}, "gradients/graph_1lstm.bias_ih_l1": {"_type": "histogram", "values": [1.0, 1.0, 0.0, 0.0, 1.0, 1.0, 1.0, 2.0, 1.0, 8.0, 4.0, 6.0, 9.0, 4.0, 8.0, 12.0, 16.0, 14.0, 16.0, 16.0, 23.0, 21.0, 11.0, 20.0, 32.0, 25.0, 152.0, 1409.0, 25.0, 23.0, 24.0, 16.0, 14.0, 23.0, 15.0, 12.0, 8.0, 9.0, 10.0, 6.0, 6.0, 9.0, 6.0, 4.0, 7.0, 0.0, 2.0, 2.0, 1.0, 5.0, 4.0, 2.0, 0.0, 0.0, 0.0, 0.0, 0.0, 0.0, 0.0, 0.0, 0.0, 0.0, 0.0, 1.0], "bins": [-0.012226773425936699, -0.01177839282900095, -0.0113300122320652, -0.010881631635129452, -0.010433251038193703, -0.009984869509935379, -0.00953648891299963, -0.009088108316063881, -0.008639727719128132, -0.008191347122192383, -0.007742966525256634, -0.007294585462659597, -0.006846204865723848, -0.006397824268788099, -0.005949443206191063, -0.005501062609255314, -0.005052682012319565, -0.004604301415383816, -0.004155920818448067, -0.0037075402215123177, -0.0032591596245765686, -0.002810778096318245, -0.002362397499382496, -0.0019140169024467468, -0.0014656363055109978, -0.0010172557085752487, -0.0005688751116394997, -0.00012049451470375061, 0.00032788701355457306, 0.0007762676104903221, 0.0012246482074260712, 0.0016730288043618202, 0.0021214094012975693, 0.0025697899982333183, 0.0030181705951690674, 0.0034665511921048164, 0.0039149317890405655, 0.004363313317298889, 0.004811693914234638, 0.005260074511170387, 0.005708455108106136, 0.006156835705041885, 0.006605216301977634, 0.0070535968989133835, 0.007501978427171707, 0.007950359024107456, 0.008398739621043205, 0.008847120217978954, 0.009295500814914703, 0.009743881411850452, 0.010192262008786201, 0.010640643537044525, 0.0110890232026577, 0.011537404730916023, 0.011985785327851772, 0.012434165924787521, 0.01288254652172327, 0.01333092711865902, 0.013779307715594769, 0.014227688312530518, 0.014676069840788841, 0.01512445043772459, 0.01557283103466034, 0.016021210700273514, 0.016469592228531837]}, "gradients/graph_1lstm.weight_ih_l1": {"_type": "histogram", "values": [2.0, 0.0, 0.0, 1.0, 1.0, 1.0, 4.0, 0.0, 2.0, 4.0, 6.0, 13.0, 22.0, 23.0, 37.0, 54.0, 89.0, 118.0, 175.0, 263.0, 376.0, 536.0, 896.0, 1292.0, 1990.0, 3177.0, 5166.0, 8448.0, 14831.0, 27563.0, 836502.0, 89150.0, 24237.0, 13067.0, 7557.0, 4575.0, 2847.0, 1865.0, 1166.0, 815.0, 529.0, 369.0, 243.0, 176.0, 125.0, 83.0, 52.0, 41.0, 25.0, 21.0, 12.0, 8.0, 5.0, 5.0, 3.0, 0.0, 1.0, 3.0, 0.0, 2.0, 0.0, 1.0, 0.0, 1.0], "bins": [-0.00300015602260828, -0.002903102431446314, -0.002806049073114991, -0.002708995481953025, -0.002611942123621702, -0.002514888532459736, -0.0024178349412977695, -0.0023207813501358032, -0.0022237279918044806, -0.002126674633473158, -0.0020296210423111916, -0.0019325674511492252, -0.0018355139764025807, -0.0017384605016559362, -0.00164140691049397, -0.0015443534357473254, -0.001447299961000681, -0.0013502464862540364, -0.001253193011507392, -0.0011561394203454256, -0.0010590859455987811, -0.0009620324708521366, -0.0008649788796901703, -0.0007679255213588476, -0.0006708719301968813, -0.000573818339034915, -0.0004767649807035923, -0.000379711389541626, -0.00028265779837965965, -0.00018560444004833698, -8.855084888637066e-05, 8.502509444952011e-06, 0.00010555633343756199, 0.0002026099245995283, 0.000299663282930851, 0.0003967168740928173, 0.00049377023242414, 0.0005908238235861063, 0.0006878774147480726, 0.0007849307730793953, 0.0008819843642413616, 0.000979037955403328, 0.0010760913137346506, 0.001173144904896617, 0.0012701983796432614, 0.001367251854389906, 0.0014643054455518723, 0.0015613589202985168, 0.0016584123950451612, 0.0017554658697918057, 0.0018525193445384502, 0.0019495729357004166, 0.002046626526862383, 0.0021436798851937056, 0.002240733476355672, 0.0023377868346869946, 0.002434840425848961, 0.002531894017010927, 0.00262894737534225, 0.002726000966504216, 0.002823054324835539, 0.002920107915997505, 0.0030171615071594715, 0.003114214865490794, 0.0032112684566527605]}, "gradients/graph_1lstm.bias_hh_l0": {"_type": "histogram", "values": [1.0, 0.0, 0.0, 0.0, 0.0, 0.0, 0.0, 1.0, 0.0, 1.0, 1.0, 1.0, 1.0, 0.0, 1.0, 2.0, 2.0, 6.0, 5.0, 4.0, 11.0, 15.0, 14.0, 10.0, 17.0, 34.0, 39.0, 36.0, 32.0, 152.0, 1377.0, 95.0, 27.0, 27.0, 20.0, 15.0, 16.0, 23.0, 15.0, 5.0, 7.0, 5.0, 5.0, 3.0, 5.0, 4.0, 4.0, 1.0, 1.0, 1.0, 1.0, 1.0, 0.0, 1.0, 1.0, 0.0, 0.0, 0.0, 1.0, 0.0, 0.0, 0.0, 0.0, 1.0], "bins": [-0.024912629276514053, -0.02409125305712223, -0.023269876837730408, -0.022448502480983734, -0.02162712626159191, -0.02080575004220009, -0.019984373822808266, -0.019162997603416443, -0.01834162138402462, -0.017520245164632797, -0.016698870807886124, -0.01587749272584915, -0.015056118369102478, -0.014234742149710655, -0.013413365930318832, -0.012591990642249584, -0.011770614422857761, -0.010949238203465939, -0.01012786291539669, -0.009306486696004868, -0.008485110476613045, -0.007663734257221222, -0.006842358037829399, -0.0060209836810827255, -0.005199607461690903, -0.00437823124229908, -0.003556855022907257, -0.0027354788035154343, -0.0019141025841236115, -0.0010927282273769379, -0.00027135200798511505, 0.0005500242114067078, 0.0013714004307985306, 0.0021927766501903534, 0.003014152869582176, 0.003835529088973999, 0.004656903445720673, 0.005478279665112495, 0.006299655884504318, 0.007121032103896141, 0.007942408323287964, 0.008763784542679787, 0.00958515889942646, 0.010406535118818283, 0.011227911338210106, 0.012049287557601929, 0.012870663776993752, 0.013692039065063, 0.014513415284454823, 0.015334791503846645, 0.016156166791915894, 0.016977543011307716, 0.01779891923069954, 0.018620293587446213, 0.019441671669483185, 0.02026304602622986, 0.02108442224562168, 0.021905798465013504, 0.022727174684405327, 0.02354855090379715, 0.024369927123188972, 0.025191303342580795, 0.02601267769932747, 0.02683405391871929, 0.027655430138111115]}, "gradients/graph_1lstm.weight_hh_l0": {"_type": "histogram", "values": [2.0, 1.0, 1.0, 0.0, 1.0, 4.0, 6.0, 4.0, 10.0, 5.0, 10.0, 16.0, 17.0, 17.0, 33.0, 47.0, 53.0, 77.0, 104.0, 150.0, 225.0, 281.0, 418.0, 663.0, 903.0, 1415.0, 2130.0, 3396.0, 5629.0, 9592.0, 17813.0, 39450.0, 871785.0, 48267.0, 19080.0, 10317.0, 5946.0, 3577.0, 2299.0, 1483.0, 996.0, 673.0, 453.0, 353.0, 219.0, 175.0, 118.0, 92.0, 71.0, 41.0, 32.0, 28.0, 27.0, 18.0, 12.0, 6.0, 6.0, 13.0, 3.0, 2.0, 1.0, 3.0, 4.0, 3.0], "bins": [-0.0026185051538050175, -0.0025381126906722784, -0.002457720460370183, -0.002377327997237444, -0.0022969357669353485, -0.0022165433038026094, -0.0021361508406698704, -0.002055758610367775, -0.001975366147235036, -0.0018949739169329405, -0.0018145814538002014, -0.0017341891070827842, -0.001653796760365367, -0.0015734044136479497, -0.0014930119505152106, -0.0014126196037977934, -0.0013322272570803761, -0.001251834910362959, -0.0011714425636455417, -0.0010910501005128026, -0.0010106577537953854, -0.0009302654070779681, -0.0008498730603605509, -0.0007694807136431336, -0.0006890883669257164, -0.0006086959037929773, -0.0005283036734908819, -0.00044791121035814285, -0.0003675187472254038, -0.00028712651692330837, -0.0002067340537905693, -0.0001263418234884739, -4.5949360355734825e-05, 3.444310277700424e-05, 0.00011483533307909966, 0.00019522779621183872, 0.00027562002651393414, 0.0003560124896466732, 0.00043640495277941227, 0.0005167971830815077, 0.0005971896462142467, 0.000677581992931664, 0.0007579743396490812, 0.0008383666863664985, 0.0009187590330839157, 0.000999151379801333, 0.001079543842934072, 0.0011599361896514893, 0.0012403285363689065, 0.0013207208830863237, 0.001401113229803741, 0.00148150569293648, 0.0015618980396538973, 0.0016422903863713145, 0.0017226827330887318, 0.0018030751962214708, 0.0018834674265235662, 0.0019638598896563053, 0.0020442521199584007, 0.00212464458309114, 0.002205037046223879, 0.0022854292765259743, 0.0023658217396587133, 0.0024462139699608088, 0.002526606433093548]}, "gradients/graph_1lstm.bias_ih_l0": {"_type": "histogram", "values": [1.0, 0.0, 0.0, 0.0, 0.0, 0.0, 0.0, 1.0, 0.0, 1.0, 1.0, 1.0, 1.0, 0.0, 1.0, 2.0, 2.0, 6.0, 5.0, 4.0, 11.0, 15.0, 14.0, 10.0, 17.0, 34.0, 39.0, 36.0, 32.0, 152.0, 1377.0, 95.0, 27.0, 27.0, 20.0, 15.0, 16.0, 23.0, 15.0, 5.0, 7.0, 5.0, 5.0, 3.0, 5.0, 4.0, 4.0, 1.0, 1.0, 1.0, 1.0, 1.0, 0.0, 1.0, 1.0, 0.0, 0.0, 0.0, 1.0, 0.0, 0.0, 0.0, 0.0, 1.0], "bins": [-0.024912627413868904, -0.02409125119447708, -0.02326987497508526, -0.022448498755693436, -0.021627124398946762, -0.02080574817955494, -0.019984371960163116, -0.019162995740771294, -0.01834161952137947, -0.017520245164632797, -0.016698867082595825, -0.01587749272584915, -0.015056116506457329, -0.014234740287065506, -0.013413364067673683, -0.012591988779604435, -0.011770612560212612, -0.01094923634082079, -0.010127861052751541, -0.009306484833359718, -0.008485108613967896, -0.007663732394576073, -0.00684235617518425, -0.006020981818437576, -0.0051996055990457535, -0.004378229379653931, -0.003556853160262108, -0.002735476940870285, -0.0019141007214784622, -0.0010927263647317886, -0.0002713501453399658, 0.000550026074051857, 0.0013714022934436798, 0.0021927785128355026, 0.0030141547322273254, 0.0038355309516191483, 0.004656905308365822, 0.005478281527757645, 0.0062996577471494675, 0.00712103396654129, 0.007942410185933113, 0.008763786405324936, 0.00958516076207161, 0.010406536981463432, 0.011227913200855255, 0.012049289420247078, 0.0128706656396389, 0.013692040927708149, 0.014513417147099972, 0.015334793366491795, 0.016156168654561043, 0.016977544873952866, 0.01779892109334469, 0.01862029731273651, 0.019441671669483185, 0.020263049751520157, 0.02108442410826683, 0.021905800327658653, 0.022727176547050476, 0.0235485527664423, 0.02436992898583412, 0.025191303342580795, 0.026012679561972618, 0.02683405578136444, 0.027655432000756264]}, "gradients/graph_1lstm.weight_ih_l0": {"_type": "histogram", "values": [1.0, 0.0, 1.0, 0.0, 1.0, 4.0, 1.0, 3.0, 1.0, 6.0, 5.0, 8.0, 13.0, 13.0, 15.0, 19.0, 32.0, 41.0, 78.0, 100.0, 115.0, 187.0, 289.0, 383.0, 644.0, 1019.0, 1558.0, 2809.0, 4866.0, 12170.0, 217020.0, 9521.0, 4567.0, 2451.0, 1527.0, 879.0, 579.0, 367.0, 245.0, 193.0, 107.0, 80.0, 57.0, 38.0, 32.0, 26.0, 16.0, 15.0, 11.0, 7.0, 2.0, 8.0, 4.0, 3.0, 1.0, 2.0, 1.0, 0.0, 1.0, 0.0, 0.0, 1.0, 0.0, 1.0], "bins": [-0.02414870262145996, -0.0233546681702137, -0.02256063185632229, -0.021766597405076027, -0.020972562953829765, -0.020178526639938354, -0.019384492188692093, -0.01859045773744583, -0.01779642328619957, -0.01700238697230816, -0.016208352521061897, -0.015414317138493061, -0.014620281755924225, -0.013826247304677963, -0.013032211922109127, -0.012238177470862865, -0.01144414208829403, -0.010650106705725193, -0.009856072254478931, -0.009062036871910095, -0.008268002420663834, -0.007473966106772423, -0.006679931655526161, -0.0058858972042799, -0.005091860890388489, -0.004297826439142227, -0.0035037919878959656, -0.002709757536649704, -0.0019157212227582932, -0.0011216867715120316, -0.00032765232026576996, 0.00046638399362564087, 0.0012604203075170517, 0.0020544547587633133, 0.002848491072654724, 0.0036425255239009857, 0.004436559975147247, 0.005230596289038658, 0.00602463074028492, 0.006818665191531181, 0.007612699642777443, 0.008406735956668854, 0.009200770407915115, 0.009994804859161377, 0.010788841173052788, 0.01158287562429905, 0.012376911006867886, 0.013170945458114147, 0.013964980840682983, 0.01475901622325182, 0.015553050674498081, 0.016347086057066917, 0.01714112050831318, 0.01793515682220459, 0.01872919127345085, 0.019523225724697113, 0.020317260175943375, 0.021111296489834785, 0.021905330941081047, 0.022699367254972458, 0.02349340170621872, 0.02428743615746498, 0.025081470608711243, 0.025875506922602654, 0.026669541373848915]}, "gradients/graph_1encoder.fc.bias": {"_type": "histogram", "values": [1.0, 0.0, 0.0, 2.0, 0.0, 0.0, 1.0, 0.0, 0.0, 1.0, 2.0, 3.0, 0.0, 3.0, 0.0, 0.0, 2.0, 1.0, 0.0, 4.0, 2.0, 4.0, 1.0, 1.0, 0.0, 5.0, 4.0, 5.0, 5.0, 3.0, 3.0, 6.0, 1.0, 4.0, 3.0, 4.0, 1.0, 6.0, 3.0, 7.0, 6.0, 3.0, 5.0, 2.0, 3.0, 1.0, 2.0, 2.0, 1.0, 3.0, 2.0, 5.0, 0.0, 0.0, 0.0, 0.0, 1.0, 1.0, 1.0, 0.0, 0.0, 1.0, 0.0, 1.0], "bins": [-0.02243124321103096, -0.021764738485217094, -0.02109823189675808, -0.020431727170944214, -0.0197652205824852, -0.019098715856671333, -0.01843220926821232, -0.017765704542398453, -0.017099197953939438, -0.016432693228125572, -0.015766186639666557, -0.015099681913852692, -0.014433176256716251, -0.013766670599579811, -0.01310016494244337, -0.01243365928530693, -0.01176715362817049, -0.01110064797103405, -0.01043414231389761, -0.00976763665676117, -0.00910113099962473, -0.008434625342488289, -0.007768119685351849, -0.007101614028215408, -0.006435109302401543, -0.005768602713942528, -0.005102097988128662, -0.004435591399669647, -0.0037690866738557816, -0.0031025800853967667, -0.002436075359582901, -0.001769568771123886, -0.0011030640453100204, -0.0004365593194961548, 0.0002299472689628601, 0.0008964519947767258, 0.0015629585832357407, 0.0022294633090496063, 0.002895969897508621, 0.003562474623322487, 0.004228981211781502, 0.004895485937595367, 0.005561991594731808, 0.006228497251868248, 0.006895002909004688, 0.0075615085661411285, 0.008228014223277569, 0.008894519880414009, 0.00956102553755045, 0.01022753119468689, 0.01089403685182333, 0.01156054250895977, 0.01222704816609621, 0.01289355382323265, 0.013560058549046516, 0.014226565137505531, 0.014893069863319397, 0.015559576451778412, 0.016226081177592278, 0.016892587766051292, 0.017559092491865158, 0.018225599080324173, 0.01889210380613804, 0.019558610394597054, 0.02022511512041092]}, "gradients/graph_1encoder.fc.weight": {"_type": "histogram", "values": [1.0, 0.0, 0.0, 2.0, 0.0, 0.0, 1.0, 0.0, 1.0, 1.0, 4.0, 3.0, 0.0, 4.0, 1.0, 3.0, 7.0, 9.0, 5.0, 9.0, 8.0, 18.0, 19.0, 21.0, 17.0, 30.0, 51.0, 67.0, 69.0, 146.0, 191.0, 364.0, 1034.0, 23614.0, 1823.0, 519.0, 251.0, 139.0, 109.0, 64.0, 46.0, 27.0, 35.0, 17.0, 13.0, 8.0, 11.0, 10.0, 4.0, 4.0, 4.0, 8.0, 1.0, 0.0, 1.0, 0.0, 2.0, 1.0, 1.0, 0.0, 0.0, 1.0, 0.0, 1.0], "bins": [-0.1351454257965088, -0.13113565742969513, -0.12712587416172028, -0.12311610579490662, -0.11910632997751236, -0.1150965541601181, -0.11108678579330444, -0.10707700997591019, -0.10306723415851593, -0.09905745834112167, -0.09504768252372742, -0.09103791415691376, -0.0870281383395195, -0.08301836252212524, -0.07900859415531158, -0.07499881833791733, -0.07098904252052307, -0.06697926670312881, -0.06296949088573456, -0.0589597225189209, -0.05494994670152664, -0.050940170884132385, -0.046930402517318726, -0.04292062669992447, -0.03891085088253021, -0.034901075065135956, -0.0308912992477417, -0.02688153088092804, -0.022871755063533783, -0.018861979246139526, -0.014852210879325867, -0.01084243506193161, -0.00683264434337616, -0.002822868525981903, 0.0011869072914123535, 0.005196675658226013, 0.00920645147562027, 0.013216227293014526, 0.017225995659828186, 0.021235771477222443, 0.0252455472946167, 0.029255323112010956, 0.03326509892940521, 0.03727486729621887, 0.04128464311361313, 0.045294418931007385, 0.049304187297821045, 0.0533139631152153, 0.05732373893260956, 0.061333514750003815, 0.06534329056739807, 0.06935305893421173, 0.07336283475160599, 0.07737261056900024, 0.0813823789358139, 0.08539215475320816, 0.08940193057060242, 0.09341170638799667, 0.09742148220539093, 0.10143125057220459, 0.10544102638959885, 0.1094508022069931, 0.11346057057380676, 0.11747034639120102, 0.12148012220859528]}, "gradients/graph_1encoder.conv3.bn.weight": {"_type": "histogram", "values": [0.0, 0.0, 0.0, 0.0, 0.0, 0.0, 0.0, 0.0, 0.0, 0.0, 0.0, 0.0, 0.0, 0.0, 0.0, 0.0, 0.0, 0.0, 0.0, 0.0, 0.0, 0.0, 0.0, 0.0, 0.0, 0.0, 0.0, 0.0, 0.0, 0.0, 0.0, 0.0, 1.0, 0.0, 0.0, 0.0, 0.0, 0.0, 0.0, 0.0, 0.0, 0.0, 0.0, 0.0, 0.0, 0.0, 0.0, 0.0, 0.0, 0.0, 0.0, 0.0, 0.0, 0.0, 0.0, 0.0, 0.0, 0.0, 0.0, 0.0, 0.0, 0.0, 0.0, 0.0], "bins": [0.0307186059653759, 0.0307186059653759, 0.0307186059653759, 0.0307186059653759, 0.0307186059653759, 0.0307186059653759, 0.0307186059653759, 0.0307186059653759, 0.0307186059653759, 0.0307186059653759, 0.0307186059653759, 0.0307186059653759, 0.0307186059653759, 0.0307186059653759, 0.0307186059653759, 0.0307186059653759, 0.0307186059653759, 0.0307186059653759, 0.0307186059653759, 0.0307186059653759, 0.0307186059653759, 0.0307186059653759, 0.0307186059653759, 0.0307186059653759, 0.0307186059653759, 0.0307186059653759, 0.0307186059653759, 0.0307186059653759, 0.0307186059653759, 0.0307186059653759, 0.0307186059653759, 0.0307186059653759, 0.0307186059653759, 0.0307186059653759, 0.0307186059653759, 0.0307186059653759, 0.0307186059653759, 0.0307186059653759, 0.0307186059653759, 0.0307186059653759, 0.0307186059653759, 0.0307186059653759, 0.0307186059653759, 0.0307186059653759, 0.0307186059653759, 0.0307186059653759, 0.0307186059653759, 0.0307186059653759, 0.0307186059653759, 0.0307186059653759, 0.0307186059653759, 0.0307186059653759, 0.0307186059653759, 0.0307186059653759, 0.0307186059653759, 0.0307186059653759, 0.0307186059653759, 0.0307186059653759, 0.0307186059653759, 0.0307186059653759, 0.0307186059653759, 0.0307186059653759, 0.0307186059653759, 0.0307186059653759, 0.0307186059653759]}, "gradients/graph_1encoder.conv3.bn.bias": {"_type": "histogram", "values": [0.0, 0.0, 0.0, 0.0, 0.0, 0.0, 0.0, 0.0, 0.0, 0.0, 0.0, 0.0, 0.0, 0.0, 0.0, 0.0, 0.0, 0.0, 0.0, 0.0, 0.0, 0.0, 0.0, 0.0, 0.0, 0.0, 0.0, 0.0, 0.0, 0.0, 0.0, 0.0, 1.0, 0.0, 0.0, 0.0, 0.0, 0.0, 0.0, 0.0, 0.0, 0.0, 0.0, 0.0, 0.0, 0.0, 0.0, 0.0, 0.0, 0.0, 0.0, 0.0, 0.0, 0.0, 0.0, 0.0, 0.0, 0.0, 0.0, 0.0, 0.0, 0.0, 0.0, 0.0], "bins": [-0.046950336545705795, -0.046950336545705795, -0.046950336545705795, -0.046950336545705795, -0.046950336545705795, -0.046950336545705795, -0.046950336545705795, -0.046950336545705795, -0.046950336545705795, -0.046950336545705795, -0.046950336545705795, -0.046950336545705795, -0.046950336545705795, -0.046950336545705795, -0.046950336545705795, -0.046950336545705795, -0.046950336545705795, -0.046950336545705795, -0.046950336545705795, -0.046950336545705795, -0.046950336545705795, -0.046950336545705795, -0.046950336545705795, -0.046950336545705795, -0.046950336545705795, -0.046950336545705795, -0.046950336545705795, -0.046950336545705795, -0.046950336545705795, -0.046950336545705795, -0.046950336545705795, -0.046950336545705795, -0.046950336545705795, -0.046950336545705795, -0.046950336545705795, -0.046950336545705795, -0.046950336545705795, -0.046950336545705795, -0.046950336545705795, -0.046950336545705795, -0.046950336545705795, -0.046950336545705795, -0.046950336545705795, -0.046950336545705795, -0.046950336545705795, -0.046950336545705795, -0.046950336545705795, -0.046950336545705795, -0.046950336545705795, -0.046950336545705795, -0.046950336545705795, -0.046950336545705795, -0.046950336545705795, -0.046950336545705795, -0.046950336545705795, -0.046950336545705795, -0.046950336545705795, -0.046950336545705795, -0.046950336545705795, -0.046950336545705795, -0.046950336545705795, -0.046950336545705795, -0.046950336545705795, -0.046950336545705795, -0.046950336545705795]}, "gradients/graph_1encoder.conv3.conv.weight": {"_type": "histogram", "values": [1.0, 0.0, 0.0, 0.0, 0.0, 1.0, 0.0, 1.0, 0.0, 0.0, 0.0, 0.0, 0.0, 0.0, 2.0, 0.0, 2.0, 0.0, 1.0, 1.0, 3.0, 1.0, 4.0, 3.0, 2.0, 4.0, 3.0, 4.0, 7.0, 4.0, 5.0, 3.0, 2.0, 1.0, 5.0, 0.0, 0.0, 1.0, 0.0, 1.0, 0.0, 1.0, 0.0, 0.0, 0.0, 0.0, 0.0, 0.0, 0.0, 0.0, 0.0, 0.0, 0.0, 0.0, 0.0, 0.0, 0.0, 0.0, 0.0, 0.0, 0.0, 0.0, 0.0, 1.0], "bins": [-0.29898661375045776, -0.2879449427127838, -0.27690327167510986, -0.2658616006374359, -0.25481992959976196, -0.243778258562088, -0.23273658752441406, -0.2216949164867401, -0.21065324544906616, -0.1996115744113922, -0.18856990337371826, -0.1775282323360443, -0.16648657619953156, -0.1554449051618576, -0.14440323412418365, -0.1333615630865097, -0.12231989204883575, -0.1112782210111618, -0.10023654997348785, -0.0891948789358139, -0.07815320789813995, -0.067111536860466, -0.05606986582279205, -0.0450282096862793, -0.03398653864860535, -0.022944867610931396, -0.011903196573257446, -0.0008615255355834961, 0.010180145502090454, 0.021221816539764404, 0.032263487577438354, 0.043305158615112305, 0.054346829652786255, 0.0653885006904602, 0.07643017172813416, 0.0874718427658081, 0.09851351380348206, 0.109555184841156, 0.12059685587882996, 0.1316385269165039, 0.14268019795417786, 0.1537218689918518, 0.16476352512836456, 0.1758051961660385, 0.18684686720371246, 0.1978885382413864, 0.20893020927906036, 0.21997188031673431, 0.23101355135440826, 0.24205522239208221, 0.25309687852859497, 0.2641385793685913, 0.27518022060394287, 0.2862218916416168, 0.29726356267929077, 0.3083052337169647, 0.31934690475463867, 0.3303885757923126, 0.3414302468299866, 0.3524719178676605, 0.3635135889053345, 0.3745552599430084, 0.3855969309806824, 0.3966386020183563, 0.4076802730560303]}, "gradients/graph_1encoder.conv3.conv.bias": {"_type": "histogram", "values": [0.0, 0.0, 0.0, 0.0, 0.0, 0.0, 0.0, 0.0, 0.0, 0.0, 0.0, 0.0, 0.0, 0.0, 0.0, 0.0, 0.0, 0.0, 0.0, 0.0, 0.0, 0.0, 0.0, 0.0, 0.0, 0.0, 0.0, 0.0, 0.0, 0.0, 0.0, 0.0, 1.0, 0.0, 0.0, 0.0, 0.0, 0.0, 0.0, 0.0, 0.0, 0.0, 0.0, 0.0, 0.0, 0.0, 0.0, 0.0, 0.0, 0.0, 0.0, 0.0, 0.0, 0.0, 0.0, 0.0, 0.0, 0.0, 0.0, 0.0, 0.0, 0.0, 0.0, 0.0], "bins": [-5.587935447692871e-09, -5.587935447692871e-09, -5.587935447692871e-09, -5.587935447692871e-09, -5.587935447692871e-09, -5.587935447692871e-09, -5.587935447692871e-09, -5.587935447692871e-09, -5.587935447692871e-09, -5.587935447692871e-09, -5.587935447692871e-09, -5.587935447692871e-09, -5.587935447692871e-09, -5.587935447692871e-09, -5.587935447692871e-09, -5.587935447692871e-09, -5.587935447692871e-09, -5.587935447692871e-09, -5.587935447692871e-09, -5.587935447692871e-09, -5.587935447692871e-09, -5.587935447692871e-09, -5.587935447692871e-09, -5.587935447692871e-09, -5.587935447692871e-09, -5.587935447692871e-09, -5.587935447692871e-09, -5.587935447692871e-09, -5.587935447692871e-09, -5.587935447692871e-09, -5.587935447692871e-09, -5.587935447692871e-09, -5.587935447692871e-09, -5.587935447692871e-09, -5.587935447692871e-09, -5.587935447692871e-09, -5.587935447692871e-09, -5.587935447692871e-09, -5.587935447692871e-09, -5.587935447692871e-09, -5.587935447692871e-09, -5.587935447692871e-09, -5.587935447692871e-09, -5.587935447692871e-09, -5.587935447692871e-09, -5.587935447692871e-09, -5.587935447692871e-09, -5.587935447692871e-09, -5.587935447692871e-09, -5.587935447692871e-09, -5.587935447692871e-09, -5.587935447692871e-09, -5.587935447692871e-09, -5.587935447692871e-09, -5.587935447692871e-09, -5.587935447692871e-09, -5.587935447692871e-09, -5.587935447692871e-09, -5.587935447692871e-09, -5.587935447692871e-09, -5.587935447692871e-09, -5.587935447692871e-09, -5.587935447692871e-09, -5.587935447692871e-09, -5.587935447692871e-09]}, "gradients/graph_1encoder.conv2.bn.weight": {"_type": "histogram", "values": [1.0, 0.0, 0.0, 0.0, 0.0, 0.0, 0.0, 0.0, 0.0, 0.0, 0.0, 0.0, 0.0, 0.0, 0.0, 0.0, 0.0, 0.0, 0.0, 0.0, 0.0, 0.0, 1.0, 0.0, 0.0, 0.0, 0.0, 0.0, 0.0, 1.0, 0.0, 0.0, 0.0, 0.0, 0.0, 1.0, 0.0, 0.0, 1.0, 0.0, 0.0, 0.0, 2.0, 0.0, 1.0, 1.0, 1.0, 0.0, 0.0, 0.0, 0.0, 0.0, 0.0, 0.0, 1.0, 2.0, 0.0, 0.0, 1.0, 0.0, 0.0, 1.0, 0.0, 1.0], "bins": [-0.032936520874500275, -0.03217927739024162, -0.03142203390598297, -0.03066479228436947, -0.029907548800110817, -0.029150307178497314, -0.028393063694238663, -0.02763582020998001, -0.02687857672572136, -0.026121335104107857, -0.025364091619849205, -0.024606849998235703, -0.02384960651397705, -0.0230923630297184, -0.022335119545459747, -0.021577876061201096, -0.020820634439587593, -0.02006339281797409, -0.01930614933371544, -0.018548905849456787, -0.017791662365198135, -0.017034420743584633, -0.01627717725932598, -0.01551993377506733, -0.014762692153453827, -0.014005448669195175, -0.013248205184936523, -0.012490961700677872, -0.01173372007906437, -0.010976476594805717, -0.010219233110547066, -0.009461991488933563, -0.008704748935997486, -0.007947505451738834, -0.007190263830125332, -0.00643302034586668, -0.005675776861608028, -0.004918535239994526, -0.004161291755735874, -0.0034040482714772224, -0.0026468047872185707, -0.0018895631656050682, -0.0011323196813464165, -0.00037507619708776474, 0.00038216542452573776, 0.0011394089087843895, 0.0018966514617204666, 0.0026538949459791183, 0.0034111374989151955, 0.004168380051851273, 0.004925623536109924, 0.0056828660890460014, 0.006440109573304653, 0.00719735212624073, 0.007954594679176807, 0.008711837232112885, 0.009469080716371536, 0.010226324200630188, 0.010983566753566265, 0.011740809306502342, 0.012498052790760994, 0.013255295343697071, 0.014012537896633148, 0.0147697813808918, 0.015527023933827877]}, "gradients/graph_1encoder.conv2.bn.bias": {"_type": "histogram", "values": [1.0, 0.0, 0.0, 0.0, 0.0, 0.0, 0.0, 0.0, 0.0, 0.0, 0.0, 0.0, 0.0, 0.0, 0.0, 0.0, 0.0, 0.0, 0.0, 0.0, 0.0, 0.0, 0.0, 0.0, 0.0, 0.0, 0.0, 0.0, 1.0, 0.0, 0.0, 0.0, 0.0, 0.0, 1.0, 0.0, 0.0, 0.0, 1.0, 1.0, 0.0, 2.0, 1.0, 0.0, 0.0, 0.0, 0.0, 0.0, 0.0, 1.0, 1.0, 1.0, 1.0, 1.0, 0.0, 0.0, 0.0, 1.0, 1.0, 0.0, 0.0, 0.0, 0.0, 1.0], "bins": [-0.023594440892338753, -0.023071572184562683, -0.022548703476786613, -0.022025834769010544, -0.021502964198589325, -0.020980095490813255, -0.020457226783037186, -0.019934358075261116, -0.019411489367485046, -0.018888620659708977, -0.018365751951932907, -0.017842881381511688, -0.017320014536380768, -0.01679714396595955, -0.01627427525818348, -0.01575140655040741, -0.01522853784263134, -0.01470566913485527, -0.0141828004270792, -0.013659930787980556, -0.013137062080204487, -0.012614193372428417, -0.012091323733329773, -0.011568455025553703, -0.011045586317777634, -0.010522717610001564, -0.009999848902225494, -0.00947697926312685, -0.00895411055535078, -0.00843124184757471, -0.007908372208476067, -0.007385503500699997, -0.006862635724246502, -0.006339767016470432, -0.005816898308694363, -0.005294028669595718, -0.004771159961819649, -0.004248291254043579, -0.003725421614944935, -0.003202552907168865, -0.0026796841993927956, -0.002156815491616726, -0.0016339467838406563, -0.001111077144742012, -0.0005882084369659424, -6.533972918987274e-05, 0.0004575299099087715, 0.0009803986176848412, 0.0015032673254609108, 0.0020261360332369804, 0.0025490052066743374, 0.0030718743801116943, 0.003594743087887764, 0.004117611795663834, 0.004640480969101191, 0.0051633501425385475, 0.005686218850314617, 0.006209087558090687, 0.006731956731528044, 0.007254825904965401, 0.00777769461274147, 0.00830056332051754, 0.00882343202829361, 0.009346301667392254, 0.009869170375168324]}, "gradients/graph_1encoder.conv2.conv.weight": {"_type": "histogram", "values": [1.0, 0.0, 0.0, 0.0, 1.0, 0.0, 0.0, 0.0, 0.0, 0.0, 1.0, 0.0, 2.0, 3.0, 2.0, 3.0, 2.0, 7.0, 10.0, 9.0, 9.0, 10.0, 18.0, 30.0, 47.0, 53.0, 77.0, 124.0, 165.0, 385.0, 439.0, 197.0, 118.0, 57.0, 62.0, 42.0, 29.0, 29.0, 28.0, 17.0, 19.0, 8.0, 3.0, 9.0, 5.0, 4.0, 5.0, 1.0, 6.0, 5.0, 1.0, 2.0, 0.0, 1.0, 0.0, 1.0, 0.0, 0.0, 0.0, 0.0, 0.0, 0.0, 0.0, 1.0], "bins": [-0.17702451348304749, -0.17116177082061768, -0.16529902815818787, -0.15943628549575806, -0.15357354283332825, -0.14771080017089844, -0.14184805750846863, -0.13598531484603882, -0.130122572183609, -0.1242598220705986, -0.11839707940816879, -0.11253433674573898, -0.10667158663272858, -0.10080884397029877, -0.09494610130786896, -0.08908335864543915, -0.08322061598300934, -0.07735787332057953, -0.07149513065814972, -0.06563238799571991, -0.0597696453332901, -0.053906895220279694, -0.04804416000843048, -0.04218141734600067, -0.03631865978240967, -0.03045591711997986, -0.02459317445755005, -0.01873043179512024, -0.01286768913269043, -0.00700494647026062, -0.0011422038078308105, 0.004720538854598999, 0.010583266615867615, 0.016446009278297424, 0.022308751940727234, 0.028171494603157043, 0.03403423726558685, 0.03989697992801666, 0.04575972259044647, 0.05162246525287628, 0.05748520791530609, 0.0633479654788971, 0.0692107081413269, 0.07507344335317612, 0.08093619346618652, 0.08679893612861633, 0.09266167879104614, 0.09852442145347595, 0.10438716411590576, 0.11024990677833557, 0.11611264944076538, 0.12197539210319519, 0.127838134765625, 0.1337008774280548, 0.13956362009048462, 0.14542636275291443, 0.15128910541534424, 0.15715184807777405, 0.16301459074020386, 0.16887734830379486, 0.17474009096622467, 0.18060283362865448, 0.1864655762910843, 0.1923283189535141, 0.1981910616159439]}, "gradients/graph_1encoder.conv2.conv.bias": {"_type": "histogram", "values": [1.0, 0.0, 0.0, 0.0, 0.0, 0.0, 0.0, 1.0, 0.0, 1.0, 2.0, 1.0, 0.0, 1.0, 0.0, 0.0, 0.0, 1.0, 0.0, 1.0, 0.0, 1.0, 1.0, 0.0, 0.0, 0.0, 0.0, 1.0, 0.0, 0.0, 0.0, 0.0, 1.0, 1.0, 0.0, 0.0, 0.0, 0.0, 0.0, 0.0, 0.0, 0.0, 0.0, 0.0, 0.0, 0.0, 0.0, 0.0, 0.0, 0.0, 0.0, 0.0, 0.0, 0.0, 0.0, 0.0, 1.0, 0.0, 0.0, 0.0, 0.0, 0.0, 0.0, 1.0], "bins": [-3.958120942115784e-09, -3.7107383832335472e-09, -3.4633558243513107e-09, -3.2159732654690742e-09, -2.9685907065868378e-09, -2.7212081477046013e-09, -2.473825588822365e-09, -2.2264430299401283e-09, -1.979060471057892e-09, -1.7316779121756554e-09, -1.4842953532934189e-09, -1.2369127944111824e-09, -9.89530235528946e-10, -7.421476766467094e-10, -4.94765117764473e-10, -2.473825588822365e-10, 0.0, 2.473825588822365e-10, 4.94765117764473e-10, 7.421476766467094e-10, 9.89530235528946e-10, 1.2369127944111824e-09, 1.4842953532934189e-09, 1.7316779121756554e-09, 1.979060471057892e-09, 2.2264430299401283e-09, 2.473825588822365e-09, 2.7212081477046013e-09, 2.9685907065868378e-09, 3.2159732654690742e-09, 3.4633558243513107e-09, 3.7107383832335472e-09, 3.958120942115784e-09, 4.20550350099802e-09, 4.452886059880257e-09, 4.700268618762493e-09, 4.94765117764473e-09, 5.195033736526966e-09, 5.4424162954092026e-09, 5.689798854291439e-09, 5.9371814131736755e-09, 6.184563972055912e-09, 6.4319465309381485e-09, 6.679329089820385e-09, 6.9267116487026215e-09, 7.174094207584858e-09, 7.4214767664670944e-09, 7.668859325349331e-09, 7.916241884231567e-09, 8.163624443113804e-09, 8.41100700199604e-09, 8.658389560878277e-09, 8.905772119760513e-09, 9.15315467864275e-09, 9.400537237524986e-09, 9.647919796407223e-09, 9.89530235528946e-09, 1.0142684914171696e-08, 1.0390067473053932e-08, 1.0637450031936169e-08, 1.0884832590818405e-08, 1.1132215149700642e-08, 1.1379597708582878e-08, 1.1626980267465115e-08, 1.1874362826347351e-08]}, "gradients/graph_1encoder.conv1.bn.weight": {"_type": "histogram", "values": [1.0, 0.0, 0.0, 0.0, 1.0, 0.0, 0.0, 0.0, 0.0, 1.0, 0.0, 0.0, 1.0, 1.0, 0.0, 0.0, 0.0, 2.0, 3.0, 3.0, 0.0, 0.0, 2.0, 1.0, 1.0, 3.0, 3.0, 0.0, 3.0, 1.0, 0.0, 0.0, 1.0, 0.0, 0.0, 1.0, 0.0, 0.0, 0.0, 0.0, 0.0, 0.0, 1.0, 1.0, 0.0, 0.0, 0.0, 0.0, 0.0, 0.0, 0.0, 0.0, 0.0, 0.0, 0.0, 0.0, 0.0, 0.0, 0.0, 0.0, 0.0, 0.0, 0.0, 1.0], "bins": [-0.02167118526995182, -0.020770439878106117, -0.019869696348905563, -0.01896895095705986, -0.018068205565214157, -0.017167462036013603, -0.0162667166441679, -0.015365972183644772, -0.014465227723121643, -0.013564483262598515, -0.012663738802075386, -0.011762993410229683, -0.010862248949706554, -0.009961504489183426, -0.009060759097337723, -0.008160014636814594, -0.007259270176291466, -0.006358525715768337, -0.005457781255245209, -0.004557035863399506, -0.0036562923341989517, -0.0027555469423532486, -0.0018548015505075455, -0.0009540580213069916, -5.331262946128845e-05, 0.0008474327623844147, 0.0017481762915849686, 0.0026489216834306717, 0.003549667075276375, 0.004450410604476929, 0.005351155996322632, 0.006251899525523186, 0.007152646780014038, 0.008053392171859741, 0.008954135701060295, 0.009854881092905998, 0.010755624622106552, 0.011656370013952255, 0.012557115405797958, 0.013457858934998512, 0.014358604326844215, 0.015259349718689919, 0.016160093247890472, 0.017060838639736176, 0.01796158403158188, 0.018862327560782433, 0.019763072952628136, 0.02066381648182869, 0.021564561873674393, 0.022465307265520096, 0.02336605079472065, 0.024266796186566353, 0.025167539715766907, 0.02606828510761261, 0.026969030499458313, 0.027869775891304016, 0.02877051942050457, 0.029671262949705124, 0.030572008341550827, 0.03147275373339653, 0.03237349912524223, 0.033274244517087936, 0.03417498618364334, 0.035075731575489044, 0.03597647696733475]}, "gradients/graph_1encoder.conv1.bn.bias": {"_type": "histogram", "values": [1.0, 1.0, 0.0, 1.0, 1.0, 0.0, 0.0, 1.0, 0.0, 0.0, 2.0, 0.0, 0.0, 0.0, 2.0, 1.0, 2.0, 1.0, 1.0, 1.0, 1.0, 0.0, 0.0, 1.0, 0.0, 1.0, 1.0, 2.0, 1.0, 0.0, 0.0, 0.0, 3.0, 1.0, 1.0, 2.0, 0.0, 0.0, 0.0, 0.0, 0.0, 0.0, 2.0, 0.0, 0.0, 0.0, 0.0, 0.0, 0.0, 0.0, 0.0, 0.0, 0.0, 0.0, 0.0, 0.0, 0.0, 0.0, 0.0, 0.0, 0.0, 0.0, 0.0, 1.0], "bins": [-0.011449847370386124, -0.010953608900308609, -0.010457370430231094, -0.00996113196015358, -0.00946489442139864, -0.008968655951321125, -0.00847241748124361, -0.007976179011166096, -0.007479941006749868, -0.006983702536672354, -0.006487464532256126, -0.005991226062178612, -0.005494987592101097, -0.00499874958768487, -0.004502511117607355, -0.004006273113191128, -0.003510034643113613, -0.0030137961730360985, -0.002517557702958584, -0.002021320164203644, -0.0015250816941261292, -0.0010288432240486145, -0.0005326047539710999, -3.6366283893585205e-05, 0.00045987218618392944, 0.0009561097249388695, 0.0014523481950163841, 0.0019485866650938988, 0.0024448251351714134, 0.002941063605248928, 0.003437301144003868, 0.003933539614081383, 0.004429778084158897, 0.004926016554236412, 0.005422255024313927, 0.005918492563068867, 0.006414731033146381, 0.006910969503223896, 0.007407207973301411, 0.007903446443378925, 0.008399683982133865, 0.00889592245221138, 0.009392160922288895, 0.00988839939236641, 0.010384637862443924, 0.010880876332521439, 0.011377113871276379, 0.011873352341353893, 0.012369590811431408, 0.012865829281508923, 0.013362066820263863, 0.013858305290341377, 0.014354543760418892, 0.014850782230496407, 0.015347020700573921, 0.015843259170651436, 0.01633949764072895, 0.016835736110806465, 0.01733197271823883, 0.017828211188316345, 0.01832444965839386, 0.018820688128471375, 0.01931692659854889, 0.019813165068626404, 0.02030940353870392]}, "gradients/graph_1encoder.conv1.conv.weight": {"_type": "histogram", "values": [1.0, 0.0, 1.0, 1.0, 1.0, 1.0, 1.0, 1.0, 1.0, 1.0, 4.0, 8.0, 5.0, 4.0, 2.0, 10.0, 10.0, 13.0, 14.0, 22.0, 24.0, 22.0, 23.0, 18.0, 39.0, 35.0, 36.0, 50.0, 69.0, 79.0, 75.0, 69.0, 100.0, 141.0, 177.0, 239.0, 155.0, 108.0, 106.0, 66.0, 92.0, 56.0, 49.0, 29.0, 24.0, 10.0, 11.0, 7.0, 8.0, 5.0, 6.0, 5.0, 3.0, 0.0, 2.0, 2.0, 1.0, 1.0, 0.0, 2.0, 0.0, 2.0, 0.0, 1.0], "bins": [-0.10023757815361023, -0.0974072515964508, -0.09457692503929138, -0.09174659848213196, -0.08891627192497253, -0.08608594536781311, -0.08325561881065369, -0.08042529225349426, -0.07759496569633484, -0.07476463913917542, -0.07193431258201599, -0.06910398602485657, -0.06627365946769714, -0.06344333291053772, -0.060613006353378296, -0.05778267979621887, -0.05495235323905945, -0.052122026681900024, -0.0492917001247406, -0.04646137356758118, -0.04363104701042175, -0.04080072045326233, -0.037970393896102905, -0.03514006733894348, -0.03230974078178406, -0.029479414224624634, -0.02664908766746521, -0.023818761110305786, -0.020988434553146362, -0.01815810799598694, -0.015327781438827515, -0.01249745488166809, -0.00966712087392807, -0.006836794316768646, -0.004006467759609222, -0.0011761412024497986, 0.0016541853547096252, 0.004484511911869049, 0.007314838469028473, 0.010145165026187897, 0.01297549158334732, 0.015805818140506744, 0.018636144697666168, 0.021466471254825592, 0.024296797811985016, 0.02712712436914444, 0.029957450926303864, 0.03278777748346329, 0.03561810404062271, 0.038448430597782135, 0.04127875715494156, 0.04410908371210098, 0.046939410269260406, 0.04976973682641983, 0.052600063383579254, 0.05543038994073868, 0.0582607164978981, 0.061091043055057526, 0.06392136961221695, 0.06675169616937637, 0.0695820227265358, 0.07241234928369522, 0.07524267584085464, 0.07807300239801407, 0.08090332895517349]}, "gradients/graph_1encoder.conv1.conv.bias": {"_type": "histogram", "values": [1.0, 0.0, 2.0, 0.0, 1.0, 0.0, 0.0, 1.0, 0.0, 1.0, 1.0, 1.0, 0.0, 1.0, 0.0, 0.0, 1.0, 0.0, 1.0, 0.0, 2.0, 1.0, 1.0, 0.0, 2.0, 2.0, 2.0, 1.0, 0.0, 2.0, 1.0, 0.0, 1.0, 0.0, 0.0, 2.0, 0.0, 1.0, 0.0, 0.0, 1.0, 0.0, 0.0, 0.0, 0.0, 0.0, 0.0, 0.0, 0.0, 0.0, 0.0, 0.0, 0.0, 0.0, 0.0, 0.0, 0.0, 0.0, 0.0, 1.0, 0.0, 0.0, 0.0, 1.0], "bins": [-1.8189894035458565e-10, -1.7314505385002121e-10, -1.6439116734545678e-10, -1.5563728084089234e-10, -1.468833943363279e-10, -1.3812950783176348e-10, -1.2937562132719904e-10, -1.206217348226346e-10, -1.1186784831807017e-10, -1.0311396181350574e-10, -9.43600753089413e-11, -8.560618880437687e-11, -7.685230229981244e-11, -6.8098415795248e-11, -5.934452929068357e-11, -5.0590642786119133e-11, -4.18367562815547e-11, -3.3082869776990265e-11, -2.432898327242583e-11, -1.5575096767861396e-11, -6.821210263296962e-12, 1.9326762412674725e-12, 1.0686562745831907e-11, 1.944044925039634e-11, 2.8194335754960775e-11, 3.694822225952521e-11, 4.5702108764089644e-11, 5.445599526865408e-11, 6.320988177321851e-11, 7.196376827778295e-11, 8.071765478234738e-11, 8.947154128691182e-11, 9.822542779147625e-11, 1.0697931429604068e-10, 1.1573320080060512e-10, 1.2448708730516955e-10, 1.3324097380973399e-10, 1.4199486031429842e-10, 1.5074874681886286e-10, 1.595026333234273e-10, 1.6825651982799172e-10, 1.7701040633255616e-10, 1.857642928371206e-10, 1.9451817934168503e-10, 2.0327206584624946e-10, 2.120259523508139e-10, 2.2077983885537833e-10, 2.2953372535994276e-10, 2.382876118645072e-10, 2.4704149836907163e-10, 2.5579538487363607e-10, 2.645492713782005e-10, 2.7330315788276494e-10, 2.8205704438732937e-10, 2.908109308918938e-10, 2.9956481739645824e-10, 3.0831870390102267e-10, 3.170725904055871e-10, 3.2582647691015154e-10, 3.34580363414716e-10, 3.433342499192804e-10, 3.5208813642384484e-10, 3.608420229284093e-10, 3.695959094329737e-10, 3.7834979593753815e-10]}, "_wandb": {"runtime": 116}}